[{"weight": [[-0.9854345321655273, 1.756032109260559], [0.04863082617521286, 3.1675422191619873], [-2.1390092372894287, -1.9989343881607056], [-1.2488950490951538, 2.192852258682251], [0.6376676559448242, -0.7923575043678284], [0.842520534992218, -1.0687954425811768], [-0.9085186123847961, -2.3868236541748047], [-1.1209754943847656, 2.5329413414001465], [-2.11362886428833, 1.9397844076156616], [-0.279875785112381, -1.3625154495239258], [0.4789852201938629, -1.343120813369751], [0.4355573356151581, 1.4145731925964355], [-0.7706763744354248, 2.894426107406616], [-1.8777799606323242, 0.16272035241127014], [0.41952264308929443, -0.9242961406707764], [-0.37569743394851685, -2.4871299266815186], [1.0566340684890747, -0.6468825936317444], [0.8226871490478516, -0.7078220844268799], [-1.4604700803756714, 0.5577713251113892], [-0.4537549316883087, -2.9892849922180176], [-0.025200005620718002, -0.414018839597702], [-1.5536527633666992, 1.9641627073287964], [-0.034710176289081573, -1.1383013725280762], [0.9300161004066467, -0.6428447961807251], [0.6359674334526062, -1.248258113861084], [1.2606523036956787, 2.19266939163208], [-1.6210274696350098, 0.2751289904117584], [-0.2293217033147812, -0.46136170625686646], [-1.7838797569274902, 0.7986775636672974], [0.1530415117740631, -0.2894265353679657], [0.6524893641471863, -0.831973671913147], [-2.0886385440826416, 2.0658135414123535], [1.1479781866073608, 1.8836374282836914], [1.4272195100784302, 1.3008484840393066], [0.8198025822639465, -0.43939343094825745], [-1.1535258293151855, 2.523439884185791], [0.1275406777858734, -1.5019134283065796], [0.24745510518550873, -1.1351392269134521], [-1.456611156463623, -0.044910628348588943], [1.1211084127426147, 0.9687491059303284], [-0.11477193981409073, -0.14784233272075653], [0.7116748690605164, -0.8754684925079346], [0.16941934823989868, -1.4779438972473145], [0.10245205461978912, 0.13902735710144043], [-1.9212206602096558, -0.34035181999206543], [0.47553741931915283, -0.9312019944190979], [0.8364499807357788, 1.7272980213165283], [0.35071417689323425, -0.9706317782402039], [-1.910152792930603, 1.8719992637634277], [0.7195510268211365, -1.2081187963485718], [0.7999955415725708, -1.1392507553100586], [0.07031721621751785, 2.0671744346618652], [0.7097538113594055, -1.4505828619003296], [0.7033276557922363, -1.4213082790374756], [-1.4621858596801758, 0.9981344938278198], [2.7034332752227783, 1.1238040924072266], [0.5990421772003174, -0.9610721468925476], [-0.7489036917686462, 3.4006216526031494], [-0.7556782960891724, 0.9482823014259338], [1.1487410068511963, -0.2283807247877121], [0.25790876150131226, -1.4493494033813477], [-1.4281946420669556, 2.1745707988739014], [0.4612250030040741, -1.292300820350647], [1.196277379989624, 1.7421966791152954], [-1.1399320363998413, 2.7588589191436768], [-1.6898428201675415, -0.5754467844963074], [-2.383392095565796, -2.3668088912963867], [0.6110305190086365, -0.8210741877555847], [0.9176369905471802, -0.49367693066596985], [-0.9444326758384705, 0.5583606958389282], [0.8502801060676575, -0.9566128849983215], [0.6318369507789612, -1.4089913368225098], [0.5465502142906189, 0.6467189788818359], [-0.5353307723999023, -0.7179116606712341], [0.32570376992225647, 2.091569185256958], [1.450104832649231, 1.8258668184280396], [-1.5161088705062866, 2.158231496810913], [0.1299615353345871, -1.9731836318969727], [-1.1803996562957764, 2.4036519527435303], [0.7698065042495728, -0.7853954434394836], [1.1478791236877441, 1.8035423755645752], [0.5413882732391357, -0.040894441306591034], [0.18501123785972595, -0.45768025517463684], [0.708143413066864, -0.9042205810546875], [-0.1703193187713623, -1.3200652599334717], [0.7035040259361267, -1.4685465097427368], [-1.8440241813659668, -0.11132174730300903], [-0.37405967712402344, -0.8127482533454895], [-2.298600435256958, -1.620033621788025], [0.05366121232509613, -0.8181235790252686], [0.7105289101600647, -1.1864769458770752], [-0.20998609066009521, -1.7948229312896729], [-1.0687206983566284, 2.3627212047576904], [0.24483588337898254, -1.395904541015625], [-1.4045499563217163, 2.3022806644439697], [-2.7853856086730957, -2.219939708709717], [-1.5614209175109863, 1.2583204507827759], [0.7867331504821777, -0.7523861527442932], [0.40352752804756165, -1.6829932928085327], [1.6683388948440552, 0.6478855013847351], [0.7749760746955872, -1.3242684602737427], [0.8370888829231262, 0.5667207837104797], [-1.5333632230758667, 1.5733510255813599], [-0.8991488814353943, 2.5226097106933594], [1.2890121936798096, 1.5050084590911865], [0.1344500482082367, -0.9089205265045166], [2.486201047897339, 1.4632863998413086], [-1.3126500844955444, 1.0275450944900513], [-1.4746651649475098, -0.48943763971328735], [-1.6210752725601196, 2.1842362880706787], [-0.1480737328529358, 3.1110658645629883], [-0.03903622552752495, -0.6277250051498413], [1.3047492504119873, -0.12380019575357437], [-0.021807413548231125, -0.7206910252571106], [0.3036510944366455, -0.8495718240737915], [-1.5390918254852295, 0.15502582490444183], [0.4030161201953888, -0.14402621984481812], [0.6182848811149597, -1.1331532001495361], [-0.34358134865760803, -1.3721249103546143], [1.4056800603866577, 1.7846906185150146], [0.3725608289241791, -0.9527036547660828], [0.7134344577789307, -0.5484809875488281], [-1.6102960109710693, 1.2232059240341187], [0.7121347784996033, -1.4317820072174072], [0.6689583659172058, -0.9069375991821289], [0.6829277276992798, -1.1819229125976562], [-1.594728946685791, 1.4571925401687622], [-0.4391247034072876, -2.273305892944336]], "bias": [0.8832641839981079, 1.087379813194275, 0.6131538152694702, -0.15431691706180573, 1.1486741304397583, 1.603298544883728, 0.8556747436523438, 0.7172008156776428, -0.37810930609703064, 0.5960013270378113, 0.6867391467094421, 1.648902177810669, 0.46676501631736755, 0.6177203059196472, 1.0851120948791504, 0.3331076502799988, 0.8349709510803223, 1.1674998998641968, 0.19900639355182648, 0.3510059416294098, 0.5700470209121704, 0.18170934915542603, 0.32340431213378906, 0.8096274137496948, 0.6997251510620117, 1.145948886871338, 0.45944252610206604, 1.2673536539077759, -0.37298673391342163, 0.5525400042533875, 1.136878252029419, -0.4106563627719879, 0.2210080623626709, 1.6940035820007324, 0.8685799837112427, 0.356440931558609, 0.38431239128112793, 1.0470372438430786, 1.124398112297058, 1.5216103792190552, 0.9571121335029602, 1.6303424835205078, 0.8539966344833374, 0.14365388453006744, -0.28775322437286377, 1.0415107011795044, 1.15029776096344, 0.8063951730728149, -0.05321169272065163, 1.1324936151504517, 1.1967185735702515, 0.33663302659988403, 0.3666204810142517, 0.6094744801521301, 0.34049323201179504, 0.03996548801660538, 1.1892800331115723, 0.914613664150238, 1.0794087648391724, 0.6674127578735352, 0.17269618809223175, 0.5624455809593201, 0.6254444718360901, 1.5028319358825684, 0.8909198641777039, -0.27112042903900146, 1.1711117029190063, 1.013222098350525, 0.7946398258209229, 0.9729952812194824, 0.7023506760597229, 0.3646008372306824, 1.3340977430343628, 1.5159879922866821, -0.031302545219659805, 1.3785688877105713, 0.22934803366661072, 0.632460355758667, 0.802715539932251, 1.3011161088943481, -0.25582364201545715, 1.2115917205810547, 0.5314919352531433, 0.9060143828392029, 1.1225614547729492, 0.46251213550567627, -0.1760011464357376, 1.1068445444107056, 0.45178771018981934, 1.0080682039260864, 1.4409099817276, 0.32054218649864197, -0.2296997308731079, 0.02000962756574154, 0.12602022290229797, 0.593018114566803, -0.3741799294948578, 0.753943681716919, 0.6288633346557617, 1.0578535795211792, 1.3167732954025269, 0.84664386510849, -0.03390656039118767, 0.2819254994392395, 2.1526308059692383, 0.29702335596084595, -0.09595422446727753, -0.11092296242713928, 1.4459478855133057, 0.2246062308549881, 1.0702881813049316, 0.47685709595680237, 0.7041482925415039, 0.14960865676403046, 0.4027169644832611, 0.7477124929428101, 0.628150999546051, 0.48795896768569946, 0.58282470703125, 1.373964548110962, 0.8404488563537598, 1.0592588186264038, 0.7198805212974548, 0.9590256810188293, 1.3617435693740845, 0.8217738270759583, 0.3528999090194702, 0.5308548808097839]}, {"weight": [[-0.018083008006215096, 0.0010894909501075745, -0.10495748370885849, -0.15504257380962372, -0.06709427386522293, 0.053038787096738815, -0.09245485067367554, -0.031114719808101654, -0.18203289806842804, -0.014574484899640083, -0.03579232841730118, 0.007688192185014486, 0.0457393154501915, 0.06981529295444489, 0.05653680860996246, 0.03916794806718826, -0.07741845399141312, 0.04706927016377449, 0.03391125053167343, -0.022869987413287163, -0.02357747033238411, -0.07731368392705917, 0.08269195258617401, -0.08761927485466003, -0.0003342641284689307, -0.047567207366228104, 0.06571338325738907, -0.023965582251548767, 0.024167606607079506, 0.059053897857666016, -0.0360167920589447, -0.10062992572784424, -0.09788251668214798, -0.16071675717830658, -0.00540599599480629, -0.02120772935450077, -0.05799734219908714, 0.031218066811561584, -0.05509680137038231, -0.010093744844198227, 0.0935993567109108, -0.04454111307859421, -0.060344796627759933, 0.00620277738198638, -0.048530757427215576, -0.07350143790245056, 0.023051921278238297, 0.0023546884767711163, -0.03659079968929291, -0.05351579934358597, -0.05704853683710098, 0.043240346014499664, -0.04144790396094322, -0.04608587175607681, 0.05080723389983177, -0.15686415135860443, 0.06191103905439377, -0.061450518667697906, 0.008505859412252903, 0.017472635954618454, -0.059717632830142975, 0.0640811026096344, 0.0408661812543869, 0.00032523926347494125, -0.08279678970575333, 0.01820916309952736, 0.06851928681135178, -0.0034674920607358217, 0.036229297518730164, 0.070645272731781, -0.08097994327545166, -0.11341138184070587, 0.01618642918765545, 0.02673433907330036, -0.04553140699863434, -0.036311469972133636, 0.00473278621211648, -0.0204263124614954, 0.01691397838294506, -0.018033403903245926, -0.007644533645361662, -0.017712971195578575, 0.02279696799814701, 0.05404064804315567, 0.014178908430039883, -0.1652464121580124, -0.06920558959245682, 0.09191089123487473, -0.11161093413829803, -0.029981335625052452, -0.017793884500861168, 0.0501386895775795, -0.14140678942203522, 0.002302670618519187, 0.022151576355099678, 0.017047692090272903, -0.11285632103681564, 0.022868353873491287, -0.018997620791196823, -0.1578313410282135, 0.011667358689010143, -0.014591872692108154, -0.07660483568906784, 0.0149697819724679, -0.025922181084752083, -0.07694126665592194, -0.13841448724269867, -0.04768168926239014, 0.03986651822924614, -0.02026064321398735, 0.08172508329153061, -0.027412643656134605, -0.0109895970672369, 0.08000930398702621, 0.061897579580545425, -0.0640549510717392, -0.03373265266418457, 0.004247711971402168, -0.03295040503144264, -0.04971441254019737, -0.004899485502392054, -0.027674248442053795, 0.02300705760717392, -0.03851621225476265, -0.0025736673269420862, -0.08408083766698837, -0.011722060851752758, 0.037230607122182846], [-0.63370281457901, -1.4652260541915894, 0.24885188043117523, -1.1435558795928955, 0.48060092329978943, 0.4626770615577698, 0.3735927939414978, -1.0498721599578857, -0.8599191904067993, 0.4663790762424469, 0.5524149537086487, -0.5535340309143066, -1.5126891136169434, -0.24388372898101807, 0.4748687148094177, 0.4323062598705292, 0.5716890096664429, 0.4170425236225128, -0.34806114435195923, 0.4992768466472626, 0.09934764355421066, -0.9090421199798584, 0.4620160758495331, 0.6013614535331726, 0.7317211627960205, -0.6711498498916626, -0.18208064138889313, 0.016672370955348015, -0.42211756110191345, 0.0860428735613823, 0.5149379372596741, -0.9652259349822998, -0.9366702437400818, -0.22545047104358673, 0.4301038384437561, -1.2074815034866333, 0.6522465348243713, 0.42854225635528564, -0.13556598126888275, -0.2854023873806, -0.03576304391026497, 0.4400267004966736, 0.4566294252872467, -0.056896407157182693, -0.0483858697116375, 0.4175088107585907, -0.7174274325370789, 0.4352662265300751, -0.8512492775917053, 0.613919198513031, 0.6738978624343872, -1.1415202617645264, 0.7857873439788818, 0.7036880254745483, -0.4130893051624298, 0.3740864396095276, 0.5380994081497192, -1.5660423040390015, -0.4051990211009979, 0.4826672673225403, 0.6284087300300598, -0.9756130576133728, 0.561335563659668, -0.4683251976966858, -1.1422069072723389, -0.02025170810520649, 0.17775078117847443, 0.4159312844276428, 0.4210418462753296, -0.35393208265304565, 0.6915948987007141, 0.7972474694252014, -0.3228509724140167, 0.12101595848798752, -1.3069652318954468, -0.3680504560470581, -0.9625089168548584, 0.7181345820426941, -1.0538537502288818, 0.5506426095962524, -0.9977722764015198, 0.14645642042160034, 0.29079851508140564, 0.6181532740592957, 0.34964996576309204, 0.7321174740791321, -0.08297956734895706, 0.2655099630355835, 0.06926538050174713, 0.32840031385421753, 0.5201966166496277, 0.5446726083755493, -1.3300071954727173, 0.5532239675521851, -1.1187465190887451, 0.061153214424848557, -0.6612726449966431, 0.6106734871864319, 0.664787769317627, 0.2343372255563736, 0.5480384230613708, -0.24705952405929565, -0.7673143744468689, -1.2820038795471191, -0.431419312953949, 0.5023636221885681, -0.0023431433364748955, -0.5180437564849854, -0.09337092936038971, -0.954755961894989, -1.3861863613128662, 0.2583482265472412, 0.5528362393379211, 0.4181157946586609, 0.38180428743362427, -0.19214989244937897, 0.04968768730759621, 0.6107484698295593, 0.39963823556900024, -0.36907944083213806, 0.547365128993988, 0.41127076745033264, -0.5771760940551758, 0.6908795833587646, 0.48586827516555786, 0.635698676109314, -0.6919737458229065, 0.48234522342681885], [0.3903574049472809, 0.9812707304954529, -0.8372876048088074, 0.4377978444099426, -0.02086528204381466, -0.02105732075870037, -0.7976938486099243, 0.43175771832466125, 0.07805288583040237, -0.5716528296470642, -0.4389437437057495, 0.6785508990287781, 0.6786108613014221, -0.24039748311042786, -0.14199449121952057, -0.7669876217842102, 0.3314071297645569, 0.20559458434581757, -0.021781859919428825, -0.9587519764900208, -0.05756525322794914, 0.31633782386779785, -0.40423017740249634, 0.24090313911437988, -0.23770052194595337, 1.142683744430542, -0.2294234335422516, -0.07408136874437332, -0.14074431359767914, 0.08111049979925156, -0.025173593312501907, 0.11102627217769623, 1.0829967260360718, 0.9419363141059875, 0.29315367341041565, 0.5447753667831421, -0.5576727390289307, -0.4408475458621979, -0.21351207792758942, 0.8973190188407898, 0.08986298739910126, 0.03169386833906174, -0.5645673871040344, 0.3826064169406891, -0.4220035672187805, -0.07107872515916824, 0.9822710156440735, -0.2834709882736206, 0.22994837164878845, -0.17256629467010498, -0.038341619074344635, 0.9023805260658264, -0.31058233976364136, -0.31885287165641785, 0.027687879279255867, 0.7480581998825073, -0.07227621227502823, 0.6420146226882935, 0.278674840927124, 0.4520249664783478, -0.6120746731758118, 0.2286795675754547, -0.3600967824459076, 1.0267201662063599, 0.4718509316444397, -0.49952995777130127, -0.7104646563529968, 0.03377962484955788, 0.26945507526397705, 0.11765279620885849, 0.03576846420764923, -0.2915949523448944, 0.6079144477844238, -0.3338591158390045, 1.0690972805023193, 1.1055845022201538, 0.35399430990219116, -0.7749817371368408, 0.4603029787540436, 0.1392163336277008, 1.0689918994903564, 0.4653654098510742, -0.10173799842596054, 0.051625221967697144, -0.505233645439148, -0.30549007654190063, -0.3665643036365509, -0.3100818693637848, -0.7190160155296326, -0.24650493264198303, -0.2169221043586731, -0.8191038370132446, 0.6286991238594055, -0.4645550549030304, 0.47099626064300537, -0.9294975996017456, 0.0467301644384861, 0.13426628708839417, -0.5278898477554321, 0.8313952088356018, -0.20539255440235138, 0.7270615696907043, 0.15868568420410156, 0.6177746057510376, 0.895969808101654, -0.31764164566993713, 0.686111330986023, 0.03627069294452667, -0.39068999886512756, 0.3130016326904297, 0.7956666946411133, -0.19996914267539978, 0.551722526550293, -0.2560584843158722, -0.11465422064065933, -0.15078864991664886, 0.2574370503425598, -0.14506158232688904, -0.6120139956474304, 1.073943018913269, -0.21723879873752594, 0.19305109977722168, -0.005141338333487511, -0.21488404273986816, 0.028729211539030075, -0.10708782076835632, 0.07687290012836456, -0.7388871908187866], [-0.44205400347709656, -0.1179639995098114, -0.11850780248641968, -0.8469910621643066, 0.1383875012397766, 0.22824254631996155, 0.19091109931468964, -0.5678340792655945, -1.2893389463424683, 0.14087128639221191, 0.2944004535675049, 0.09870292246341705, -0.33045950531959534, -0.3365163207054138, 0.1834370344877243, 0.13990730047225952, 0.29240861535072327, 0.2775525152683258, -0.5121719837188721, 0.21661441028118134, -0.05506141483783722, -1.0230714082717896, 0.0686388909816742, 0.3355068564414978, 0.22537818551063538, 0.22224529087543488, -0.2964420020580292, 0.02919437177479267, -0.7052876949310303, 0.06738936901092529, 0.17734912037849426, -1.2692338228225708, 0.2637319564819336, 0.3228403329849243, 0.280571311712265, -0.6489201188087463, 0.2528795599937439, 0.18874981999397278, -0.21222108602523804, 0.2909024655818939, -0.04576975107192993, 0.20961697399616241, 0.12783001363277435, 0.0007479065097868443, -0.23284316062927246, 0.2586797773838043, 0.07449568808078766, 0.20698589086532593, -1.0552679300308228, 0.25992509722709656, 0.24982215464115143, 0.03298443928360939, 0.41583991050720215, 0.30367082357406616, -0.5592554211616516, 0.4783973693847656, 0.2962353229522705, -0.30535250902175903, -0.3815261423587799, 0.38174816966056824, 0.22917540371418, -0.8176394104957581, 0.32777202129364014, 0.15257765352725983, -0.5331511497497559, -0.2253265231847763, 0.021747488528490067, 0.29803377389907837, 0.3210422098636627, -0.2504870891571045, 0.36001846194267273, 0.25454434752464294, 0.15038397908210754, -0.08149480074644089, 0.1656821370124817, 0.2859238386154175, -1.0101195573806763, 0.1512276828289032, -0.7393959164619446, 0.22269968688488007, 0.32195526361465454, 0.2090974599123001, 0.03167795389890671, 0.3465050160884857, 0.12770327925682068, 0.33741316199302673, -0.2586558759212494, -0.05195210501551628, -0.09053586423397064, 0.14328908920288086, 0.262113094329834, 0.1307116597890854, -0.6991071701049805, 0.302778422832489, -0.9693639874458313, -0.07029085606336594, -0.7820512652397156, 0.2511487603187561, 0.2624698579311371, 0.41448429226875305, 0.333096444606781, 0.24768073856830597, -0.8566011190414429, -0.5198418498039246, 0.19524674117565155, 0.1696060299873352, 0.47603633999824524, -0.6899224519729614, -0.10327119380235672, -1.0462740659713745, -0.1956523209810257, 0.06400643289089203, 0.3326754570007324, -0.0037506017833948135, 0.20338641107082367, -0.37303704023361206, 0.16366492211818695, 0.30418825149536133, 0.04479283094406128, 0.2946273386478424, 0.2170170694589615, 0.23842757940292358, -0.7503153085708618, 0.30942076444625854, 0.14842361211776733, 0.25471824407577515, -0.895531177520752, 0.1454489827156067], [0.05797648802399635, 0.03351868316531181, 0.08186618983745575, 0.27547693252563477, -0.3621223270893097, -0.46577754616737366, 0.04842977970838547, 0.17656901478767395, 0.5081904530525208, -0.07276248931884766, -0.32410138845443726, -0.10724377632141113, 0.20829278230667114, 0.14883573353290558, -0.3004489243030548, -0.027134310454130173, -0.6276792883872986, -0.44955307245254517, 0.1282365769147873, -0.07396987825632095, -0.10984243452548981, 0.29522159695625305, -0.10770855844020844, -0.565055787563324, -0.3434092402458191, -0.11268486827611923, 0.22973740100860596, -0.13162393867969513, 0.21085630357265472, -0.230659618973732, -0.44978994131088257, 0.5011670589447021, -0.07637695968151093, -0.23326174914836884, -0.47057634592056274, 0.13250324130058289, -0.24851775169372559, -0.17594821751117706, 0.0961657464504242, -0.19726529717445374, -0.15437309443950653, -0.4525166153907776, -0.1672191619873047, -0.1540348082780838, 0.2752910554409027, -0.35945624113082886, -0.19874607026576996, -0.36073458194732666, 0.3657030463218689, -0.43155038356781006, -0.5591817498207092, 0.07909474521875381, -0.4669039845466614, -0.3933453857898712, 0.14353366196155548, -0.24357396364212036, -0.376630574464798, 0.16292214393615723, 0.10841625183820724, -0.506213366985321, -0.1780250072479248, 0.2466183602809906, -0.34733742475509644, -0.11850565671920776, 0.16836941242218018, 0.14598853886127472, 0.008281007409095764, -0.385899156332016, -0.49654117226600647, 0.00268454453907907, -0.541115403175354, -0.421408087015152, -0.20617784559726715, 0.042471665889024734, 0.07602176070213318, -0.08350436389446259, 0.2548466920852661, -0.1832948476076126, 0.2626417279243469, -0.49100181460380554, -0.08858116716146469, -0.22210833430290222, -0.21908216178417206, -0.41614511609077454, -0.11974546313285828, -0.44178760051727295, 0.27132678031921387, 0.015226929448544979, 0.15628845989704132, -0.1566770225763321, -0.37900444865226746, -0.04774148762226105, 0.18795207142829895, -0.27304890751838684, 0.24326172471046448, 0.12357354909181595, 0.34290504455566406, -0.5261573195457458, -0.2978478968143463, -0.37156280875205994, -0.49120718240737915, -0.21502083539962769, 0.32114747166633606, 0.16928119957447052, -0.21809057891368866, -0.20763565599918365, -0.1930915117263794, 0.15955692529678345, 0.13993734121322632, 0.23402047157287598, -0.01896625943481922, -0.08335422724485397, -0.4320312440395355, -0.15347635746002197, -0.26315149664878845, 0.1661200374364853, -0.27802222967147827, -0.48629340529441833, -0.009056661278009415, -0.14917875826358795, -0.3255369961261749, -0.42732006311416626, 0.10616786032915115, -0.34195345640182495, -0.375013530254364, -0.4871937036514282, 0.27999258041381836, -0.04139655828475952], [-0.22546133399009705, -0.07185683399438858, -0.0150843420997262, -0.3717920184135437, 0.3913714289665222, 0.46829748153686523, 0.09567420929670334, -0.1847168356180191, -0.6281813383102417, 0.23646900057792664, 0.3955301344394684, 0.2708595097064972, -0.18933624029159546, -0.12410982698202133, 0.37979239225387573, 0.2691623568534851, 0.6059589385986328, 0.533949613571167, -0.27487462759017944, 0.17625512182712555, 0.22050490975379944, -0.31984513998031616, 0.21939557790756226, 0.5352071523666382, 0.3640342056751251, 0.23754717409610748, -0.2296428680419922, 0.2059025764465332, -0.34197232127189636, 0.31115296483039856, 0.3658964931964874, -0.605759859085083, 0.14007921516895294, 0.4490050971508026, 0.4793262779712677, -0.29241999983787537, 0.26119914650917053, 0.33811384439468384, -0.12930023670196533, 0.5064162015914917, 0.0730004534125328, 0.46341440081596375, 0.3765798807144165, 0.10699184238910675, -0.22630640864372253, 0.4051626920700073, 0.2507823705673218, 0.2566496431827545, -0.629819393157959, 0.34956488013267517, 0.42855122685432434, 0.03654750436544418, 0.2943340837955475, 0.34273073077201843, -0.25473296642303467, 0.3122619688510895, 0.40341469645500183, -0.1659669727087021, -0.06010551378130913, 0.5152007937431335, 0.3288280963897705, -0.36883077025413513, 0.36763444542884827, 0.43914151191711426, -0.16750970482826233, -0.20085060596466064, 0.15340179204940796, 0.45572152733802795, 0.47756311297416687, 0.061002325266599655, 0.40312397480010986, 0.33314332365989685, 0.23706834018230438, 0.19505786895751953, 0.03422551229596138, 0.33284807205200195, -0.5302361249923706, 0.35859620571136475, -0.3453115224838257, 0.3833991587162018, 0.06033622473478317, 0.28562983870506287, 0.30086204409599304, 0.3423391580581665, 0.14992539584636688, 0.3361700773239136, -0.3379645049571991, 0.24639073014259338, -0.047358546406030655, 0.29588940739631653, 0.41841554641723633, 0.19876785576343536, -0.2932225465774536, 0.32587218284606934, -0.3828901946544647, 0.08746805042028427, -0.30129387974739075, 0.4216880798339844, 0.36891889572143555, 0.5720611214637756, 0.42568862438201904, 0.45929402112960815, -0.36522987484931946, -0.33295273780822754, 0.5013647675514221, 0.2682008147239685, 0.30704039335250854, -0.07104749232530594, -0.04871534928679466, -0.4459875524044037, 0.03939003869891167, 0.24421344697475433, 0.537027895450592, 0.1395459622144699, 0.32992663979530334, -0.14401161670684814, 0.3235515356063843, 0.33995765447616577, 0.1096942275762558, 0.37198737263679504, 0.3684823215007782, 0.3356490731239319, -0.27459248900413513, 0.4468793570995331, 0.3429291546344757, 0.4332914352416992, -0.33539730310440063, 0.26790982484817505], [-0.1749582439661026, -0.9122510552406311, 0.3873075246810913, -0.6866580247879028, 0.10604429244995117, -0.003248202381655574, 0.5210763812065125, -0.4702322781085968, -0.615515947341919, 0.4788765013217926, 0.2289850115776062, -0.4490942060947418, -0.8239728808403015, 0.08789438009262085, 0.1558655947446823, 0.6062877178192139, -0.20312058925628662, -0.11823390424251556, 0.01982763223350048, 0.6240445971488953, 0.2884858250617981, -0.3340736925601959, 0.4218918979167938, -0.18018421530723572, 0.06557289510965347, -0.9569030404090881, 0.0952431783080101, 0.30975478887557983, -0.18546658754348755, 0.14198149740695953, 0.1469482183456421, -0.6166311502456665, -0.8840903043746948, -0.9079813361167908, -0.13920265436172485, -0.6286947727203369, 0.34764254093170166, 0.23872041702270508, 0.2640838325023651, -0.630894660949707, 0.09286658465862274, 0.036143019795417786, 0.46417301893234253, 0.023936253041028976, 0.20882537961006165, 0.2443397343158722, -0.6915890574455261, 0.2904936969280243, -0.38683056831359863, 0.14389373362064362, 0.0030201675835996866, -0.7046979069709778, 0.12684951722621918, 0.060891758650541306, -0.07791418582201004, -1.205062747001648, 0.17963290214538574, -0.8718449473381042, -0.049878429621458054, -0.4208443760871887, 0.379880428314209, -0.3776686191558838, 0.3215247690677643, -0.8825178146362305, -0.4368233382701874, 0.29702821373939514, 0.5192604660987854, 0.07927308976650238, -0.17847242951393127, 0.15257106721401215, -0.08053040504455566, 0.1961609274148941, -0.2292681783437729, 0.293987512588501, -0.7581270933151245, -0.8775166273117065, -0.48080915212631226, 0.5295254588127136, -0.3176189661026001, 0.09770964831113815, -0.935587465763092, -0.03111347369849682, 0.22675581276416779, 0.11006960272789001, 0.5209916830062866, 0.17995600402355194, 0.10613134503364563, 0.28630515933036804, 0.32717713713645935, 0.3082024157047272, 0.18374231457710266, 0.5756193995475769, -0.8423352241516113, 0.34737634658813477, -0.6369781494140625, 0.47121137380599976, -0.32079190015792847, -0.02948165312409401, 0.2699332535266876, -0.7590398788452148, 0.16054344177246094, -0.45328664779663086, -0.24101662635803223, -0.7389348149299622, -0.7873703241348267, 0.3471260964870453, -1.119615912437439, -0.06839028000831604, 0.2876497805118561, -0.5936296582221985, -0.8284649848937988, 0.3484061062335968, -0.4284829795360565, 0.4102794826030731, 0.2609982192516327, 0.10973120480775833, -0.019890915602445602, 0.09487778693437576, 0.45663610100746155, -1.006821632385254, 0.27490341663360596, -0.060588885098695755, -0.06122986599802971, 0.06320507824420929, 0.07001813501119614, 0.1371179074048996, -0.15817828476428986, 0.6053251028060913], [-0.7712010145187378, -0.19320422410964966, -0.6700668931007385, -1.181632161140442, 0.2828504741191864, 0.5232574343681335, -0.4105601906776428, -0.8758939504623413, -1.8744806051254272, -0.2531856596469879, 0.20867308974266052, -0.04545782133936882, -0.6501794457435608, -1.3322805166244507, 0.25748181343078613, -0.3500203490257263, 0.6927270293235779, 0.45311784744262695, -1.0937492847442627, -0.38819122314453125, -0.10384871065616608, -1.37262761592865, -0.2212490737438202, 0.5692340731620789, 0.3495256304740906, 0.3359464406967163, -1.1232149600982666, -0.20894668996334076, -1.4776625633239746, 0.07588831335306168, 0.327883243560791, -1.7980537414550781, 0.35902878642082214, 0.44441285729408264, 0.4655805230140686, -1.0109306573867798, -0.15686611831188202, 0.020194150507450104, -0.8942234516143799, 0.4649507701396942, -0.14588549733161926, 0.40315932035446167, -0.027003316208720207, 0.02372887171804905, -1.2020684480667114, 0.25198009610176086, 0.27427348494529724, 0.10874386131763458, -1.6861371994018555, 0.41793346405029297, 0.41368985176086426, -0.15327969193458557, 0.3395291268825531, 0.4120468497276306, -1.255955457687378, 0.9362536668777466, 0.25312307476997375, -0.5430644750595093, -0.4291688799858093, 0.6567928194999695, 0.035513415932655334, -1.0959283113479614, 0.22616472840309143, 0.3781655728816986, -0.8838775753974915, -0.8432586789131165, -0.6193613409996033, 0.29622283577919006, 0.5347353219985962, -0.6395043730735779, 0.5410803556442261, 0.3537158668041229, 0.25989511609077454, -0.36547327041625977, -0.14427733421325684, 0.4927925169467926, -1.3538105487823486, -0.1661931574344635, -0.9745188355445862, 0.4552156627178192, 0.2798566520214081, 0.29424160718917847, 0.09854742139577866, 0.40632569789886475, -0.2076774686574936, 0.4234946072101593, -1.240455150604248, -0.2615881562232971, -0.7171611189842224, -0.06626459956169128, 0.435377299785614, -0.354184091091156, -1.0680224895477295, 0.0059953294694423676, -1.2140344381332397, -0.5907709002494812, -1.315140724182129, 0.5043090581893921, 0.049225814640522, 0.6724061965942383, 0.4064193665981293, 0.4459746479988098, -1.2962075471878052, -0.8219950199127197, 0.33703815937042236, 0.04987562820315361, 0.7735516428947449, -1.1933337450027466, -0.7971071600914001, -1.3885776996612549, -0.23721547424793243, -0.15830890834331512, 0.7635408043861389, -0.17693060636520386, 0.16826891899108887, -1.0275354385375977, 0.21323154866695404, 0.36306262016296387, -0.27882781624794006, 0.3199908435344696, 0.15756350755691528, 0.4564584791660309, -1.2140321731567383, 0.39601150155067444, 0.4336388111114502, 0.34332841634750366, -1.2860819101333618, -0.3706515431404114], [0.03986096754670143, -0.03045652247965336, -0.18958407640457153, -0.13563327491283417, -0.002904114779084921, -0.026378726586699486, -0.112399160861969, -0.033079441636800766, -0.18898120522499084, -0.05252803862094879, -0.1089157685637474, 0.09469906240701675, -0.06699986010789871, 0.04284873232245445, -0.01745760813355446, -0.09917569905519485, -0.1421850025653839, 0.015072963200509548, 0.05063819885253906, -0.15319280326366425, 0.02996108867228031, -0.12980917096138, 0.015141882002353668, -0.06686725467443466, -0.01891162060201168, -0.05288213863968849, 0.01406917069107294, -0.010304290801286697, -0.13207682967185974, 0.03877575322985649, 0.053917985409498215, -0.12309908866882324, -0.14758989214897156, -0.02978866919875145, 0.016709009185433388, 0.02596941404044628, -0.0946664959192276, -0.03509832173585892, 0.04116130992770195, -0.033179763704538345, 0.037828680127859116, 0.023531705141067505, -0.16813147068023682, 0.12875725328922272, -0.15282243490219116, -0.038144104182720184, -0.07508820295333862, -0.059122081845998764, -0.12832193076610565, -0.16971468925476074, -0.019407423213124275, -0.11674410104751587, -0.10687564313411713, -0.08900826424360275, -0.08271551132202148, -0.2060762494802475, 0.028616774827241898, 0.05697669833898544, -0.015226375311613083, -0.011211266741156578, -0.18818111717700958, -0.05511088669300079, -0.14580950140953064, -0.09056949615478516, -0.08212067931890488, -0.03808615729212761, -0.18046410381793976, 0.061677612364292145, -0.08310449123382568, 0.039052143692970276, -0.07736264914274216, -0.23185992240905762, -0.028932010754942894, 0.010359769687056541, -0.1538849174976349, -0.1426718384027481, -0.08562508970499039, -0.17220385372638702, -0.055517155677080154, -0.025633908808231354, -0.12479791790246964, 0.047445718199014664, 0.05266651511192322, -0.027014899998903275, -0.11666050553321838, -0.11261584609746933, -0.05811021849513054, -0.021292461082339287, -0.043685801327228546, -0.04872040078043938, 0.008634466677904129, -0.1803750991821289, -0.034805528819561005, -0.21205933392047882, -0.01352622639387846, -0.15857134759426117, -0.10200579464435577, -0.06278030574321747, -0.13327956199645996, -0.15494315326213837, -0.1104973554611206, 0.05169466510415077, -0.07981391996145248, -0.048494137823581696, -0.0065808468498289585, 0.02668098360300064, -0.11646590381860733, -0.0038150069303810596, -0.013724356889724731, -0.0808662474155426, -0.09448911249637604, -0.015185684897005558, -0.05507613718509674, 0.024163931608200073, -0.0986950546503067, -0.044079020619392395, -0.013450255617499352, -0.08437739312648773, -0.11029132455587387, -0.07963503152132034, -0.12492166459560394, -0.01534868124872446, -0.005772348493337631, -0.1380806863307953, -0.05365687608718872, -0.16625484824180603, -0.045226044952869415, -0.12532861530780792], [-0.7481310367584229, -1.8112791776657104, 0.43380698561668396, -1.092069387435913, -0.41004446148872375, -0.30779924988746643, 0.37182024121284485, -1.1284775733947754, -0.32225120067596436, 0.3921942412853241, 0.06453100591897964, -1.4970043897628784, -1.6874284744262695, 0.1305360347032547, -0.09668313711881638, 0.5037975311279297, -0.8813308477401733, -0.6162456274032593, 0.06374300271272659, 0.5286362767219543, -0.23685143887996674, -0.504150390625, 0.18850158154964447, -0.6486638188362122, -0.0017829909920692444, -1.5690215826034546, 0.11903996765613556, -0.16290251910686493, -0.021848343312740326, -0.28103742003440857, -0.3080098330974579, -0.4227099120616913, -1.549422025680542, -2.0391685962677, -0.7606558799743652, -1.201768159866333, 0.32675841450691223, 0.09286405146121979, 0.11458533257246017, -1.7709264755249023, -0.21890094876289368, -0.3607158362865448, 0.1728975474834442, -0.663870632648468, 0.2827344536781311, -0.18619123101234436, -1.7610396146774292, -0.1298881471157074, -0.3792722523212433, -0.21930617094039917, -0.3198702037334442, -1.6219547986984253, -0.013083357363939285, -0.05892793834209442, -0.2405000627040863, -1.3421539068222046, -0.25981178879737854, -1.5720608234405518, -0.49083152413368225, -1.1417770385742188, 0.2809445261955261, -0.7293932437896729, 0.10278347879648209, -1.929985523223877, -1.0939230918884277, 0.41221824288368225, 0.2779095470905304, -0.269349604845047, -0.7747154235839844, -0.2583969533443451, -0.4394823908805847, 0.08137000352144241, -1.160906434059143, 0.021498357877135277, -1.5750727653503418, -1.7340092658996582, -0.7023101449012756, 0.3279414772987366, -0.9361365437507629, -0.46281930804252625, -1.38517427444458, -0.8461079001426697, -0.2103189080953598, -0.34209004044532776, 0.15574361383914948, 0.08461648225784302, 0.30873358249664307, 0.1996447741985321, 0.4018167555332184, 0.006488986779004335, -0.16379930078983307, 0.45255690813064575, -1.285903811454773, 0.18636924028396606, -0.9167428612709045, 0.44097232818603516, -0.16314882040023804, -0.5339961647987366, 0.1763744056224823, -1.808807611465454, -0.2020868957042694, -1.3379141092300415, -0.45209670066833496, -1.4266598224639893, -1.9120488166809082, 0.09991510957479477, -0.9591953158378601, -0.2413191795349121, 0.03913809359073639, -0.6854336261749268, -1.7222833633422852, 0.03827264532446861, -1.2604353427886963, 0.04917391389608383, 0.0021551509853452444, -0.014671302400529385, -0.7076796293258667, -0.1955518126487732, 0.279895156621933, -1.8869121074676514, -0.16905182600021362, -0.54567950963974, -0.20164814591407776, -0.0248145442456007, -0.37936335802078247, -0.08705610036849976, -0.24869002401828766, 0.44821155071258545], [-0.43470391631126404, -1.0301125049591064, 0.3326737880706787, -0.6236289143562317, -0.2428302764892578, -0.07093866914510727, 0.22571319341659546, -0.6659978032112122, -0.2173442840576172, 0.28915560245513916, 0.10365547239780426, -0.7547280192375183, -0.9682971835136414, 0.019489727914333344, -0.1030409187078476, 0.3925561010837555, -0.2940589487552643, -0.19353415071964264, -0.03717639297246933, 0.3616286814212799, -0.04872184991836548, -0.39658063650131226, 0.31570154428482056, -0.2879999279975891, 0.10401026904582977, -0.8200957775115967, -0.08149302750825882, -0.031545769423246384, -0.10266497731208801, -0.2426575869321823, -0.1909864842891693, -0.2284732609987259, -0.7090887427330017, -0.7282043099403381, -0.387506365776062, -0.6663092970848083, 0.28573471307754517, 0.09716344624757767, 0.011207915842533112, -0.7231625914573669, -0.27019086480140686, -0.1755760908126831, 0.1863429844379425, -0.40621650218963623, 0.1654617041349411, -0.07732289284467697, -0.914415180683136, -0.0030558016151189804, -0.3425498902797699, 0.03260303661227226, -0.13882598280906677, -0.9262478351593018, 0.03609626740217209, 0.011542926542460918, -0.21217872202396393, -0.3070998787879944, 0.011865762993693352, -0.8500257134437561, -0.3981112539768219, -0.3467693626880646, 0.3373148441314697, -0.4978073835372925, 0.06086127460002899, -0.8224863409996033, -0.6631261110305786, 0.1687842607498169, 0.2872307300567627, -0.12467898428440094, -0.37106460332870483, -0.23374690115451813, -0.1762339323759079, 0.0653938427567482, -0.6662315726280212, 0.1020875871181488, -0.9363097548484802, -0.6784056425094604, -0.46550309658050537, 0.3825133442878723, -0.5315048694610596, -0.13178184628486633, -0.8225446939468384, -0.42565032839775085, -0.07162301242351532, -0.13117757439613342, 0.18575941026210785, 0.19125930964946747, 0.16302812099456787, 0.18601961433887482, 0.24346131086349487, 0.03273320943117142, 0.045032959431409836, 0.4111241102218628, -0.8933039903640747, 0.2798672020435333, -0.6019916534423828, 0.33476099371910095, -0.21965306997299194, -0.1928265541791916, 0.23247894644737244, -0.5066332817077637, 0.05048462748527527, -0.6509855389595032, -0.3340231776237488, -0.7567135095596313, -0.742896318435669, 0.18358030915260315, -0.33968356251716614, -0.2945568859577179, 0.13616949319839478, -0.41054999828338623, -0.899310290813446, 0.04006534814834595, -0.47631436586380005, 0.1281377226114273, 0.07538430392742157, -0.019259821623563766, -0.3204691410064697, 0.06780428439378738, 0.2819626033306122, -0.7305827736854553, -0.06810643523931503, -0.2809041738510132, -0.1895832121372223, 0.005535406060516834, -0.13434886932373047, -0.022801093757152557, -0.3449411392211914, 0.4154943823814392], [-0.30201369524002075, -0.4624435305595398, 0.09545920044183731, -0.44268155097961426, 0.20910364389419556, 0.3389911651611328, 0.19211597740650177, -0.43992727994918823, -0.4157194197177887, 0.2522401809692383, 0.38090360164642334, -0.19383399188518524, -0.6834601759910583, -0.05844666808843613, 0.3656688332557678, 0.2088588923215866, 0.27199268341064453, 0.3106987774372101, -0.13156235218048096, 0.1777210682630539, 0.21674752235412598, -0.3237176537513733, 0.3053949177265167, 0.17726486921310425, 0.3448394238948822, -0.19521209597587585, -0.08282950520515442, 0.21865911781787872, -0.20675350725650787, 0.0773904025554657, 0.34613674879074097, -0.4449385106563568, -0.2202162891626358, -0.04100687429308891, 0.3111739456653595, -0.5331218838691711, 0.3283658027648926, 0.2755204737186432, -0.10522935539484024, -0.04925113916397095, 0.1403142362833023, 0.34779974818229675, 0.21070647239685059, -0.001916329376399517, 0.043602898716926575, 0.3226790130138397, -0.17577600479125977, 0.3173062205314636, -0.35873594880104065, 0.40590956807136536, 0.39745911955833435, -0.5036426186561584, 0.4408337473869324, 0.43971019983291626, -0.20296742022037506, 0.14942194521427155, 0.30785590410232544, -0.6398181915283203, -0.041797444224357605, 0.1841585338115692, 0.22457727789878845, -0.44256117939949036, 0.2738577723503113, -0.21096637845039368, -0.41875699162483215, 0.032023198902606964, 0.2067282646894455, 0.31924885511398315, 0.2007077932357788, -0.14908789098262787, 0.3584496080875397, 0.3145168721675873, -0.04154123365879059, 0.15234102308750153, -0.46280619502067566, -0.1433519572019577, -0.41334137320518494, 0.2608537971973419, -0.43553462624549866, 0.30002453923225403, -0.2989071309566498, 0.14574836194515228, 0.2680613696575165, 0.25556111335754395, 0.3196961581707001, 0.3102191686630249, -0.16167673468589783, 0.1349368691444397, 0.10284940153360367, 0.2902040481567383, 0.3171940743923187, 0.21588082611560822, -0.5099264979362488, 0.3031981289386749, -0.4003335237503052, 0.04643208906054497, -0.34827548265457153, 0.28681525588035583, 0.33213624358177185, 0.15032482147216797, 0.2772340774536133, -0.0691714957356453, -0.26047369837760925, -0.5725736021995544, -0.043065283447504044, 0.3424573540687561, 0.013317483477294445, -0.19861535727977753, 0.016462936997413635, -0.4381491243839264, -0.47204574942588806, 0.23038038611412048, 0.25134584307670593, 0.260171502828598, 0.23002061247825623, 0.004919201601296663, 0.17952759563922882, 0.34688621759414673, 0.13790175318717957, -0.19004371762275696, 0.3159368634223938, 0.26299649477005005, -0.2613687813282013, 0.30668091773986816, 0.2888765037059784, 0.414480596780777, -0.24540075659751892, 0.13476093113422394], [-0.10827495157718658, -0.015553928911685944, -0.030582210049033165, -0.06371525675058365, -0.01243077777326107, -0.022366831079125404, -0.1092037782073021, 0.018461430445313454, -0.11166010051965714, -0.06371133774518967, 0.003510815091431141, -0.10584176331758499, 0.0018843605648726225, -0.01079647708684206, -0.029270026832818985, -0.16995570063591003, 0.035346511751413345, -0.11681345850229263, -0.07981406152248383, -0.03727840259671211, -0.10309244692325592, -0.09845185279846191, -0.14384782314300537, -0.054962899535894394, -0.07090011984109879, -0.13112887740135193, -0.10938145220279694, 0.015887873247265816, -0.04795769602060318, 0.019587799906730652, -0.02308407425880432, 0.014799751341342926, -0.05710545927286148, -0.00484921969473362, 0.03671330586075783, -0.041959453374147415, -0.034792520105838776, -0.052567008882761, -0.08357644081115723, -0.11164996027946472, -0.025742894038558006, -0.01056603342294693, 9.888008935377002e-05, -0.07158215343952179, -0.05087028443813324, -0.08510234951972961, -0.14487670361995697, -0.058502424508333206, -0.11089786887168884, -0.12376672774553299, -0.052520886063575745, -0.05448188632726669, -0.0009056160342879593, -0.026281803846359253, -0.10515741258859634, -0.05866852030158043, 0.03569168969988823, -0.06759532541036606, -0.13729803264141083, -0.011125766672194004, -0.07841824740171432, -0.1374269723892212, -0.07241176813840866, -0.011376499198377132, -0.05820097401738167, -0.018113235011696815, -0.17294149100780487, -0.13771240413188934, -0.1251557469367981, -0.11035779118537903, -0.06822452694177628, -0.05816459655761719, -0.044885020703077316, 0.004294905345886946, -0.05679461359977722, -0.08058696985244751, -0.11562388390302658, -0.1427815556526184, -0.10616210103034973, -0.07197096943855286, -0.16854245960712433, -0.06374767422676086, 0.022025620564818382, -0.046181321144104004, -0.1255294531583786, -0.10072574764490128, -0.10270272195339203, -0.08148334175348282, -0.11097892373800278, -0.15055693686008453, -0.03248921036720276, -0.0894370973110199, -0.04846612364053726, -0.10755129158496857, -0.02149239555001259, -0.18740195035934448, -0.11650547385215759, 0.025033164769411087, 0.014906518161296844, -0.057678453624248505, -0.048971742391586304, -0.10800627619028091, -0.09481862187385559, -0.012244670651853085, 0.03433414176106453, -0.09058623015880585, -0.05024179071187973, -0.0031504028011113405, -0.038215991109609604, -0.036984656006097794, -0.09745126217603683, -0.10954461246728897, -0.13455329835414886, -0.10083827376365662, 0.005394563544541597, 0.007281751371920109, 0.022830018773674965, 0.03131004050374031, -0.09081020951271057, -0.07704323530197144, -0.030204633250832558, -0.11968255043029785, -0.03289341926574707, 0.04277913272380829, -0.13200627267360687, 0.034962303936481476, -0.11665709316730499, -0.10411649197340012], [-1.0868161916732788, -0.6493170261383057, -0.23309928178787231, -1.898629903793335, 0.7362295985221863, 0.8833101391792297, 0.10702800005674362, -1.5811169147491455, -2.1765599250793457, 0.25452619791030884, 0.9529088735580444, -0.2709333300590515, -1.3071342706680298, -0.7285438179969788, 0.6938081383705139, 0.38633230328559875, 0.7233628630638123, 0.6482779383659363, -1.0162664651870728, 0.3279098868370056, 0.2246900200843811, -1.909753680229187, 0.38599270582199097, 0.6774080991744995, 1.0371763706207275, -0.2730752229690552, -0.8306470513343811, 0.06329847127199173, -1.1983978748321533, 0.2994452118873596, 0.7839804291725159, -2.204364538192749, -0.3359707295894623, -0.16458652913570404, 0.4672582745552063, -1.745818853378296, 0.7232751250267029, 0.6323562264442444, -0.6314705014228821, -0.10929639637470245, 0.032756257802248, 0.6265484690666199, 0.688239336013794, -0.0541967935860157, -0.7666850686073303, 0.8049724698066711, -0.2481924593448639, 0.7793763875961304, -2.095059633255005, 0.8801366686820984, 0.8396819829940796, -0.6437304615974426, 1.0951050519943237, 1.1051431894302368, -1.1709004640579224, -0.17075711488723755, 0.7954433560371399, -1.115844964981079, -0.6486775279045105, 0.35090234875679016, 0.7782511711120605, -1.7702033519744873, 0.9585761427879333, -0.26251065731048584, -1.607097864151001, -0.6762647032737732, -0.21160222589969635, 0.6822801232337952, 0.5777782797813416, -0.6812810897827148, 0.859737753868103, 1.1590956449508667, -0.1017208844423294, -0.03848854452371597, -0.7323062419891357, -0.29560989141464233, -2.030815839767456, 0.7430306673049927, -1.5457193851470947, 0.7600714564323425, -0.3766457736492157, 0.35091063380241394, 0.46786487102508545, 0.784916341304779, 0.3932998776435852, 1.1649049520492554, -0.8207688331604004, 0.059417806565761566, -0.2783434987068176, 0.39662545919418335, 0.8753005266189575, 0.45705461502075195, -1.7775498628616333, 0.7644482851028442, -2.0631461143493652, -0.18578149378299713, -1.5468765497207642, 0.7245882749557495, 0.8650397658348083, 0.0776485726237297, 1.038230538368225, 0.11530408263206482, -1.5961161851882935, -1.5173289775848389, -0.05630974471569061, 0.560135543346405, -0.15143145620822906, -1.278126835823059, -0.36691632866859436, -2.1443769931793213, -0.7568584680557251, 0.2971363663673401, 0.2608101963996887, 0.4502778649330139, 0.6482710242271423, -0.7121061682701111, 0.25465360283851624, 0.9849948883056641, 0.3158547878265381, -0.16610585153102875, 0.8103679418563843, 0.5313223004341125, -1.3203387260437012, 1.1078414916992188, 0.6690153479576111, 1.000542402267456, -1.5541433095932007, 0.3321135938167572], [0.33352917432785034, 0.09584684669971466, 0.21704544126987457, 0.15450355410575867, 0.11988995969295502, 0.10555671900510788, 0.24759024381637573, 0.3026598393917084, 0.2486015409231186, 0.22499777376651764, 0.16088567674160004, 0.1401669830083847, 0.21060305833816528, 0.2510841190814972, 0.11984257400035858, 0.09520241618156433, -0.09028684347867966, 0.01678851805627346, 0.2274317592382431, 0.05833505466580391, 0.3300809860229492, 0.2352442890405655, 0.2921590507030487, -0.05250968411564827, 0.12584125995635986, -0.03844141587615013, 0.21398283541202545, 0.3269413113594055, 0.29879868030548096, 0.2542959153652191, 0.09405390918254852, 0.2145409733057022, -0.06155814230442047, -0.052555184811353683, 0.061642203480005264, 0.15318584442138672, 0.16881878674030304, 0.15554870665073395, 0.32301121950149536, -0.053468555212020874, 0.25731757283210754, 0.14929525554180145, 0.22027119994163513, 0.3146701157093048, 0.13176819682121277, 0.23631370067596436, -0.02039780281484127, 0.21272800862789154, 0.25640881061553955, 0.13311637938022614, 0.0868818610906601, 0.1526409238576889, 0.019761208444833755, -0.045667365193367004, 0.3444841504096985, -0.2767975628376007, 0.12093211710453033, 0.17607611417770386, 0.24333572387695312, 0.046456921845674515, 0.20527459681034088, 0.2446681261062622, 0.053519219160079956, -0.07882370054721832, 0.30150076746940613, 0.257045179605484, 0.3134519159793854, 0.1197156012058258, -0.02746785432100296, 0.2793096601963043, 0.0891304612159729, 0.02522488683462143, 0.13961836695671082, 0.3514007329940796, -0.03006638213992119, -0.052509605884552, 0.13904815912246704, 0.04398920387029648, 0.28543969988822937, 0.03430972620844841, -0.21041198074817657, 0.1996004581451416, 0.1860201060771942, 0.08019810169935226, 0.14737330377101898, -0.04719998314976692, 0.19049550592899323, 0.31430235505104065, 0.2004459798336029, 0.20864906907081604, 0.11399046331644058, 0.2108137309551239, 0.043565355241298676, 0.16184398531913757, 0.15440130233764648, 0.16202200949192047, 0.09144388139247894, 0.051094673573970795, 0.07416073977947235, -0.18999972939491272, 0.14153313636779785, 0.055030230432748795, 0.22077807784080505, 0.16118139028549194, -0.09155160933732986, 0.2761249542236328, -0.2754855453968048, 0.12204687297344208, 0.3422383964061737, 0.21936272084712982, 0.12530075013637543, 0.33040598034858704, 0.0026829938869923353, 0.20984740555286407, 0.138918936252594, 0.3634452521800995, 0.15912355482578278, 0.019001426175236702, 0.1421818882226944, -0.10106126964092255, 0.23143771290779114, 0.1886628270149231, 0.322191059589386, -0.0006824431475251913, 0.18632511794567108, 0.1121729239821434, 0.27403536438941956, 0.2112906277179718], [0.05016407370567322, -0.08116856962442398, -0.10872464627027512, -0.03631452098488808, -0.07932396978139877, 0.01803247630596161, -0.0029084868729114532, -0.08123742789030075, -0.011745618656277657, -0.04796706885099411, 0.03348337113857269, 0.06744369119405746, -0.03045690432190895, -0.012309662997722626, -0.07850665599107742, -0.13039803504943848, -0.10135507583618164, 0.028255615383386612, 0.0433022640645504, -0.06703127175569534, -0.10155913978815079, -0.020262790843844414, -0.06502151489257812, 0.004042007960379124, -0.06288851797580719, -0.09207814931869507, -0.001944138784892857, 0.042899664491415024, -0.002218070439994335, 0.027712713927030563, -0.006659013219177723, -0.08894440531730652, -0.01871473155915737, 0.04662613943219185, -0.08927909284830093, -0.10791778564453125, -0.053430598229169846, -0.054684896022081375, -0.0691051259636879, -0.054279688745737076, -0.10393881797790527, 0.05267586186528206, -0.00772057194262743, -0.011250884272158146, -0.0010059389751404524, 0.032645083963871, 0.05557144433259964, 0.03238854184746742, -0.010467484593391418, -0.07019263505935669, -0.08558319509029388, -0.026460207998752594, -0.05856885388493538, 0.01692841947078705, -0.012579446658492088, -0.07409488409757614, -0.04254815727472305, -0.029705354943871498, 0.0235433466732502, -0.11639504879713058, -0.08986108005046844, -0.04820675030350685, -0.04901380464434624, -0.07344391196966171, 0.033732734620571136, -0.11687786132097244, 0.009557363577187061, -0.07001325488090515, -0.10665545612573624, -0.06849273294210434, -0.07383713126182556, -0.12267260998487473, -0.07650943100452423, -0.03526259958744049, -0.051118154078722, 0.009797065518796444, 0.041798725724220276, -0.07327929139137268, 0.051333338022232056, -0.03826969861984253, 0.03909547999501228, 0.03868073225021362, -0.020991681143641472, -0.06286048889160156, 0.008401226252317429, -0.0774545893073082, 0.013578223995864391, 0.017706526443362236, -0.11167892068624496, -0.06227969750761986, -0.05767242982983589, -0.016481172293424606, 0.019971810281276703, -0.10125373303890228, -0.024913208559155464, -0.006153978873044252, 0.007125894073396921, -0.0995899885892868, -0.11760666221380234, -0.05970005691051483, -0.10045375674962997, -0.04412892088294029, -0.09755799919366837, 0.021629543974995613, -0.06499933451414108, 0.00937163271009922, 0.018573397770524025, 0.008321904577314854, 0.014982426539063454, -0.1035313755273819, 0.028057005256414413, -0.09743200987577438, -0.11523184925317764, 0.05936787649989128, -0.08453347533941269, 0.051433976739645004, -0.032759763300418854, 0.0205592829734087, 0.021190451458096504, 0.017050884664058685, -0.022324655205011368, -0.04298316687345505, 0.01982310600578785, -0.1124153658747673, 0.04444270581007004, -0.09319484978914261, -0.06264912337064743, -0.06947212666273117], [-0.2880639433860779, 0.1748010516166687, -1.024904727935791, -0.22694598138332367, 0.11096549779176712, 0.0668264627456665, -0.6702330708503723, -0.25093206763267517, -0.8373203873634338, -0.4573512673377991, -0.16093674302101135, 0.16728928685188293, -0.014901824295520782, -0.7770736217498779, 0.04066795855760574, -0.552586555480957, 0.3084532916545868, 0.2407371699810028, -0.5331824421882629, -0.5781840682029724, -0.08030329644680023, -0.48056915402412415, -0.3158460557460785, 0.32548144459724426, 0.07177551835775375, 0.38334107398986816, -0.6492500901222229, -0.20763567090034485, -0.6542681455612183, 0.01878373697400093, 0.06857775151729584, -0.7396713495254517, 0.3505214750766754, 0.38665252923965454, 0.261679083108902, -0.17843565344810486, -0.4005033075809479, -0.14124765992164612, -0.6165285110473633, 0.39742350578308105, -0.13272430002689362, 0.14230522513389587, -0.2547043263912201, 0.08722125738859177, -0.8379095196723938, -0.09259603917598724, 0.2557237148284912, -0.10651744157075882, -0.5807172060012817, 0.02947980724275112, 0.04819028452038765, 0.07856475561857224, 0.01701742596924305, 0.01071199867874384, -0.5138604044914246, 0.4956180155277252, 0.03478922322392464, -0.022819427773356438, -0.26139745116233826, 0.3892001509666443, -0.1905236542224884, -0.4201192557811737, -0.06379206478595734, 0.34943193197250366, -0.24848942458629608, -0.7622592449188232, -1.1262459754943848, 0.12202811241149902, 0.3187190592288971, -0.26032593846321106, 0.1602845937013626, 0.009816356003284454, 0.0776967704296112, -0.3269132673740387, 0.14766402542591095, 0.28567275404930115, -0.38700756430625916, -0.361110121011734, -0.25781378149986267, 0.2368418276309967, 0.37364256381988525, 0.07810750603675842, -0.06129864230751991, 0.0775991678237915, -0.35759100317955017, -0.09631960839033127, -0.7583920955657959, -0.29694512486457825, -1.13158118724823, -0.2667590379714966, -0.0274517759680748, -0.49943405389785767, -0.18702661991119385, -0.24227480590343475, -0.26674020290374756, -1.4093353748321533, -0.5389347076416016, 0.2512623965740204, -0.30486446619033813, 0.4571877717971802, -0.0020812423899769783, 0.26616108417510986, -0.5104988217353821, -0.12067815661430359, 0.40546444058418274, -0.24143557250499725, 0.4742887318134308, -0.43701282143592834, -0.6154376268386841, -0.4745768904685974, 0.07813773304224014, -0.2235262244939804, 0.35963431000709534, -0.19274713099002838, -0.05956144630908966, -0.657853364944458, 0.1307227462530136, 0.018398363143205643, -0.407375693321228, 0.38333722949028015, -0.0064142984338104725, 0.13719743490219116, -0.44596126675605774, 0.0328594446182251, -0.011902577243745327, 0.04868289828300476, -0.5517805814743042, -0.5295915603637695], [-0.029313651844859123, 0.1924816519021988, -0.3537442982196808, -0.3159823715686798, 0.4094753563404083, 0.43578794598579407, -0.15491874516010284, -0.025421656668186188, -0.5860342383384705, -0.11148055642843246, 0.2893524169921875, 0.20972716808319092, -0.10293377190828323, -0.2555336356163025, 0.20464980602264404, -0.2395085096359253, 0.6243312358856201, 0.5573671460151672, -0.22473382949829102, -0.24881747364997864, 0.16776570677757263, -0.2941296398639679, 0.021691124886274338, 0.479070246219635, 0.29234203696250916, 0.30186596512794495, -0.3194795846939087, 0.16988304257392883, -0.4771207273006439, 0.33162921667099, 0.3894440233707428, -0.5871632695198059, 0.09936520457267761, 0.48993322253227234, 0.5457338690757751, -0.09134411811828613, 0.07503224164247513, 0.19567248225212097, -0.23314417898654938, 0.5862373113632202, 0.20618565380573273, 0.3623160421848297, 0.17682787775993347, 0.19254764914512634, -0.4857715666294098, 0.3036847710609436, 0.38520362973213196, 0.15309156477451324, -0.3419848084449768, 0.36635446548461914, 0.47232308983802795, 0.06560321897268295, 0.3834661543369293, 0.37047550082206726, -0.2608198821544647, 0.26266464591026306, 0.40810322761535645, -0.056842487305402756, 0.0078826192766428, 0.6840488910675049, 0.1040901392698288, -0.21623678505420685, 0.22697247564792633, 0.44619235396385193, -0.130357563495636, -0.3345924913883209, -0.22828854620456696, 0.3537534475326538, 0.4915412664413452, -0.023435479030013084, 0.45483097434043884, 0.3427799642086029, 0.3592146635055542, -0.08492588996887207, -0.027397919446229935, 0.4115683138370514, -0.28622308373451233, -0.044877417385578156, -0.14797939360141754, 0.5169110298156738, 0.03934371843934059, 0.3990388810634613, 0.2411084920167923, 0.4061005711555481, 0.046928539872169495, 0.3807910084724426, -0.4217117726802826, 0.002065243199467659, -0.4056994616985321, 0.11400730162858963, 0.41169852018356323, -0.0765913873910904, -0.305856853723526, 0.05294400081038475, -0.2618959844112396, -0.44079479575157166, -0.34553471207618713, 0.5464966893196106, 0.16438224911689758, 0.5216149687767029, 0.3999156653881073, 0.44654563069343567, -0.2617762088775635, -0.15547454357147217, 0.48637911677360535, 0.05199668928980827, 0.22925503551959991, -0.12706565856933594, -0.25802382826805115, -0.214959979057312, 0.10737146437168121, 0.1722356528043747, 0.5933824777603149, 0.08966398239135742, 0.21586140990257263, -0.21654386818408966, 0.3654705286026001, 0.3322901427745819, -0.033135492354631424, 0.32050591707229614, 0.1721803843975067, 0.40353813767433167, -0.1438429355621338, 0.38174572587013245, 0.41600802540779114, 0.3178945779800415, -0.21305932104587555, -0.20308388769626617], [0.2320227026939392, 0.23716174066066742, 0.012894301675260067, 0.06264960765838623, 0.49441641569137573, 0.4534221887588501, 0.1566169112920761, 0.22492583096027374, 0.17299848794937134, 0.09321822226047516, 0.21486768126487732, 0.34809279441833496, 0.11878827959299088, 0.33299604058265686, 0.443533331155777, 0.03896341100335121, 0.36466899514198303, 0.48734113574028015, 0.27677854895591736, 0.05959126725792885, 0.32873088121414185, 0.22619807720184326, 0.2390906661748886, 0.4331803321838379, 0.24844536185264587, 0.16354544460773468, 0.27342337369918823, 0.3285992741584778, 0.16773028671741486, 0.4401969909667969, 0.3736024796962738, 0.03335491567850113, 0.09066235274076462, 0.16956932842731476, 0.43937981128692627, 0.08243042230606079, 0.1726735234260559, 0.2841610312461853, 0.264899343252182, 0.27947309613227844, 0.3758513331413269, 0.42038071155548096, 0.20957957208156586, 0.39062756299972534, 0.14171525835990906, 0.28920137882232666, 0.1545037478208542, 0.405964732170105, 0.1336662769317627, 0.4223124086856842, 0.4017055332660675, 0.03985720872879028, 0.33883213996887207, 0.33426299691200256, 0.331510454416275, 0.12117046862840652, 0.43740999698638916, 0.19092422723770142, 0.2866876423358917, 0.3805679976940155, 0.27096953988075256, 0.2540152668952942, 0.3663783669471741, 0.16179603338241577, 0.24173510074615479, 0.12093819677829742, 0.16491873562335968, 0.3850538730621338, 0.5084306001663208, 0.4153188169002533, 0.37127894163131714, 0.26864203810691833, 0.3965829312801361, 0.38813772797584534, -0.008531425148248672, 0.12938116490840912, 0.21688705682754517, 0.13269253075122833, 0.23824673891067505, 0.4491649568080902, -0.0701301097869873, 0.5335513353347778, 0.4920382499694824, 0.48027512431144714, 0.17143511772155762, 0.18861916661262512, 0.13463035225868225, 0.28347674012184143, 0.05028246343135834, 0.3892207741737366, 0.32033243775367737, 0.05386092886328697, 0.03733593225479126, 0.13505761325359344, 0.07627810537815094, 0.05921890214085579, 0.17662030458450317, 0.37998560070991516, 0.19494545459747314, 0.2749534845352173, 0.41476693749427795, 0.33187034726142883, 0.20021121203899384, 0.12623848021030426, 0.22418569028377533, 0.23602166771888733, 0.09355822205543518, 0.35302314162254333, 0.24102783203125, 0.15771658718585968, 0.21194151043891907, 0.36143624782562256, 0.42483681440353394, 0.2495538890361786, 0.346023291349411, 0.1784658133983612, 0.4664040803909302, 0.41138285398483276, 0.17175638675689697, 0.2291443943977356, 0.4115809202194214, 0.49442487955093384, 0.2230299711227417, 0.3440017104148865, 0.48079749941825867, 0.4109196364879608, 0.3123517632484436, 0.036633316427469254], [-0.4024288058280945, -0.9581766128540039, 0.09143395721912384, -0.8320093750953674, 0.3452984690666199, 0.28960877656936646, 0.2317248284816742, -0.6565043330192566, -0.7164802551269531, 0.29308027029037476, 0.369046151638031, -0.4083344340324402, -0.9925584197044373, -0.1895877867937088, 0.3600527048110962, 0.28464892506599426, 0.2597845792770386, 0.19608502089977264, -0.22043968737125397, 0.43849417567253113, 0.13652090728282928, -0.6506790518760681, 0.3138428330421448, 0.30881360173225403, 0.34155285358428955, -0.510818600654602, -0.07398824393749237, 0.18186607956886292, -0.32898083329200745, 0.15584741532802582, 0.3722813129425049, -0.7273655533790588, -0.5622329115867615, -0.033861808478832245, 0.17716920375823975, -0.8518407344818115, 0.47179722785949707, 0.277676522731781, -0.035025704652071, -0.1306413859128952, 0.014419087208807468, 0.2664856016635895, 0.370921790599823, -0.06131940707564354, 0.03635760024189949, 0.36081597208976746, -0.4380151331424713, 0.40291523933410645, -0.5222675204277039, 0.301932692527771, 0.397174596786499, -0.9152496457099915, 0.5328717827796936, 0.4422600567340851, -0.3331029713153839, 0.4852157235145569, 0.25035005807876587, -0.9313681125640869, -0.29795342683792114, 0.16743206977844238, 0.43643543124198914, -0.6355716586112976, 0.38093462586402893, -0.36361733078956604, -0.5970762968063354, -0.023545820266008377, 0.1941852569580078, 0.3336457312107086, 0.27975398302078247, -0.2381691038608551, 0.3985460102558136, 0.477272629737854, -0.1597829908132553, 0.18488016724586487, -0.8887393474578857, -0.25182071328163147, -0.6496015787124634, 0.42538103461265564, -0.645979106426239, 0.22260954976081848, -0.8248608708381653, -0.002598094753921032, 0.14099402725696564, 0.3026823103427887, 0.3484528064727783, 0.4880867302417755, -0.1358737349510193, 0.22673659026622772, 0.11947573721408844, 0.19998399913311005, 0.3923003375530243, 0.3935655951499939, -0.9680770635604858, 0.47549763321876526, -0.8008410930633545, 0.10108263045549393, -0.31915971636772156, 0.2879108786582947, 0.45474773645401, 0.2194010466337204, 0.39354968070983887, -0.21316072344779968, -0.4955305755138397, -0.8921580910682678, -0.3091942369937897, 0.283330500125885, 0.09808328002691269, -0.35059311985969543, 0.002831367077305913, -0.6876959204673767, -0.7869491577148438, 0.23609165847301483, 0.24049095809459686, 0.18407182395458221, 0.3878800868988037, -0.15803369879722595, 0.060247477144002914, 0.3200937807559967, 0.29244375228881836, -0.23225414752960205, 0.27130159735679626, 0.18051335215568542, -0.29958221316337585, 0.457500696182251, 0.29501500725746155, 0.4297093152999878, -0.39884456992149353, 0.3357478082180023], [-0.06224843114614487, 0.223526269197464, -1.2784532308578491, 0.1334896832704544, -0.3380868434906006, -0.38027337193489075, -0.8792628049850464, 0.17750851809978485, -0.1924268752336502, -0.654708981513977, -0.6123653054237366, 0.07406629621982574, 0.26237788796424866, -0.7327570915222168, -0.33737242221832275, -0.8032479286193848, -0.10082092881202698, -0.2359618842601776, -0.42077556252479553, -0.9803303480148315, -0.39620456099510193, 0.07898937910795212, -0.7196750044822693, -0.16125531494617462, -0.5455501079559326, 0.351134717464447, -0.5051448345184326, -0.37145668268203735, -0.5187342166900635, -0.20712284743785858, -0.22089159488677979, 0.029648948460817337, 0.45408812165260315, 0.2934575378894806, -0.012756251730024815, 0.15629179775714874, -0.6773312091827393, -0.4947710335254669, -0.5713512301445007, 0.2082010805606842, -0.15389662981033325, -0.3588351905345917, -0.6607648730278015, 0.021833522245287895, -0.9055334329605103, -0.4243892431259155, 0.30860140919685364, -0.5210258960723877, -0.10553174465894699, -0.4365263879299164, -0.3187892436981201, 0.31836414337158203, -0.5885235667228699, -0.6264243721961975, -0.3187604248523712, 0.3726884126663208, -0.3920940160751343, 0.23986849188804626, 0.019320610910654068, -0.019730404019355774, -0.7272685170173645, -0.026552163064479828, -0.5531972646713257, 0.269962877035141, 0.20657514035701752, -0.9662789106369019, -1.4516396522521973, -0.3087252080440521, -0.07069838792085648, -0.14613963663578033, -0.19366039335727692, -0.5062581300735474, 0.151346817612648, -0.506860077381134, 0.42939451336860657, 0.3438554108142853, 0.049648407846689224, -0.8603460192680359, 0.07741295546293259, -0.2870107591152191, 0.49521052837371826, -0.10180742293596268, -0.2627635896205902, -0.23590314388275146, -0.6393737196922302, -0.5976279377937317, -0.845282256603241, -0.6553515791893005, -1.3627443313598633, -0.4628065824508667, -0.3152506649494171, -0.7665479779243469, 0.27998319268226624, -0.6407973170280457, 0.08020375669002533, -1.4959139823913574, -0.23670560121536255, -0.19014285504817963, -0.711747944355011, 0.2463519275188446, -0.5098004937171936, 0.20971503853797913, -0.0310897808521986, 0.26294341683387756, 0.16604003310203552, -0.45161426067352295, 0.3684905171394348, -0.19750818610191345, -0.698260486125946, 0.08961255103349686, 0.29793575406074524, -0.5068835020065308, 0.15236276388168335, -0.45043039321899414, -0.44639110565185547, -0.6155418157577515, -0.1395646184682846, -0.4475032389163971, -0.6726437211036682, 0.24441993236541748, -0.4821774959564209, -0.07921163737773895, -0.23821038007736206, -0.5244824886322021, -0.38223907351493835, -0.43434643745422363, -0.12246343493461609, -0.9641841053962708], [-0.04167017713189125, -0.045613955706357956, -0.1659211814403534, -0.08797723799943924, -0.03406491503119469, -0.008130925707519054, -0.018814684823155403, -0.15492872893810272, -0.017512887716293335, -0.08416681736707687, -0.1276502162218094, -0.02566123940050602, -0.16365714371204376, -0.16002638638019562, -0.09718294441699982, -0.055073775351047516, -0.05456377565860748, 0.04717148095369339, -0.07618646323680878, -0.11058513820171356, -0.012562524527311325, -0.046287477016448975, -0.1115780919790268, 0.013504216447472572, -0.0581878237426281, -0.1023680567741394, -0.12036588042974472, -0.08028371632099152, -0.07942956686019897, 0.002827425254508853, 0.02854309044778347, -0.11834679543972015, -0.1154426857829094, 0.07363647222518921, 0.025827273726463318, -0.022223738953471184, 0.005660765804350376, 0.013746445998549461, -0.11539836972951889, -0.05537588149309158, -0.11778340488672256, 0.015510828234255314, -0.1157463788986206, -0.12472157180309296, -0.12121539562940598, -0.12123969197273254, -0.06094483286142349, -0.032927077263593674, -0.051815710961818695, 0.03055170737206936, -0.01983471028506756, -0.05522461235523224, 0.05896025523543358, 0.0465967133641243, -0.06632585823535919, -0.021431107074022293, 0.036502547562122345, -0.007505214773118496, -0.1278773844242096, 0.08103218674659729, -0.07864885777235031, -0.1344475895166397, -0.11279051750898361, -0.048151642084121704, -0.14031225442886353, -0.1658572107553482, -0.01707400195300579, 0.02824825420975685, 0.06060212105512619, 0.02128451131284237, 0.05150793865323067, -0.06840293854475021, -0.046557411551475525, -0.03354641795158386, -0.09090782701969147, -0.052107177674770355, -0.13495829701423645, -0.15741927921772003, -0.017227653414011, -0.07720872014760971, -0.13049529492855072, -0.11546668410301208, -0.0978502407670021, 0.04698687791824341, -0.02700125426054001, -0.018168823793530464, -0.056500501930713654, -0.06543169170618057, -0.08187972754240036, -0.02498287335038185, -0.09983696043491364, -0.0571371354162693, -0.11622923612594604, -0.11438777297735214, -0.05317724868655205, -0.08495369553565979, -0.10313726961612701, 0.06494452804327011, -0.1472162902355194, 0.009218927472829819, -0.08195734024047852, -0.11901599168777466, -0.09755419194698334, -0.034266483038663864, 0.045740045607089996, -0.09816772490739822, -0.017163118347525597, -0.05092425271868706, -0.12833255529403687, -0.056796904653310776, -0.04450758546590805, -0.03129319101572037, -0.04386415705084801, -0.04631205275654793, 0.004590864293277264, -0.03089841455221176, -0.02441135235130787, -0.05039733648300171, -0.14976724982261658, -0.06785427778959274, -0.10501568019390106, 0.04585294425487518, -0.014980047941207886, -0.08268356323242188, -0.10589572787284851, -0.03204803168773651, -0.07492723315954208, -0.014616467989981174], [0.1401246190071106, 0.11705854535102844, -1.1556987762451172, -0.06999216228723526, 0.18693074584007263, 0.1274099349975586, -0.6515514254570007, -0.030776899307966232, -0.41902750730514526, -0.2392987757921219, -0.0655585452914238, 0.38165047764778137, -0.06680328398942947, -0.11814811825752258, -0.017495449632406235, -0.6009717583656311, 0.23806533217430115, 0.16933724284172058, -0.051223963499069214, -0.817740797996521, 0.13736079633235931, -0.19203223288059235, -0.2249918431043625, 0.28398796916007996, 0.020589172840118408, 0.41732466220855713, -0.15995970368385315, 0.2658989429473877, -0.33404305577278137, 0.24920734763145447, 0.16167977452278137, -0.4389224648475647, 0.2358528971672058, 0.4265596866607666, 0.30082499980926514, 0.0285017192363739, -0.2525741755962372, -0.025984741747379303, 0.10435555130243301, 0.42114749550819397, 0.3687986135482788, 0.07501203566789627, -0.2441764771938324, 0.4449918568134308, -0.6126158237457275, 0.042877744883298874, 0.34173884987831116, 0.05591996759176254, -0.299435019493103, 0.07410510629415512, 0.08828650414943695, 0.21181514859199524, -0.12301074713468552, -0.11209967732429504, 0.004436369985342026, 0.3842218518257141, 0.016060715541243553, 0.06568580120801926, 0.2973758578300476, 0.2354496866464615, -0.29179248213768005, 0.021830128505825996, -0.07876916974782944, 0.4251823127269745, 0.08020836114883423, -0.5281281471252441, -1.1513075828552246, 0.07360268384218216, 0.20977453887462616, 0.15440675616264343, 0.07463014125823975, -0.20020143687725067, 0.44370806217193604, 0.10333388298749924, 0.22313955426216125, 0.42600682377815247, -0.10415522009134293, -0.35464486479759216, 0.09974999725818634, 0.16981957852840424, 0.16649174690246582, 0.260680228471756, 0.13217946887016296, 0.08983998745679855, -0.14475437998771667, -0.09978613257408142, -0.46889689564704895, -0.04750891402363777, -1.088086485862732, 0.006942396983504295, 0.041441913694143295, -0.5453245043754578, -0.06939385086297989, -0.30710864067077637, -0.1959630250930786, -1.6991448402404785, -0.22224827110767365, 0.15396220982074738, -0.317056804895401, 0.3783165216445923, -0.009655259549617767, 0.4181974232196808, -0.17995555698871613, -0.031073113903403282, 0.5282263159751892, -0.08264068514108658, 0.43623873591423035, 0.0036599573213607073, 0.00247666472569108, -0.17238132655620575, 0.15654586255550385, 0.07730358093976974, 0.35385626554489136, -0.03736819326877594, -0.04453394562005997, -0.07653796672821045, 0.33260366320610046, -0.022136924788355827, -0.36180567741394043, 0.4672780930995941, 0.018304767087101936, 0.29322296380996704, -0.0749821811914444, -0.10275659710168839, 0.03579765185713768, -0.04213503748178482, -0.04952046647667885, -0.5774089097976685], [-0.25531578063964844, 0.1562153548002243, -1.1363204717636108, -0.2887972891330719, 0.22152765095233917, 0.1943569779396057, -0.645722508430481, -0.2689433693885803, -0.6407095789909363, -0.37403082847595215, -0.05755893141031265, 0.07384563237428665, -0.0658736526966095, -0.7098721265792847, 0.038101911544799805, -0.3558048605918884, 0.47108107805252075, 0.23246657848358154, -0.5043395757675171, -0.5372296571731567, -0.2095816433429718, -0.4191400110721588, -0.37909606099128723, 0.3044646978378296, 0.16173778474330902, 0.24078916013240814, -0.6695050597190857, -0.3391408622264862, -0.6421154141426086, -0.1387694925069809, 0.07052052021026611, -0.5966275930404663, 0.3087793290615082, 0.42234358191490173, 0.3648560345172882, -0.35558682680130005, -0.27175459265708923, -0.10956283658742905, -0.6997661590576172, 0.30675843358039856, -0.26642006635665894, 0.10676178336143494, -0.16530375182628632, 0.03311724215745926, -0.9174248576164246, 0.02881976030766964, 0.20774498581886292, -0.13479596376419067, -0.5086515545845032, 0.12147162854671478, 0.24889005720615387, 0.15013255178928375, 0.22920732200145721, 0.07548026740550995, -0.515281617641449, 0.6945692896842957, 0.15809427201747894, 0.008525191806256771, -0.28695133328437805, 0.42191603779792786, -0.08268224447965622, -0.2902434766292572, -0.02170143835246563, 0.3390830159187317, -0.29457056522369385, -0.9464470744132996, -1.1120818853378296, 0.12060767412185669, 0.40231719613075256, -0.4170563817024231, 0.331142395734787, 0.08609389513731003, 0.12372269481420517, -0.580147385597229, 0.17692580819129944, 0.2794972062110901, -0.343723863363266, -0.25548917055130005, -0.3512171804904938, 0.22481290996074677, 0.3747437596321106, 0.056946977972984314, -0.07532951235771179, 0.16565383970737457, -0.43270036578178406, 0.14410942792892456, -0.8627533316612244, -0.4392760097980499, -1.1049927473068237, -0.29846033453941345, 0.04021695256233215, -0.4349438548088074, -0.2668760418891907, -0.05055040121078491, -0.3956066071987152, -1.1968662738800049, -0.46502840518951416, 0.3301428556442261, -0.07603272050619125, 0.461349219083786, 0.16811779141426086, 0.3268468677997589, -0.47293955087661743, -0.11397697031497955, 0.31387099623680115, -0.10851310193538666, 0.7065345644950867, -0.41959792375564575, -0.7940240502357483, -0.4424053132534027, 0.026796238496899605, -0.3536948561668396, 0.4273235499858856, -0.3320135772228241, -0.06017626076936722, -0.6429255604743958, 0.10020669549703598, 0.12694910168647766, -0.5502308011054993, 0.40767902135849, 0.012651105411350727, 0.23863491415977478, -0.39322996139526367, 0.04404129832983017, 0.13371458649635315, 0.14368905127048492, -0.45911332964897156, -0.5037881135940552], [-0.2357725352048874, -1.0119552612304688, 0.9064825773239136, -0.8130059838294983, -0.049183253198862076, 0.010739002376794815, 0.7305902242660522, -0.5539492964744568, -0.6262677311897278, 0.6329418420791626, 0.1752767115831375, -0.5521819591522217, -0.8261227011680603, 0.3554135262966156, 0.1565050482749939, 0.6922976970672607, -0.28465062379837036, -0.0810810998082161, 0.14885061979293823, 0.8382328748703003, 0.2746860086917877, -0.40634849667549133, 0.464897483587265, -0.17112652957439423, 0.040944427251815796, -1.0430810451507568, 0.235927551984787, 0.3503902554512024, -0.10169852524995804, 0.1237909346818924, -0.05743155628442764, -0.6707879900932312, -1.0093568563461304, -1.031312108039856, -0.20902302861213684, -0.7113343477249146, 0.5088775157928467, 0.29489031434059143, 0.35979974269866943, -0.711769163608551, 0.22464880347251892, 0.11331029236316681, 0.4530819058418274, 0.039015211164951324, 0.4434809386730194, 0.12106137722730637, -0.8921087384223938, 0.2772754430770874, -0.4214734137058258, 0.09098709374666214, 0.05093531683087349, -0.7583877444267273, 0.09740360826253891, -0.014359686523675919, -0.014217881485819817, -1.3671575784683228, 0.013602763414382935, -0.925241231918335, 0.040980253368616104, -0.42527201771736145, 0.31672731041908264, -0.4462158977985382, 0.24272659420967102, -1.0637574195861816, -0.4883522093296051, 0.5593543648719788, 0.8335688710212708, -0.04612376540899277, -0.35191720724105835, 0.04649355262517929, -0.14717264473438263, 0.11621540784835815, -0.39384254813194275, 0.4932388663291931, -0.8835431337356567, -1.1302374601364136, -0.5654732584953308, 0.4646824896335602, -0.4963674545288086, -0.062480632215738297, -1.1411311626434326, -0.14497707784175873, 0.14296448230743408, -0.10146278887987137, 0.44113990664482117, 0.1506480574607849, 0.375911146402359, 0.42963477969169617, 0.8218647241592407, 0.27071911096572876, 0.0359201617538929, 0.6841473579406738, -0.8759444355964661, 0.32747429609298706, -0.6795592308044434, 0.8148095011711121, -0.19933085143566132, -0.10844308882951736, 0.35233646631240845, -0.9382466673851013, 0.05931264907121658, -0.489467054605484, -0.31059372425079346, -0.7663363814353943, -0.7771121263504028, 0.3606833517551422, -1.3530614376068115, -0.05528637021780014, 0.4017063081264496, -0.5114179849624634, -0.7633770704269409, 0.27688121795654297, -0.5655003786087036, 0.4350404739379883, 0.22465409338474274, 0.2931700050830841, -0.10436750203371048, -0.006107008084654808, 0.5911190509796143, -1.0428688526153564, 0.2351020723581314, -0.14076031744480133, 0.059783488512039185, 0.1920587718486786, 0.06676501035690308, 0.10246214270591736, -0.1701284497976303, 0.7927089333534241], [0.0031424732878804207, -0.14024841785430908, 0.1129230335354805, 0.10827051103115082, -0.389992892742157, -0.44845107197761536, 0.0994725376367569, 0.05328992381691933, 0.5522163510322571, -0.06985629349946976, -0.3342195749282837, -0.3440597653388977, 0.1140955463051796, 0.23560918867588043, -0.2940940260887146, 0.00650197546929121, -0.5608798265457153, -0.4756321310997009, 0.11577014625072479, 0.03000752441585064, -0.05739695578813553, 0.258732408285141, -0.08716441690921783, -0.4582865536212921, -0.33700573444366455, -0.10729870945215225, 0.2474140077829361, -0.14192503690719604, 0.3663431406021118, -0.2099461555480957, -0.3665182292461395, 0.546779453754425, 2.766163379419595e-05, -0.49977803230285645, -0.4965475797653198, 0.15900959074497223, -0.05677296221256256, -0.28209632635116577, 0.16614311933517456, -0.5718513131141663, -0.14788506925106049, -0.3928876519203186, -0.13176549971103668, -0.24328164756298065, 0.27226364612579346, -0.338530570268631, -0.24935762584209442, -0.332152783870697, 0.3887432813644409, -0.3672858774662018, -0.5246910452842712, -0.019399885088205338, -0.44757869839668274, -0.3931632339954376, 0.27660855650901794, -0.18121562898159027, -0.3901776373386383, 0.02498820051550865, -0.05419802665710449, -0.6857384443283081, -0.1705697923898697, 0.22979745268821716, -0.2521837055683136, -0.2925298810005188, 0.14054781198501587, 0.16449382901191711, 0.11789817363023758, -0.44276535511016846, -0.5754539966583252, 0.013078472577035427, -0.5661168098449707, -0.3494817018508911, -0.2620489001274109, 0.06642556190490723, -0.0037258483935147524, -0.19429108500480652, 0.18487077951431274, -0.0963621735572815, 0.12756964564323425, -0.4906439185142517, 0.045441605150699615, -0.37774932384490967, -0.28496241569519043, -0.40592336654663086, -0.08045189082622528, -0.3611752390861511, 0.2463175654411316, -0.03427577391266823, 0.22913804650306702, -0.11573679745197296, -0.4426223039627075, -0.010364166460931301, 0.15240119397640228, -0.19365525245666504, 0.3187229633331299, 0.1648869812488556, 0.1686144918203354, -0.5267286896705627, -0.3306226432323456, -0.5870681405067444, -0.4749704897403717, -0.4253947138786316, 0.21834829449653625, 0.06771975755691528, -0.42612412571907043, -0.13216815888881683, 0.019319945946335793, 0.14952655136585236, 0.0737929418683052, 0.29934561252593994, -0.08401882648468018, -0.13199113309383392, -0.7389001846313477, -0.11769630014896393, -0.3098315894603729, 0.10776636749505997, -0.3983241319656372, -0.40138155221939087, 0.07247312366962433, -0.2466065138578415, -0.24033379554748535, -0.4140129089355469, 0.2695279121398926, -0.41545864939689636, -0.4176730811595917, -0.48452064394950867, 0.167612224817276, 0.0781896710395813], [0.224058136343956, 0.19824887812137604, -0.1765928864479065, 0.36592936515808105, -0.6063566207885742, -0.6725014448165894, -0.44494232535362244, 0.29119959473609924, 0.47642388939857483, -0.3873671591281891, -0.7718867659568787, 0.13418081402778625, 0.3004838228225708, 0.08323471993207932, -0.5330469012260437, -0.7537766695022583, -0.5879656076431274, -0.6565324664115906, 0.21454527974128723, -0.9016605019569397, -0.2803351581096649, 0.27300992608070374, -0.5780748724937439, -0.5953726768493652, -0.75412517786026, 0.10839451104402542, 0.17374072968959808, -0.19333313405513763, 0.33891794085502625, -0.2525244653224945, -0.5218777060508728, 0.36287322640419006, -0.007986617274582386, -0.051851700991392136, -0.5355758666992188, 0.27318957448005676, -0.6843822002410889, -0.5218056440353394, 0.0064943162724375725, -0.08155716955661774, -0.20308572053909302, -0.5689051151275635, -0.6555684804916382, -0.03195757046341896, 0.004701901227235794, -0.6290130019187927, 0.13656972348690033, -0.6377915740013123, 0.30225029587745667, -0.7866743206977844, -0.7619359493255615, 0.23265190422534943, -0.8142275810241699, -0.8556120991706848, 0.2609344720840454, -0.25107043981552124, -0.5659531950950623, 0.2909119725227356, 0.13391917943954468, -0.43266570568084717, -0.8036081194877625, 0.22875624895095825, -0.8342679142951965, 0.013038834556937218, 0.2551593482494354, 0.07551343739032745, -0.12702415883541107, -0.6365913152694702, -0.494674950838089, 0.11609584838151932, -0.7217299938201904, -0.9342141151428223, 0.0108376769348979, -0.22215910255908966, 0.21223899722099304, -0.033740121871232986, 0.37831512093544006, -0.8532746434211731, 0.30817675590515137, -0.5241208672523499, 0.03380076214671135, -0.2358596920967102, -0.29238012433052063, -0.7342169880867004, -0.4404405951499939, -0.8994174599647522, 0.08624012023210526, -0.29121842980384827, -0.06631830334663391, -0.33811286091804504, -0.7161946296691895, -0.6512041687965393, 0.2474106401205063, -0.6652231216430664, 0.3915945589542389, -0.15279749035835266, 0.23793469369411469, -0.655890166759491, -0.9084665179252625, -0.27982524037361145, -0.7649901509284973, -0.18624019622802734, 0.22369295358657837, 0.2785440683364868, -0.004879319109022617, -0.48959556221961975, -0.18301409482955933, 0.28185170888900757, -0.04818607494235039, 0.404639333486557, 0.1682978719472885, -0.3629899322986603, -0.44832390546798706, -0.3477620780467987, -0.5058618187904358, 0.021473508328199387, -0.26947352290153503, -0.7454670071601868, -0.4860924184322357, 0.043663039803504944, -0.5078868865966797, -0.4274469316005707, 0.26413142681121826, -0.906822144985199, -0.5976418852806091, -0.7842410206794739, 0.26969513297080994, -0.6388391256332397], [-0.10490763932466507, 0.004413140006363392, -0.0018972656689584255, -0.13378703594207764, 0.061690766364336014, 0.06258247047662735, 0.01226075366139412, -0.024778516963124275, -0.19346830248832703, -0.05430608615279198, 0.004397016018629074, 0.052819278091192245, -0.04967290908098221, -0.06244157627224922, -0.08590147644281387, -0.12313594669103622, -0.06076151505112648, -0.08314268290996552, -0.03867732733488083, -0.13150562345981598, -0.056175269186496735, -0.15544798970222473, -0.022760367020964622, 0.0254451222717762, -0.05057765915989876, -0.06206969544291496, -0.01910712756216526, -0.052746549248695374, -0.21747484803199768, 0.009323920123279095, 0.05686076357960701, -0.1968112736940384, 0.002988549182191491, -0.013338780961930752, 0.02050318382680416, -0.07847447693347931, -0.05238804966211319, -0.11687414348125458, -0.028839245438575745, -0.015662144869565964, 0.018233226612210274, 0.042735420167446136, -0.022918084636330605, -0.1080014780163765, -0.06488532572984695, 0.002670012880116701, 0.057424627244472504, -0.018575672060251236, -0.10495609045028687, -0.05646558478474617, -0.04638868570327759, -0.07841793447732925, -0.03002483770251274, -0.09862373769283295, -0.009070787578821182, -0.047093793749809265, -0.09980746358633041, -0.1626739352941513, -0.04174049571156502, 0.04495455324649811, 0.011631867848336697, -0.10571110248565674, -0.06393174827098846, 0.011105676181614399, -0.12342177331447601, -0.09207746386528015, -0.06339659541845322, 0.01119372621178627, -0.11142748594284058, 0.052358273416757584, -0.08689039945602417, -0.0002485491568222642, -0.11396776884794235, -0.014018933288753033, -0.12293625622987747, -0.01620945706963539, -0.12121409177780151, -0.14215640723705292, -0.037597037851810455, -0.019887354224920273, 0.022869806736707687, -0.10284379124641418, 0.05373696610331535, -0.08766180276870728, -0.021179568022489548, 0.023572111502289772, -0.1238948181271553, -0.07196085155010223, -0.14864657819271088, -0.08492017537355423, -0.0028004904743283987, -0.05298784747719765, -0.12832538783550262, -0.12217939645051956, -0.07832884043455124, -0.14902009069919586, -0.17230182886123657, 0.032064300030469894, -0.05865722894668579, -0.09338978677988052, -0.06808687746524811, -0.013585261069238186, -0.07765740156173706, -0.17059281468391418, 0.005426544696092606, -0.10003222525119781, -0.035841602832078934, -0.09354789555072784, -0.08741537481546402, -0.08925627171993256, -0.05564551800489426, -0.010741544887423515, -0.03399773687124252, -0.0706586241722107, -0.12408103793859482, -0.10627321153879166, -0.08499613404273987, -0.08784004300832748, 0.01290376577526331, 0.0318790078163147, -0.03989234194159508, 0.04629325494170189, -0.016067657619714737, -0.0008391651790589094, -0.0032312616240233183, 0.0369979552924633, -0.07986591756343842, -0.12051229178905487], [-0.03654996305704117, -0.023243682458996773, -0.08101268857717514, -0.1077672615647316, -0.08833950012922287, 0.026368368417024612, -0.02636883221566677, -0.008730803616344929, 0.060398053377866745, -0.03759222850203514, 0.028782812878489494, -0.0937221422791481, 0.0515536367893219, -0.07984137535095215, -0.012509074062108994, -0.024011610075831413, -0.0722346156835556, 0.028899556025862694, 0.04714297875761986, -0.10345938056707382, -0.016809506341814995, -0.08399653434753418, 0.003086425829678774, -0.09410762041807175, -0.12273676693439484, -0.11471300572156906, -0.04695037379860878, -0.013985359109938145, -0.11917310953140259, -0.012815694324672222, 0.040700625628232956, -0.05819987133145332, -0.10788244009017944, -0.1811923384666443, -0.015495121479034424, -0.09571373462677002, 0.023598460480570793, -0.06842164695262909, -0.08350885659456253, -0.005890588741749525, -0.07915335893630981, 0.044538404792547226, -0.0947805866599083, -0.10972367972135544, -0.1699441373348236, 0.01728972978889942, -0.0032947673462331295, -0.038598183542490005, -0.025934426113963127, -0.11954396218061447, -0.06456349790096283, -0.012684636749327183, 0.030355732887983322, -0.019435012713074684, -0.05802367627620697, -0.10776208341121674, -0.07971540838479996, -0.08597846329212189, -0.09870363026857376, -0.015593066811561584, -0.14446303248405457, -0.0353497751057148, -0.005091974511742592, -0.05762355029582977, 0.055439259856939316, -0.16553370654582977, -0.09895480424165726, 0.026966517791152, -0.06836799532175064, -0.04050081968307495, -0.1267211139202118, -0.03061060793697834, -0.036551229655742645, 0.034589458256959915, -0.0988665297627449, -0.19414477050304413, -0.07227571308612823, -0.1001126691699028, -0.0161572378128767, -0.005250408314168453, -0.12962718307971954, -0.05303133279085159, 0.03326963633298874, -0.11614468693733215, -0.031228477135300636, -0.01866060681641102, -0.11482260376214981, 0.02387302927672863, -0.17365320026874542, -0.06184057146310806, -0.04883497580885887, -0.04518640786409378, 0.03973852097988129, -0.04128332808613777, -0.10745766013860703, -0.07287807017564774, 0.048622943460941315, -0.05448218062520027, -0.11219009011983871, -0.1543397605419159, 0.007281646132469177, 0.006839941255748272, -0.011118683032691479, -0.011651498265564442, 0.0017540052067488432, -0.025172989815473557, -0.2122967392206192, -0.015068773180246353, -0.10503610223531723, -0.041024770587682724, -0.12752777338027954, 0.038318291306495667, -0.14688196778297424, -0.10656297951936722, -0.019063077867031097, 0.05477553978562355, -0.07450196146965027, -0.044229503720998764, -0.07473955303430557, -0.06742846220731735, -0.09541105479001999, -0.1104826033115387, 0.013651232235133648, -0.10857925564050674, -0.09908339381217957, -0.048587966710329056, -0.021125998347997665, -0.07912340015172958], [0.12286076694726944, 0.14051586389541626, -0.42531871795654297, -0.12764877080917358, 0.40614452958106995, 0.44722703099250793, -0.19394949078559875, 0.021194951608777046, -0.23549985885620117, -0.11656665802001953, 0.22104671597480774, 0.3439909815788269, 0.10304505378007889, -0.1442800909280777, 0.2242278903722763, -0.30673927068710327, 0.6980528235435486, 0.44390684366226196, -0.23092114925384521, -0.3267003297805786, 0.13676422834396362, -0.05893201008439064, 0.03743571788072586, 0.639739990234375, 0.3687525689601898, 0.2922493815422058, -0.19502344727516174, 0.1250772774219513, -0.2903873026371002, 0.2839222252368927, 0.41022518277168274, -0.21334634721279144, 0.18010088801383972, 0.6004911065101624, 0.5823172330856323, 0.03466375172138214, 0.04979757219552994, 0.15901638567447662, -0.04329806566238403, 0.5044466257095337, 0.2492009848356247, 0.4579230546951294, -0.020747186616063118, 0.2881155014038086, -0.41859734058380127, 0.35175037384033203, 0.25696736574172974, 0.21963012218475342, -0.24171695113182068, 0.3092319667339325, 0.42571794986724854, 0.18643607199192047, 0.2562384307384491, 0.38114532828330994, -0.20844988524913788, 0.22619737684726715, 0.3384368419647217, 0.08400197327136993, 0.09667230397462845, 0.6318321228027344, 0.08021089434623718, -0.034140512347221375, 0.13096822798252106, 0.3461248576641083, 0.0161258727312088, -0.31882575154304504, -0.23885683715343475, 0.36766743659973145, 0.6379144191741943, 0.008308732882142067, 0.5485626459121704, 0.29943376779556274, 0.4458189308643341, -0.08233140408992767, 0.14962518215179443, 0.4469623267650604, -0.17788736522197723, -0.16534443199634552, 0.05052981898188591, 0.40538474917411804, 0.010351328179240227, 0.4409593343734741, 0.27593162655830383, 0.39570653438568115, -0.05038335546851158, 0.29249292612075806, -0.3301434814929962, 0.02701593190431595, -0.323406845331192, 0.15054410696029663, 0.3301129639148712, -0.09077907353639603, -0.021992098540067673, 0.04634366184473038, -0.02808639220893383, -0.43353939056396484, -0.20034398138523102, 0.49300915002822876, 0.09241734445095062, 0.4876399338245392, 0.30581334233283997, 0.434122234582901, -0.22690100967884064, 0.0783170834183693, 0.5610406994819641, 0.13051028549671173, 0.034852929413318634, -0.17686276137828827, -0.22444267570972443, -0.07370298355817795, 0.2759326696395874, 0.14203952252864838, 0.6907053589820862, 0.12214957177639008, 0.23337368667125702, -0.23344483971595764, 0.44069305062294006, 0.29890552163124084, -0.16609111428260803, 0.33594149351119995, 0.2482965737581253, 0.44468435645103455, -0.05212199687957764, 0.23500072956085205, 0.43645867705345154, 0.41003739833831787, -0.19035527110099792, -0.25664669275283813], [0.06640153378248215, 0.23670583963394165, -1.8942219018936157, 0.2669095993041992, -0.6721474528312683, -0.5843371748924255, -2.1686503887176514, 0.18667635321617126, 0.3715466558933258, -1.6052244901657104, -0.925889253616333, 0.1332855522632599, 0.2613959014415741, -0.552996814250946, -0.7483519911766052, -1.8526771068572998, -0.18820743262767792, -0.39275166392326355, -0.22037671506404877, -1.983441710472107, -0.6481360793113708, 0.11916898936033249, -1.2731003761291504, -0.2217470407485962, -0.7111140489578247, 0.23737983405590057, -0.3903440833091736, -0.690972626209259, -0.16110514104366302, -0.5401927828788757, -0.6025052666664124, 0.35199254751205444, 0.40085262060165405, 0.3147623538970947, -0.27887216210365295, 0.1669197976589203, -1.2392343282699585, -0.9430297613143921, -0.6905215978622437, 0.12752270698547363, -0.3630448579788208, -0.6911242604255676, -1.208389163017273, -0.10509388893842697, -0.7155592441558838, -0.7820706367492676, 0.3461129069328308, -0.801918625831604, 0.1416834145784378, -0.7949720025062561, -0.6476446390151978, 0.3606141209602356, -0.7432761788368225, -0.7200383543968201, -0.17850421369075775, 0.5337784886360168, -0.7219117283821106, 0.209512859582901, -0.14792904257774353, -0.044656313955783844, -1.1463706493377686, 0.1507260501384735, -0.9211158156394958, 0.3573967516422272, 0.1284729242324829, -0.9847690463066101, -1.9596861600875854, -0.584792971611023, -0.20335468649864197, -0.23174192011356354, -0.46216315031051636, -0.8285956382751465, 0.05857450142502785, -1.146225094795227, 0.45448192954063416, 0.27807366847991943, 0.264787495136261, -1.375338077545166, 0.18027788400650024, -0.46531715989112854, 0.5468897819519043, -0.2583918273448944, -0.5831040740013123, -0.643241822719574, -1.4911662340164185, -0.7149084806442261, -0.5686343908309937, -1.2081811428070068, -1.623628854751587, -1.0346401929855347, -0.680316686630249, -1.5841434001922607, 0.3771584630012512, -1.06158447265625, 0.264114648103714, -1.71096670627594, 0.0547521747648716, -0.393134742975235, -1.1586227416992188, 0.34956398606300354, -0.6797720789909363, 0.1431855410337448, 0.1582440584897995, 0.3383112847805023, 0.25055310130119324, -0.9668954610824585, 0.4968040883541107, 0.05019932985305786, -1.0331943035125732, 0.14182282984256744, 0.19760771095752716, -0.8273879289627075, 0.17099587619304657, -0.9882062077522278, -0.8663607835769653, -0.6047083735466003, -0.24624362587928772, -0.6491135358810425, -1.621078372001648, 0.2310527265071869, -0.8725037574768066, -0.4705786406993866, -0.10620772838592529, -0.7993491888046265, -0.7030065059661865, -0.6544780731201172, 0.11497795581817627, -1.8642277717590332], [0.33519330620765686, 0.8353164196014404, -0.8911660313606262, 0.3471089005470276, 0.09453466534614563, 0.03836330398917198, -0.6524873375892639, 0.41562968492507935, 0.07314316183328629, -0.6337525844573975, -0.3052135705947876, 0.7637518644332886, 0.6916717886924744, -0.2933925688266754, -0.1415935456752777, -0.7679256796836853, 0.2894885241985321, 0.10267593711614609, -0.10877344012260437, -0.8237992525100708, 0.002691955305635929, 0.16772952675819397, -0.4072774052619934, 0.16989576816558838, -0.1779143065214157, 0.9822967052459717, -0.27195703983306885, 0.012092339806258678, -0.18440763652324677, 0.1576012670993805, 0.10557161271572113, 0.10130805522203445, 0.8838967084884644, 0.7747482657432556, 0.3694082796573639, 0.42594820261001587, -0.5323832035064697, -0.32809722423553467, -0.26401084661483765, 0.8298053741455078, 0.11355037242174149, 0.026234682649374008, -0.5192869901657104, 0.31140491366386414, -0.5554096698760986, -0.10011028498411179, 0.7730618119239807, -0.15249863266944885, 0.062410373240709305, -0.05373276397585869, -0.10130797326564789, 0.8041874766349792, -0.253489226102829, -0.32002153992652893, 0.03887905180454254, 0.3869316577911377, -0.08121365308761597, 0.6604439616203308, 0.2831319272518158, 0.36579006910324097, -0.5194805860519409, 0.3699171245098114, -0.23093947768211365, 0.9591079354286194, 0.4865266978740692, -0.673193633556366, -0.8511468172073364, 0.03525912016630173, 0.24909216165542603, 0.21552623808383942, 0.09312339872121811, -0.38851553201675415, 0.5679009556770325, -0.2756057679653168, 0.8489294648170471, 0.8351197838783264, 0.2975024878978729, -0.5763697624206543, 0.4005334973335266, 0.11110155284404755, 0.7163869142532349, 0.4014160931110382, 0.0004312685050535947, -0.04613346979022026, -0.4153210520744324, -0.2582821547985077, -0.45876526832580566, -0.2665752172470093, -0.7715941071510315, -0.2310665398836136, -0.01988537795841694, -0.7472767233848572, 0.5262691974639893, -0.4580722153186798, 0.41477301716804504, -0.9514157176017761, 0.000402292818762362, 0.21957449615001678, -0.5101475715637207, 0.6930546164512634, -0.10452941060066223, 0.5257537961006165, 0.13593515753746033, 0.6350168585777283, 0.9208648204803467, -0.2060115486383438, 0.48052331805229187, -0.030648717656731606, -0.46637028455734253, 0.3256765604019165, 0.7698315382003784, -0.09226882457733154, 0.4515112042427063, -0.3113311529159546, -0.12513618171215057, -0.23911930620670319, 0.26685574650764465, -0.16533136367797852, -0.4909577965736389, 0.9002434611320496, -0.14730829000473022, 0.1546494960784912, 0.012058112770318985, -0.23535151779651642, 0.03058570809662342, -0.11111369729042053, 0.10473506152629852, -0.8077030777931213], [-0.5720259547233582, 0.25446245074272156, -1.8166916370391846, -0.23610632121562958, 0.11092905700206757, 0.11117807030677795, -0.8709487318992615, -0.32549813389778137, -0.4647640883922577, -0.6843400597572327, -0.04924527928233147, 0.09876653552055359, -0.09975191950798035, -2.6785030364990234, -0.06518252938985825, -0.576056182384491, 0.5798472166061401, 0.3841093182563782, -1.7920949459075928, -0.5748096704483032, -0.3798660635948181, -0.3987446129322052, -0.4858093559741974, 0.4210200905799866, 0.15426819026470184, 0.6191098690032959, -2.3961923122406006, -0.5750143527984619, -1.8182587623596191, -0.2502826452255249, 0.20271563529968262, -0.41379600763320923, 0.6617470383644104, 0.7959665656089783, 0.41944143176078796, -0.1825087070465088, -0.37493953108787537, -0.3470948040485382, -2.1783432960510254, 0.5969195365905762, -0.43446314334869385, 0.17574377357959747, -0.38120678067207336, -0.22629328072071075, -2.824474573135376, -0.0372440330684185, 0.5178253650665283, -0.12207779288291931, -0.44681528210639954, 0.1003485918045044, 0.28304630517959595, 0.2799365222454071, 0.25980550050735474, 0.09994412213563919, -1.1671627759933472, 1.2929209470748901, -0.008577859029173851, -0.09229661524295807, -0.5689445734024048, 0.7363577485084534, -0.3483271598815918, -0.4933187663555145, -0.1553427278995514, 0.6224521994590759, -0.30969420075416565, -2.3802731037139893, -1.8092505931854248, 0.1281796246767044, 0.44958341121673584, -1.0235306024551392, 0.45681241154670715, 0.16721460223197937, 0.23531924188137054, -0.9629617929458618, 0.34613746404647827, 0.6820458769798279, -0.34758317470550537, -0.4505574405193329, -0.29896530508995056, 0.1863555908203125, 0.5849794745445251, 0.1074608713388443, -0.224978506565094, 0.18938998878002167, -0.7216106057167053, 0.1126263439655304, -2.8896830081939697, -0.793128490447998, -2.008820056915283, -0.39980149269104004, 0.08865553885698318, -0.5637423992156982, -0.1471627652645111, -0.371814489364624, -0.24746818840503693, -2.2158966064453125, -0.8422713875770569, 0.3962920308113098, -0.29607051610946655, 0.984484076499939, 0.18512244522571564, 0.5267495512962341, -0.561812698841095, -0.06372964382171631, 0.5461311340332031, -0.38616445660591125, 1.0977602005004883, -1.0474213361740112, -1.9571003913879395, -0.4006813168525696, 0.18603119254112244, -0.5891056060791016, 0.7069961428642273, -0.5359030365943909, -0.15774711966514587, -2.309727907180786, 0.04987836629152298, 0.13553930819034576, -0.6993157863616943, 0.7206609845161438, -0.17296312749385834, 0.21308353543281555, -1.1873199939727783, 0.015327829867601395, 0.005432175472378731, 0.23230567574501038, -0.7539805769920349, -0.6633353233337402], [0.17617662250995636, 0.2589317560195923, -0.6525564789772034, 0.36176466941833496, -0.616176426410675, -0.7693049311637878, -1.0709142684936523, 0.33980369567871094, 0.39596027135849, -0.8896518349647522, -0.7930209636688232, 0.01891246996819973, 0.2086619883775711, -0.07441860437393188, -0.6936584115028381, -1.4123477935791016, -0.5124534368515015, -0.5863711833953857, 0.14223134517669678, -1.8362218141555786, -0.2660824656486511, 0.23270727694034576, -0.8191285729408264, -0.4910932779312134, -0.8052816987037659, 0.06609972566366196, -0.056295860558748245, -0.23322436213493347, 0.16989931464195251, -0.2947539985179901, -0.7060429453849792, 0.5171024203300476, 0.09911367297172546, -0.012178989127278328, -0.43688416481018066, 0.39090773463249207, -0.9084492921829224, -0.7752358913421631, -0.034414395689964294, -0.07093073427677155, -0.12785881757736206, -0.6708732843399048, -0.875170886516571, -0.020765701308846474, -0.2287730723619461, -0.674665629863739, 0.05363298952579498, -0.6783676743507385, 0.3595886826515198, -0.8388660550117493, -0.8550110459327698, 0.24613763391971588, -0.9290285706520081, -1.0143710374832153, 0.23328229784965515, -0.16097645461559296, -0.6964678168296814, 0.21734121441841125, 0.1923174411058426, -0.35774704813957214, -0.9600393772125244, 0.3005443811416626, -0.8740125894546509, 0.1695348620414734, 0.21068035066127777, -0.23488250374794006, -0.59757399559021, -0.5851079821586609, -0.4686986804008484, 0.058794356882572174, -0.67169588804245, -0.8853649497032166, -0.07204506546258926, -0.44769102334976196, 0.28826388716697693, 0.08579333126544952, 0.33971527218818665, -1.1727633476257324, 0.22984902560710907, -0.604059636592865, 0.16240517795085907, -0.28352493047714233, -0.4174020290374756, -0.7710102200508118, -0.8925802707672119, -0.9308737516403198, -0.062213461846113205, -0.475419819355011, -0.5755900144577026, -0.529995322227478, -0.7888258099555969, -1.0219004154205322, 0.3566717207431793, -0.9048806428909302, 0.3142302632331848, -0.6413136720657349, 0.265973299741745, -0.6227161288261414, -0.9746300578117371, -0.06406012922525406, -0.8477192521095276, -0.11683278530836105, 0.25069087743759155, 0.35954293608665466, 0.13727155327796936, -0.5629105567932129, 0.02075943537056446, 0.23528768122196198, 