[{"weight": [[-0.19055640697479248, 0.18064866960048676], [0.523657500743866, -1.2136727571487427], [2.7318274974823, -0.1332533061504364], [-0.28090354800224304, 0.1213979721069336], [0.8433733582496643, 0.8449798226356506], [0.5044121742248535, -0.46563592553138733], [-0.03074934519827366, -1.142333984375], [0.3810921907424927, 0.5627945065498352], [-0.082452192902565, 0.04490845277905464], [-0.07263553142547607, 0.036323294043540955], [0.2461879402399063, -0.7506023645401001], [-0.25713688135147095, 0.6695725917816162], [0.6255177855491638, 1.1534383296966553], [1.1704317331314087, -1.193772792816162], [-0.484065979719162, 0.7204272747039795], [0.42425450682640076, 1.0941733121871948], [-0.7322353720664978, -0.19201542437076569], [-2.326462984085083, 0.0037459824234247208], [0.08959318697452545, -1.2942173480987549], [1.0685312747955322, 0.15329687297344208], [1.5053449869155884, -1.0911881923675537], [0.4077830910682678, 1.173244833946228], [1.5241880416870117, -0.9664750695228577], [-1.5304417610168457, -1.2309787273406982], [0.004063822794705629, -0.2841103672981262], [0.9644392132759094, -0.07533065974712372], [-0.3667047619819641, 0.19603940844535828], [0.5455353856086731, -0.13024191558361053], [-0.0073264059610664845, 0.16877681016921997], [0.7602527141571045, -0.312477707862854], [1.9038817882537842, -0.8502091765403748], [0.5303695201873779, 0.12248639762401581], [-0.3268321454524994, -0.3193940818309784], [-0.1235966756939888, 0.1532047688961029], [-1.7737711668014526, -0.10017894953489304], [1.2814319133758545, -0.8604345917701721], [1.8096588850021362, -0.41867607831954956], [0.16076019406318665, 1.5233968496322632], [-0.0357745960354805, -1.495088815689087], [-1.294864296913147, -1.1679332256317139], [1.073649525642395, 0.36515578627586365], [-0.2450825423002243, 0.30279862880706787], [-0.1968521922826767, 0.4809678792953491], [0.0480460524559021, 0.036205705255270004], [-0.19996854662895203, 1.163469672203064], [0.06331880390644073, -0.37418168783187866], [0.2148766815662384, 0.7741618752479553], [0.6556083559989929, 1.3954932689666748], [1.1655200719833374, 0.6533355116844177], [1.459486722946167, -0.8972033858299255], [-0.539146363735199, -0.35264158248901367], [-1.3575046062469482, -1.0168880224227905], [-2.3489251136779785, -0.3286202847957611], [1.2561928033828735, 0.5992684960365295], [-1.6462441682815552, -0.42499303817749023], [0.2529635429382324, 0.4915279746055603], [1.2289563417434692, -0.91032874584198], [1.3638750314712524, -1.2346158027648926], [-0.9057570695877075, 0.2901875078678131], [-0.15192916989326477, 0.12124404311180115], [0.5480433702468872, 1.4363971948623657], [-1.7944533824920654, -0.2629352807998657], [0.2696661055088043, -0.39215466380119324], [1.1672208309173584, 1.0527738332748413], [-0.14680516719818115, 0.12946197390556335], [-1.0758495330810547, -1.3240289688110352], [-0.9065530300140381, 0.6679244041442871], [-0.03213709220290184, 0.9809240102767944], [0.4232776463031769, -1.3703299760818481], [-1.0803735256195068, -1.3339418172836304], [-1.717185616493225, 0.17359694838523865], [0.021487653255462646, 0.09964259713888168], [2.1961112022399902, -0.35838958621025085], [-0.07418321073055267, -0.09707999974489212], [1.4739006757736206, -1.1421594619750977], [0.28355658054351807, 3.6669719219207764], [-0.2801225781440735, 0.35425201058387756], [-0.2959625720977783, 0.07639224827289581], [-1.3929539918899536, 0.5073007345199585], [0.5240442752838135, 1.2492207288742065], [0.6955076456069946, 1.2358827590942383], [-0.27626845240592957, 0.295251727104187], [0.597246527671814, -1.4378700256347656], [0.5258060693740845, 1.1910468339920044], [0.041370026767253876, 0.156259685754776], [-0.29290544986724854, 1.166181206703186], [0.05066070333123207, 0.06868033856153488], [-2.233826160430908, -0.18710146844387054], [0.11009752750396729, -1.2242172956466675], [-0.7130023837089539, 0.0492573045194149], [-0.22158636152744293, 0.2364799529314041], [-0.22377260029315948, 0.07155460864305496], [-0.6349241137504578, 0.32399457693099976], [-0.1961752027273178, -0.11541017144918442], [-1.5677306652069092, 0.2771640717983246], [1.2416268587112427, -0.7019330263137817], [-0.09305335581302643, 1.4546862840652466], [-0.29852449893951416, 1.2236136198043823], [-0.19928060472011566, -0.05326947569847107], [-0.0999215692281723, 0.08796476572751999], [-0.44720032811164856, 0.012902406975626945], [-0.04567601904273033, 1.7592219114303589], [-1.98861563205719, -0.175949826836586], [1.0984750986099243, -1.2732150554656982], [0.03654644265770912, 0.4231243431568146], [1.4673359394073486, -0.891792893409729], [-0.9109164476394653, 0.6849609613418579], [-1.3625421524047852, 0.2221021205186844], [-0.12038972973823547, -1.4350008964538574], [-0.14921574294567108, 0.35138052701950073], [-0.7903293371200562, 1.3311964273452759], [1.1145812273025513, -0.3187304139137268], [0.9424889087677002, 1.1982988119125366], [1.6112984418869019, -0.3513289988040924], [-2.649101734161377, -0.20228397846221924], [0.1712803691625595, 0.2999116778373718], [0.937487781047821, 1.0251842737197876], [-1.5789135694503784, -0.8192312717437744], [0.42773306369781494, 0.9532387852668762], [-1.027462363243103, 0.9545817971229553], [0.1169835701584816, 3.1156013011932373], [-1.581075668334961, 0.10481105744838715], [-0.2603859603404999, -1.6778481006622314], [-1.7609963417053223, -0.1271984726190567], [0.18892575800418854, -0.4939636290073395], [-2.070096492767334, 0.3091646134853363], [-0.9917316436767578, -0.011831722222268581], [-0.25680768489837646, 0.1165185272693634]], "bias": [0.8336825966835022, 0.1400405615568161, 1.0561184883117676, 1.000290036201477, -0.46710482239723206, 0.5916340947151184, 0.3996598720550537, 0.06423366814851761, -0.019449304789304733, 0.5209743976593018, 0.23337851464748383, 1.1185925006866455, 0.04222216457128525, 0.21712419390678406, 0.9096828699111938, 0.6265153288841248, 0.9098587036132812, 0.855305016040802, -0.35136914253234863, -0.3331126272678375, -0.31566107273101807, -0.2261776328086853, -0.06700564175844193, 0.878734827041626, 1.0617258548736572, 0.8007447719573975, 0.08859922736883163, 0.40575605630874634, 0.6414602398872375, 0.49819546937942505, 0.1995587795972824, -0.20500588417053223, 1.1200039386749268, 0.4051540791988373, 0.41748130321502686, 0.27630677819252014, 0.1376267373561859, 0.8708693385124207, 0.24362662434577942, 0.058448225259780884, 0.11229114979505539, 0.8700230717658997, 0.9536076188087463, 0.08492328971624374, 0.03267665579915047, 0.5700752139091492, 0.6702475547790527, 0.46593499183654785, -0.6667013168334961, -0.4472518861293793, 1.2931572198867798, 0.07927688956260681, 1.014749526977539, 0.3790912628173828, -0.1962813287973404, 1.0918859243392944, -0.484283983707428, 0.27325424551963806, 1.2666581869125366, 0.6764436364173889, 0.49221962690353394, -0.024278759956359863, -0.2253132313489914, -0.4531409442424774, -0.3030664026737213, 0.020346637815237045, 1.2547210454940796, 0.8020328283309937, -0.3874323070049286, 0.9035112261772156, 0.493801474571228, -0.021969497203826904, 0.7980249524116516, 1.0065768957138062, -0.29536935687065125, 0.7737321853637695, 0.49950629472732544, 0.2801710069179535, 0.8123619556427002, 0.2710106372833252, -0.4314148426055908, 1.109061598777771, 0.19219210743904114, -0.3082458972930908, 0.7296968698501587, 1.5301048755645752, 0.5682668685913086, 1.048210859298706, 0.011482625268399715, 0.8255912065505981, 0.5398777723312378, 0.0122446333989501, 0.29913613200187683, 0.6013109087944031, 0.670397937297821, 0.672964870929718, 0.15389597415924072, 0.9618769288063049, -0.14948932826519012, -0.14364849030971527, 0.984305202960968, 0.7919399738311768, 0.3090822398662567, -0.6846650242805481, 0.10203598439693451, -0.4138474762439728, 0.7751081585884094, 0.1466708928346634, 0.27274373173713684, -0.09300633519887924, -0.20992513000965118, -0.420207142829895, -0.7383148074150085, 0.2645784616470337, 0.3208197355270386, 0.6701889038085938, -0.0019431118853390217, -0.2990780472755432, 0.6705187559127808, 0.050269097089767456, 0.7143998742103577, -0.2074308842420578, 1.0911431312561035, -0.13453754782676697, 0.44513964653015137, 1.4698964357376099, 0.664785623550415, 0.8895443081855774]}, {"weight": [[-0.06248326599597931, 0.057935427874326706, -0.003107078606262803, -0.06423326581716537, -0.08304346352815628, 0.0672861710190773, -0.05965754762291908, 0.05789743736386299, 0.04944850504398346, 0.05829997360706329, -0.033382195979356766, 0.027086880058050156, -0.1283251941204071, -0.06602047383785248, 0.029357297345995903, 0.0100107965990901, -0.08696171641349792, 0.060507163405418396, -0.1298694908618927, -0.08018586039543152, 0.027827439829707146, 0.018955910578370094, 0.06771755963563919, -0.04042910784482956, 0.0075300512835383415, 0.03562403470277786, 0.008099070750176907, -0.006301207467913628, -0.07763700932264328, 0.00540616549551487, 0.08458278328180313, -0.09315226972103119, 0.057833168655633926, 0.0037482543848454952, 0.0024983612820506096, -0.08424214273691177, 0.05680356174707413, -0.08332600444555283, -0.013600507751107216, -0.0422651469707489, -0.06472351402044296, 0.06618312001228333, 0.029517468065023422, 0.0663788840174675, -0.039036501199007034, 0.00909432116895914, 0.06453573703765869, -0.07943982630968094, -0.1101686954498291, -0.023090114817023277, 0.015281157568097115, -0.08433445543050766, 0.043166205286979675, -0.0697568729519844, 0.007536689285188913, -0.09412983804941177, 0.009067954495549202, -0.040017347782850266, 0.08040013164281845, 0.07150979340076447, 0.04417463392019272, -0.050728846341371536, 0.024048909544944763, -0.13664962351322174, -0.024973584339022636, -0.20087532699108124, 0.026626016944646835, 0.07930318266153336, -0.029274174943566322, -0.07242247462272644, -0.0565401054918766, 0.049251604825258255, -0.03259871527552605, -0.02513565681874752, 0.03639213740825653, 0.002418940421193838, 0.011679231189191341, 0.08690603077411652, -0.013213830068707466, -0.07195772230625153, -0.045433077961206436, -0.06184941530227661, -0.02106199413537979, -0.02619232051074505, 0.035368841141462326, -0.03388431668281555, 0.06781059503555298, -0.1005818322300911, -0.09192909300327301, -0.07134582847356796, 0.003971187397837639, 0.023342005908489227, -0.01886090636253357, -0.005506423767656088, 0.014221487566828728, 0.013318988494575024, -0.055675700306892395, 0.042899493128061295, 0.002747494727373123, 0.0027048687916249037, -0.06953538209199905, -0.025420987978577614, -0.009720741771161556, -0.0004143333644606173, -0.03387761488556862, -0.06407181173563004, 0.004124786239117384, -0.07446201890707016, -0.1804608851671219, -0.07065875828266144, 0.026139231398701668, -0.04364173114299774, -0.07879036664962769, -0.05530823394656181, 0.04821814224123955, -0.02020004577934742, -0.002423998434096575, -0.10973799228668213, 0.01404648832976818, -0.02240481972694397, -0.08342938870191574, 0.010164794512093067, -0.13338787853717804, -0.035907987505197525, -0.05719432607293129, 0.008031473495066166, 0.06014031916856766, -0.07852621376514435], [-0.04867135360836983, 0.011457104235887527, -0.8693336248397827, 0.02256205305457115, -0.8495861887931824, -0.06472498178482056, 0.040725816041231155, -0.5115103721618652, -0.11608461290597916, -0.04655090346932411, -0.0042811790481209755, -0.10198211669921875, -0.8675284385681152, -0.09904205799102783, -0.1443658322095871, -0.8253288865089417, 0.1386745274066925, 0.1739109307527542, 0.08024456351995468, -0.6000557541847229, -0.2785220444202423, -0.8029482364654541, -0.11484216153621674, 0.2468705177307129, 0.08052775263786316, -0.30413928627967834, 0.10409095883369446, -0.19702096283435822, -0.15830519795417786, -0.12302582710981369, -0.2597145438194275, -0.2933952510356903, 0.15234561264514923, -0.14427092671394348, 0.0859568864107132, -0.1947309672832489, -0.358595609664917, -0.5631766319274902, 0.2012786865234375, 0.30181753635406494, -0.5900189876556396, -0.08607002347707748, -0.05559635907411575, -0.02669120393693447, -0.2117890566587448, 0.05179489403963089, -0.4021037518978119, -1.042116641998291, -0.7836546897888184, -0.25726932287216187, 0.15240052342414856, 0.2084941416978836, 0.14205709099769592, -0.8993767499923706, 0.2687062621116638, -0.37384340167045593, -0.19729486107826233, -0.06881950795650482, 0.06665787845849991, -0.1030510663986206, -0.8435600996017456, 0.22985558211803436, -0.11227844655513763, -0.8922009468078613, -0.09424014389514923, 0.1356375515460968, 0.020414911210536957, -0.3105315864086151, 0.0728723481297493, 0.12633152306079865, 0.10256518423557281, -0.1701321303844452, -0.5133389830589294, 0.08165344595909119, -0.1209551990032196, -0.6223841905593872, -0.1523565649986267, 0.12268628925085068, 0.0850481241941452, -0.77574223279953, -0.979549765586853, -0.09849863499403, -0.06285001337528229, -0.9457315802574158, -0.17009592056274414, -0.08004409819841385, -0.11624576151371002, 0.2329290509223938, 0.1148294061422348, 0.06705369055271149, -0.058599427342414856, 0.04088340327143669, -0.05263590067625046, 0.04027091711759567, -0.03141586855053902, -0.1821054220199585, -0.4221923053264618, -0.190211683511734, 0.05906473472714424, -0.02688458561897278, -0.010329028591513634, -0.3241860270500183, 0.25509557127952576, -0.10970421880483627, -0.2053220123052597, -0.23818901181221008, -0.10221102088689804, -0.023688090965151787, 0.1770148128271103, -0.22483530640602112, -0.05352967977523804, -0.45632100105285645, -0.9888629913330078, -0.5125155448913574, 0.18972380459308624, -0.14780792593955994, -0.9106383323669434, 0.3305443823337555, -0.6421607732772827, 0.019900962710380554, -0.4637770354747772, 0.17020900547504425, 0.17822346091270447, 0.1517561823129654, 0.030322398990392685, -0.04290764406323433, 0.16108867526054382, -0.05096675455570221], [-0.17705976963043213, 0.16772082448005676, -0.261107474565506, -0.08417104929685593, -0.7193185687065125, 0.08965224772691727, 0.2130984216928482, -0.6028623580932617, -0.18501704931259155, -0.13815487921237946, 0.19400493800640106, -0.40024176239967346, -0.7375860810279846, 0.19379951059818268, -0.4170350134372711, -0.6660436391830444, 0.0009042007150128484, -0.08376115560531616, 0.3321278393268585, -0.3623131811618805, 0.1527063250541687, -0.5989384055137634, 0.06914538145065308, 0.2013995200395584, 0.029884932562708855, -0.23196755349636078, -0.27282291650772095, -0.09496589750051498, -0.2838839590549469, -0.0735396221280098, 0.09726916253566742, -0.37004896998405457, 0.040373992174863815, -0.27019596099853516, -0.14441686868667603, 0.1439293622970581, -0.05804453790187836, -0.5639688968658447, 0.2593986988067627, 0.13210976123809814, -0.44001930952072144, -0.193796768784523, -0.2513107359409332, -0.061549823731184006, -0.46236324310302734, 0.024566156789660454, -0.5826743841171265, -0.5980058908462524, -0.6232602596282959, 0.0680244192481041, 0.0730651468038559, 0.19551309943199158, -0.06645849347114563, -0.5417165756225586, 0.0073777479119598866, -0.4691627621650696, 0.1876169592142105, 0.16219790279865265, -0.14933106303215027, -0.10952609032392502, -0.5969234108924866, 0.005167188122868538, 0.06693872809410095, -0.5448307991027832, -0.2307354062795639, 0.3035900592803955, -0.3382144868373871, -0.5891852378845215, 0.1933775395154953, 0.14231981337070465, -0.06706319749355316, -0.2467598021030426, -0.1303766965866089, -0.059822097420692444, 0.13869763910770416, -0.03583301231265068, -0.28451597690582275, -0.06682445853948593, -0.2845529019832611, -0.7064787149429321, -0.5179965496063232, -0.28536614775657654, 0.2640269994735718, -0.6154773235321045, -0.2242676019668579, -0.49470028281211853, -0.19521845877170563, 0.03657026216387749, 0.2338579148054123, -0.1413615196943283, -0.2552925944328308, -0.04913536459207535, -0.2945598363876343, 0.0550115592777729, -0.17469516396522522, 0.11814957112073898, -0.5013651847839355, -0.4832923114299774, -0.0626092329621315, -0.06598381698131561, -0.12330412119626999, -0.4276772439479828, -0.13934022188186646, 0.29751867055892944, -0.3466014266014099, 0.04393573850393295, -0.23103664815425873, -0.2564105689525604, 0.1711425632238388, -0.2659289538860321, -0.2135399580001831, -0.18259485065937042, -0.590854823589325, -0.08713966608047485, -0.12076408416032791, -0.3080258071422577, -0.642751932144165, 0.23410958051681519, -0.7086358070373535, -0.2683846354484558, -0.07854843139648438, -0.17537665367126465, 0.13189899921417236, -0.08558927476406097, 0.10110204666852951, -0.10548093169927597, -0.07492903620004654, -0.20786835253238678], [0.33138954639434814, -0.009664049372076988, -0.17524555325508118, 0.22682784497737885, -0.2334570586681366, 0.2662527561187744, 0.02577115222811699, 0.11673156172037125, 0.259382426738739, 0.28371989727020264, 0.09432757645845413, 0.06778489053249359, -0.058736082166433334, -0.008326800540089607, 0.08395375311374664, -0.07870686054229736, 0.14666058123111725, -0.13600774109363556, 0.01256836112588644, -0.025760600343346596, -0.08865126967430115, -0.16777878999710083, -0.0775495246052742, -0.1840963512659073, 0.3017687201499939, 0.17850829660892487, 0.09802189469337463, 0.2928737998008728, 0.32702580094337463, 0.214508056640625, -0.17104536294937134, 0.1303441971540451, 0.27418383955955505, 0.2616153061389923, -0.07631862163543701, 2.509448677301407e-05, -0.10975193977355957, -0.054018743336200714, -0.021452205255627632, -0.1578327864408493, -0.1536819189786911, 0.12696339190006256, 0.1629454642534256, 0.3857918679714203, -0.03150071203708649, 0.35673266649246216, 0.13774150609970093, -0.06448148190975189, -0.16895097494125366, -0.17263241112232208, 0.27058175206184387, -0.2657204866409302, -0.02178291045129299, -0.14205680787563324, -0.23994706571102142, 0.2505986988544464, -0.08647715300321579, 0.043847762048244476, 0.104510098695755, 0.19454464316368103, -0.07130219042301178, -0.15539515018463135, 0.20052458345890045, -0.28732120990753174, 0.20318131148815155, -0.22168496251106262, -0.01394143607467413, 0.05272288620471954, -0.08063866943120956, -0.1542012244462967, 0.011254132725298405, 0.36554622650146484, -0.17534992098808289, 0.4119141101837158, -0.15642663836479187, 0.03785527125000954, 0.1476600468158722, 0.25580066442489624, -0.043638523668050766, -0.007842633873224258, -0.12903371453285217, 0.1818234920501709, -0.036639776080846786, -0.23989172279834747, 0.3390137255191803, 0.04699669033288956, 0.4082336127758026, -0.01644877716898918, 0.03800012916326523, 0.02727057971060276, 0.2284783571958542, 0.21894025802612305, 0.07150853425264359, 0.3079300820827484, -0.026269398629665375, -0.022096116095781326, -0.08427951484918594, 0.0520024448633194, 0.2692924737930298, 0.2392333596944809, 0.22520512342453003, 0.06319061666727066, -0.21223454177379608, -0.09519215673208237, 0.18898840248584747, -0.12245076149702072, -0.052443042397499084, -0.13778015971183777, -0.14517201483249664, 0.03380259498953819, -0.14382201433181763, -0.15992410480976105, -0.3594881594181061, -0.12667831778526306, -0.11383786052465439, 0.1904459297657013, -0.04856502264738083, -0.21828344464302063, 0.02445644699037075, -0.014589501544833183, -0.11890546977519989, -0.1609213948249817, -0.13116316497325897, -0.12140953540802002, 0.27755576372146606, -0.03330856189131737, 0.06572695076465607, 0.23776115477085114], [0.26499438285827637, -0.06172090396285057, -0.11194952577352524, 0.28258049488067627, -0.11793193966150284, 0.1909123808145523, -0.013788091950118542, 0.07353465259075165, 0.2902950942516327, 0.253757119178772, -0.044902171939611435, 0.19802266359329224, -0.19936221837997437, -0.12049701809883118, 0.12567652761936188, -0.09825470298528671, 0.1180645003914833, -0.10568489134311676, -0.17759177088737488, 0.018172113224864006, -0.09567099809646606, -0.06421057134866714, -0.04199524223804474, -0.034913044422864914, 0.18291154503822327, 0.110293909907341, 0.2948250472545624, 0.18429389595985413, 0.31776297092437744, 0.014257507398724556, -0.03987250104546547, 0.21673080325126648, 0.06680614501237869, 0.30864760279655457, -0.1477721780538559, -0.009407318197190762, -0.14729750156402588, -0.051233693957328796, -0.08988402038812637, -0.18747282028198242, 0.028790436685085297, 0.27881428599357605, 0.3958904445171356, 0.2979978919029236, -0.13257578015327454, 0.08917318284511566, 0.17301823198795319, -0.2148527204990387, -0.1145985946059227, -0.10041503608226776, 0.1167188212275505, -0.06582566350698471, -0.11183363199234009, -0.13105037808418274, -0.254562646150589, 0.23600463569164276, -0.10621281713247299, 0.04656306281685829, 0.17661531269550323, 0.3799043595790863, -0.1789117157459259, -0.24247469007968903, 0.057547107338905334, -0.1761014610528946, 0.34370726346969604, -0.08740457892417908, 0.14407522976398468, 0.06490399688482285, -0.08119886368513107, -0.021338092163205147, -0.08563508093357086, 0.235408753156662, -0.08292936533689499, 0.21472696959972382, -0.058090001344680786, -0.3041732609272003, 0.3909825384616852, 0.18750202655792236, -0.033012453466653824, -0.042495016008615494, -0.1262618750333786, 0.41260576248168945, 0.03278890624642372, -0.07158787548542023, 0.3766375184059143, -0.07653505355119705, 0.3394787311553955, -0.08926960825920105, 0.03864126652479172, 0.2125374972820282, 0.3818631172180176, 0.31316545605659485, 0.2501787543296814, 0.2431112825870514, 0.020467055961489677, 0.07410033792257309, -0.19530954957008362, -0.06671765446662903, 0.16524119675159454, 0.38008975982666016, 0.19357691705226898, -0.21895097196102142, -0.21636898815631866, -0.18978308141231537, 0.3085181713104248, -0.10173628479242325, -0.006747430190443993, -0.03783860802650452, -0.06114793196320534, 0.4132857322692871, -0.37699851393699646, -0.06662020087242126, -0.32912880182266235, -0.0802544355392456, -0.1278693974018097, 0.37965142726898193, -0.22774522006511688, -0.15455645322799683, 0.007813720032572746, -0.2351965606212616, -0.39007166028022766, -0.24589189887046814, 0.0035876454785466194, -0.21638692915439606, 0.04089653119444847, 0.0521044097840786, 0.09782952815294266, 0.38251248002052307], [0.032760895788669586, -0.08503776788711548, -0.06281327456235886, 0.09354831278324127, 0.018760738894343376, -0.0537470243871212, -0.022081227973103523, -0.09856631606817245, 0.06664576381444931, 0.016619933769106865, 0.007024829741567373, 0.015172763727605343, -0.07435549050569534, -0.13108186423778534, -0.060553405433893204, -0.17867842316627502, 0.14071466028690338, 0.136159747838974, -0.03498043864965439, -0.1238178238272667, -0.10192622244358063, -0.25721803307533264, -0.07863984256982803, 0.07352927327156067, 0.12571720778942108, -0.0136477742344141, 0.0478353276848793, 0.034965794533491135, 0.10043023526668549, 0.08555395156145096, -0.02417534962296486, -0.036064546555280685, 0.05478595197200775, 0.023923270404338837, 0.09691033512353897, -0.07162351161241531, -0.12662985920906067, -0.17819751799106598, 0.07433133572340012, 0.18087245523929596, 0.022644374519586563, 0.028907040134072304, -0.09496880322694778, 0.05906573310494423, -0.20541979372501373, 0.03541618213057518, -0.21726582944393158, -0.1675310581922531, -0.04550996422767639, -0.0356515534222126, 0.18035918474197388, 0.11419561505317688, 0.13609573245048523, -0.09514115750789642, 0.050806812942028046, -0.06354330480098724, -0.03996986150741577, -0.10281793028116226, 0.021382205188274384, 0.040400899946689606, -0.24185509979724884, 0.009635130874812603, -0.035937923938035965, 0.037331823259592056, 0.13890604674816132, 0.13197283446788788, -0.16899240016937256, -0.14779794216156006, -0.12722864747047424, 0.06457231193780899, -0.06717641651630402, -0.013689079321920872, -0.0026479512453079224, 0.08773905038833618, -0.05595185607671738, -0.6379647850990295, 0.07039277255535126, 0.06595762819051743, -0.0997610092163086, -0.2117001861333847, -0.1790870577096939, 0.0006650875438936055, -0.10568080842494965, -0.12340045720338821, 0.019344458356499672, -0.184895321726799, 0.13459376990795135, 0.0669604241847992, 0.1038045659661293, 0.034350112080574036, -0.008696397766470909, 0.04373607784509659, -0.030698467046022415, 0.11744000017642975, -0.10773931443691254, 0.022466100752353668, -0.33269616961479187, -0.12783707678318024, 0.0929529219865799, -0.02009831927716732, 0.02779609151184559, -0.19058097898960114, 0.08754405379295349, -0.11755318194627762, -0.060758911073207855, -0.08847582340240479, -0.036527566611766815, -0.012276175431907177, -0.009091326035559177, 0.007888894528150558, -0.29657116532325745, -0.051054418087005615, -0.0731300488114357, -0.0494774766266346, 0.1339428573846817, 0.021308666095137596, -0.05170825868844986, 0.13767191767692566, -0.07256384938955307, -0.2279277741909027, -0.5693010687828064, 0.01087732333689928, 0.11975463479757309, 0.06654749810695648, 0.009621141478419304, 0.030362984165549278, 0.10936308652162552, 0.11604923754930496], [0.36988911032676697, 0.03922408074140549, 0.015256917104125023, 0.33753347396850586, -0.2514706552028656, 0.026765499264001846, 0.04116075858473778, 0.21939748525619507, 0.18701492249965668, 0.21821574866771698, 0.0487237386405468, 0.377577543258667, -0.32737281918525696, 0.005624119658023119, 0.34249579906463623, 0.03270692750811577, 0.014775333926081657, -0.10053376853466034, -0.1588626652956009, -0.08313167095184326, -0.06623679399490356, -0.23003055155277252, -0.05726774409413338, -0.036017045378685, 0.16262175142765045, 0.1659327894449234, 0.23876434564590454, 0.10093463212251663, 0.38891077041625977, 0.044385187327861786, -0.03309614956378937, 0.12125816196203232, 0.18708044290542603, 0.34727829694747925, -0.18052400648593903, -0.030461564660072327, 0.027549754828214645, -0.0622464194893837, 0.018528668209910393, -0.09870323538780212, -0.08146090805530548, 0.44280919432640076, 0.4168224334716797, 0.302329957485199, 0.03659358620643616, 0.03306828439235687, 0.236989825963974, -0.4042474627494812, -0.4212314486503601, -0.11855073273181915, 0.09819547086954117, -0.19119173288345337, -0.13115140795707703, -0.11933021247386932, -0.15494512021541595, 0.40405017137527466, -0.11571868509054184, -0.007725484669208527, 0.21507969498634338, 0.2624351680278778, -0.24520984292030334, -0.2267978936433792, 0.0756097212433815, -0.6337876915931702, 0.29838377237319946, -0.18405784666538239, 0.28300610184669495, 0.24742360413074493, -0.09990490227937698, -0.08554227650165558, -0.08768324553966522, 0.35450878739356995, -0.003943087067455053, 0.15095581114292145, -0.09442950040102005, -0.42584294080734253, 0.4196983575820923, 0.23323914408683777, -0.03908945620059967, -0.0912027433514595, -0.3486376702785492, 0.3485856056213379, 0.015032057650387287, -0.2628476917743683, 0.3599016070365906, 0.055338867008686066, 0.31630340218544006, -0.16361375153064728, -0.13370971381664276, 0.08001598715782166, 0.38196319341659546, 0.2994535565376282, 0.2949308454990387, 0.2601933777332306, 0.04278929904103279, 0.025332771241664886, -0.24413122236728668, 0.028346804901957512, 0.10649485886096954, 0.3725416362285614, 0.2162344753742218, -0.3158147931098938, -0.20872129499912262, -0.21728315949440002, 0.47679072618484497, -0.05905362218618393, 0.09028439223766327, -0.01613842509686947, -0.07799144834280014, 0.36195749044418335, -0.38745200634002686, -0.0656280517578125, -0.6601503491401672, 0.05323602259159088, -0.31821244955062866, 0.3874956965446472, -0.39157673716545105, -0.2619454264640808, 0.17830169200897217, -0.2730253338813782, -0.6216495633125305, -0.12772460281848907, -0.025474492460489273, -0.25475069880485535, 0.10411358624696732, -0.03626735135912895, 0.020000431686639786, 0.28154847025871277], [-0.2535077929496765, 0.35085687041282654, -0.23685391247272491, -0.20244935154914856, -0.4338209927082062, 0.060200657695531845, 0.3126847445964813, -0.28037476539611816, -0.10401996970176697, -0.026837380602955818, 0.1940149962902069, -0.3301784098148346, -0.5123604536056519, 0.12632884085178375, -0.5237720608711243, -0.5311850905418396, 0.1394137442111969, -0.12168633937835693, 0.41600438952445984, -0.2228124439716339, 0.14682461321353912, -0.6317207217216492, -0.017032191157341003, 0.29927289485931396, 0.11085060983896255, -0.060963962227106094, -0.26812976598739624, -0.1282942295074463, -0.16221684217453003, -0.031001606956124306, -0.008891885168850422, -0.21956884860992432, 0.08785159885883331, -0.15622445940971375, -0.019168417900800705, 0.122246652841568, -6.188455154187977e-05, -0.5472441911697388, 0.352155864238739, 0.34067755937576294, -0.20051130652427673, -0.297302782535553, -0.29029959440231323, -0.03164421394467354, -0.5599467754364014, 0.058981433510780334, -0.4769299328327179, -0.6812718510627747, -0.20860561728477478, 0.023106329143047333, 0.05538474768400192, 0.36596620082855225, 0.05809442326426506, -0.21545492112636566, 0.2373449206352234, -0.28962695598602295, 0.09985025972127914, 0.15515972673892975, -0.1848687380552292, -0.1629740297794342, -0.5170917510986328, 0.18099689483642578, 0.07491645216941833, -0.4325225055217743, -0.16028812527656555, 0.41657814383506775, -0.4221096932888031, -0.55123370885849, 0.3806208074092865, 0.3245144188404083, -0.3467324674129486, -0.16909830272197723, -0.11404301226139069, -0.10173968225717545, 0.24070431292057037, -0.48902973532676697, -0.2560606598854065, -0.15217024087905884, -0.6148891448974609, -0.5362217426300049, -0.6093130111694336, -0.16367509961128235, 0.30624088644981384, -0.5814294815063477, -0.1497243344783783, -0.7019460797309875, -0.11884805560112, 0.10395963490009308, 0.3553014397621155, -0.04264321178197861, -0.2856157422065735, -0.07375390827655792, -0.2258145958185196, 0.07647990435361862, -0.43435385823249817, 0.031021108850836754, -0.6806430816650391, -0.7784377932548523, 0.09881851077079773, -0.15633563697338104, -0.06421888619661331, -0.8130547404289246, 0.13223250210285187, 0.25480541586875916, -0.28342321515083313, 0.02648334577679634, -0.6124565601348877, -0.32640573382377625, 0.36196795105934143, -0.2162090688943863, -0.9093558192253113, -0.10207832604646683, -0.728844940662384, 0.016739947721362114, 0.03418377786874771, -0.19595350325107574, -0.5023413300514221, 0.33754241466522217, -0.5278211236000061, -0.7488256692886353, -0.5008931159973145, -0.457184374332428, 0.3114747703075409, 0.020972974598407745, 0.027505014091730118, -0.3815860152244568, -0.0010909850243479013, -0.16787396371364594], [-0.07845646142959595, 0.07785070687532425, -0.9488744139671326, -0.07526779174804688, -0.6019474864006042, -0.011415095068514347, 0.2443292886018753, -0.4028072953224182, -0.03597849979996681, 0.004134062211960554, 0.1265793740749359, -0.08640545606613159, -0.432062029838562, 0.014125432819128036, -0.15927065908908844, -0.4387066066265106, 0.13596129417419434, 0.07038268446922302, 0.40229532122612, -0.8909531831741333, -0.14192073047161102, -0.4500942826271057, -0.2275945097208023, 0.28206196427345276, 0.009149333462119102, -0.488201379776001, 0.03802251070737839, -0.30914852023124695, -0.15640537440776825, -0.14158903062343597, -0.37628844380378723, -0.3146122395992279, 0.17273679375648499, -0.1296214610338211, 0.18108715116977692, -0.2268127053976059, -0.4480009973049164, -0.3898768126964569, 0.3425047695636749, 0.27594658732414246, -0.7936525344848633, -0.1619473099708557, -0.06902103871107101, -0.08096576482057571, -0.25208932161331177, 0.02685225009918213, -0.35818737745285034, -0.5931544899940491, -0.8812701106071472, -0.4168875217437744, 0.107303187251091, 0.3569639325141907, 0.15880510210990906, -0.9899623990058899, 0.34201326966285706, -0.3956716060638428, -0.2361251562833786, -0.0020491003524512053, -0.018723594024777412, -0.12184584885835648, -0.5163962841033936, 0.28184977173805237, 0.05002543330192566, -0.727196455001831, -0.06982628256082535, 0.27189508080482483, -0.061178747564554214, -0.31619808077812195, 0.20416653156280518, 0.2639565169811249, 0.07710026204586029, -0.20896968245506287, -0.7779142260551453, -0.03110174834728241, -0.04935662820935249, -0.5521987080574036, -0.1609601527452469, -0.010817117989063263, -0.015674997121095657, -0.45971736311912537, -0.4616561830043793, -0.07188030332326889, 0.08575612306594849, -0.3604288399219513, -0.15314064919948578, -0.07125761359930038, -0.17300273478031158, 0.10994768887758255, 0.15438014268875122, 0.10467756539583206, 0.013295524753630161, -0.04814412444829941, -0.0038649088237434626, 0.08456136286258698, 0.05047649145126343, -0.0724499449133873, -0.39249375462532043, -0.2829757630825043, 0.06744404882192612, -0.13025714457035065, 0.04707947373390198, -0.2474583238363266, 0.08653994649648666, 0.14862030744552612, -0.17526815831661224, -0.3184012472629547, -0.07900498807430267, -0.012823793105781078, 0.27490463852882385, -0.22297993302345276, -0.18257366120815277, -0.7229666709899902, -0.6780170798301697, -0.8743836283683777, 0.09540829062461853, -0.2802843153476715, -0.6632521152496338, 0.3777177929878235, -0.41124242544174194, -0.14435909688472748, -0.4295813739299774, 0.12236468493938446, 0.285501629114151, 0.11000055074691772, 0.07560460269451141, -0.09746511280536652, 0.16731660068035126, -0.10511314123868942], [0.032891370356082916, 0.05070764943957329, -0.11481823027133942, 0.10560029000043869, -0.14430996775627136, -0.06174604594707489, 0.05970216915011406, -0.0008018157677724957, 0.0654115378856659, 0.11822401732206345, 0.018029458820819855, 0.0698682963848114, 0.024662932381033897, 0.014586571604013443, 0.04308736324310303, -0.034046728163957596, -0.04918498545885086, -0.03908403590321541, 0.004703190177679062, -0.053269609808921814, -0.0003528849338181317, 0.026963094249367714, 0.036866143345832825, -0.0649339035153389, -0.006284802220761776, 0.0805499330163002, 0.08734329044818878, -0.01431366242468357, -0.026231419295072556, -0.0008341398788616061, -0.1044267937541008, 0.024402474984526634, -0.007582175545394421, 0.07487553358078003, -0.13643422722816467, -0.07790488004684448, 0.024106105789542198, -0.004011704586446285, 0.0010175814386457205, -0.128927081823349, -0.04030619561672211, 0.08285970240831375, 0.13229598104953766, 0.09080540388822556, -0.05860048532485962, 0.06004729121923447, -0.06870069354772568, -0.07174048572778702, -0.15846501290798187, -0.08300139009952545, 0.10898516327142715, -0.07414296269416809, -0.08123500645160675, 0.03166413679718971, -0.09054442495107651, 0.027881193906068802, -0.04813719540834427, -0.02451799064874649, 0.04999448359012604, 0.027476076036691666, -0.08900894969701767, -0.04744716361165047, -0.012883279472589493, -0.11632478982210159, 0.1200452595949173, -0.13257011771202087, 0.1256880760192871, 0.03992582857608795, -0.047009553760290146, -0.1037481427192688, 0.016786646097898483, 0.0002318653860129416, 0.0013262319844216108, -0.017559904605150223, -0.02146747149527073, 0.020256418734788895, 0.12129611521959305, 0.09680753946304321, -0.04498500004410744, -0.04027187079191208, -0.05987092852592468, 0.002263678703457117, 0.04626735299825668, -0.0745084211230278, -0.001748609938658774, 0.09026859700679779, 0.08516786247491837, -0.057357460260391235, -0.006727322470396757, 0.10906548798084259, 0.12526388466358185, 0.12992972135543823, -0.021060410887002945, -0.0030134208500385284, 0.01638375222682953, 0.06547660380601883, -0.012941980734467506, -0.0579410120844841, -0.0011442361865192652, 0.09082338213920593, -0.03187120333313942, -0.013205772265791893, -0.06890376657247543, -0.1275578737258911, -0.039374545216560364, -0.06445776671171188, 0.09915561228990555, -0.003960134461522102, -0.05564365163445473, 0.1437293440103531, -0.0017273516859859228, -0.09213903546333313, -0.11621706187725067, -0.07582931220531464, -0.09384504705667496, 0.12061253935098648, -0.10138974338769913, -0.1668226271867752, -0.08073543757200241, -0.07059574127197266, -0.04530216008424759, -0.06290815025568008, -0.0021330476738512516, -0.1039845198392868, 0.010415391065180302, 0.018045764416456223, -0.06290186196565628, 0.011895977891981602], [0.12488819658756256, -0.0701097846031189, 0.001938376110047102, 0.1602253019809723, -0.08722624182701111, 0.028010118752717972, 0.07132420688867569, 0.08014915138483047, 0.2269953489303589, 0.22154220938682556, 0.06682316213846207, 0.13452354073524475, -0.1391581892967224, -0.06919290125370026, 0.16725300252437592, -0.0788678303360939, 0.019413959234952927, -0.0535571351647377, -0.008347300812602043, -0.027173448354005814, -0.009559215977787971, -0.04590354859828949, 0.01653059758245945, 0.021515822038054466, 0.020270582288503647, 0.026896275579929352, 0.21650880575180054, 0.11720342189073563, 0.16795891523361206, 0.023379413411021233, -0.1250079721212387, 0.0380876325070858, 0.12704697251319885, 0.18285730481147766, -0.0851314589381218, -0.10545793920755386, -0.057828389108181, -0.01983228512108326, -0.10560251027345657, -0.09093185514211655, -0.04465305432677269, 0.08196114748716354, 0.19882044196128845, 0.05740315467119217, -0.056525032967329025, 0.12245497852563858, -0.06644895672798157, -0.17306922376155853, -0.16069576144218445, -0.006325867958366871, -0.006400787737220526, -0.018448838964104652, -0.04467020928859711, -0.11211355775594711, -0.12594586610794067, 0.11079926788806915, -0.02556447498500347, -0.09133707731962204, 0.11512354016304016, 0.12600643932819366, -0.12260042130947113, -0.18989916145801544, 0.11239192634820938, -0.03685339540243149, 0.18051807582378387, -0.12973779439926147, 0.057319819927215576, 0.036853890866041183, -0.10117845982313156, 0.0010524735553190112, -0.03615444153547287, 0.1435282677412033, -0.06193655729293823, 0.17022505402565002, -0.14114904403686523, -0.11497895419597626, 0.15804538130760193, 0.16833528876304626, -0.028307616710662842, -0.11637803912162781, -0.11172150820493698, 0.24174080789089203, -0.056324977427721024, -0.06819068640470505, 0.056675985455513, -0.09762702882289886, 0.15915091335773468, -0.15064740180969238, -0.025581732392311096, 0.061188481748104095, 0.2146705836057663, 0.21430359780788422, 0.12232109904289246, 0.15203236043453217, -0.08945688605308533, -0.05711609870195389, -0.09311395138502121, -0.016568800434470177, 0.12715700268745422, 0.06911598145961761, 0.1187797337770462, -0.05727745220065117, -0.07873675972223282, -0.19131805002689362, 0.0816698893904686, -0.06021084636449814, -0.009794172830879688, 0.049375444650650024, 0.004893839359283447, 0.18411777913570404, -0.014332207851111889, -0.056611597537994385, -0.19561751186847687, 0.012361456640064716, -0.20951597392559052, 0.09890880435705185, -0.06813887506723404, -0.06877141445875168, -0.09692220389842987, -0.13148115575313568, -0.08601386845111847, -0.11909236758947372, 0.029865648597478867, -0.1843460500240326, 0.06593482941389084, 0.004138485062867403, -0.04382190853357315, 0.2003302127122879], [0.5423960089683533, 0.0512889139354229, 0.06251358985900879, 0.5368077158927917, -0.17811965942382812, 0.21903543174266815, 0.030949970707297325, 0.05479789897799492, 0.41913890838623047, 0.4937628209590912, 0.23150727152824402, 0.22997193038463593, -0.2124558687210083, 0.05498039349913597, 0.12105049937963486, -0.14446142315864563, 0.113789401948452, -0.20519229769706726, -0.1459444910287857, -0.001116491388529539, -0.0026530269533395767, -0.19874310493469238, -0.04171387478709221, -0.09753268957138062, 0.2911055088043213, 0.161178857088089, 0.427480548620224, 0.1719367802143097, 0.44400447607040405, 0.1930258572101593, 0.04360765963792801, 0.12574127316474915, 0.3789186477661133, 0.5690075755119324, -0.19727422297000885, 0.08677354454994202, -0.09969419240951538, -0.13548040390014648, -0.006950612645596266, -0.11808231472969055, -0.04628587141633034, 0.4564143121242523, 0.48713651299476624, 0.33282893896102905, -0.15729624032974243, 0.2885493040084839, 0.14470084011554718, -0.22569328546524048, -0.2128564417362213, -0.08790916204452515, 0.2521059215068817, -0.24185633659362793, -0.23061057925224304, -0.09329092502593994, -0.23819461464881897, 0.24604949355125427, -0.04256068542599678, -0.015638956800103188, 0.21618351340293884, 0.5334091186523438, -0.16680192947387695, -0.3562159836292267, 0.23428423702716827, -0.2293275147676468, 0.4104752242565155, -0.12708449363708496, 0.08790796995162964, 0.07820287346839905, 0.000522380112670362, 0.013444121927022934, -0.1598755121231079, 0.49994590878486633, -0.011625194922089577, 0.38299599289894104, -0.10206739604473114, -0.40098297595977783, 0.4719317555427551, 0.4380987286567688, -0.08860564976930618, -0.20716898143291473, -0.2553222179412842, 0.47567757964134216, -0.015357068739831448, -0.18282146751880646, 0.3281405568122864, -0.06859121471643448, 0.4397348165512085, -0.10826379060745239, -0.010519997216761112, 0.24540816247463226, 0.4423696994781494, 0.4897474944591522, 0.3303505778312683, 0.3327493369579315, -0.030796442180871964, 0.11396848410367966, -0.1723637878894806, -0.10010797530412674, 0.33502107858657837, 0.4655315577983856, 0.41619741916656494, -0.17890360951423645, -0.28848063945770264, -0.03168562054634094, 0.21371355652809143, -0.10549930483102798, 0.06318799406290054, -0.023666948080062866, -0.0004482784424908459, 0.3889661431312561, -0.3056531846523285, -0.05900230631232262, -0.2846710681915283, -0.031937628984451294, -0.23617544770240784, 0.3482809364795685, -0.18574956059455872, -0.34362804889678955, 0.0028026553336530924, -0.27937936782836914, -0.5475401878356934, -0.19412514567375183, 0.027175817638635635, -0.34920719265937805, 0.23173363506793976, 0.058330681174993515, 0.16980381309986115, 0.4990542232990265], [0.01928657665848732, 0.043199945241212845, -0.022388795390725136, 0.006676068529486656, -0.06932826340198517, -0.06295792013406754, 0.03245310112833977, 0.004581707529723644, 0.0007631400367245078, -0.07358348369598389, -0.08038699626922607, -0.030112389475107193, -0.011748122051358223, 0.011231201700866222, -0.11799082905054092, -0.05437131226062775, -0.08273731172084808, -0.06090729683637619, 0.012035511434078217, -0.049672871828079224, -0.04108686000108719, -0.061347074806690216, -0.07876525074243546, -0.06499940901994705, -0.04661586135625839, -0.040476590394973755, -0.046476099640131, -0.007447655312716961, -0.016062963753938675, -0.07648604363203049, -0.0245750043541193, 0.010861217975616455, -0.0033066028263419867, -0.0382160022854805, 0.04078967869281769, 0.02773968316614628, -0.014124096371233463, -0.11729726195335388, -0.0100821852684021, 0.02933039516210556, -0.12763021886348724, -0.06936050951480865, -0.12637959420681, -0.09559199213981628, -0.0013152731116861105, -0.022342240437865257, -0.039824385195970535, -0.08282709121704102, -0.0905476063489914, -0.07119981199502945, 0.03918026015162468, -0.08907093852758408, -0.026914777234196663, 0.010806550271809101, -0.09814814478158951, -0.031222553923726082, -0.09784611314535141, -0.06570029258728027, -0.06502652168273926, -0.06357681751251221, -0.09107282012701035, 0.016983147710561752, -0.05105212703347206, -0.011289064772427082, -0.09690975397825241, -0.045325540006160736, 0.043777599930763245, -0.04168921336531639, -0.07549520581960678, -0.017409877851605415, -0.016795696690678596, -0.009611759334802628, 0.015902109444141388, -0.12820075452327728, -0.07806883007287979, 0.009453017264604568, -0.06822224706411362, 0.029506566002964973, 0.0243996474891901, -0.07888814061880112, -0.059471938759088516, -0.017586037516593933, 0.01953117735683918, -0.12216760963201523, 0.014123613946139812, -0.01960650086402893, -0.045944683253765106, 0.024468671530485153, -0.12338021397590637, 0.021849999204277992, -0.1001291275024414, -0.042431317269802094, -0.10596220940351486, -0.03830891102552414, -0.10300963371992111, -0.031066443771123886, -0.10730527341365814, -0.1089273989200592, 0.023750023916363716, 0.018201788887381554, -0.05320105329155922, -0.016478147357702255, -0.0074287899769842625, 0.02875613048672676, 0.0275685153901577, -0.06497471034526825, -0.09754573553800583, -0.025473227724432945, -0.054211098700761795, -0.03596244752407074, -0.09563232213258743, -0.007286143023520708, -0.09448651969432831, 0.02004532888531685, -0.04941383749246597, -0.09355064481496811, -0.01967962458729744, -0.044686365872621536, -0.06030471622943878, -0.07168228179216385, -0.10560637712478638, 0.020257186144590378, 0.003803069004788995, -0.12653620541095734, -0.0810496136546135, -0.019440123811364174, -0.11057314276695251, -0.0015985050704330206], [0.04643410071730614, -0.7081892490386963, 0.374785840511322, -0.16677254438400269, 0.4420592486858368, 0.0026649809442460537, -1.2667678594589233, 0.367445707321167, -0.13893747329711914, 0.02187809906899929, -0.44492584466934204, 0.09021419286727905, 0.3793826401233673, -0.07404839247465134, -0.04000987857580185, 0.2430485635995865, -0.5985876321792603, -0.32698309421539307, -1.9394044876098633, 0.5036240220069885, 0.12001895904541016, 0.3718980848789215, 0.17339691519737244, -1.2938905954360962, -0.2686518132686615, 0.254470556974411, -0.09097116440534592, 0.18806476891040802, 0.042445797473192215, 0.11371110379695892, 0.22942475974559784, 0.23993928730487823, -0.4817039370536804, -0.040553018450737, -0.5385234355926514, 0.09233690798282623, 0.3051465153694153, 0.2754707932472229, -1.826635479927063, -1.4343613386154175, 0.2699364125728607, 0.009893471375107765, 0.071745365858078, -0.02656475454568863, 0.09650523215532303, -0.15264718234539032, 0.22820346057415009, 0.39340874552726746, 0.4418579638004303, 0.2321670651435852, -0.7988964319229126, -1.3697901964187622, -0.8608465194702148, 0.43051525950431824, -0.8951427936553955, 0.20486031472682953, 0.08540603518486023, -0.0517236590385437, -0.22353002429008484, -0.013711837120354176, 0.30305546522140503, -0.7737727165222168, -0.15253636240959167, 0.45969802141189575, -0.1335037648677826, -1.6951241493225098, -0.14138294756412506, 0.07634588330984116, -1.254640817642212, -2.2696263790130615, -0.23221370577812195, 0.009811658412218094, 0.2644602060317993, -0.17819525301456451, 0.0926779955625534, 0.16784720122814178, -0.06020541489124298, -0.13546405732631683, -0.12448098510503769, 0.40308791399002075, 0.46566373109817505, -0.08113982528448105, -0.7383134365081787, 0.3709791898727417, 0.14894771575927734, 0.07005273550748825, 0.029386188834905624, -0.621053159236908, -1.4067585468292236, -0.2428816556930542, -0.1073819249868393, -0.20305579900741577, -0.14701393246650696, -0.2783554196357727, -0.08717239648103714, 0.10402669757604599, 0.06663189083337784, -0.007522605825215578, -0.22886165976524353, -0.015073149465024471, -0.21852239966392517, 0.1347876936197281, -0.6740976572036743, -0.25847020745277405, 0.166177898645401, 0.20725283026695251, -0.04794148728251457, -0.21109843254089355, -2.1228790283203125, 0.05566871166229248, 0.04002629220485687, 0.3253737986087799, 0.5054490566253662, 0.332633376121521, -0.8157740235328674, 0.2350759655237198, 0.37091881036758423, -1.1642473936080933, 0.3554062247276306, 0.028285937383770943, 0.11802078038454056, -0.26589900255203247, -2.1251256465911865, -0.46664875745773315, -0.2751600742340088, -0.17763426899909973, -0.30969667434692383, -0.12356964498758316], [-0.09325993061065674, -0.08314448595046997, 0.020619479939341545, -0.051823947578668594, 0.20808185636997223, 0.011628973297774792, -0.36567696928977966, 0.08993975073099136, -0.05459555983543396, -0.0614495649933815, -0.17372272908687592, 0.08628703653812408, 0.12440130114555359, -0.01348401140421629, 0.17442908883094788, 0.2080165296792984, -0.11791864037513733, 0.04084734246134758, -0.5756584405899048, 0.011316219344735146, 0.1300487369298935, 0.23693931102752686, 0.057652782648801804, -0.7609897255897522, -0.23249229788780212, 0.08055976778268814, 0.03908509761095047, 0.02294803224503994, -0.08249932527542114, -0.06558643281459808, 0.019428785890340805, -0.08776064962148666, -0.15385989844799042, -0.048573464155197144, -0.08555357158184052, 0.009233913384377956, -0.07619655877351761, 0.011290286667644978, -0.454460084438324, -0.8112122416496277, 0.0003253500326536596, 0.020890463143587112, 0.02940419130027294, -0.09360911697149277, 0.2330566793680191, -0.09641695767641068, 0.08642378449440002, 0.1669134646654129, 0.19631996750831604, 0.12056433409452438, -0.19195102155208588, -0.7978915572166443, -0.21098344027996063, 0.0160941444337368, -0.28029704093933105, 0.10380715131759644, 0.07971347868442535, 0.08076191693544388, 0.052509527653455734, -0.12084899842739105, 0.12786398828029633, -0.05476883426308632, -0.057288046926259995, 0.12233398109674454, 0.009570871479809284, -1.188807725906372, 0.23604288697242737, 0.15005575120449066, -0.2940461337566376, -0.8752200603485107, 0.083753801882267, -0.10024068504571915, 0.09465636312961578, -0.20748798549175262, 0.043444398790597916, 0.06403182446956635, 0.027500208467245102, -0.09696946293115616, 0.1827920377254486, 0.12906469404697418, 0.22150689363479614, -0.021426552906632423, -0.15319833159446716, 0.25208526849746704, -0.09280368685722351, 0.16153362393379211, -0.073573037981987, -0.09974966943264008, -0.404263973236084, -0.10763929784297943, 0.05304909870028496, -0.11901382356882095, 0.11369086802005768, -0.22192756831645966, 0.2137015461921692, 0.001950485515408218, 0.1302543580532074, 0.18947066366672516, -0.07383569329977036, -0.06968997418880463, -0.05652453377842903, 0.16801109910011292, 0.012576437555253506, 0.16435575485229492, 0.047405365854501724, 0.08173342794179916, 0.20471207797527313, 0.08206150680780411, -0.920377790927887, 0.12671025097370148, 0.3451555669307709, 0.14133349061012268, 0.2378300428390503, 0.11735506355762482, -0.05504073575139046, -0.03531024977564812, 0.037374746054410934, -0.6632914543151855, 0.15038101375102997, 0.3272770047187805, 0.088913194835186, 0.21173934638500214, -0.7023624181747437, 0.01822560839354992, -0.11460645496845245, 0.048418302088975906, -0.023197421804070473, -0.11882039904594421], [-0.10492368042469025, -0.41898056864738464, -0.013494571670889854, -0.1332596242427826, 0.08919382840394974, -0.0905420333147049, -0.43326762318611145, 0.01988135278224945, -0.18523865938186646, -0.1113179475069046, -0.3305931091308594, 0.162693589925766, 0.23012736439704895, -0.2508849799633026, 0.16786493360996246, 0.06964346766471863, -0.25673943758010864, -0.07298078387975693, -0.42525050044059753, -0.0011382392840459943, -0.28518009185791016, 0.27721941471099854, -0.1617966890335083, -0.6377309560775757, -0.28168386220932007, -0.11864382028579712, -0.02354743517935276, -0.028201671317219734, -0.034134067595005035, -0.03431811183691025, -0.05633281543850899, -0.0006601961213164032, -0.29840409755706787, -0.13984771072864532, -0.10749658197164536, -0.18971353769302368, -0.13150613009929657, 0.183225616812706, -0.5786893963813782, -0.7121430039405823, 0.08478082716464996, 0.06568027287721634, 0.09505676478147507, -0.1045302003622055, 0.23509639501571655, -0.15863393247127533, 0.15837734937667847, 0.2226109802722931, 0.05956490710377693, -0.045556552708148956, -0.30777743458747864, -0.6684508323669434, -0.14345289766788483, 0.005360111594200134, -0.21491611003875732, 0.12205948680639267, -0.16425786912441254, -0.2506243586540222, 0.09238073974847794, -0.1272725611925125, 0.21301740407943726, -0.20732834935188293, -0.2097381055355072, 0.17361076176166534, 0.007481252308934927, -0.9566136598587036, 0.09572853893041611, 0.1878156214952469, -0.4519907236099243, -0.8703358769416809, 0.05365997180342674, 0.00011736326268874109, 0.02690454013645649, -0.20659588277339935, -0.3265059292316437, 0.17733637988567352, 0.010012554004788399, -0.08293158560991287, 0.2182948738336563, 0.19681353867053986, 0.23887376487255096, 0.0016160784289240837, -0.4818170666694641, 0.2747668921947479, 0.012206667102873325, 0.1523393988609314, -0.1170862466096878, -0.09619810432195663, -0.4428432285785675, -0.030319681391119957, -0.06634879857301712, -0.12524046003818512, 0.05935829505324364, -0.1998346894979477, 0.03366967663168907, -0.025872766971588135, 0.12237881124019623, 0.20057162642478943, -0.2684352695941925, -0.13700208067893982, -0.09508612006902695, 0.11982931196689606, -0.16849683225154877, -0.45594310760498047, -0.011703849770128727, -0.15455611050128937, 0.13074420392513275, -0.0066063906997442245, -0.6415166258811951, 0.013801777735352516, 0.24013982713222504, -0.06922051310539246, 0.28164219856262207, -0.053617559373378754, -0.11549574136734009, -0.01064680702984333, 0.1717124879360199, -0.6107336282730103, 0.12462671101093292, 0.14433661103248596, 0.20238105952739716, 0.11506456881761551, -0.6499527096748352, 0.05035942792892456, -0.30139023065567017, 0.1304226517677307, -0.12012042850255966, -0.12193448841571808], [0.1239982545375824, -0.02631359174847603, -0.09071707725524902, -0.045980945229530334, -0.1018456444144249, -0.04032706096768379, 0.0167597196996212, 0.08299604803323746, 0.13513842225074768, -0.008404258638620377, -0.048126593232154846, -0.040471434593200684, -0.11688835918903351, -0.017232785001397133, -0.023213695734739304, 0.04362209141254425, 0.05031295865774155, -0.05976893752813339, -0.05041392892599106, -0.03990152105689049, -0.07432857155799866, -0.10719712823629379, -0.10464704036712646, -0.0252581425011158, 0.04651719704270363, -0.006251050159335136, 0.033818479627370834, 0.06322648376226425, 0.04297612980008125, -0.02173023112118244, -0.00473149586468935, 0.046766746789216995, -0.07400044053792953, 0.03492635488510132, -0.09936640411615372, 0.04943111911416054, 0.01048706378787756, -0.030813656747341156, 0.03833942115306854, 0.018404195085167885, -0.05410066619515419, 0.030386367812752724, 0.00729005690664053, -0.02934866212308407, -0.004145174752920866, -0.0631241723895073, 0.07272423058748245, -0.1476772427558899, -0.09018595516681671, -0.05877350643277168, 0.022760607302188873, 0.010647011920809746, -0.030765475705266, -0.003298821160569787, 0.03639183193445206, 0.05562560260295868, -0.14680907130241394, 0.04997434467077255, 0.09121214598417282, -0.011162878945469856, -0.06170385330915451, -0.13212887942790985, -0.04883332923054695, -0.0863155797123909, 0.12098661065101624, -0.05099514499306679, 0.0707852840423584, 0.04768318310379982, 0.03019597753882408, 0.023836709558963776, 0.014119429513812065, 0.0316733717918396, -0.010411893017590046, -0.03392476588487625, -0.13041850924491882, -0.045275378972291946, 0.13076908886432648, 0.012240243144333363, 0.0036563763860613108, 0.01978292129933834, -0.0986592173576355, 0.050545815378427505, -0.02179877832531929, -0.11111914366483688, 0.12200362235307693, -0.10864092409610748, 0.016872726380825043, -0.019514963030815125, 0.02940359339118004, -0.03811527416110039, 0.045355118811130524, 0.07977122813463211, -0.06635043770074844, -0.06151018291711807, -0.03806774690747261, -0.08029717206954956, -0.004383157938718796, -0.13175815343856812, -0.01948567107319832, 0.0675673708319664, 0.04104386642575264, -0.09623468667268753, 0.02550177089869976, -0.15211835503578186, -0.027965644374489784, -0.10314228385686874, 0.003455681726336479, -0.08354710042476654, 0.054541248828172684, 0.03185230866074562, -0.03607409447431564, 0.020672103390097618, -0.04484635964035988, -0.10089230537414551, -0.1256895512342453, 0.02943388558924198, -0.0194868016988039, -0.09616753458976746, 0.014035990461707115, -0.056553371250629425, -0.13621938228607178, -0.09670654684305191, -0.02188168466091156, -0.10544895380735397, -0.0643659457564354, -0.028418222442269325, -0.019943274557590485, -0.016978923231363297], [-0.28695523738861084, -0.0253690667450428, -0.7734997272491455, -0.13712631165981293, -0.4654935896396637, -0.25315433740615845, 0.11470372974872589, -0.5709678530693054, -0.2330808788537979, -0.32436099648475647, -0.10696081072092056, -0.3411618769168854, -0.6090632081031799, -0.20633818209171295, -0.3112529516220093, -0.751810610294342, 0.08092734217643738, 0.19477838277816772, 0.34396272897720337, -0.4066837728023529, -0.3790487051010132, -0.657933235168457, -0.41341859102249146, 0.38455402851104736, -0.14322276413440704, -0.33534976840019226, -0.10326413810253143, -0.3772125542163849, -0.3464163839817047, -0.3282512128353119, -0.510601818561554, -0.31694191694259644, 0.11074599623680115, -0.25867751240730286, 0.31054961681365967, -0.24280323088169098, -0.4397827386856079, -0.78559410572052, 0.26825594902038574, 0.41937899589538574, -0.37029993534088135, -0.3692357838153839, -0.3655124306678772, -0.3553049564361572, -0.5363705158233643, -0.16766631603240967, -0.5258342623710632, -0.8900017738342285, -0.264156699180603, -0.4252523183822632, 0.1428324431180954, 0.32471704483032227, 0.24260741472244263, -0.4531571567058563, 0.45091167092323303, -0.5603808164596558, -0.24900773167610168, -0.20922230184078217, -0.016109751537442207, -0.2192961722612381, -0.8216211795806885, 0.4258914291858673, -0.22287534177303314, -0.532567024230957, -0.19639261066913605, 0.36748528480529785, -0.11117442697286606, -0.6234496831893921, 0.2405546009540558, 0.252939909696579, 0.16645538806915283, -0.3186890780925751, -0.7246123552322388, -0.1811535358428955, -0.45885318517684937, -0.9115285873413086, -0.30342987179756165, 0.01021572481840849, 0.027360133826732635, -0.7640568017959595, -0.7444798350334167, -0.15622210502624512, -0.07403746992349625, -0.7603727579116821, -0.3063966631889343, -0.34186261892318726, -0.3527893126010895, 0.18709026277065277, 0.17553944885730743, 0.10915035754442215, -0.286257803440094, -0.1007198691368103, -0.1311236023902893, -0.08775881677865982, 0.03388001024723053, -0.2666166424751282, -0.5200179815292358, -0.39892005920410156, 0.008916877210140228, -0.1960074007511139, 0.07657194882631302, -0.5147152543067932, 0.32055366039276123, -0.2602643370628357, -0.39015787839889526, -0.436585932970047, -0.08857445418834686, 0.0409901887178421, 0.2827360928058624, -0.38228848576545715, -0.10940049588680267, -0.41270554065704346, -0.7270299792289734, -0.560867190361023, 0.2693144977092743, -0.3564331531524658, -0.6374955773353577, 0.40432313084602356, -0.7412112355232239, -0.017224235460162163, -0.7987021803855896, 0.2986951768398285, 0.18671688437461853, 0.4360891282558441, -0.10459449887275696, 0.03390846028923988, 0.11540870368480682, -0.1505933701992035], [0.06253594160079956, -0.03143524006009102, -0.06256521493196487, -0.02353460155427456, -0.0865694135427475, -0.04451170936226845, -0.07872508466243744, 0.05690395459532738, -0.003235702635720372, 0.09062482416629791, -0.0988430604338646, 0.07581178098917007, -0.015928301960229874, -0.0969599187374115, 0.025939635932445526, 0.036656446754932404, -0.08053164184093475, -0.2165926694869995, -0.037376489490270615, -0.1233065202832222, -0.11016719043254852, -0.12442375719547272, -0.08526140451431274, -0.18587219715118408, -0.06707918643951416, -0.08394848555326462, 0.03517282381653786, 0.05761779844760895, 0.026857199147343636, 0.007710032630711794, -0.004087063949555159, -0.05281177908182144, 0.038081444799900055, 0.10560224950313568, -0.1491633653640747, -0.040538329631090164, -0.09141553938388824, -0.12947311997413635, -0.07422023266553879, -0.23458407819271088, -0.12968455255031586, 0.005337309557944536, 0.008874064311385155, 0.0608585961163044, -0.03803308680653572, 0.019203923642635345, -0.054087117314338684, -0.1485087126493454, -0.10115841031074524, -0.11724746227264404, 0.014471914619207382, -0.21164818108081818, -0.08090583980083466, -0.0686020702123642, -0.13223347067832947, -0.01817852444946766, -0.02856854349374771, -0.053203511983156204, 0.011567626148462296, 0.13649407029151917, -0.10696061700582504, -0.18223509192466736, -0.06086362525820732, -0.05089571326971054, 0.09867226332426071, -0.21497614681720734, 0.04946945607662201, 0.035566262900829315, -0.1658501774072647, -0.03711647540330887, -0.07082882523536682, -0.012996510602533817, -0.01266882661730051, 0.05330624803900719, -0.044397901743650436, -0.22424840927124023, 0.016761675477027893, 0.058574218302965164, 0.038378454744815826, -0.12824904918670654, -0.030227772891521454, 0.09949874877929688, -0.07795455306768417, 0.00013482608483172953, -0.0022875075228512287, -0.06366077810525894, -0.04530968889594078, -0.19144761562347412, -0.12514284253120422, 0.06789978593587875, 0.09258098155260086, 0.02606382966041565, 0.10863000154495239, -0.023974213749170303, -0.13384228944778442, -0.04361596703529358, -0.037439197301864624, -0.10585366934537888, 0.05307035520672798, 0.0855630561709404, 0.02825302816927433, -0.0008950945921242237, -0.2040453553199768, -0.14266443252563477, 0.06268098205327988, -0.13262930512428284, 0.06883254647254944, 0.005767731461673975, -0.06206648051738739, -0.009161991998553276, -0.10629802942276001, -0.0856938287615776, -0.1819627583026886, -0.12024325132369995, -0.28618595004081726, 0.12130634486675262, -0.15287671983242035, -0.23700706660747528, 0.0216072890907526, -0.07300423830747604, -0.13929741084575653, -0.08945909142494202, 0.02278897911310196, -0.21643470227718353, 0.012356285937130451, 0.0011175384279340506, -0.007007562089711428, 0.14400583505630493], [0.1372375339269638, -0.0435786098241806, -0.02199281007051468, 0.04871867224574089, -0.09982379525899887, 0.10324124991893768, 0.06284704059362411, -0.05359553545713425, 0.18701429665088654, 0.1194542720913887, -0.05122940614819527, 0.03986378014087677, -0.04980671778321266, -0.04201207682490349, -0.0522688664495945, 0.08391518890857697, 0.05397215858101845, -0.1148228570818901, 0.02456407994031906, 0.02968151681125164, -0.06170829012989998, -0.07204249501228333, -0.1237492561340332, 0.025566816329956055, 0.025102172046899796, -0.051137775182724, 0.12738554179668427, 0.03195443004369736, 0.14223690330982208, 0.016443897038698196, -0.06364176422357559, 0.054430849850177765, 0.14778244495391846, 0.08547098934650421, -0.13582366704940796, -0.05701230838894844, -0.06178070977330208, -0.027160296216607094, 0.059287890791893005, -0.01553696021437645, 0.04307333379983902, 0.08422356843948364, 0.010789462365210056, 0.14604008197784424, -0.044388510286808014, 0.11665722727775574, -0.0006598993786610663, 0.008717508986592293, -0.12495526671409607, -0.06493523716926575, 0.04849556088447571, 0.0017922422848641872, -0.04276294261217117, -0.06837910413742065, -0.049325548112392426, 0.0958930179476738, -0.04336398467421532, 0.02166721224784851, 0.10106999427080154, 0.07503052800893784, -0.06736033409833908, -0.07003989815711975, 0.11918675154447556, -0.12574703991413116, 0.12033124268054962, -0.12672843039035797, 0.024144815281033516, 0.04169228672981262, -0.14227022230625153, -0.06927883625030518, -0.08678468316793442, 0.05327504500746727, 0.03273327276110649, 0.13054080307483673, -0.08905407041311264, -0.026938796043395996, 0.17223285138607025, 0.1624888777732849, -0.07235348969697952, 0.041807278990745544, -0.0952598825097084, 0.11135394126176834, -0.09403298050165176, -0.05433379486203194, 0.196147620677948, 0.021473847329616547, 0.14386866986751556, 0.027684450149536133, -0.04942317679524422, 0.14636965095996857, 0.04275103285908699, 0.10496322065591812, 0.002830083016306162, 0.10789640247821808, -0.06704085320234299, 0.03967143967747688, 0.03428291529417038, 0.025831464678049088, 0.07477834820747375, 0.15017588436603546, 0.13371804356575012, -0.023024151101708412, -0.04200932756066322, -0.07525327801704407, 0.10105212777853012, -0.047177236527204514, -0.0787753164768219, -0.04777596518397331, 0.03670665994286537, 0.1480027288198471, -0.05997652933001518, -0.05569205805659294, -0.11137805134057999, 0.009495270438492298, -0.0671914741396904, 0.045155514031648636, -0.026474814862012863, -0.15253731608390808, 0.003902060678228736, -0.06579802185297012, 0.019103417173027992, -0.09916899353265762, -0.08532855659723282, -0.0666542649269104, 0.004824322648346424, -0.11756597459316254, 0.08942750096321106, 0.17809368669986725], [-0.17057983577251434, 0.21055632829666138, -0.003963052295148373, -0.008799501694738865, -0.19361712038516998, 0.018040796741843224, 0.2272096574306488, -0.1494385302066803, -0.04118051007390022, -0.06583736091852188, 0.06290589272975922, -0.2542364001274109, -0.3533093333244324, 0.12277526408433914, -0.1525280475616455, -0.21887986361980438, 0.15886349976062775, 0.12308429926633835, 0.3527333736419678, -0.016386328265070915, 0.12058834731578827, -0.3582831025123596, 0.029207691550254822, 0.20312941074371338, -0.02663799189031124, 0.04193146899342537, -0.06828976422548294, 0.017605654895305634, -0.08450224250555038, 0.02896146848797798, 0.088933564722538, -0.08418075740337372, 0.2047993540763855, -0.09095212817192078, 0.17154987156391144, 0.07310031354427338, -0.006925695110112429, -0.27325770258903503, 0.14002873003482819, 0.32828882336616516, 0.01701994799077511, -0.10870915651321411, -0.07029229402542114, -0.03244190290570259, -0.33986908197402954, 0.02857234701514244, -0.2578282058238983, -0.3806765377521515, -0.07502825558185577, 0.05248210206627846, 0.17628668248653412, 0.3173631429672241, 0.13267061114311218, 0.02592596411705017, 0.29113849997520447, -0.12188994884490967, 0.04139570891857147, 0.015532919205725193, 0.006183887366205454, -0.00441069295629859, -0.3474027216434479, 0.2731335759162903, 0.044361524283885956, -0.1549159437417984, -0.04711892455816269, 0.29946058988571167, -0.09748091548681259, -0.16340085864067078, 0.2449977844953537, 0.29579293727874756, -0.08585847169160843, -0.06490664929151535, -0.027171097695827484, 0.04361451044678688, 0.09426236152648926, -0.5241183042526245, -0.0394342839717865, 0.02773166075348854, -0.06655383110046387, -0.22834429144859314, -0.3427030146121979, -0.17296086251735687, 0.17531859874725342, -0.4372820258140564, 0.025310257449746132, -0.13614501059055328, -0.03200531378388405, 0.22274602949619293, 0.2606835961341858, -0.02051713317632675, -0.138693705201149, 0.03196461871266365, -0.15306270122528076, 0.10136020928621292, -0.12129383534193039, 0.02258833311498165, -0.25973933935165405, -0.21597157418727875, 0.13451705873012543, -0.022401299327611923, 0.01054426934570074, -0.24913904070854187, 0.27256062626838684, 0.2759090065956116, -0.10975193232297897, 0.08797501772642136, -0.15890417993068695, -0.15394341945648193, 0.323535680770874, -0.18756318092346191, -0.24332500994205475, -0.03195657581090927, -0.3707844018936157, 0.0726962462067604, 0.1828552931547165, -0.06706911325454712, -0.1949920952320099, 0.3330148756504059, -0.17519761621952057, -0.12373417615890503, -0.4339567720890045, 0.14019443094730377, 0.2099703699350357, 0.22525149583816528, 0.13869191706180573, -0.018380053341388702, -0.003820073790848255, -0.12663373351097107], [0.5683743357658386, -0.09224338084459305, 0.009953617118299007, 0.4973525106906891, 0.030044447630643845, 0.23727859556674957, 0.07371951639652252, 0.23962990939617157, 0.41805070638656616, 0.4889868199825287, 0.1657896637916565, 0.37816622853279114, -0.05745355412364006, -0.05170704424381256, 0.11731034517288208, -0.011601905338466167, 0.1813809871673584, -0.11409967392683029, -0.04706507548689842, 0.06175611540675163, -0.103111632168293, -0.1600324958562851, -0.019789081066846848, 0.004250166472047567, 0.3009495437145233, 0.09791383892297745, 0.4016742408275604, 0.27521762251853943, 0.5749279260635376, 0.22651727497577667, -0.032011568546295166, 0.20028121769428253, 0.2847241163253784, 0.44746798276901245, -0.03134266659617424, -0.05724439397454262, -0.046436455100774765, -0.03477058559656143, -0.06423722952604294, -0.10278833657503128, 0.005279805511236191, 0.5027141571044922, 0.57194983959198, 0.4137824773788452, -0.28383105993270874, 0.22133737802505493, 0.18982863426208496, -0.12490992993116379, 0.0017196894623339176, -0.2023131400346756, 0.26888686418533325, -0.07947863638401031, -0.07868239283561707, -0.03076993115246296, -0.22871330380439758, 0.4157220721244812, -0.06561964750289917, -0.07569380849599838, 0.308040589094162, 0.42502251267433167, -0.057816363871097565, -0.1475762277841568, 0.1762557327747345, -0.07743886113166809, 0.47488757967948914, -0.1205214411020279, -0.09208093583583832, 0.04068143293261528, -0.1391139179468155, -0.06906057149171829, -0.13702109456062317, 0.5004080533981323, 0.027437888085842133, 0.28502216935157776, -0.14303144812583923, -0.46789366006851196, 0.5621291399002075, 0.26489850878715515, -0.2892528176307678, -0.03670855984091759, -0.07393137365579605, 0.5198285579681396, -0.0700920969247818, -0.09311898052692413, 0.5290831923484802, -0.11467817425727844, 0.4584466516971588, 0.0232066847383976, -0.12285953015089035, 0.19089974462985992, 0.4428060054779053, 0.3131973445415497, 0.18198347091674805, 0.29966145753860474, -0.13726145029067993, 0.05540880933403969, -0.42750462889671326, -0.29049965739250183, 0.2787313759326935, 0.4511706829071045, 0.3868483304977417, -0.26104655861854553, -0.08540025353431702, -0.12092974781990051, 0.2986114025115967, -0.18359872698783875, -0.1583789885044098, -0.1970711499452591, -0.045928116887807846, 0.5090175867080688, -0.7838065028190613, -0.06370453536510468, -0.1445901095867157, -0.02009676769375801, -0.09862008690834045, 0.5216089487075806, 0.0012988793896511197, -0.1362740397453308, -0.020967623218894005, -0.5677782297134399, -0.6783766746520996, -0.4441160261631012, 0.0323793925344944, -0.2642017900943756, 0.27414843440055847, -0.020468909293413162, 0.22308476269245148, 0.4345245361328125], [0.31793612241744995, -0.06922566145658493, -0.0927881971001625, 0.2819906771183014, -0.04430567845702171, 0.08477261662483215, 0.06275824457406998, 0.07992970198392868, 0.2469036728143692, 0.27341529726982117, 0.07549165934324265, 0.21783992648124695, -0.03322819620370865, -0.09568584710359573, 0.057675816118717194, 0.004978942219167948, 0.06174754351377487, -0.0964454710483551, -0.01158954855054617, 0.07350773364305496, -0.1719146966934204, -0.05405818670988083, -0.10769965499639511, 0.008778689429163933, 0.124500572681427, 0.037678737193346024, 0.3131707012653351, 0.10458721965551376, 0.388320654630661, 0.0942796915769577, -0.12265853583812714, 0.18665677309036255, 0.17438647150993347, 0.31470757722854614, -0.09117884188890457, 0.056097641587257385, -0.10490874201059341, -0.07789729535579681, -0.09896614402532578, -0.029627438634634018, -0.0017357663018628955, 0.3057973384857178, 0.3336220979690552, 0.2175762802362442, -0.13556629419326782, 0.1283414661884308, 0.1570991426706314, -0.2014484703540802, -0.08248557150363922, -0.1826981157064438, 0.1928679198026657, 0.0338689386844635, -0.013123143464326859, -0.07444480061531067, -0.10287248343229294, 0.35022082924842834, -0.12335848808288574, -0.015252900309860706, 0.2215416133403778, 0.3285178542137146, -0.22510050237178802, -0.12634563446044922, 0.17698638141155243, -0.23266974091529846, 0.2976658344268799, -0.005703444126993418, 0.04144611582159996, -0.05604151263833046, -0.12075973302125931, 0.10898806154727936, -0.20409438014030457, 0.2216721773147583, 0.003929981496185064, 0.2344694584608078, -0.1696005016565323, -0.455014705657959, 0.40781503915786743, 0.2492886781692505, -0.18572163581848145, -0.031746044754981995, -0.18439491093158722, 0.3143787682056427, 0.04287157207727432, -0.12537577748298645, 0.3038870096206665, -0.1087503433227539, 0.22086083889007568, 0.10096510499715805, -0.013077320531010628, 0.26302608847618103, 0.37997108697891235, 0.279683917760849, 0.1215905100107193, 0.23328621685504913, -0.10051202774047852, 0.0020408104173839092, -0.23726505041122437, -0.10453762114048004, 0.16262777149677277, 0.21759212017059326, 0.27530187368392944, -0.33988848328590393, -0.14081385731697083, -0.06165538728237152, 0.2261616438627243, -0.03965557739138603, -0.07747749984264374, -0.17765507102012634, 0.042154617607593536, 0.280865341424942, -0.45609551668167114, -0.004012421239167452, -0.2304866760969162, 0.014005148783326149, -0.05110016092658043, 0.3471643030643463, -0.20179986953735352, -0.18701273202896118, 0.04387529566884041, -0.2658529281616211, -0.5112175345420837, -0.4117079973220825, -0.017653806135058403, -0.23630504310131073, 0.14303188025951385, -0.05381878837943077, 0.05561402812600136, 0.36147159337997437], [0.6293730139732361, -0.011386660858988762, -0.07959434390068054, 0.6549198031425476, 0.14465059340000153, 0.1680378019809723, 0.017648369073867798, 0.16524791717529297, 0.5676478743553162, 0.5510427951812744, 0.1434100866317749, 0.1714988499879837, 0.1258663833141327, -0.1757589727640152, -0.1788492202758789, 0.19716425240039825, 0.3208969533443451, 0.06925531476736069, 0.05139550194144249, 0.09425433725118637, -0.2472628653049469, -0.039418093860149384, -0.15465956926345825, 0.1812894195318222, 0.3055151402950287, 0.1355609893798828, 0.4470045566558838, 0.26891353726387024, 0.6366921663284302, 0.17077352106571198, -0.2902846038341522, 0.2792242467403412, 0.3070959448814392, 0.6243161559104919, 0.08728133887052536, -0.14143702387809753, -0.0535089448094368, -0.007250267080962658, 0.1215314194560051, 0.07740090787410736, 0.19649666547775269, 0.6145129203796387, 0.40596890449523926, 0.4635045528411865, -0.11331304907798767, 0.24166816473007202, 0.12744984030723572, 0.06350935995578766, 0.07814525812864304, -0.26777955889701843, 0.4161697030067444, 0.12542487680912018, 0.15448841452598572, 0.12181153148412704, 0.06851987540721893, 0.37643688917160034, -0.23328012228012085, -0.08069843798875809, 0.36521321535110474, 0.5195541381835938, 0.10405223816633224, -0.027067014947533607, 0.20492108166217804, 0.055710259824991226, 0.6916665434837341, 0.051978979259729385, -0.6554677486419678, 0.1174839586019516, -0.06438763439655304, 0.09438832849264145, -0.40643149614334106, 0.4725799560546875, -0.1328677535057068, 0.3804832398891449, -0.21545098721981049, -0.16475604474544525, 0.4554569125175476, 0.5151603817939758, -1.0730019807815552, 0.1489049792289734, 0.046881627291440964, 0.6507659554481506, -0.09443311393260956, 0.04946364089846611, 0.6117563247680664, -0.23325464129447937, 0.4464694857597351, 0.29673144221305847, -0.006791689433157444, 0.4848361015319824, 0.6823723316192627, 0.5086418986320496, 0.11151184141635895, 0.33680033683776855, -0.5380059480667114, 0.04945473372936249, -0.28502729535102844, -0.21334385871887207, 0.3991811275482178, 0.5382134914398193, 0.46836787462234497, -0.2136760801076889, 0.0249481163918972, -0.26631173491477966, 0.44808903336524963, -0.2951957881450653, -0.6617726683616638, -0.5379255414009094, 0.021846074610948563, 0.4441624581813812, -0.8026749491691589, 0.01030812505632639, 0.009931499138474464, -0.11214149743318558, 0.03519335016608238, 0.40293216705322266, 0.01252188254147768, -0.01207992248237133, 0.22615599632263184, -1.1179351806640625, -0.32880911231040955, -1.026336669921875, 0.17815837264060974, -0.26336297392845154, 0.20667654275894165, -0.24207064509391785, 0.4141870141029358, 0.6839044690132141], [0.05493598431348801, 0.01262908335775137, -0.048739004880189896, -0.0856289342045784, 0.05276384577155113, -0.028250057250261307, -0.007950386963784695, -0.001308375969529152, -0.03867346793413162, -0.06701452285051346, -0.14166750013828278, 0.031420256942510605, 0.017725251615047455, -0.09423822164535522, 0.01620698720216751, 0.06702776998281479, 0.018262377008795738, 0.01402557734400034, 0.02552635967731476, -0.00108390673995018, -0.1028439998626709, 0.10116659849882126, -0.13830912113189697, -0.09642123430967331, 0.013517174869775772, -0.1157626360654831, -0.10387200862169266, -0.04941911995410919, -0.09735289961099625, 0.009607828222215176, -0.10422881692647934, -0.0830468013882637, -0.07996915280818939, -0.034020908176898956, -0.015213586390018463, -0.1217527836561203, -0.035195834934711456, -0.05213369429111481, -0.07221105694770813, -0.03459605947136879, -0.06802744418382645, 0.042029015719890594, -0.10023552179336548, -0.05801021680235863, -0.08228547126054764, -0.03924677520990372, -0.034346744418144226, -0.07819759100675583, -0.10428278893232346, -0.14986403286457062, -0.0066370670683681965, -0.08397237956523895, -0.05599360167980194, -0.10235156118869781, 0.006633875425904989, -0.10440648347139359, -0.12482263892889023, -0.06682687997817993, 0.06349840760231018, -0.12778156995773315, -0.10158234089612961, 0.03285405784845352, -0.10267551243305206, -0.08118882775306702, 0.040132075548172, 0.06933078169822693, 0.011460603214800358, 0.026631208136677742, -0.07227368652820587, -0.006039637606590986, -0.06226848438382149, 0.01904224418103695, -0.10858213901519775, -0.10840746760368347, -0.09770037978887558, -0.024621890857815742, -0.07452012598514557, -0.006557582411915064, 0.05738948658108711, 0.06113748624920845, 0.10359635204076767, -0.07232482731342316, 0.0020484367851167917, 0.07289069145917892, -0.04405572637915611, 0.000562575994990766, -0.0051887123845517635, 0.024362117052078247, -0.008216368034482002, -0.05775679647922516, 0.013894028030335903, -0.1048215702176094, 0.02525050938129425, 0.011326382867991924, 0.04090980067849159, -0.07725314795970917, 0.09111779183149338, -0.02562430128455162, 0.019712015986442566, -0.08298251777887344, -0.0825684517621994, -0.061596039682626724, 0.029208887368440628, -0.023532338440418243, -0.023555781692266464, -0.07598863542079926, 0.007193407975137234, 0.07103809714317322, -0.05920334905385971, -0.02017398178577423, 0.08178578317165375, -0.14124776422977448, 0.050462253391742706, -0.14564262330532074, -0.024088382720947266, -0.10963627696037292, -0.07182371616363525, -0.004051313269883394, -0.013619239442050457, 0.09863515198230743, -0.06865799427032471, -0.049515482038259506, -0.06764880567789078, -0.08529585599899292, -0.05579673498868942, 0.04187970981001854, -0.06040838360786438, -0.04858466982841492], [-0.14468692243099213, -0.7874331474304199, -0.6029108762741089, -0.05334458500146866, -0.08465507626533508, -0.48590368032455444, -0.45455875992774963, 0.03111736848950386, -0.28052523732185364, -0.2516087293624878, -0.4755576252937317, 0.08610454946756363, -0.01687452755868435, -1.0092697143554688, 0.21077477931976318, 0.03400198370218277, -0.1737278550863266, 0.13949649035930634, -0.4737794101238251, -0.28826284408569336, -1.4077954292297363, 0.0863741785287857, -1.3002933263778687, -0.13125105202198029, -0.25068923830986023, -0.5070546865463257, 0.11278392374515533, -0.43913087248802185, -0.18618161976337433, -0.5994541645050049, -1.6839139461517334, -0.23298390209674835, -0.23785166442394257, -0.12471825629472733, 0.03852633759379387, -1.0680862665176392, -0.9632424712181091, 0.10592560470104218, -0.5863611102104187, -0.2588402330875397, -0.2146451771259308, -5.290537956170738e-05, 0.01841115579009056, -0.17425322532653809, 0.28015387058258057, -0.3693842589855194, -0.028993723914027214, 0.10864320397377014, -0.19787432253360748, -1.3674236536026, -0.17934228479862213, -0.22811561822891235, 0.007386035285890102, -0.2299356460571289, 0.04590791463851929, -0.13736575841903687, -1.011590838432312, -1.1413700580596924, 0.09345679730176926, -0.09219159185886383, 0.14380323886871338, 0.12864097952842712, -0.32439282536506653, -0.04966600239276886, -0.11504947394132614, -0.3243287205696106, 0.18571312725543976, 0.10316070914268494, -0.7336577773094177, -0.41589123010635376, 0.22205232083797455, -0.25343436002731323, -0.9612237215042114, -0.2957422137260437, -1.326329231262207, 0.16781367361545563, 0.12941324710845947, -0.005944473668932915, 0.2894081175327301, 0.06193516030907631, 0.050522658973932266, 0.006154144182801247, -0.877746045589447, 0.20113244652748108, -0.143241748213768, 0.19417983293533325, -0.2233133167028427, -0.04749215394258499, -0.6087288856506348, 0.022882850840687752, -0.03680769354104996, -0.06576613336801529, 0.13915231823921204, -0.32678624987602234, 0.24718007445335388, -0.9062051773071289, 0.23678922653198242, 0.24618685245513916, -0.0938451960682869, -0.15117906033992767, -0.08130589872598648, 0.15168559551239014, 0.11977517604827881, -0.9322782754898071, 0.03921042010188103, -1.5335650444030762, 0.25776639580726624, 0.1841004490852356, -0.4166388213634491, 0.009403356350958347, 0.44726115465164185, -0.5430983304977417, 0.012708442285656929, -0.8226737976074219, -0.08800289779901505, -0.07410433888435364, -0.09862308204174042, -0.183792844414711, -0.027776362374424934, 0.4039516746997833, 0.10926118493080139, 0.29466864466667175, -0.4501791000366211, 0.24360769987106323, -0.3232417702674866, 0.23436054587364197, 0.035663384944200516, -0.1091529130935669], [0.024151530116796494, 0.213045135140419, 0.05019059404730797, 0.13176864385604858, 0.0008734893053770065, 0.06979095935821533, 0.20931804180145264, 0.002646957989782095, 0.1842435896396637, 0.1095208078622818, 0.07156950235366821, -0.21647699177265167, -0.06279201805591583, 0.13804705440998077, -0.28052547574043274, -0.15391848981380463, 0.003957659937441349, -0.12055360525846481, 0.14278475940227509, 0.002675801981240511, 0.12542667984962463, -0.2873196303844452, 0.22725273668766022, 0.015228638425469398, 0.1404682844877243, 0.12712910771369934, 0.006117406766861677, 0.015565616078674793, 0.14254067838191986, 0.21283215284347534, 0.07586599886417389, 0.081345334649086, 0.08809277415275574, 0.07609937340021133, -0.11120414733886719, 0.23870554566383362, 0.12431829422712326, -0.19457736611366272, 0.0907442569732666, 0.09308111667633057, -0.021059812977910042, 0.0043682558462023735, -0.08307919651269913, 0.10091853141784668, -0.38098058104515076, 0.13447585701942444, -0.02102261409163475, -0.09511817246675491, 0.05440589040517807, 0.15856780111789703, 0.005682729184627533, 0.11654305458068848, -0.040493424981832504, 0.030479220673441887, -0.033674828708171844, -0.036416273564100266, 0.16695763170719147, 0.1524331271648407, -0.04944155737757683, 0.02842327579855919, 0.00773367565125227, -0.09088481217622757, 0.07893551141023636, -0.05697786808013916, 0.041721805930137634, 0.04415443167090416, -0.4778100550174713, -0.25165021419525146, 0.22531160712242126, 0.023849384859204292, -0.2864671051502228, 0.06838305294513702, 0.09119376540184021, 0.05132238194346428, 0.17017723619937897, -0.4836965799331665, -0.08126209676265717, -0.013112434186041355, -0.6209365725517273, 0.011592510156333447, -0.23865975439548492, 0.08268974721431732, 0.18021833896636963, -0.18847128748893738, 0.04090019688010216, -0.37469106912612915, 0.12052135169506073, 0.01696389727294445, 0.1862446665763855, -0.019383082166314125, 0.06913860142230988, 0.11060753464698792, -0.13027234375476837, 0.048204466700553894, -0.3967171311378479, 0.0843733474612236, -0.3698923885822296, -0.5671555995941162, 0.0053347996436059475, 0.024589771404862404, -0.0035580461844801903, -0.36037036776542664, -0.06006603315472603, 0.13788531720638275, -0.017879895865917206, 0.0800032764673233, -0.5660746693611145, -0.23358899354934692, 0.0874098688364029, -0.07081431895494461, -0.631565511226654, 0.09415264427661896, -0.1271504908800125, 0.0473565049469471, -0.014026310294866562, 0.09483929723501205, 0.007736633066087961, 0.07758330553770065, -0.08588618040084839, -0.5265915393829346, -0.5711884498596191, -0.4674500823020935, 0.07397489249706268, -0.41347450017929077, 0.06494230031967163, -0.48779088258743286, -0.0721256360411644, 0.03352437913417816], [0.229056254029274, 0.047953084111213684, -0.028980299830436707, 0.12941747903823853, -0.028781142085790634, -0.026066554710268974, 0.056844938546419144, 0.06756657361984253, 0.05606837198138237, 0.08424968272447586, -0.007191578391939402, 0.17540530860424042, -0.012367067858576775, -0.06354322284460068, 0.15023507177829742, 0.018615322187542915, 0.10358142107725143, -0.042029570788145065, -0.07343949377536774, -0.003616077359765768, -0.03532252088189125, -0.07783273607492447, -0.141319140791893, 0.05182638391852379, 0.09564406424760818, 0.10703535377979279, 0.15294978022575378, 0.01926662214100361, 0.22448402643203735, 0.09109466522932053, -0.10086771845817566, 0.07759326696395874, 0.1219896674156189, 0.20219820737838745, -0.09669357538223267, -0.018184084445238113, -0.0166068896651268, -0.08546119183301926, -0.02487184852361679, -0.0769951194524765, -0.02801421470940113, 0.2433755248785019, 0.245563805103302, 0.10201079398393631, -0.10739902406930923, 0.06319454312324524, 0.15092314779758453, -0.05172940343618393, -0.1118699312210083, -0.18458141386508942, -0.021327419206500053, -0.11809121817350388, 0.04676840826869011, -0.11916106939315796, -0.09829918295145035, 0.09466297179460526, -0.18418747186660767, -0.092662513256073, 0.12033572793006897, 0.050049278885126114, -0.0805635079741478, -0.13220147788524628, -0.012857145629823208, -0.15072232484817505, 0.06768696010112762, -0.031535495072603226, 0.06594299525022507, 0.08928777277469635, -0.13679279386997223, -0.07436583936214447, -0.12114177644252777, 0.07905031740665436, 0.009341384284198284, 0.1431463211774826, -0.1114439144730568, -0.2501292824745178, 0.19042664766311646, 0.13392424583435059, -0.05967900529503822, -0.14593632519245148, -0.18274986743927002, 0.1805688440799713, -0.018627703189849854, -0.16821014881134033, 0.06674082577228546, -0.053617436438798904, 0.20604699850082397, -0.06677981466054916, -0.04283607006072998, 0.0443178154528141, 0.10208316892385483, 0.13949623703956604, 0.12347400933504105, 0.016091978177428246, -0.13553132116794586, 0.002253638580441475, -0.11729756742715836, -0.06813792139291763, 0.024928711354732513, 0.17274418473243713, 0.007139203138649464, -0.1769033819437027, -0.006744614336639643, -0.049824316054582596, 0.10238245129585266, -0.06158193200826645, 0.017226234078407288, -0.11144382506608963, 0.04847715049982071, 0.11074238270521164, -0.08480329066514969, 0.012437631376087666, -0.18589700758457184, 0.020014464855194092, -0.13121768832206726, 0.13541081547737122, -0.06573788821697235, -0.11375857889652252, -0.07836462557315826, -0.05491185560822487, -0.21062318980693817, -0.21948020160198212, 0.054754212498664856, -0.06588408350944519, 0.002460256451740861, 0.0032576904632151127, -0.009703466668725014, 0.06429669260978699], [0.521803081035614, -0.047405436635017395, 0.060824159532785416, 0.39236900210380554, -0.02526118978857994, 0.2066110372543335, -0.030488479882478714, 0.06117156520485878, 0.4395379424095154, 0.4231986999511719, 0.13460417091846466, 0.15671353042125702, -0.0681820660829544, 0.011076752096414566, 0.13177357614040375, -0.04072832688689232, 0.16188524663448334, -0.12982673943042755, -0.08734528720378876, -0.06206909194588661, -0.07202364504337311, -0.1869390457868576, -0.04362659156322479, -0.06711146980524063, 0.31479063630104065, 0.184111550450325, 0.2461419254541397, 0.13667792081832886, 0.49226120114326477, 0.1117827296257019, -0.0751446858048439, 0.13123513758182526, 0.22975999116897583, 0.5357705354690552, -0.1430012583732605, -0.02680371329188347, -0.12557071447372437, -0.051141876727342606, -0.02508523128926754, -0.16705594956874847, 0.10517780482769012, 0.45302852988243103, 0.3337128460407257, 0.4682494103908539, -0.02601785771548748, 0.2886064946651459, 0.09160342812538147, 0.01418112963438034, -0.18223366141319275, -0.14723585546016693, 0.2023528516292572, -0.1674717366695404, 0.03680902719497681, -0.05334560200572014, -0.11461830139160156, 0.241098091006279, -0.1868639886379242, -0.045062653720378876, 0.2317267805337906, 0.40111926198005676, -0.040120456367731094, -0.21458864212036133, 0.1970827579498291, -0.10779454559087753, 0.4439608156681061, -0.0029033049941062927, -0.10592636466026306, 0.06388392299413681, -0.11037545651197433, 0.009104584343731403, -0.09991185367107391, 0.5202283263206482, -0.07990570366382599, 0.36109688878059387, -0.08886101841926575, -0.2854997515678406, 0.47812360525131226, 0.4034173786640167, -0.1859786957502365, 0.0787155032157898, -0.1664324253797531, 0.4896089434623718, -0.05966386944055557, -0.04047654569149017, 0.4971480369567871, -0.094697505235672, 0.34372398257255554, -0.00221575191244483, 0.01835818961262703, 0.3237372934818268, 0.5347951054573059, 0.4183087646961212, 0.2588280141353607, 0.25232672691345215, -0.06957581639289856, 0.027109019458293915, -0.06241997331380844, -0.11965572834014893, 0.32388386130332947, 0.3940236568450928, 0.34224775433540344, -0.08258938789367676, -0.06564226001501083, -0.05941956117749214, 0.2920660078525543, -0.08950741589069366, -0.015918053686618805, -0.11641658842563629, -0.08753719925880432, 0.2926619350910187, -0.20778273046016693, 0.06885957717895508, -0.10496493428945541, -0.06816001981496811, -0.1970948725938797, 0.38900673389434814, -0.05363438278436661, -0.14542487263679504, 0.033614613115787506, -0.2665259540081024, -0.23782040178775787, -0.33685141801834106, 0.09089937061071396, -0.2410433292388916, 0.11817596107721329, -0.0020037607755512, 0.11157287657260895, 0.4717327356338501], [0.1976030170917511, 0.04487849026918411, -0.09796652942895889, 0.16330848634243011, -0.02645941823720932, 0.13959726691246033, 0.0031310138292610645, 0.099617138504982, 0.262454092502594, 0.23956456780433655, 0.1165229007601738, 0.16926082968711853, 0.017343997955322266, -0.0915045365691185, 0.1354556828737259, -0.08123143017292023, 0.14657153189182281, -0.07289065420627594, -0.09641915559768677, -0.12930215895175934, -0.04063809663057327, -0.1363607943058014, -0.1299205869436264, 0.03582201153039932, 0.1976414918899536, 0.013737558387219906, 0.20452553033828735, 0.1970793604850769, 0.1967719942331314, 0.060232389718294144, -0.16514331102371216, 0.055409107357263565, 0.17657192051410675, 0.16562272608280182, -0.13535641133785248, -0.07623384147882462, -0.15706788003444672, -8.394752512685955e-05, 0.05986730009317398, 0.009478410705924034, -0.08632096648216248, 0.29783084988594055, 0.1498485654592514, 0.2552582621574402, -0.07822285592556, 0.144539013504982, 0.09703991562128067, -0.03599485754966736, -0.14489012956619263, -0.15811364352703094, 0.162721186876297, -0.0005749012343585491, -0.11276613920927048, -0.13582171499729156, -0.13705356419086456, 0.2416345477104187, -0.02376667410135269, -0.007769049145281315, 0.11612513661384583, 0.20377004146575928, -0.0779041275382042, -0.17715920507907867, 0.1350288987159729, -0.19134372472763062, 0.16997064650058746, -0.0015953656984493136, -0.04215296357870102, 0.01599275879561901, -0.11241567134857178, 0.013859567232429981, -0.16551971435546875, 0.16422389447689056, -0.11283189803361893, 0.11720731854438782, -0.015284438617527485, -0.0655224546790123, 0.2368871569633484, 0.20950570702552795, -0.037420693784952164, 0.01724378578364849, -0.1861257702112198, 0.2510206699371338, 0.03834770247340202, -0.1625361442565918, 0.3047926425933838, -0.0843765065073967, 0.1960172951221466, -0.11117177456617355, -0.06971239298582077, 0.08093376457691193, 0.2673203945159912, 0.16380798816680908, 0.14114640653133392, 0.18941569328308105, -0.11191145330667496, 0.09544544667005539, -0.05754508823156357, -0.04992380738258362, 0.11386092007160187, 0.274398535490036, 0.09159479290246964, 0.02645299769937992, -0.08015146851539612, -0.13001404702663422, 0.22656230628490448, -0.17990128695964813, 0.04923770949244499, -0.022708600386977196, -0.06750991940498352, 0.2983981966972351, -0.06959805637598038, -0.011139476671814919, -0.11011996120214462, -0.0612022839486599, -0.24133065342903137, 0.21483835577964783, -0.1424497663974762, -0.037468284368515015, -0.005113602615892887, -0.047754961997270584, -0.0463443249464035, -0.14940597116947174, 0.1181960329413414, -0.170781210064888, 0.10793737322092056, 0.0350165069103241, 0.15605652332305908, 0.22095035016536713], [0.37013307213783264, 0.06241127848625183, 0.042103562504053116, 0.3401043713092804, -0.1665082424879074, 0.10687153041362762, -0.04521201178431511, 0.08093851804733276, 0.2604619264602661, 0.35864925384521484, -0.00232646893709898, 0.23980414867401123, -0.14145846664905548, -0.07012572139501572, 0.12591756880283356, -0.10900034010410309, 0.045898206532001495, -0.03966716304421425, -0.14702266454696655, 0.0519934706389904, -0.04179735854268074, -0.11823355406522751, 0.03173404559493065, -0.02375204861164093, 0.20751401782035828, 0.045206159353256226, 0.3631238639354706, 0.04620807245373726, 0.22728033363819122, 0.17422418296337128, 0.0032834254670888186, 0.15006038546562195, 0.1455734670162201, 0.2890043556690216, -0.109857939183712, -0.06534787267446518, -0.05923684686422348, -0.10100026428699493, -0.0800519734621048, -0.17691746354103088, 0.0281827412545681, 0.34025314450263977, 0.2893487811088562, 0.2148648053407669, -0.2505597472190857, 0.2534056007862091, 0.14169424772262573, -0.13496391475200653, -0.10492406040430069, -0.07789503037929535, 0.21804676949977875, -0.11313962936401367, -0.07555095851421356, -0.07547738403081894, -0.17817901074886322, 0.1394386738538742, -0.14002470672130585, -0.04387577623128891, 0.19716402888298035, 0.3383893370628357, -0.0414268933236599, -0.09741123020648956, 0.136762335896492, -0.02304835245013237, 0.23748312890529633, -0.0702882632613182, 0.0864320620894432, 0.03233350068330765, -0.07353654503822327, -0.11150392144918442, -0.019688386470079422, 0.2933882474899292, 0.055194225162267685, 0.22468358278274536, -0.06472229212522507, -0.31741389632225037, 0.3933711051940918, 0.2001517415046692, -0.07891373336315155, -0.1280151605606079, -0.13325974345207214, 0.4170232117176056, -0.09050587564706802, -0.16335539519786835, 0.3477010726928711, -0.014141459949314594, 0.20871292054653168, 0.05915268138051033, -0.12313394248485565, 0.11575036495923996, 0.3569602370262146, 0.2887890636920929, 0.25302302837371826, 0.16450633108615875, 0.08047850430011749, 0.06499913334846497, -0.2870650291442871, -0.15585294365882874, 0.2910805642604828, 0.2895750105381012, 0.1950601488351822, -0.1993083357810974, -0.03300512209534645, -0.12449700385332108, 0.18277911841869354, -0.14925390481948853, -0.12782002985477448, -0.08103504776954651, -0.08703461289405823, 0.22155460715293884, -0.5290051102638245, 0.045562177896499634, -0.1101551279425621, -0.00379097368568182, -0.20747026801109314, 0.2702188193798065, 0.0013962010852992535, -0.11997205018997192, -0.03456798195838928, -0.3271614909172058, -0.43497133255004883, -0.23658040165901184, 0.017604881897568703, -0.08369521051645279, 0.1608622670173645, -0.05025921016931534, 0.10827884823083878, 0.229901984333992], [-0.16164863109588623, 0.10832665860652924, -0.005624260753393173, -0.09379888325929642, -0.05510866269469261, 0.07180102169513702, 0.03891022875905037, -0.21902574598789215, 0.03346903622150421, 0.03953889384865761, 0.10613393038511276, -0.5375368595123291, -0.17303474247455597, 0.15279659628868103, -0.6927213072776794, -0.14526808261871338, -0.02486439235508442, -0.4047209918498993, 0.1702357977628708, -0.061029937118291855, 0.23921579122543335, -0.3418631851673126, 0.13916538655757904, -0.04762024059891701, 0.13006696105003357, -0.04477982595562935, -0.27597254514694214, 0.10939102619886398, -0.060694243758916855, 0.04977430775761604, 0.1577887088060379, 0.04211190715432167, -0.07749692350625992, -0.1347171515226364, -0.24083977937698364, 0.23616263270378113, 0.06041146442294121, -0.27905312180519104, 0.21935409307479858, 0.031170718371868134, -0.049881599843502045, -0.2058519870042801, -0.3276619613170624, -0.05098423361778259, -0.5789363980293274, 0.09228688478469849, -0.25192639231681824, -0.15561547875404358, -0.10200215131044388, 0.1761331409215927, -0.03639211505651474, 0.052274297922849655, -0.08343147486448288, -0.09941300749778748, -0.05739511549472809, -0.2343345284461975, 0.22444315254688263, 0.17562125623226166, -0.3697783946990967, -0.04320533573627472, -0.17059238255023956, -0.1813354790210724, 0.006597213912755251, -0.047721996903419495, -0.1901906430721283, 0.16243593394756317, -0.9791852235794067, -0.4799378514289856, 0.14846296608448029, 0.037884876132011414, -0.6649734973907471, -0.028932515531778336, 0.1772218495607376, -0.03413376957178116, 0.25186440348625183, -0.6453015804290771, -0.3452119827270508, -0.23154987394809723, -0.8700116872787476, -0.15986165404319763, -0.2703739404678345, -0.1695544421672821, 0.2835739850997925, -0.22870580852031708, -0.09946020692586899, -0.793774425983429, -0.04736115038394928, -0.2449873983860016, 0.1410956084728241, -0.18104104697704315, -0.1572037637233734, -0.08289442211389542, -0.49051910638809204, 0.047185324132442474, -0.7307006120681763, 0.20154228806495667, -0.5767722129821777, -0.8664097785949707, -0.028393451124429703, -0.020407266914844513, -0.1357118785381317, -0.5932623744010925, -0.21056991815567017, 0.29088667035102844, -0.15998540818691254, 0.2109801471233368, -0.9884119033813477, -0.6211678981781006, 0.044553522020578384, -0.21023353934288025, -0.9431455731391907, -0.040394775569438934, -0.1311931610107422, 0.05073726922273636, -0.2627798318862915, -0.10345529764890671, -0.158722922205925, 0.05415764078497887, -0.2693396806716919, -0.943739116191864, -0.6429709196090698, -0.6929870843887329, 0.10563136637210846, -0.5811997652053833, 0.13024191558361053, -0.778065025806427, -0.15032944083213806, -0.2079574167728424], [0.01577478088438511, -0.05979909002780914, 0.03156805783510208, -0.13407456874847412, 0.0244230255484581, -0.14045584201812744, -0.0005771200521849096, -0.12257456034421921, -0.05582256615161896, -0.14022774994373322, -0.05361301079392433, -0.04099564999341965, 0.0400434210896492, -0.13431903719902039, -0.02676538936793804, 0.012890077196061611, -0.12435761094093323, 0.021269062533974648, -0.12022744119167328, -0.028363555669784546, -0.008844786323606968, -0.0929625853896141, -0.11887022852897644, 0.0296611450612545, 0.020456137135624886, 0.030452953651547432, -0.13298144936561584, -0.1221972182393074, -0.1230616569519043, 0.01001354493200779, -0.023933321237564087, -0.08916426450014114, -0.11869575083255768, -0.10826704651117325, 0.03754106163978577, -0.030530896037817, 0.03427596017718315, -0.1200193539261818, 0.01346166618168354, -0.013521379791200161, -0.08076842874288559, 0.03415276110172272, 0.004689187277108431, -0.026626450940966606, -0.008395069278776646, -0.10696878284215927, -0.017509404569864273, -0.08010528236627579, 0.01789611577987671, -0.12696580588817596, -0.10882513970136642, -0.024860460311174393, -0.003336393041536212, -0.032977811992168427, -0.06055120751261711, -0.062438443303108215, -0.13659901916980743, -0.0919538140296936, -0.0055989851243793964, -0.05473152548074722, -0.06254147738218307, -0.030800648033618927, -0.11844263225793839, -0.027626344934105873, 0.005603328812867403, 0.014913513325154781, 0.01431171502918005, -0.0015295405173674226, -0.06749130040407181, -0.035570379346609116, -0.08413999527692795, -0.12141169607639313, -0.1307516098022461, -0.06091980263590813, -0.0029809223487973213, -0.08562643080949783, -0.05777713283896446, -0.07180796563625336, -0.022920658811926842, -0.0135378772392869, -0.11053121089935303, -0.13023464381694794, -0.11126694083213806, -0.03704256936907768, -0.046749114990234375, -0.013644618913531303, -0.06302616000175476, -0.0384812131524086, -0.05849042534828186, 0.0011779768392443657, -0.1415172666311264, -0.14356060326099396, 0.03262045979499817, 0.015627257525920868, -0.10280773788690567, -0.09298162162303925, -0.10859160125255585, -0.018942590802907944, -0.1290377676486969, 0.004644311498850584, -0.05419414862990379, -0.08420395106077194, 0.04261608421802521, -0.12847082316875458, -0.0012095824349671602, -0.07185370475053787, -0.06537597626447678, -0.07482736557722092, 0.007228148635476828, -0.1095317155122757, -0.06410510092973709, -0.08688400685787201, -0.05047731474041939, -0.016515647992491722, -0.10847413539886475, -0.06441333889961243, 0.019512441009283066, -0.022178126499056816, -0.09881066530942917, -0.06833961606025696, 0.030197128653526306, -0.025751879438757896, -0.06986280530691147, 0.005991813726723194, -0.07139735668897629, 0.04032742232084274, -0.006313273683190346, -0.12561574578285217], [0.06741546839475632, -0.1012568324804306, -0.05471944436430931, -0.031319744884967804, -0.20518441498279572, -0.039144501090049744, -0.03166830167174339, 0.09902789443731308, 0.003136425046250224, -0.016258472576737404, -0.04629799351096153, 0.17711511254310608, -0.07423731684684753, -0.0021628353279083967, 0.06435861438512802, -0.1528894454240799, -0.02292516827583313, -0.2042650729417801, -0.18614938855171204, -0.14468792080879211, -0.11689082533121109, -0.06338880956172943, -0.13166096806526184, -0.11353889107704163, 0.03694639354944229, -0.07251754403114319, 0.08614577353000641, 0.10587178170681, 0.06969909369945526, -0.05906159430742264, 0.008854636922478676, 0.01648651249706745, -0.07196152210235596, 0.043065063655376434, -0.09414511173963547, -0.08619453758001328, -4.3086598452646285e-05, 0.003771497868001461, -0.007490973453968763, -0.1840655505657196, -0.07868167757987976, 0.05651146173477173, 0.10413765162229538, 0.11006566137075424, 0.05861625075340271, -0.05046895146369934, 0.019861837849020958, -0.1896483153104782, 