[{"weight": [[-1.4457107782363892, 0.1875431090593338], [1.4345881938934326, -1.723753809928894], [-1.9984532594680786, 1.2450937032699585], [1.6547577381134033, -1.5505388975143433], [2.5899927616119385, -0.0542604923248291], [0.534630537033081, -2.2988829612731934], [2.0590660572052, -0.5470553040504456], [0.34477856755256653, -2.3916704654693604], [-2.290327310562134, -1.3149596452713013], [1.589900016784668, -1.4417405128479004], [1.8382065296173096, -1.6487751007080078], [-1.735843539237976, 1.7007218599319458], [-1.0767767429351807, 0.30957457423210144], [0.465143620967865, 1.4757764339447021], [1.1028077602386475, 1.209883451461792], [1.0578511953353882, -2.1046793460845947], [-1.7356572151184082, 1.7147868871688843], [-0.5046367049217224, 0.19632788002490997], [-0.9563037157058716, -0.7187305092811584], [-1.6660146713256836, 0.9752212166786194], [1.6947532892227173, -1.4562361240386963], [1.3874907493591309, -1.8937740325927734], [-2.250420570373535, -1.2341455221176147], [-1.138418197631836, 1.2185369729995728], [-1.1055450439453125, -0.2974574565887451], [0.9557182788848877, -1.173551082611084], [0.6234670877456665, -2.1971709728240967], [-1.1471871137619019, -0.010409892536699772], [-0.3199513554573059, 0.594052791595459], [-1.2457581758499146, 0.09108845144510269], [1.3806949853897095, 2.351640224456787], [-0.19583921134471893, -0.16455711424350739], [0.9141673445701599, -2.4649157524108887], [-2.121492624282837, 2.2325804233551025], [1.9702714681625366, -0.5341765880584717], [-1.968349575996399, -0.22404514253139496], [-2.132432460784912, 2.1129162311553955], [0.23221340775489807, -2.7133138179779053], [-0.05319786071777344, -2.28361177444458], [1.605953335762024, -0.8049711585044861], [-1.9632598161697388, -2.3817214965820312], [0.7276589870452881, -1.411204218864441], [1.1038368940353394, -2.112034797668457], [1.427651286125183, -2.0235133171081543], [2.219332456588745, 0.6386581659317017], [-0.5975589752197266, -2.4849460124969482], [0.6886042952537537, 2.2415201663970947], [-1.9413284063339233, 2.6739535331726074], [2.3955605030059814, -0.6025266051292419], [-0.5759022235870361, -0.09416906535625458], [-2.1069111824035645, 1.8065805435180664], [0.760931670665741, -0.826875627040863], [-0.8190536499023438, -0.37141579389572144], [1.277451515197754, -1.672860860824585], [-1.769606351852417, 1.7431409358978271], [1.5360862016677856, -1.8911707401275635], [1.844276785850525, 1.7007390260696411], [0.17856425046920776, 2.5952305793762207], [-1.2079780101776123, -1.5530320405960083], [1.8122526407241821, 2.0604894161224365], [1.6998696327209473, -1.2812201976776123], [0.3817557692527771, -0.31283101439476013], [0.1883329153060913, -0.03393615037202835], [1.624138593673706, -0.6909346580505371], [0.11085107922554016, 0.004304195754230022], [-1.894382119178772, 1.3913331031799316], [1.7045098543167114, -1.4691041707992554], [0.6189667582511902, -1.0991090536117554], [-0.9722164273262024, 2.1950526237487793], [0.9825922846794128, -2.123958110809326], [-2.0638539791107178, -0.4825459420681], [-1.5326359272003174, 2.14243221282959], [0.1574249565601349, -0.08351893723011017], [-1.3336410522460938, 0.6397855877876282], [0.3286933898925781, 0.3450821042060852], [-0.8737820386886597, 1.6702015399932861], [-1.608811616897583, 1.2278038263320923], [-1.0356518030166626, 0.2637536823749542], [1.1181635856628418, -2.074179172515869], [1.840821385383606, -1.1098791360855103], [-2.0445375442504883, -1.7695015668869019], [-0.035373203456401825, -2.1549038887023926], [-1.9969968795776367, 2.08931827545166], [-0.9160552024841309, -0.0038628019392490387], [-0.6839736104011536, 0.35258749127388], [-0.2885790169239044, -0.010980647057294846], [2.1413028240203857, 1.977611780166626], [1.7766993045806885, -1.1910182237625122], [1.2443917989730835, -2.014888048171997], [0.7842372059822083, -0.843606173992157], [2.1397581100463867, 1.532979965209961], [1.4343581199645996, -1.7572590112686157], [-0.18397513031959534, -1.0213531255722046], [-1.9571720361709595, 1.3716694116592407], [0.6569188237190247, -2.0894863605499268], [-2.0103166103363037, -1.9969792366027832], [1.6040843725204468, -1.7350656986236572], [1.8200440406799316, 0.3009204566478729], [0.6843034029006958, -2.261960506439209], [1.1791292428970337, -1.2803910970687866], [1.6365282535552979, -0.8984654545783997], [-1.200345516204834, 0.31488749384880066], [1.8782106637954712, -0.8499510884284973], [2.1742968559265137, 1.9646546840667725], [0.3638019263744354, -0.248951256275177], [-0.9585698843002319, 0.03695676475763321], [-0.724328875541687, -0.2800638675689697], [-2.3934898376464844, 2.744720458984375], [1.516487717628479, 1.0228441953659058], [-1.3461729288101196, -2.4258816242218018], [1.3552166223526, 1.5240259170532227], [-0.6094599366188049, 1.0097497701644897], [-1.0974055528640747, -2.0940897464752197], [-2.0810749530792236, 2.1533689498901367], [0.1712409406900406, -0.34533005952835083], [-1.7389130592346191, -0.49856728315353394], [-1.0405797958374023, -0.6150023937225342], [-0.6498218178749084, 0.1750735193490982], [0.25732186436653137, 1.4654269218444824], [2.3979597091674805, 1.6625800132751465], [1.1962751150131226, 2.5478806495666504], [-0.9435839653015137, 0.46639272570610046], [-2.0928306579589844, -0.09471651166677475], [0.7649227380752563, -0.6012221574783325], [-0.8142986297607422, 0.21976377069950104], [-0.16985300183296204, 2.2570178508758545], [-2.258127450942993, -1.341994047164917], [-1.7414753437042236, 0.33273595571517944]], "bias": [1.070534348487854, -0.20799656212329865, 1.762839913368225, 0.3535427153110504, 0.7186597585678101, 0.5516883134841919, 0.9509259462356567, 1.2007324695587158, 0.5191017389297485, 0.5951773524284363, 1.7363542318344116, 1.392055630683899, 0.8999905586242676, 0.25972113013267517, 2.1319761276245117, 0.03833407536149025, 0.5151795148849487, 0.9964105486869812, 1.9768933057785034, 1.4651790857315063, 1.2130767107009888, 0.05770023167133331, 0.7068573832511902, 1.4082448482513428, 1.5941708087921143, 1.6922626495361328, 0.39377376437187195, 2.009533166885376, 1.3790639638900757, 1.0994501113891602, 0.9170128703117371, 0.2942095100879669, 0.753407895565033, 1.103187084197998, 1.4793082475662231, 0.7696309089660645, 0.8532937169075012, 0.1884385049343109, 0.35746556520462036, 0.5348157286643982, 0.6287090182304382, 1.1729176044464111, 0.3251330852508545, 0.503611147403717, 0.9067680239677429, 0.0809025689959526, 1.0960015058517456, 1.6539289951324463, 1.1396960020065308, 0.7030470967292786, 1.2873305082321167, 0.9398741722106934, 1.6335763931274414, -0.09463145583868027, 0.33208411931991577, 0.7426162362098694, 0.16336221992969513, 0.9481009840965271, 1.9608017206192017, -0.024379566311836243, 0.165681853890419, 0.40222153067588806, 1.40716552734375, 1.4987494945526123, 1.0605764389038086, 0.8660107851028442, 1.330697774887085, 0.7589955925941467, 0.8153980374336243, 1.4120656251907349, 0.9802544116973877, 0.9422124028205872, 0.5071662664413452, 1.4085406064987183, 0.9503217339515686, 1.394861102104187, 1.2128651142120361, 1.2909876108169556, 0.9179596304893494, 1.510353446006775, 0.034986138343811035, 0.652936577796936, 0.9540732502937317, 1.6288684606552124, 1.4014517068862915, 0.3537393808364868, 0.05019339174032211, 0.2977334260940552, 0.21928931772708893, 1.242640733718872, -0.05342317372560501, 1.465794563293457, 1.3036597967147827, 1.2291772365570068, -0.1485646665096283, 0.9299893379211426, 1.357334017753601, 1.0493087768554688, -0.01468320656567812, 1.8412156105041504, 1.153367042541504, 1.3581440448760986, 0.8516660332679749, 0.6135650873184204, 1.3538774251937866, 1.204351782798767, 1.5575367212295532, 1.1910370588302612, 1.579842448234558, 0.1526857167482376, 1.1420880556106567, 0.8733716607093811, 0.9869377017021179, 0.9679424166679382, 0.707942008972168, 1.125370979309082, 1.3616936206817627, 1.5213123559951782, 1.6695195436477661, 0.09309794008731842, 0.2316194772720337, 0.19791507720947266, 0.8020616769790649, 1.0002920627593994, 0.8420220017433167, 0.8571913242340088, 0.7989799380302429, 0.7676134705543518]}, {"weight": [[-0.2275659292936325, 0.604467511177063, -0.459504634141922, 0.5805802941322327, 0.434865266084671, 0.4545971751213074, 0.42149093747138977, 0.4280596375465393, -0.11313691735267639, 0.62859046459198, 0.6823675036430359, -0.7533085942268372, -0.035708408802747726, -0.12976834177970886, 0.08838015794754028, 0.551169753074646, -0.9437291026115417, 0.06969361752271652, 0.0728609636425972, -0.3068106174468994, 0.5399890542030334, 0.5168711543083191, -0.17576469480991364, -0.2841319143772125, -0.031067585572600365, 0.5009288191795349, 0.43611761927604675, 0.07388324290513992, 0.16837520897388458, -0.11671529710292816, -0.13917893171310425, 0.2824418246746063, 0.4181213974952698, -1.2179574966430664, 0.4057777225971222, -0.1775696873664856, -1.2074251174926758, 0.20505671203136444, 0.19589941203594208, 0.542047917842865, 0.016019495204091072, 0.43561968207359314, 0.5267745852470398, 0.5027108192443848, 0.2686312794685364, 0.08316300064325333, -0.21727527678012848, -1.04181969165802, 0.3517027199268341, 0.03797638788819313, -0.8112083077430725, 0.4343014359474182, 0.1364223212003708, 0.5361096262931824, -0.8918891549110413, 0.5885131359100342, -0.017497627064585686, -0.4206103980541229, 0.13623560965061188, -0.08687327057123184, 0.5644503831863403, 0.4533300995826721, 0.31005483865737915, 0.43934881687164307, 0.3472054600715637, -0.7010231018066406, 0.6899476051330566, 0.41337400674819946, -0.5631590485572815, 0.45465973019599915, -0.07309296727180481, -0.9075714945793152, 0.33336472511291504, -0.2371179461479187, 0.3054582476615906, -0.2911292612552643, -0.42980217933654785, 0.009656617417931557, 0.5896288752555847, 0.560748279094696, -0.20999164879322052, 0.23403947055339813, -1.1997244358062744, 0.09048803895711899, 0.08043599873781204, 0.1893165558576584, -0.028524216264486313, 0.578717827796936, 0.5311087369918823, 0.40589988231658936, 0.10352998226881027, 0.6129038333892822, 0.29025718569755554, -0.6850376725196838, 0.4040643870830536, 0.03084944188594818, 0.6254034042358398, 0.2068662792444229, 0.3140229284763336, 0.5762436389923096, 0.46664953231811523, -0.17416201531887054, 0.4528980255126953, 0.006609874311834574, 0.3086334764957428, 0.012069303542375565, 0.10820505023002625, -1.490751028060913, 0.23976372182369232, -0.016964085400104523, -0.008171173743903637, -0.18628959357738495, 0.0869918093085289, -1.1743844747543335, 0.3643447160720825, -0.03424021229147911, 0.1150701567530632, 0.13843455910682678, 0.016879800707101822, 0.17548497021198273, -0.2818962633609772, -0.19484281539916992, -0.2508442997932434, 0.38349348306655884, -0.0404030978679657, -0.3082677721977234, -0.032017920166254044, -0.2673448622226715], [-0.09505639970302582, -0.11441582441329956, 0.016804656013846397, -0.06352794170379639, -0.14295807480812073, -0.11851552128791809, 0.015562300570309162, 0.003547874977812171, -0.2693503499031067, -0.025538571178913116, 0.05971700698137283, -0.09191955626010895, -0.015287457965314388, -0.1121605932712555, -0.07989541441202164, -0.0394475981593132, -0.08407644182443619, -0.06371530890464783, 0.019313562661409378, -0.12151340395212173, -0.07301827520132065, -0.0640159472823143, -0.12679795920848846, -0.026628470048308372, 0.04972057044506073, -0.08944454789161682, -0.12555275857448578, -0.04635557904839516, -0.020669838413596153, -0.0649927482008934, -0.045706216245889664, -0.0606524758040905, -0.1791204959154129, -0.11492166668176651, -0.09333356469869614, -0.05158383026719093, -0.18948182463645935, -0.1538938581943512, -0.06224692985415459, -0.1225285455584526, -0.23557628691196442, 0.025224637240171432, -0.1692422330379486, -0.16416993737220764, -0.0040349531918764114, -0.19746248424053192, -0.16118110716342926, -0.07183150947093964, -0.06230732798576355, -0.06214875355362892, -0.1748219132423401, -0.08164449781179428, -0.06363996118307114, -0.08615851402282715, -0.10759134590625763, -0.09991583973169327, -0.0534341037273407, -0.05650326609611511, -0.056817203760147095, -0.10058946162462234, -0.14643295109272003, -0.035789404064416885, -0.07072360813617706, -0.05715721845626831, 0.008449546992778778, -0.18387290835380554, -0.030423766002058983, -0.025060981512069702, -0.2054554522037506, -0.001201786333695054, -0.03801783174276352, -0.16465036571025848, 0.010365177877247334, 0.010831660591065884, 0.026148108765482903, 0.03417308256030083, -0.1420900821685791, -0.06469140946865082, -0.011988642625510693, -0.07773471623659134, -0.269483745098114, -0.08809860050678253, -0.1556335985660553, 0.06809403747320175, -0.02866809070110321, 0.08833694458007812, -0.14415811002254486, 0.006328789051622152, -0.08073092997074127, 0.05042552575469017, -0.14901317656040192, -0.05273169279098511, -0.051147446036338806, -0.0631852075457573, -0.11698293685913086, -0.1525382548570633, -0.02647191844880581, -0.046328406780958176, -0.20658354461193085, -0.03664877638220787, -0.09481118619441986, -0.03190998733043671, 0.04679739847779274, -0.14295701682567596, -0.0534624308347702, 0.07376066595315933, 0.09074889123439789, -0.22741509974002838, 0.017621153965592384, -0.2852461338043213, -0.13536477088928223, -0.08324284851551056, -0.15752534568309784, -0.2407234013080597, 0.06803519278764725, -0.06560765951871872, -0.10495854169130325, -0.05140947178006172, -0.048199936747550964, -0.0626063197851181, -0.14745275676250458, 0.005019093863666058, -0.07109389454126358, -0.09055168181657791, 0.04555046185851097, -0.08449237048625946, -0.1820039451122284, -0.1167592853307724], [-0.2624092996120453, 0.5392512083053589, -0.5502212643623352, 0.6563136577606201, 0.5559241771697998, 0.011972565203905106, 0.7096034288406372, 0.0415605828166008, -1.4317622184753418, 0.581379771232605, 0.7199655771255493, -0.48113155364990234, -0.07998337596654892, -0.20021088421344757, 0.3023960590362549, 0.1368439644575119, -0.6006892323493958, 0.060408204793930054, -0.11525998264551163, -0.45048946142196655, 0.7566612958908081, 0.4342648386955261, -1.2689369916915894, -0.1600157618522644, -0.23590271174907684, 0.6131677627563477, -0.0011784492526203394, 0.0313434936106205, 0.15953052043914795, -0.26397016644477844, -0.12032703310251236, 0.18948401510715485, 0.06440302729606628, -0.8510226607322693, 0.6806191205978394, -0.8758175373077393, -0.9443275332450867, -0.47895026206970215, -0.4426916241645813, 0.5922001600265503, -1.2753702402114868, 0.4727210998535156, 0.23591828346252441, 0.4792400598526001, 0.34441107511520386, -0.8562740683555603, -0.19737856090068817, -0.7087280750274658, 0.7435492277145386, 0.12038283050060272, -0.7203453779220581, 0.5801064372062683, 0.012079020962119102, 0.4185119569301605, -0.6743297576904297, 0.5187075734138489, -0.018375728279352188, -0.3891543447971344, -0.5241103768348694, -0.06814202666282654, 0.6157769560813904, 0.5021719336509705, 0.359130859375, 0.5601781606674194, 0.28050869703292847, -0.6292928457260132, 0.6756612062454224, 0.39359310269355774, -0.5976402759552002, 0.3337264955043793, -0.8590849041938782, -0.7146616578102112, 0.34721681475639343, -0.29277026653289795, 0.30204880237579346, -0.18808327615261078, -0.3579029440879822, -0.01298297755420208, 0.4216648042201996, 0.7216825485229492, -1.420681118965149, -0.22468923032283783, -0.7998723387718201, 0.07951592653989792, 0.09853628277778625, 0.11976911127567291, -0.07333921641111374, 0.6273340582847595, 0.30747780203819275, 0.6224640011787415, 0.014864983968436718, 0.6532225012779236, 0.09993792325258255, -0.6768761277198792, -0.051059503108263016, -1.2519702911376953, 0.7813613414764404, 0.4552311301231384, -0.20015209913253784, 0.5763176679611206, 0.7716604471206665, -0.2202017903327942, 0.6715264320373535, 0.08465230464935303, 0.4490143656730652, -0.06001214683055878, 0.13128305971622467, -0.9594112038612366, 0.35857418179512024, -1.2568228244781494, 0.1310255080461502, -0.0982651486992836, -0.7251130938529968, -0.7747681736946106, 0.3336872458457947, -0.6907162666320801, -0.2291385680437088, 0.0945521891117096, -0.031949933618307114, 0.1589295119047165, -0.335485577583313, -0.05201147124171257, -0.9071177244186401, 0.524824321269989, 0.02881293185055256, -0.37981435656547546, -1.3045692443847656, -0.6787254810333252], [0.21820630133152008, -0.4452519416809082, 0.1857171654701233, -0.6292176842689514, -0.6977797746658325, -0.06567050516605377, -0.6991230249404907, -0.11461523920297623, 0.3307207524776459, -0.5022717118263245, -0.5827931761741638, 0.12952715158462524, 0.20262716710567474, -0.4073249101638794, -0.5166826248168945, -0.25679296255111694, 0.17575328052043915, -0.11815682053565979, 0.2373615801334381, 0.18019743263721466, -0.6022483110427856, -0.5577571392059326, 0.4849185645580292, 0.01611459255218506, 0.16598907113075256, -0.32996559143066406, -0.10087280720472336, 0.214912548661232, -0.1918485164642334, 0.2725662887096405, -0.5234963297843933, -0.04599056392908096, -0.22212783992290497, 0.30652257800102234, -0.6078325510025024, 0.3735276162624359, 0.2925899922847748, -0.15390443801879883, 0.0023525452706962824, -0.5733451247215271, 0.36560237407684326, -0.16378168761730194, -0.26154646277427673, -0.3502338230609894, -0.649897575378418, 0.12647806107997894, -0.37265151739120483, -0.009998642839491367, -0.7229239344596863, 0.053993191570043564, 0.21467727422714233, -0.3315264880657196, 0.0580269880592823, -0.48194026947021484, 0.17368300259113312, -0.4061017632484436, -0.6883752942085266, -0.36008837819099426, 0.14065878093242645, -0.6847004890441895, -0.6039880514144897, -0.2598614990711212, -0.1325274258852005, -0.5084199905395508, -0.23226171731948853, 0.3050278127193451, -0.5349043607711792, -0.22328625619411469, -0.1216854453086853, -0.12495071440935135, 0.29530951380729675, 0.06545068323612213, -0.18739379942417145, 0.07429762929677963, -0.30111607909202576, -0.15057779848575592, 0.09929317981004715, 0.19259722530841827, -0.32149454951286316, -0.5617481470108032, 0.441615492105484, 0.027948757633566856, 0.2798515558242798, -0.0004928662674501538, 0.03173802047967911, -0.05175449699163437, -0.6415476202964783, -0.5312379598617554, -0.4247949719429016, -0.22274701297283173, -0.7080377340316772, -0.4738517701625824, 0.05442551523447037, 0.3311261832714081, -0.23108139634132385, 0.3513924479484558, -0.5080928206443787, -0.6255927085876465, -0.19082655012607574, -0.3833017349243164, -0.4877520203590393, 0.16125038266181946, -0.568356454372406, -0.5332390666007996, -0.25211286544799805, 0.1511704921722412, 0.08738161623477936, 0.19819433987140656, -0.46087634563446045, 0.26905378699302673, -0.5092105269432068, -0.12187501788139343, 0.2690609395503998, 0.17572426795959473, -0.10322590917348862, 0.33814939856529236, 0.22910240292549133, 0.05103308707475662, -0.3154926896095276, -0.7372003793716431, -0.47588080167770386, 0.04734577611088753, 0.3928823471069336, -0.3032909035682678, 0.06778473407030106, -0.16281813383102417, 0.2806442081928253, 0.42562830448150635], [-1.8374069929122925, 0.3253694176673889, -1.6788564920425415, 0.3108043670654297, 0.7367116212844849, -1.0176138877868652, 0.4696011245250702, -1.2710793018341064, -2.2879748344421387, 0.32119396328926086, 0.25002485513687134, -1.0051144361495972, -1.3819090127944946, 0.16701048612594604, 0.3878595530986786, -0.375200092792511, -1.373181939125061, -0.8650449514389038, -2.031064987182617, -1.6414920091629028, 0.23168325424194336, 0.17314055562019348, -2.3256869316101074, -0.7627604007720947, -1.8213720321655273, -0.16586275398731232, -0.7195396423339844, -1.6120502948760986, -0.4427390396595001, -1.8064992427825928, 0.4470638334751129, -0.960278332233429, -0.5636815428733826, -1.3944413661956787, 0.3924081027507782, -2.100982904434204, -1.6355226039886475, -1.3856755495071411, -1.525802731513977, 0.5092010498046875, -2.5652873516082764, -0.42634278535842896, -0.36410316824913025, -0.13187702000141144, 0.557498574256897, -2.094942331314087, 0.23280538618564606, -0.7891729474067688, 0.5430985689163208, -1.333375334739685, -1.5928922891616821, -0.2363949865102768, -1.6602104902267456, 0.12632226943969727, -1.4962468147277832, 0.19888842105865479, 0.6964756846427917, 0.09313389658927917, -2.3767826557159424, 0.6472733020782471, 0.5294446349143982, -0.3353714942932129, -0.33731621503829956, 0.3371739983558655, -0.5006541013717651, -1.7644119262695312, 0.31957894563674927, -0.4690696597099304, -0.41592279076576233, -0.4598739445209503, -2.1501221656799316, -0.7994810938835144, -0.29139599204063416, -1.517087459564209, -0.014940486289560795, -0.4734167754650116, -1.434839129447937, -1.430548906326294, -0.24642804265022278, 0.418727844953537, -2.2750766277313232, -1.334433674812317, -1.3497987985610962, -1.4112399816513062, -0.9184741377830505, -0.8187087178230286, 0.7149567604064941, 0.538511335849762, -0.10555702447891235, -0.10307108610868454, 0.5920258164405823, -0.054523859173059464, -1.3750121593475342, -1.949178695678711, -0.6610883474349976, -2.625624418258667, 0.11665361374616623, 0.49943166971206665, -0.7920010089874268, -0.060177333652973175, 0.2874574363231659, -1.5190246105194092, 0.46129170060157776, 0.6384420394897461, -0.20825311541557312, -1.4608550071716309, -1.4442800283432007, -1.2772544622421265, 0.46181946992874146, -2.5280466079711914, 0.5006491541862488, -0.5518907308578491, -2.1756136417388916, -1.3649228811264038, -0.5115936994552612, -2.2132315635681152, -1.8395860195159912, -0.9591289162635803, 0.14026783406734467, 0.7808323502540588, 0.43051695823669434, -1.2655373811721802, -2.2380423545837402, -0.026761140674352646, -1.2899658679962158, -0.08403801172971725, -2.320038318634033, -2.05314302444458], [-0.4662345349788666, -0.2630593180656433, -0.11934597045183182, -0.1592174768447876, 0.488357275724411, -0.5972725749015808, 0.3486884832382202, -0.6704546809196472, -2.1907026767730713, -0.10908478498458862, -0.10076337307691574, 0.11945630609989166, -0.14536619186401367, 0.5809966325759888, 0.5883127450942993, -0.45918115973472595, 0.1449979841709137, -0.027269277721643448, -0.5506348609924316, -0.09423848241567612, -0.13487966358661652, -0.3212242126464844, -2.010971784591675, 0.23514585196971893, -0.4633444845676422, -0.1551598459482193, -0.4133723974227905, -0.2821676731109619, 0.21079474687576294, -0.3562566936016083, 0.7899044156074524, -0.14074483513832092, -0.5122714638710022, 0.19835135340690613, 0.25056228041648865, -1.1434962749481201, 0.054632700979709625, -0.9411669969558716, -0.9502308368682861, 0.19089920818805695, -2.4107487201690674, -0.28273093700408936, -0.33046218752861023, -0.4119293987751007, 0.6663955450057983, -1.3557636737823486, 0.7351321578025818, 0.4158477783203125, 0.36812496185302734, -0.12885649502277374, 0.04834848269820213, 0.022348787635564804, -0.3230215907096863, -0.17328643798828125, 0.0502820760011673, -0.25371870398521423, 0.7622408866882324, 0.6635689735412598, -1.1438597440719604, 0.7589846849441528, -0.1527917981147766, 0.10890861600637436, 0.17903713881969452, 0.1390167474746704, 0.14625293016433716, -0.2393546849489212, -0.07610301673412323, -0.22932611405849457, 0.4939442574977875, -0.3111472427845001, -1.2759407758712769, 0.3118651509284973, 0.041477400809526443, -0.10554949194192886, 0.22172512114048004, 0.3961614966392517, -0.04949401691555977, -0.23119360208511353, -0.3194655179977417, 0.09884597361087799, -2.1721081733703613, -0.7693444490432739, 0.1436832696199417, -0.12641631066799164, 0.06840390712022781, -0.03586898371577263, 0.736799418926239, -0.049285195767879486, -0.3171892762184143, -0.09252011030912399, 0.7325448989868164, -0.2726001739501953, -0.4536697566509247, -0.1195841133594513, -0.5419972538948059, -2.173149585723877, -0.2290285974740982, 0.5187101364135742, -0.5433310270309448, -0.020192181691527367, 0.09654798358678818, -0.1785731464624405, 0.19123931229114532, 0.7474465370178223, 0.03152213245630264, -0.3314917981624603, -0.23573856055736542, 0.35696205496788025, 0.5088747143745422, -1.9702383279800415, 0.564033031463623, 0.2313133031129837, -1.3681412935256958, 0.19342276453971863, -0.014903333969414234, -1.0923054218292236, -0.7362872958183289, 0.03612513467669487, 0.5814403295516968, 0.7288214564323425, 0.7536507844924927, -0.1992279291152954, -1.243971586227417, 0.02677803486585617, -0.23116670548915863, 0.6151974201202393, -1.9719079732894897, -0.6833376884460449], [-0.06318467110395432, -0.7262231707572937, 0.08838705718517303, -0.7777112722396851, -0.374295711517334, -0.7053231000900269, -0.5844644904136658, -0.6295503377914429, -0.3512081503868103, -0.8270252346992493, -0.95576012134552, 0.2052600085735321, 0.05176904797554016, 0.19754625856876373, -0.06283210963010788, -0.6834864616394043, 0.18568983674049377, -0.0895298644900322, -0.28382501006126404, 0.1734888106584549, -0.8274710774421692, -0.7234691977500916, -0.3284846246242523, 0.08084007352590561, -0.08118706196546555, -0.6377223134040833, -0.6667280197143555, -0.10283587127923965, -0.027038535103201866, 0.020478883758187294, 0.1226963996887207, -0.11091931909322739, -0.821367084980011, 0.3515429198741913, -0.5466811060905457, -0.14558637142181396, 0.2566690742969513, -0.7126679420471191, -0.5509907007217407, -0.5404366254806519, -0.4077093005180359, -0.6643151640892029, -0.8117709755897522, -0.9237124919891357, -0.12750521302223206, -0.5207846164703369, 0.045620396733284, 0.23749104142189026, -0.44069698452949524, -0.18231378495693207, 0.27941977977752686, -0.5309407114982605, -0.1563132405281067, -0.8002170920372009, 0.26546359062194824, -0.9325664043426514, 0.0697852075099945, 0.06987466663122177, -0.39265936613082886, 0.11274886876344681, -0.7547343373298645, -0.3118661046028137, -0.1295735239982605, -0.5096105933189392, -0.12971742451190948, 0.10657502710819244, -0.7865347266197205, -0.5370036363601685, 0.16532520949840546, -0.8338380455970764, -0.09706173837184906, 0.1799747794866562, -0.13367776572704315, 0.058495014905929565, -0.1372123807668686, 0.16444168984889984, 0.1606409102678299, -0.06984694302082062, -0.8068817257881165, -0.8088358044624329, -0.3943261206150055, -0.618414580821991, 0.22175833582878113, -0.05766526982188225, 0.05859073996543884, -0.1615574210882187, 0.08251085132360458, -0.8377112150192261, -0.8304680585861206, -0.508065938949585, -0.027026304975152016, -0.8687556982040405, -0.3299037218093872, 0.17729410529136658, -0.6161659359931946, -0.44437330961227417, -0.7941552996635437, -0.23385389149188995, -0.6966863870620728, -0.7687358856201172, -0.6811963319778442, 0.05098282918334007, -0.7059174180030823, -0.012224644422531128, -0.2823859751224518, -0.05086160823702812, -0.07041933387517929, 0.22117972373962402, -0.08803318440914154, -0.5727551579475403, 0.10028206557035446, 0.07360244542360306, -0.3774029612541199, 0.3138377368450165, -0.21499620378017426, -0.09496679902076721, -0.2618769407272339, -0.040594037622213364, 0.15211012959480286, -0.00708007114008069, 0.2537537217140198, 0.149449422955513, -0.05767205357551575, -0.429198294878006, 0.05527544021606445, 0.0933045744895935, -0.3824244737625122, 0.01715776138007641], [0.07307081669569016, -0.082005575299263, -0.04255545884370804, 0.01602151431143284, 0.0005881022661924362, -0.11007200181484222, -0.08462107181549072, -0.03849333897233009, -0.1414041519165039, 0.023008588701486588, 0.12681297957897186, -0.13680614531040192, 0.10054342448711395, -0.08842240273952484, 0.03038462996482849, 0.00974010769277811, -0.08655291050672531, 0.02760266326367855, 0.1334284394979477, -0.0042795455083251, -0.03539247438311577, -0.08632580190896988, -0.11223948001861572, 0.019620774313807487, 0.14936940371990204, 0.059125542640686035, -0.04080792888998985, 0.10777807980775833, 0.021891361102461815, 0.09727641940116882, -0.01150237862020731, 0.11591747403144836, -0.11899515986442566, -0.1292184591293335, -0.06441652774810791, -0.08520499616861343, -0.12463285028934479, -0.108114093542099, 0.007669913116842508, -0.08470854163169861, -0.1504313051700592, 0.0352778285741806, -0.12460235506296158, -0.06916496157646179, 0.0015489337965846062, -0.1330532282590866, -0.056677184998989105, -0.09629961103200912, 0.022149644792079926, 0.07620330154895782, -0.05566346272826195, 0.047348447144031525, 0.043431513011455536, -0.0005901874974370003, -0.14557118713855743, 0.011754391714930534, -0.06389741599559784, -0.012577052228152752, -0.048234373331069946, -0.16322670876979828, -0.1439942717552185, 0.08393467217683792, 0.0560079962015152, -0.03241712599992752, 0.09947450459003448, -0.026941439136862755, -0.04568301886320114, -0.010304317809641361, -0.0345618762075901, 0.012909995391964912, 0.01837421953678131, -0.07350485771894455, 0.0781487450003624, 0.09562084823846817, 0.05971723049879074, -0.10065937042236328, -0.06201186403632164, -0.00750228576362133, -0.048918575048446655, -0.012166488915681839, -0.16435439884662628, -0.04659469053149223, -0.14408889412879944, 0.01164309773594141, 0.0620943084359169, 0.05086208134889603, -0.06734225153923035, -0.10849408805370331, -0.07190405577421188, 0.05689697712659836, -0.09061096608638763, 0.011591019108891487, 0.0496022030711174, -0.09001664072275162, -0.11419442296028137, -0.14353275299072266, 0.017969457432627678, -0.0754009336233139, -0.10895334184169769, 0.005677440203726292, -0.020819347351789474, 0.02241024374961853, -0.03227593004703522, -0.09052833914756775, 0.06350135058164597, 0.056307654827833176, 0.10981832444667816, -0.22142933309078217, 0.06394878029823303, -0.061044588685035706, 0.030893001705408096, -0.014677377417683601, -0.05094669386744499, -0.23995380103588104, 0.1459539532661438, 0.0079228850081563, 0.045157816261053085, 0.10940127074718475, 0.09787265956401825, -0.05376601219177246, -0.13570863008499146, -0.02207968942821026, -0.08274392038583755, 0.047791801393032074, 0.02563505247235298, 0.013907499611377716, -0.10760518163442612, 0.011637592688202858], [-0.8075639605522156, 0.09623398631811142, -0.7860535383224487, 0.22303423285484314, 0.48698389530181885, -0.6457576155662537, 0.47436419129371643, -0.5510361194610596, -0.8084585070610046, 0.0585162378847599, 0.18978631496429443, -0.4982512891292572, -0.6444208025932312, 0.29294949769973755, 0.35088613629341125, -0.2609628736972809, -0.7649244666099548, -0.4954208433628082, -0.8006950616836548, -0.7218623757362366, 0.16572348773479462, -0.08774533867835999, -0.7675657868385315, -0.44980159401893616, -0.7789618968963623, -0.154209703207016, -0.513566792011261, -0.6935083270072937, -0.2481946051120758, -0.7469605803489685, 0.43517598509788513, -0.42172592878341675, -0.49002835154533386, -0.710033118724823, 0.3838639259338379, -0.7706067562103271, -0.8294531106948853, -0.894005537033081, -0.620313286781311, 0.35439205169677734, -0.6940227150917053, -0.3563633859157562, -0.22170379757881165, -0.18888938426971436, 0.5353730320930481, -0.7664100527763367, 0.25315332412719727, -0.3486272394657135, 0.31611910462379456, -0.6075534224510193, -0.8876989483833313, -0.018328579142689705, -0.5838126540184021, -0.07463976740837097, -0.7407363653182983, -0.059438981115818024, 0.6101698279380798, 0.2530878484249115, -0.8791167736053467, 0.6489299535751343, 0.2929913103580475, -0.13100801408290863, -0.12309663742780685, 0.2994048297405243, -0.18590500950813293, -0.8387917280197144, 0.22227886319160461, -0.2559349238872528, -0.10429970175027847, -0.3566199839115143, -0.8796166181564331, -0.363023966550827, -0.11277896910905838, -0.6412339210510254, -0.012244139797985554, -0.2590421140193939, -0.7363000512123108, -0.6189983487129211, -0.356282502412796, 0.2916567623615265, -0.6268213987350464, -0.671562910079956, -0.7769367694854736, -0.6376053690910339, -0.30647748708724976, -0.48132485151290894, 0.5549236536026001, 0.29191190004348755, -0.2253190279006958, -0.09202427417039871, 0.5699243545532227, -0.057237230241298676, -0.5985830426216125, -0.982978880405426, -0.5029938817024231, -0.7987695932388306, -0.026072541251778603, 0.3575853705406189, -0.49076712131500244, -0.09498043358325958, 0.29779037833213806, -0.6776124238967896, 0.2719363272190094, 0.5993025898933411, -0.18391107022762299, -0.7505698204040527, -0.6561047434806824, -0.6818349361419678, 0.39551904797554016, -0.6295509934425354, 0.42302027344703674, -0.28228870034217834, -0.7352628111839294, -0.7604742050170898, -0.24007824063301086, -0.8621789813041687, -0.7030444145202637, -0.5699862837791443, 0.10363554209470749, 0.6000231504440308, 0.4648754596710205, -0.6462355852127075, -0.7891059517860413, -0.021887829527258873, -0.6080811023712158, 0.023000657558441162, -0.7948118448257446, -0.8920596837997437], [-0.07513713091611862, -0.04020768404006958, -0.12110114097595215, -0.06709250062704086, -0.06089464947581291, -0.0741354450583458, -0.03405504673719406, -0.08344230055809021, -0.01188305951654911, 0.000597971782553941, -0.08699160814285278, -0.0454217754304409, -0.0814511701464653, -0.0868474692106247, 0.02066420204937458, -0.016687583178281784, -0.10110488533973694, -0.02328333631157875, 0.0030625062063336372, -0.0944846048951149, -0.012760121375322342, -0.06805600225925446, -0.11132000386714935, -0.08764436841011047, -0.07263760268688202, -0.08680104464292526, 0.005943272728472948, -0.00661601684987545, -0.1091434583067894, -0.000999849638901651, 0.00738144526258111, -0.1410634070634842, -0.016781315207481384, -0.030248843133449554, -0.12915539741516113, -0.09163746982812881, 0.019650649279356003, -0.05800642445683479, -0.10614512115716934, -0.10394680500030518, -0.07093197852373123, 0.027776647359132767, 0.07051678001880646, -0.031131897121667862, -0.021776923909783363, 0.00016708826296962798, -0.056958287954330444, -0.06859096884727478, -0.05087884142994881, -0.043421629816293716, -0.11501885950565338, -0.09226766973733902, -0.10128297656774521, 0.0013420403702184558, -0.1655576378107071, 0.04365307837724686, -0.06664984673261642, -0.04943714290857315, -0.03383321315050125, 0.0028179106302559376, -0.024733973667025566, -0.10855738818645477, -0.040975186973810196, -0.04289039224386215, -0.08486100286245346, -0.06421278417110443, -0.05309448763728142, -0.02208641916513443, -0.10119196027517319, -0.009357969276607037, -0.11162535101175308, -0.14641042053699493, 0.015029954724013805, -0.0216145608574152, -0.07032445818185806, -0.0060734315775334835, -0.047399599105119705, -0.10545923560857773, -0.012623434886336327, -0.09495875984430313, 0.017409469932317734, -0.10898181051015854, -0.029838120564818382, -0.12823767960071564, 0.012174062430858612, -0.1052682101726532, -0.007235864643007517, -0.061189498752355576, -0.08472681045532227, -0.02963707223534584, -0.1364128291606903, -0.011148447170853615, -0.13816550374031067, -0.02674972079694271, 0.08613284677267075, -0.04630822688341141, -0.010120607912540436, -0.027008697390556335, 0.059366464614868164, -0.0690043643116951, -0.08714611083269119, -0.010311287827789783, -0.1205044835805893, -0.07242706418037415, -0.07656825333833694, -0.09847220778465271, -0.15954852104187012, 0.027607979252934456, -0.12625373899936676, -0.05892876535654068, -0.003982592839747667, -0.028810560703277588, -0.11007851362228394, -0.09356265515089035, -0.08711235970258713, -0.12654657661914825, -0.10643038153648376, -0.005411799997091293, 0.008529305458068848, -0.11040203273296356, -0.030362121760845184, -0.05726514756679535, -0.15183550119400024, -0.04496249184012413, 0.004389253910630941, -0.16059881448745728, -0.06561575084924698, -0.03360912576317787], [0.25889697670936584, -0.135885551571846, 0.06852379441261292, -0.06573501229286194, 0.012874675914645195, 0.09996116161346436, 0.0364227220416069, 0.10952882468700409, 0.06806322187185287, -0.06264333426952362, 0.19305337965488434, -0.11428984999656677, 0.24098744988441467, -0.0043426803313195705, 0.01688186265528202, -0.10600784420967102, -0.26026222109794617, 0.3408001661300659, 0.361113578081131, 0.1942259818315506, 0.06903485208749771, -0.08458371460437775, 0.26103150844573975, 0.1327599287033081, 0.30582162737846375, 0.19205069541931152, 0.13608984649181366, 0.3028949797153473, 0.3313366174697876, 0.24202752113342285, -0.11032458394765854, 0.29891324043273926, -0.02102932333946228, -0.341695100069046, 0.1384475976228714, 0.1560104936361313, -0.2989962100982666, 0.0005035806680098176, 0.19494692981243134, 0.09741776436567307, 0.17255635559558868, 0.22215932607650757, 0.07186881452798843, -0.00098679237999022, -0.030292900279164314, 0.13279499113559723, -0.1379700005054474, -0.2572726309299469, 0.11790449917316437, 0.32056790590286255, -0.13536255061626434, 0.2975696623325348, 0.3790244162082672, -0.03732296824455261, -0.2774737477302551, 0.06014052405953407, -0.10824424773454666, -0.3155498504638672, 0.275403767824173, -0.24521513283252716, -0.04044745862483978, 0.316323846578598, 0.2975552976131439, 0.17760860919952393, 0.27059343457221985, -0.02300495095551014, 0.05561717227101326, 0.29628413915634155, -0.25135791301727295, 0.18479099869728088, 0.1816629022359848, -0.29948118329048157, 0.3517869710922241, 0.128288134932518, 0.21582840383052826, -0.03214578330516815, -0.02113458886742592, 0.3498958647251129, 0.14334912598133087, 0.1426173895597458, 0.1393609195947647, 0.20223040878772736, -0.33840522170066833, 0.3928070068359375, 0.3635439872741699, 0.29705432057380676, -0.0973634123802185, -0.005479548126459122, -0.08683513849973679, 0.27210089564323425, -0.0668584480881691, 0.12376188486814499, 0.2991178631782532, -0.11562532931566238, -0.07577542960643768, 0.1479744166135788, 0.017736870795488358, 0.13524875044822693, -0.017121588811278343, 0.22391508519649506, 0.2080216109752655, 0.36289623379707336, 0.12332513183355331, -0.12732620537281036, 0.3865726590156555, 0.3088855743408203, 0.3076135814189911, -0.3943311870098114, 0.018092485144734383, 0.16481785476207733, -0.0841563418507576, 0.04175771400332451, 0.24424727261066437, -0.3206478953361511, 0.37786638736724854, 0.2776374816894531, 0.21547506749629974, 0.30288955569267273, 0.11845564097166061, -0.11387812346220016, -0.1986728012561798, 0.12277217954397202, 0.2013789862394333, 0.3084869980812073, 0.2693616449832916, -0.2093164622783661, 0.15204904973506927, 0.21888205409049988], [-1.4074677228927612, 0.48845523595809937, -1.8095378875732422, 0.4122188687324524, 0.294028639793396, 0.10813280194997787, 0.1452571302652359, 0.04392262175679207, -0.5543358325958252, 0.3505597710609436, 0.14260897040367126, -1.4714607000350952, -1.2931196689605713, -0.2428787797689438, -0.08295325934886932, 0.41228461265563965, -1.5047184228897095, -0.9144752621650696, -0.6269825100898743, -1.6750396490097046, 0.1617077738046646, 0.3528730571269989, -0.6030077338218689, -1.196352243423462, -0.9589601755142212, -0.019923010841012, 0.15793170034885406, -1.1192256212234497, -0.7527869939804077, -1.2944777011871338, -0.021555034443736076, -0.5951396226882935, 0.10005683451890945, -1.586944818496704, 0.12937968969345093, -1.3443831205368042, -1.682026982307434, 0.15795409679412842, 0.21747267246246338, 0.3002971410751343, -0.2082279622554779, 0.09819584339857101, 0.32965347170829773, 0.1588577777147293, 0.179646834731102, 0.24810676276683807, -0.12290558218955994, -1.3685171604156494, 0.23855896294116974, -0.8320121169090271, -1.6928369998931885, -0.04208001121878624, -0.8818235993385315, 0.43696826696395874, -1.5216399431228638, 0.29990342259407043, 0.15688802301883698, -0.30620747804641724, -0.3771134912967682, 0.22057868540287018, 0.2897631824016571, -0.15678523480892181, -0.39740437269210815, 0.08863633126020432, -0.525184154510498, -1.6430083513259888, 0.25020545721054077, -0.03536536544561386, -1.0930092334747314, 0.12345411628484726, -1.0043574571609497, -1.4027544260025024, -0.3985821306705475, -1.4132705926895142, -0.3558235168457031, -0.8744960427284241, -1.4537252187728882, -1.1555075645446777, 0.0812111347913742, 0.17893686890602112, -0.41338980197906494, -0.06303900480270386, -1.6824588775634766, -0.9661170244216919, -0.9867042899131775, -0.7586525678634644, 0.2572971284389496, 0.3407297134399414, 0.3748874068260193, 0.01323283277451992, 0.14474143087863922, 0.20009180903434753, -0.23700940608978271, -1.7800838947296143, 0.3623184859752655, -0.2838817536830902, 0.10347599536180496, 0.035798829048871994, 0.2913457155227661, 0.01615646667778492, 0.14755181968212128, -1.379268765449524, 0.16660241782665253, 0.14717184007167816, -0.23247943818569183, -1.0742188692092896, -0.7356834411621094, -1.5804635286331177, -0.05909835547208786, 0.00035062700044363737, 0.015679646283388138, -0.9327069520950317, -0.14658647775650024, -1.4974119663238525, -0.35192015767097473, -0.9348066449165344, -0.6582123637199402, -0.9372048377990723, -0.21749287843704224, 0.16399013996124268, 0.034139420837163925, -1.1943528652191162, -1.468847632408142, -0.12176444381475449, -1.0857230424880981, -0.4826790690422058, -0.620796799659729, -1.6854112148284912], [0.09083283692598343, -0.07026289403438568, 0.22194218635559082, -0.14935728907585144, 0.0001267243642359972, 0.03408335894346237, 0.02454724907875061, -0.011924304999411106, 0.0454016849398613, -0.08306299149990082, 0.03031073324382305, 0.19627653062343597, 0.11957531422376633, 0.12159466743469238, 0.19074231386184692, -0.006106911227107048, 0.11930185556411743, 0.17952482402324677, 0.03780044615268707, 0.10489267110824585, 0.06291429698467255, -0.02160349301993847, -0.023252075538039207, 0.21828266978263855, 0.05560791864991188, 0.022807035595178604, -0.0632675439119339, 0.20125479996204376, 0.20320191979408264, 0.14364250004291534, 0.08780064433813095, 0.06466802209615707, -0.02016497775912285, 0.19387425482273102, -0.034902311861515045, 0.07047060877084732, 0.15878990292549133, -0.011838533915579319, 0.0008779164054431021, -0.01211198978126049, -0.064197838306427, 0.10764799267053604, -0.03371904045343399, 0.0067521072924137115, -0.009084264747798443, -0.12193713337182999, 0.2476542741060257, 0.288457453250885, -0.03736727684736252, 0.2056281864643097, 0.14079736173152924, 0.0871424600481987, 0.08504375070333481, 0.008361552841961384, 0.2161315530538559, -0.07263681292533875, 0.08862008154392242, 0.13349448144435883, 0.056793730705976486, 0.2005198895931244, -0.06632737815380096, 0.09510858356952667, 0.07682909071445465, 0.03469592705368996, 0.1727682650089264, 0.2124280482530594, -0.07533597201108932, 0.13762032985687256, 0.1289185732603073, -0.02840970829129219, 0.059100884944200516, 0.22306287288665771, 0.05531978979706764, 0.2470025271177292, 0.19953633844852448, 0.13946212828159332, 0.15827114880084991, 0.191507950425148, -0.0654224157333374, 0.008547947742044926, -0.05144999921321869, 0.019313165917992592, 0.2752847373485565, 0.14624564349651337, 0.19472269713878632, 0.22416751086711884, 0.11920329928398132, -0.12361528724431992, -0.0007027827086858451, 0.08431270718574524, 0.07515575736761093, 0.030073929578065872, 0.052828215062618256, 0.19245697557926178, -0.04062417149543762, 0.03914429992437363, -0.007331532426178455, 0.09995578974485397, -0.14601941406726837, 0.07371114194393158, 0.005762623623013496, 0.09385520964860916, 0.007447818294167519, 0.15441028773784637, 0.15001307427883148, 0.11877769231796265, 0.19940583407878876, 0.2765538990497589, 0.05198054388165474, 0.019986698403954506, 0.22502869367599487, 0.21729029715061188, 0.07655185461044312, 0.3044526278972626, 0.10703522711992264, 0.0647536888718605, 0.10417032241821289, 0.23201604187488556, 0.11605223268270493, 0.12264259159564972, 0.14448201656341553, 0.16411791741847992, 0.1058783307671547, 0.08881145715713501, 0.15297408401966095, 0.2587302029132843, -0.05456285551190376, 0.11924286186695099], [0.18326622247695923, -0.28977271914482117, 0.049940019845962524, -0.008864780887961388, 0.02387961372733116, -0.22543664276599884, 0.0767752155661583, -0.11686420440673828, -0.32408273220062256, 0.01738119311630726, 0.10577798634767532, -0.02111211232841015, 0.15746895968914032, -0.04064564034342766, 0.08153163641691208, -0.24091845750808716, -0.23058335483074188, 0.253531277179718, 0.24910317361354828, 0.018929000943899155, 0.03718302771449089, -0.11163155734539032, -0.21613654494285583, 0.010340611450374126, 0.196590855717659, 0.05456429347395897, -0.26416394114494324, 0.18576036393642426, 0.23378992080688477, 0.093253493309021, -0.09957732260227203, 0.25541865825653076, -0.13447260856628418, -0.3001275956630707, 0.1716899424791336, 0.02930190972983837, -0.31612271070480347, -0.4517214298248291, -0.1875806599855423, -0.012166673317551613, -0.39976730942726135, 0.14650306105613708, -0.08629778772592545, -0.07299394905567169, 0.017129072919487953, -0.33108922839164734, 0.09564707428216934, -0.12314839661121368, 0.008383658714592457, 0.2641527056694031, -0.15526357293128967, 0.13647793233394623, 0.20210446417331696, -0.18662425875663757, -0.20204667747020721, -0.04343913123011589, -0.1461862325668335, -0.027136949822306633, -0.0059334938414394855, -0.152557373046875, -0.06495533138513565, 0.2564363479614258, 0.1795918047428131, 0.09263705462217331, 0.21025674045085907, -0.07945352047681808, 0.031719010323286057, 0.05263426899909973, -0.1303582489490509, -0.055058009922504425, -0.10401587933301926, -0.2802625596523285, 0.25410720705986023, 0.1227308064699173, 0.23193566501140594, 0.05681587755680084, -0.03024151921272278, 0.2648581862449646, -0.05379808321595192, 0.12251270562410355, -0.3434572219848633, -0.10972137749195099, -0.24126584827899933, 0.20184659957885742, 0.21137742698192596, 0.30145394802093506, -0.05226591229438782, -0.04391876608133316, -0.09619935601949692, 0.12483032792806625, -0.10809925198554993, 0.06195826828479767, 0.14446845650672913, -0.1249682679772377, -0.29115691781044006, -0.22420614957809448, 0.04880696162581444, 0.0017586518079042435, -0.2338574230670929, 0.10366297513246536, 0.08834315091371536, 0.11009247601032257, -0.04288431257009506, -0.1218932718038559, 0.18280720710754395, 0.12153863906860352, 0.2145947962999344, -0.45780685544013977, 0.0666298121213913, -0.40589725971221924, 0.07049738615751266, 0.08702703565359116, -0.08318083733320236, -0.25264501571655273, 0.18863864243030548, 0.026288365945219994, 0.1098363846540451, 0.25358864665031433, 0.09522388130426407, -0.17919297516345978, -0.10802225768566132, 0.12038538604974747, -0.11611012369394302, 0.10904499888420105, 0.20609579980373383, -0.07433636486530304, -0.2439020425081253, -0.06540708243846893], [-0.05112021416425705, -0.7049926519393921, 0.23650872707366943, -0.660010814666748, -0.14906667172908783, -1.0121725797653198, -0.10434160381555557, -0.9296595454216003, -0.9288945198059082, -0.5613148808479309, -0.71007239818573, 0.4562487304210663, 0.15570716559886932, 0.402812659740448, 0.3177166283130646, -0.9444478154182434, 0.410189151763916, 0.020483918488025665, -0.5357779860496521, 0.24420195817947388, -0.618156909942627, -0.8575271368026733, -0.9151934385299683, 0.42374879121780396, -0.279101699590683, -0.39920592308044434, -0.8634123802185059, -0.12366171926259995, 0.15335819125175476, -0.06584727019071579, 0.28808972239494324, -0.06593568623065948, -0.9412181377410889, 0.6660919785499573, -0.13252070546150208, -0.29254746437072754, 0.4824455976486206, -1.0186983346939087, -0.9461992383003235, -0.37810343503952026, -1.4259058237075806, -0.5898661613464355, -0.8598843216896057, -0.8004675507545471, 0.022899501025676727, -1.184141993522644, 0.3584534227848053, 0.5965792536735535, -0.13393031060695648, -0.14409437775611877, 0.38403457403182983, -0.3475472629070282, -0.22828294336795807, -0.752551257610321, 0.47714194655418396, -0.8581414818763733, 0.2914118766784668, 0.4781211018562317, -0.7544065713882446, 0.33098703622817993, -0.5207734107971191, -0.08078166842460632, -0.036727841943502426, -0.1290901154279709, 0.013976987451314926, 0.25453251600265503, -0.4766024351119995, -0.4162004888057709, 0.4961978495121002, -0.8667600750923157, -0.5913842916488647, 0.576854944229126, -0.010296512395143509, 0.09165911376476288, 0.18556351959705353, 0.4864787459373474, 0.3340970575809479, 0.033287134021520615, -0.7956806421279907, -0.3472362756729126, -1.259591817855835, -0.746833860874176, 0.5981055498123169, -0.02499249018728733, 0.12102534621953964, -0.030381109565496445, 0.2632621228694916, -0.4031427502632141, -0.9766132235527039, -0.42868536710739136, 0.15843388438224792, -0.7468267679214478, -0.45794737339019775, 0.2519529461860657, -1.0383611917495728, -1.1411349773406982, -0.7840071320533752, -0.011682559736073017, -1.0400258302688599, -0.5699073076248169, -0.3009076416492462, 0.09265205264091492, -0.3307981789112091, 0.21957731246948242, -0.06927105039358139, 0.024715885519981384, -0.1574069857597351, 0.6829578876495361, 0.2762972414493561, -1.430145263671875, 0.24374322593212128, 0.32924380898475647, -1.0594720840454102, 0.4957229197025299, -0.2451314777135849, -0.41885825991630554, -0.3962668180465698, 0.06815555691719055, 0.3096875250339508, 0.17902444303035736, 0.47325122356414795, 0.13347038626670837, -0.38492974638938904, -0.23410652577877045, 0.07486572116613388, 0.4232170581817627, -0.8309305906295776, -0.20655196905136108], [-0.10589095950126648, 0.18050776422023773, -0.409056156873703, 0.31915679574012756, 0.0975968986749649, 0.38761022686958313, 0.1988362967967987, 0.42389029264450073, 0.18451008200645447, 0.2324897199869156, 0.25909024477005005, -0.5909892320632935, -0.0684434249997139, -0.3372584283351898, -0.07292897254228592, 0.2982090413570404, -0.7800707817077637, 0.10757537186145782, 0.1906714141368866, -0.3281887173652649, 0.2073335349559784, 0.27748388051986694, 0.24089474976062775, -0.3229866921901703, 0.06627154350280762, 0.2189902365207672, 0.27275556325912476, 0.09411643445491791, -0.00812198594212532, 0.06015031784772873, -0.39416345953941345, 0.13292598724365234, 0.26884567737579346, -1.0927343368530273, 0.1293240636587143, 0.03232209384441376, -1.002769112586975, 0.43726736307144165, 0.31916019320487976, 0.10065564513206482, 0.25124591588974, 0.38003286719322205, 0.39500337839126587, 0.27131348848342896, 0.062253572046756744, 0.38463690876960754, -0.4277101457118988, -1.20787513256073, 0.09769616276025772, 0.1467125117778778, -0.7462742924690247, 0.2920341491699219, 0.2453518956899643, 0.2760343551635742, -0.8911114931106567, 0.3464776873588562, -0.21830283105373383, -0.7247199416160583, 0.2899399697780609, -0.15768903493881226, 0.11876663565635681, 0.23335888981819153, 0.15423953533172607, 0.1237005814909935, 0.19475623965263367, -0.5116373300552368, 0.3370310664176941, 0.28223735094070435, -0.8984120488166809, 0.43836215138435364, 0.1704893857240677, -0.9206269383430481, 0.14806029200553894, -0.06620237976312637, 0.08252134919166565, -0.5682656168937683, -0.29839688539505005, -0.09736187011003494, 0.373002827167511, 0.16508972644805908, 0.24945951998233795, 0.3289375305175781, -0.9704042077064514, 0.1418086290359497, 0.017064835876226425, 0.043123599141836166, -0.18035370111465454, 0.177240788936615, 0.2577807605266571, 0.20733407139778137, -0.13581453263759613, 0.2666076123714447, 0.336349219083786, -0.47185763716697693, 0.330436110496521, 0.32728633284568787, 0.25643080472946167, -0.04774269461631775, 0.33738455176353455, 0.22737455368041992, 0.2615325152873993, -0.029561620205640793, 0.22027160227298737, -0.09865911304950714, 0.12196344882249832, -0.016765162348747253, 0.19424507021903992, -1.35003662109375, -0.08089383691549301, 0.3336033523082733, -0.202545166015625, -0.2978527843952179, 0.3725685179233551, -1.0737358331680298, 0.15496836602687836, 0.06691592931747437, 0.23037298023700714, 0.018036529421806335, -0.29873692989349365, -0.08044995367527008, -0.5180226564407349, -0.08705337345600128, -0.018625464290380478, 0.23341478407382965, -0.06934311985969543, -0.7413957118988037, 0.2076791524887085, -0.13884159922599792], [-0.5541812777519226, -0.306584894657135, -0.21229270100593567, -0.26763713359832764, 0.2640307545661926, -1.121834397315979, 0.02033453993499279, -1.2100093364715576, -1.3977268934249878, -0.2202308177947998, -0.2655496299266815, -0.0156755018979311, -0.47686469554901123, 0.24729490280151367, 0.21140557527542114, -0.7000369429588318, -0.03276378661394119, -0.19555315375328064, -1.130167841911316, -0.24309511482715607, -0.2505996823310852, -0.4842486083507538, -1.3576688766479492, -0.011845877394080162, -0.7926306128501892, -0.4938240647315979, -0.8962985873222351, -0.6128497123718262, -0.14129406213760376, -0.6191723942756653, 0.37834396958351135, -0.3543732762336731, -0.8651418089866638, 0.01501320768147707, -0.03005128726363182, -1.037764549255371, -0.00599660212174058, -1.199587345123291, -1.174048900604248, -0.030574792996048927, -1.4857513904571533, -0.7331159114837646, -0.6022875905036926, -0.6139814257621765, 0.2622623145580292, -1.3618828058242798, 0.32267463207244873, 0.24264948070049286, 0.024073870852589607, -0.5724784731864929, -0.05137882009148598, -0.39355555176734924, -0.7949490547180176, -0.47192445397377014, -0.10940827429294586, -0.3551141917705536, 0.3625653386116028, 0.3249679207801819, -1.6160149574279785, 0.48203107714653015, -0.18324540555477142, -0.15564875304698944, -0.19978021085262299, -0.014493292197585106, -0.15848605334758759, -0.17425090074539185, -0.324124813079834, -0.6323016285896301, 0.14930464327335358, -0.8146266937255859, -1.1128427982330322, 0.12809313833713531, -0.2627379298210144, -0.3645792007446289, -0.025697648525238037, 0.14773651957511902, -0.13438791036605835, -0.46570393443107605, -0.6308776140213013, -0.13262252509593964, -1.3632197380065918, -1.223631739616394, 0.021943142637610435, -0.5614805817604065, -0.24659472703933716, -0.421827495098114, 0.49543750286102295, -0.05372744798660278, -0.6597511172294617, -0.31287768483161926, 0.4268205463886261, -0.5600157976150513, -0.8973179459571838, -0.2470906376838684, -0.8687511682510376, -1.7429678440093994, -0.404877632856369, 0.094639353454113, -0.8949511051177979, -0.42547303438186646, -0.084051713347435, -0.3982955813407898, 0.025147220119833946, 0.3824627101421356, -0.13212957978248596, -0.47923699021339417, -0.5578349232673645, 0.09448163956403732, 0.31184014678001404, -1.5063532590866089, 0.33345693349838257, 0.04226335510611534, -1.482010841369629, 0.02855963446199894, -0.3925895094871521, -1.0785140991210938, -1.0702532529830933, -0.35014402866363525, 0.15281452238559723, 0.456471711397171, 0.47791457176208496, -0.2987223267555237, -1.002856969833374, -0.22795118391513824, -0.4654357433319092, 0.26830539107322693, -1.546177864074707, -0.6327322125434875], [0.24919845163822174, -0.14326202869415283, -0.003949878271669149, 0.054080452769994736, 0.07173706591129303, 0.018867800012230873, 0.23296909034252167, 0.10366111248731613, -0.18908272683620453, 0.12713269889354706, 0.1444016396999359, -0.0010800727177411318, 0.37815597653388977, 0.15700006484985352, 0.21445472538471222, -0.021221375092864037, -0.38889968395233154, 0.38564932346343994, 0.23167315125465393, 0.10903526842594147, 0.16280998289585114, 0.024793269112706184, -0.045618582516908646, 0.12193398922681808, 0.3461194932460785, 0.24186131358146667, -0.0049564773216843605, 0.4034702479839325, 0.502013087272644, 0.24606332182884216, 0.07166934013366699, 0.5191289782524109, -0.07900505512952805, -0.513295590877533, 0.2405771166086197, -0.0829848200082779, -0.536014974117279, -0.15883055329322815, -0.030546702444553375, 0.14315786957740784, -0.08395882695913315, 0.24786503612995148, 0.03007274866104126, 0.04537329822778702, 0.07421839237213135, -0.141373872756958, -0.020299624651670456, -0.2278701215982437, 0.1544722467660904, 0.42428043484687805, -0.18563087284564972, 0.3608642816543579, 0.44764670729637146, 0.0006522627081722021, -0.5101726651191711, 0.07131634652614594, -0.10211000591516495, -0.10332164168357849, 0.1644255816936493, -0.166152223944664, 0.06540828198194504, 0.47532567381858826, 0.49684959650039673, 0.2791214883327484, 0.4227076768875122, -0.1656482219696045, 0.16933566331863403, 0.15835995972156525, -0.24751141667366028, 0.1265236884355545, 0.014959637075662613, -0.2222890853881836, 0.4611097574234009, 0.32294243574142456, 0.37085556983947754, 0.053311288356781006, 0.0005934218061156571, 0.4239310920238495, 0.05224936082959175, 0.12021609395742416, -0.2227383553981781, 0.16089628636837006, -0.4785400331020355, 0.4024803042411804, 0.4426462650299072, 0.39573097229003906, -0.06202782690525055, 0.06801865249872208, -0.07426240295171738, 0.41770413517951965, -0.08614294975996017, 0.20585213601589203, 0.34382209181785583, -0.15101465582847595, -0.0212349034845829, -0.18553400039672852, 0.04937029629945755, 0.1509479135274887, -0.05486491695046425, 0.20229902863502502, 0.27644145488739014, 0.3297564685344696, 0.21464243531227112, 0.06652612239122391, 0.4595910310745239, 0.3167096972465515, 0.4886377155780792, -0.4770072400569916, 0.10919153690338135, -0.12672296166419983, 0.1641230583190918, 0.24068640172481537, 0.06995011121034622, -0.3334576189517975, 0.48126929998397827, 0.20486533641815186, 0.2492404282093048, 0.5083686113357544, 0.15087231993675232, -0.09785094112157822, -0.15758010745048523, 0.2894398272037506, -0.09515568614006042, 0.26218390464782715, 0.3896130323410034, -0.10122859477996826, -0.06897269934415817, -0.022379335016012192], [-0.45296546816825867, 0.44971078634262085, -0.8680484294891357, 0.26787906885147095, 0.015462491661310196, 0.30066248774528503, -0.02348141372203827, 0.31874242424964905, 0.01912705972790718, 0.19007623195648193, 0.15288233757019043, -0.8871595859527588, -0.38540396094322205, -0.9037374258041382, -0.6289590001106262, 0.42083457112312317, -1.0463473796844482, -0.3338071405887604, -0.05808185413479805, -0.7144336700439453, 0.2574925124645233, 0.3838789761066437, 0.05516377091407776, -0.7336451411247253, -0.12700320780277252, 0.12757815420627594, 0.29520535469055176, -0.2873454689979553, -0.49117791652679443, -0.41552963852882385, -1.1442261934280396, -0.16947995126247406, 0.28147757053375244, -1.0446586608886719, 0.09552398324012756, -0.4087132513523102, -1.1387643814086914, 0.40879279375076294, 0.40971121191978455, 0.2200925052165985, 0.2848479151725769, 0.17799028754234314, 0.43504318594932556, 0.3511229455471039, -0.3215571641921997, 0.4507162570953369, -1.1570366621017456, -1.2811285257339478, 0.05598263069987297, -0.24326084554195404, -1.023967981338501, 0.1419718861579895, -0.054743990302085876, 0.4153648018836975, -1.0430783033370972, 0.4029547870159149, -0.7813392281532288, -1.4705688953399658, 0.07746344059705734, -0.7976996302604675, 0.21819725632667542, -0.0033256830647587776, -0.2651176452636719, 0.10073710232973099, -0.17602431774139404, -0.9609716534614563, 0.2320486605167389, 0.10232753306627274, -1.1854885816574097, 0.32352501153945923, -0.24558906257152557, -1.0833873748779297, -0.1670522540807724, -0.5517520308494568, -0.3792150020599365, -0.8966783881187439, -0.8324165940284729, -0.38575446605682373, 0.20856134593486786, 0.12302142381668091, 0.07794510573148727, 0.21028867363929749, -1.0280221700668335, -0.22829242050647736, -0.45633113384246826, -0.2651078402996063, -0.7724686861038208, 0.2809750735759735, 0.38645169138908386, 0.15541334450244904, -0.5366387963294983, 0.32434165477752686, 0.11601606756448746, -0.8355360627174377, 0.4339325428009033, 0.09067292511463165, 0.32347095012664795, -0.19222834706306458, 0.5285128951072693, 0.23866534233093262, 0.07499668002128601, -0.38242748379707336, 0.0941505879163742, -0.7021929621696472, -0.1629120111465454, -0.34436047077178955, -0.22843703627586365, -1.217099905014038, -0.5091000199317932, 0.25470349192619324, -0.8002285361289978, -0.7657347917556763, 0.23582857847213745, -1.0390886068344116, 0.004566472489386797, -0.18023552000522614, -0.11236460506916046, -0.3795454502105713, -0.9197102785110474, -0.6340360045433044, -1.2462011575698853, -0.42977073788642883, -0.34922119975090027, 0.05567966401576996, -0.3120877742767334, -1.2429285049438477, 0.006390552036464214, -0.6165673136711121], [0.002858528168871999, 0.04778140038251877, -0.10539533942937851, -0.02757355570793152, -0.0827375054359436, -0.027034690603613853, 0.029010586440563202, 0.0297672301530838, -0.05244206637144089, -0.07495149970054626, -0.07353506982326508, 0.00473365793004632, -0.041364237666130066, -0.1295856386423111, -0.05976376309990883, -0.02783080004155636, -0.034011419862508774, 0.005697525572031736, -0.014125683344900608, -0.08624700456857681, 0.026703637093305588, -0.013815545476973057, -0.11540296673774719, -0.04419131204485893, 0.02459210716187954, -0.01027481909841299, -0.006551319733262062, -0.027769368141889572, -0.08327959477901459, -0.05824096128344536, -0.13539181649684906, -0.09689521044492722, -0.10901833325624466, -0.023236561566591263, 0.018304666504263878, 0.0036006805021315813, -0.05132465437054634, 0.00015067560889292508, -0.11602099984884262, -0.032287612557411194, -0.012457504868507385, -0.07581786811351776, -0.004670727998018265, -0.0013910868437960744, -0.07256202399730682, -0.023438159376382828, -0.132308229804039, -0.015368850901722908, 0.037160441279411316, 0.0002515691448934376, 0.027264367789030075, -0.04786908999085426, -0.044808004051446915, 0.0399090051651001, -0.1460295021533966, 0.016675181686878204, -0.08428351581096649, -0.0878855362534523, -0.10208770632743835, -0.05031689628958702, -0.015849720686674118, 0.02199738845229149, -0.09147016704082489, -0.01661493442952633, -0.14596816897392273, -0.013023104518651962, 0.017143726348876953, -0.10916589945554733, -0.0029937508516013622, -0.007983509451150894, -0.027752956375479698, 0.013864031061530113, -0.029555637389421463, -0.002599264495074749, -0.043539244681596756, -0.12141316384077072, -0.040732868015766144, -0.07445555180311203, -0.00580605398863554, -0.07104859501123428, 0.012927072122693062, -0.03145704045891762, -0.05028948560357094, -0.08790420740842819, -0.14614520967006683, 0.0014133937656879425, -0.0595351867377758, -0.024971535429358482, 0.008983388543128967, -0.13015496730804443, -0.07384732365608215, -0.07351318001747131, -0.09828060120344162, -0.05242793634533882, -0.06233038008213043, -0.1395244300365448, -0.03745587542653084, -0.05247108265757561, -0.03896936774253845, -0.029093485325574875, -0.07487351447343826, -0.026744503527879715, -0.12597544491291046, 0.008334618993103504, 0.01638391986489296, -0.007580784615129232, 0.0238744355738163, -0.09726549685001373, 0.00011697830632328987, -0.05400893837213516, -0.06137794628739357, 0.012024841271340847, -0.06441114842891693, 0.018043145537376404, -0.09962906688451767, -0.02488504908978939, -0.06299128383398056, -0.10153544694185257, -0.10944875329732895, 0.014114650897681713, -0.03228083997964859, -0.06363637745380402, -0.007217851933091879, -0.09432350099086761, -0.04341993108391762, -0.02485308051109314, 0.032886750996112823, 0.03929870203137398], [-0.08626158535480499, -0.1784464567899704, -0.11938554048538208, -0.11592245101928711, -0.0589899905025959, -0.17511020600795746, 0.014718223363161087, -0.04369259253144264, -0.10859742760658264, -0.03550715744495392, -0.007001908030360937, -0.15392927825450897, -0.07623513042926788, -0.05800430104136467, -0.07714063674211502, -0.14111453294754028, -0.1618187427520752, -0.10181067138910294, -0.011381242424249649, -0.12393038719892502, -0.10869751125574112, -0.0835966020822525, -0.10035114735364914, 0.007926655933260918, -0.025907613337039948, -0.03998788073658943, -0.08540568500757217, 0.005334080662578344, -0.015132561326026917, -0.013716169632971287, -0.024406036362051964, 0.023606307804584503, -0.04180394858121872, -0.07261630147695541, -0.04521529749035835, -0.13476312160491943, -0.13234707713127136, -0.1470869481563568, -0.09939079731702805, -0.09237410873174667, -0.18288353085517883, -0.048623260110616684, -0.11741343140602112, -0.038567084819078445, -0.09800290316343307, -0.24616733193397522, -0.003597890492528677, -0.1716747134923935, 0.0101191196590662, -0.07695990800857544, -0.10224387049674988, -0.0989353209733963, -0.009573740884661674, -0.1746387928724289, -0.1038174033164978, -0.09124233573675156, -0.08810741454362869, -0.1253265142440796, 0.022501034662127495, -0.15868844091892242, -0.1734476089477539, -0.017900895327329636, 0.012842048890888691, -0.08459431678056717, 0.02444990910589695, -0.10176889598369598, -0.0710737407207489, -0.062344782054424286, -0.018897902220487595, -0.01666668802499771, -0.12804381549358368, -0.16368012130260468, -0.05354595184326172, -0.028617102652788162, -0.03272464498877525, -0.10629898309707642, -0.10130292922258377, -0.04806485027074814, -0.10206945985555649, 0.025673186406493187, -0.26806291937828064, -0.08604606240987778, -0.12051889300346375, 0.0520319901406765, 0.01986171118915081, 0.049992263317108154, -0.10393105447292328, -0.027112353593111038, -0.058596886694431305, -0.05937598645687103, -0.08669809252023697, -0.11283515393733978, -0.12404517829418182, -0.00451681250706315, -0.09797107428312302, -0.20399445295333862, -0.11264054477214813, -0.11482953280210495, -0.10856906324625015, -0.04433915764093399, -0.01562255248427391, -0.0653679296374321, -0.08940944820642471, -0.031270258128643036, 0.0009668631246313453, 0.04005730152130127, -0.03302445262670517, -0.23196935653686523, -0.08263803273439407, -0.2020585685968399, -0.13879132270812988, -0.009207840077579021, -0.16670732200145721, -0.043699588626623154, 0.03425002843141556, 0.015294810757040977, -0.07654653489589691, -0.0885966494679451, -0.11968329548835754, -0.05335240811109543, -0.15180470049381256, -0.11886376887559891, -0.07171006500720978, -0.09797120839357376, -0.06738842278718948, -0.021715011447668076, -0.061159372329711914, -0.11214946955442429], [-1.0862611532211304, -0.11692633479833603, -0.9869327545166016, 0.11192934215068817, 0.6554727554321289, -1.0874675512313843, 0.49047666788101196, -1.161756157875061, -1.7740472555160522, 0.14842845499515533, 0.026019901037216187, -0.6538094878196716, -0.8099313378334045, 0.10141358524560928, 0.14173220098018646, -0.6504316926002502, -0.783007025718689, -0.45594629645347595, -1.1710680723190308, -0.8430836796760559, 0.1622893214225769, -0.2650720477104187, -1.631320834159851, -0.48977503180503845, -1.1137423515319824, -0.16770736873149872, -1.0220037698745728, -0.9314454197883606, -0.25689342617988586, -1.058883786201477, 0.34736284613609314, -0.4216670095920563, -0.9261674880981445, -0.6962012648582458, 0.24230067431926727, -1.5223673582077026, -0.7455400228500366, -1.5900548696517944, -1.5176010131835938, 0.31852731108665466, -1.8807734251022339, -0.5391398668289185, -0.5519038438796997, -0.29555806517601013, 0.5526316165924072, -1.882326602935791, 0.20578742027282715, -0.45834916830062866, 0.45989617705345154, -0.6133832931518555, -0.7263967990875244, -0.1241459846496582, -0.8662573099136353, -0.15226691961288452, -0.7619010806083679, -0.23869729042053223, 0.5638228058815002, 0.22293610870838165, -1.814510703086853, 0.6022424101829529, 0.3409930169582367, -0.08844179660081863, -0.12973983585834503, 0.2679254710674286, -0.21560317277908325, -0.8673433065414429, 0.10407304763793945, -0.3825923800468445, -0.19242659211158752, -0.553888201713562, -1.6637718677520752, -0.32916325330734253, -0.1452997624874115, -0.8216029405593872, 0.05705779418349266, -0.19335581362247467, -0.7061644196510315, -0.8337257504463196, -0.5439503788948059, 0.3044032156467438, -1.737068772315979, -1.3056460618972778, -0.7607088088989258, -0.7415554523468018, -0.4926189184188843, -0.40078574419021606, 0.5985199213027954, 0.2639221251010895, -0.48701411485671997, -0.061752043664455414, 0.4497697353363037, -0.22549623250961304, -0.8872278928756714, -0.9992821216583252, -1.0081019401550293, -1.8413848876953125, -0.07680540531873703, 0.3717036843299866, -0.9544737339019775, -0.12235722690820694, 0.13937024772167206, -0.8963223695755005, 0.2563718557357788, 0.5833039283752441, -0.09711802750825882, -0.8471243977546692, -0.7966563105583191, -0.6756800413131714, 0.24826841056346893, -2.0365524291992188, 0.23165099322795868, -0.19561265408992767, -1.6861200332641602, -0.6455207467079163, -0.2980858385562897, -1.5041530132293701, -1.1281040906906128, -0.5032474994659424, 0.02867494337260723, 0.6488168835639954, 0.4322926104068756, -0.7488746047019958, -1.6454079151153564, 0.021366016939282417, -0.6330662965774536, -0.03040526621043682, -1.7405821084976196, -1.2987620830535889], [-1.066888451576233, 0.4881840646266937, -1.877782940864563, 0.3305550813674927, 0.20940785109996796, 0.23954586684703827, 0.14958058297634125, 0.13369224965572357, -0.5368778109550476, 0.2977917194366455, 0.2248849868774414, -1.5769283771514893, -0.8895787596702576, -0.6021224856376648, -0.17516377568244934, 0.41207557916641235, -1.5136052370071411, -0.5854241251945496, -0.47334712743759155, -1.4925541877746582, 0.23397287726402283, 0.4009716212749481, -0.5367158055305481, -1.222092866897583, -0.5957803130149841, 0.03843386098742485, 0.27877554297447205, -0.7766468524932861, -0.5657853484153748, -0.9145106077194214, -0.2934395372867584, -0.4108636975288391, 0.278949499130249, -1.7055189609527588, 0.1265295296907425, -1.0242345333099365, -1.6731964349746704, 0.23205940425395966, 0.10579089820384979, 0.3301856815814972, -0.3379030227661133, 0.1582789570093155, 0.29014429450035095, 0.3142124116420746, 0.05724610760807991, 0.03304693102836609, -0.5314103364944458, -1.717552900314331, 0.1199871301651001, -0.5567177534103394, -1.8060435056686401, 0.09950532764196396, -0.49003273248672485, 0.3212541341781616, -1.5321749448776245, 0.3794683814048767, -0.18489280343055725, -0.9345789551734924, -0.2638548016548157, -0.1404782235622406, 0.3727899491786957, -0.09233168512582779, -0.324306845664978, 0.06164383515715599, -0.22267058491706848, -1.7195539474487305, 0.1634770929813385, 0.06165671348571777, -1.4712300300598145, 0.12508782744407654, -0.8737135529518127, -1.439645528793335, -0.21751904487609863, -1.2430574893951416, -0.3445422947406769, -1.2356616258621216, -1.4484310150146484, -0.9522157311439514, 0.2671217620372772, 0.17373310029506683, -0.3651784658432007, -0.015724677592515945, -1.6698036193847656, -0.7135802507400513, -0.7549923062324524, -0.5159654021263123, -0.14056429266929626, 0.32778361439704895, 0.40973782539367676, -0.0067441719584167, -0.030848635360598564, 0.2700084149837494, -0.18987083435058594, -1.7488536834716797, 0.2451786994934082, -0.42746683955192566, 0.2570405602455139, 0.04333949089050293, 0.26083144545555115, 0.16771355271339417, 0.1547393798828125, -0.8988350629806519, 0.28420230746269226, -0.11374584585428238, -0.22157981991767883, -0.717239260673523, -0.5570775866508484, -1.5429600477218628, -0.09617985785007477, -0.13489273190498352, -0.2546822130680084, -0.9256117939949036, -0.30929872393608093, -1.5978543758392334, -0.1135917603969574, -0.7696021199226379, -0.38674214482307434, -0.6673034429550171, -0.5120395421981812, 0.06925729662179947, -0.4893464148044586, -0.9956287145614624, -1.1226974725723267, 0.02591954730451107, -0.8020167350769043, -1.0397862195968628, -0.5800215005874634, -1.251400351524353], [0.1888871043920517, -0.5827397704124451, 0.09060297161340714, -0.693832516670227, -1.6880967617034912, -0.04127200320363045, -1.4355682134628296, -0.01649889536201954, 0.5354762673377991, -0.7410231828689575, -0.7243160605430603, -0.01995690166950226, 0.05874386802315712, -0.6544418334960938, -1.1844362020492554, -0.18467777967453003, 0.030952278524637222, -0.2348993420600891, 0.06069984287023544, 0.08001166582107544, -0.6976671814918518, -0.403532475233078, 0.4599127769470215, -0.0966840460896492, 0.10982179641723633, -0.40618735551834106, -0.07163596153259277, 0.06167849153280258, -0.39166146516799927, 0.14294177293777466, -0.888540506362915, -0.12314923107624054, -0.12697722017765045, 0.23227761685848236, -1.4831722974777222, 0.455124169588089, 0.27074694633483887, 0.19259844720363617, 0.19171588122844696, -1.0573617219924927, 0.415500670671463, -0.31827661395072937, -0.226999893784523, -0.40250033140182495, -1.7407134771347046, 0.35167646408081055, -0.648805558681488, -0.05950934812426567, -1.5581772327423096, -0.04652034863829613, 0.20192119479179382, -0.5196858644485474, 0.05336036905646324, -0.4569072425365448, 0.1085885688662529, -0.5642061233520508, -1.3371978998184204, -0.454484760761261, 0.26750826835632324, -1.2852839231491089, -0.9214006662368774, -0.5309320688247681, -0.42406487464904785, -1.1912766695022583, -0.4168797731399536, 0.23718692362308502, -0.8273239135742188, -0.3624517321586609, -0.24904543161392212, -0.2214043140411377, 0.43621695041656494, -0.10218070447444916, -0.4042874872684479, 0.08237601816654205, -0.5278428196907043, -0.2627192735671997, 0.11153464764356613, -0.05103049427270889, -0.34131288528442383, -1.1329387426376343, 0.6682863235473633, 0.10701333731412888, 0.19471047818660736, -0.04486381262540817, -0.11826155334711075, -0.2435963898897171, -1.380956768989563, -1.0348801612854004, -0.34948858618736267, -0.5932893753051758, -1.616269826889038, -0.4144144654273987, 0.05225388705730438, 0.17592768371105194, -0.031437184661626816, 0.3776300847530365, -0.6243715882301331, -1.5406581163406372, -0.03907943144440651, -0.5356714129447937, -0.958499550819397, 0.07895635068416595, -1.1461702585220337, -1.5140962600708008, -0.5027469396591187, 0.11534076929092407, -0.023375926539301872, 0.06523109972476959, -1.3617875576019287, 0.426032155752182, -1.1577297449111938, -0.22397318482398987, 0.19730651378631592, 0.15692800283432007, -0.3689310848712921, 0.16843390464782715, 0.20490890741348267, -0.15203572809696198, -0.5310025811195374, -1.5774234533309937, -0.65591961145401, 0.0761815756559372, 0.4564395248889923, -0.5583740472793579, -0.044961754232645035, -0.3000500798225403, 0.32810497283935547, 0.37488964200019836], [-0.7148032784461975, 0.45695433020591736, -0.7743973135948181, 0.5384742617607117, 0.6243050694465637, 0.10075939446687698, 0.49781444668769836, 0.06530078500509262, -0.8555894494056702, 0.5475203990936279, 0.4072304368019104, -0.4937136769294739, -0.4612414240837097, 0.10815214365720749, 0.20033219456672668, 0.3583122193813324, -0.6780461668968201, -0.2472730576992035, -0.448826402425766, -0.7795917391777039, 0.4338752031326294, 0.4840368628501892, -0.8220422267913818, -0.3416643738746643, -0.5235714912414551, 0.2039060741662979, 0.06104116141796112, -0.46935388445854187, -0.25308099389076233, -0.5216171145439148, 0.3204737603664398, -0.09909185767173767, 0.2032519429922104, -0.8446137309074402, 0.4780901372432709, -0.9691235423088074, -0.8565044403076172, 0.025288382545113564, -0.05095566436648369, 0.5129926204681396, -0.5606637001037598, 0.09149764478206635, 0.3576362133026123, 0.3666996359825134, 0.4877403974533081, -0.15613652765750885, 0.19097661972045898, -0.4090513288974762, 0.5446555018424988, -0.38390371203422546, -0.7622707486152649, 0.17578540742397308, -0.420358270406723, 0.41014382243156433, -0.8060451745986938, 0.33216139674186707, 0.2978009879589081, 0.04081937298178673, -0.33943626284599304, 0.3516232669353485, 0.5814933776855469, 0.1537039577960968, 0.04607678949832916, 0.47773295640945435, 0.019140107557177544, -0.7664381265640259, 0.5147419571876526, 0.20944440364837646, -0.2597353160381317, 0.1444874107837677, -0.8072951436042786, -0.5308985114097595, -0.03053375892341137, -0.6151612401008606, -0.039309244602918625, -0.36779555678367615, -0.688205897808075, -0.5518133640289307, 0.19951218366622925, 0.49552011489868164, -0.9131611585617065, -0.08117062598466873, -0.7100051641464233, -0.35306212306022644, -0.3836384117603302, -0.2754712998867035, 0.47623270750045776, 0.605124831199646, 0.39781653881073, 0.13488885760307312, 0.3040282726287842, 0.328370064496994, -0.13911409676074982, -0.8586218953132629, 0.29446879029273987, -0.7236415147781372, 0.41550034284591675, 0.3116396963596344, 0.11534973233938217, 0.3421933650970459, 0.42815545201301575, -0.5122439861297607, 0.5381771326065063, 0.46800798177719116, -0.013331318274140358, -0.4373849332332611, -0.38121458888053894, -0.7378367185592651, 0.372986763715744, -0.4799756705760956, 0.22623330354690552, -0.3578965365886688, -0.3068977892398834, -0.7047411203384399, -0.04509372264146805, -0.7227164506912231, -0.45041120052337646, -0.39571619033813477, 0.07118656486272812, 0.38009995222091675, 0.1593831181526184, -0.5073392987251282, -0.9054225087165833, 0.15211817622184753, -0.36720484495162964, -0.12881843745708466, -0.84772127866745, -0.9277101159095764], [-0.5116899013519287, 0.3741356134414673, -0.6848472952842712, 0.3801514804363251, 0.3393363952636719, 0.08402472734451294, 0.413926899433136, 0.0579235702753067, -0.43889567255973816, 0.35159656405448914, 0.3725273907184601, -0.6486389636993408, -0.24855339527130127, -0.03829498961567879, 0.05776607617735863, 0.2831462621688843, -0.6432942748069763, -0.10344520956277847, -0.1974085420370102, -0.5356652140617371, 0.3160206377506256, 0.3196004331111908, -0.4506891071796417, -0.44823911786079407, -0.19008207321166992, 0.21745514869689941, 0.2113327533006668, -0.32957372069358826, -0.14876823127269745, -0.3773287236690521, 0.13687296211719513, -0.0246653500944376, 0.24544093012809753, -0.8853080868721008, 0.342939555644989, -0.6338716149330139, -0.8489677309989929, 0.12677988409996033, 0.07741396874189377, 0.346114844083786, -0.38031384348869324, 0.2976727783679962, 0.2385540008544922, 0.3396337330341339, 0.36350029706954956, 0.008853723295032978, -0.10886255651712418, -0.6387094259262085, 0.4162861704826355, -0.13720203936100006, -0.911034345626831, 0.33238595724105835, -0.09561649709939957, 0.3068961501121521, -0.7248240113258362, 0.310379296541214, 0.21897350251674652, -0.03659357130527496, -0.12388505786657333, 0.08477301150560379, 0.48065781593322754, 0.19090455770492554, 0.03161223605275154, 0.3787548542022705, 0.020451121032238007, -0.7278488278388977, 0.39810627698898315, 0.13810279965400696, -0.44064247608184814, 0.258088618516922, -0.4939787983894348, -0.6269020438194275, 0.10228244215250015, -0.39790889620780945, 0.026185475289821625, -0.26511260867118835, -0.511579155921936, -0.3012657165527344, 0.23892761766910553, 0.49383655190467834, -0.3730939030647278, 0.09549013525247574, -0.8557388782501221, -0.1546701192855835, -0.11377197504043579, -0.13364087045192719, 0.22807565331459045, 0.45015254616737366, 0.3523261845111847, 0.1828009933233261, 0.221456840634346, 0.3465217351913452, 0.00393119640648365, -0.8157007098197937, 0.08299283683300018, -0.37914738059043884, 0.3673470616340637, 0.3730626404285431, 0.12668286263942719, 0.29944097995758057, 0.36056452989578247, -0.37160980701446533, 0.49820443987846375, 0.10268425941467285, 0.13381823897361755, -0.24621641635894775, -0.1675104796886444, -0.8773126006126404, 0.14808744192123413, -0.21327123045921326, 0.05665259435772896, -0.15514783561229706, -0.14254680275917053, -0.7314187288284302, 0.07420247793197632, -0.32724833488464355, -0.18129700422286987, -0.12405286729335785, -0.027058517560362816, 0.23959128558635712, 0.02315831556916237, -0.24716752767562866, -0.7365248799324036, 0.2175913006067276, -0.2821766138076782, -0.2662915587425232, -0.49269476532936096, -0.6771025657653809], [-0.057033371180295944, -0.017543260008096695, -0.05835536867380142, -0.07233133167028427, -0.02812856249511242, -0.011411886662244797, -0.10877148807048798, -0.1425900012254715, -0.04569011554121971, -0.06755197793245316, -0.006135764066129923, 0.034784477204084396, -0.05702449753880501, -0.03028358519077301, 0.029958533123135567, -0.1274692416191101, -0.03820274770259857, -0.054004400968551636, -0.11104030162096024, -0.0342603400349617, -0.17258508503437042, -0.08457779139280319, -0.07947882264852524, -0.045939039438962936, -0.06815372407436371, -0.039002977311611176, -0.0519917756319046, -0.15650677680969238, 0.004211189690977335, -0.17754752933979034, 0.04263962432742119, -0.13094210624694824, -0.07229053974151611, 0.10362444072961807, -0.15467725694179535, -0.1680927276611328, 0.05878400802612305, -0.09399459511041641, -0.15808603167533875, -0.08895109593868256, -0.09995752573013306, -0.14386191964149475, 0.011378521099686623, -0.16777989268302917, -0.08283409476280212, -0.06906872987747192, 0.057853784412145615, -0.014361601322889328, -0.17740365862846375, -0.08094522356987, -0.08765105158090591, -0.022244838997721672, -0.06768462061882019, -0.05990754812955856, -0.040825214236974716, -0.12761585414409637, -0.03708001971244812, -0.057801540940999985, -0.17778946459293365, -0.0591864138841629, -0.16980932652950287, -0.1754121333360672, -0.05301539599895477, -0.09969034790992737, -0.04321165010333061, -0.09717763215303421, -0.034186046570539474, -0.08863665908575058, -0.011869455687701702, -0.16461181640625, -0.06812464445829391, -0.016179213300347328, -0.09296984225511551, -0.047264400869607925, -0.1772652417421341, 0.06062087044119835, -0.018882526084780693, -0.01795189641416073, -0.05924480780959129, -0.14797817170619965, -0.03604157641530037, -0.18719631433486938, -0.01908695511519909, -0.10157125443220139, -0.055733297020196915, -0.07970670610666275, 0.04208614304661751, -0.09244516491889954, -0.06104521080851555, -0.13981157541275024, -0.10134820640087128, -0.10644768923521042, -0.0201669130474329, -0.06653627753257751, -0.10857073962688446, -0.18298381567001343, -0.16348813474178314, -0.011404597200453281, -0.0796450600028038, -0.02006082981824875, -0.07316785305738449, -0.04404234141111374, -0.011653104797005653, 0.04341937601566315, -0.10006000101566315, -0.020559975877404213, -0.08859243988990784, 0.10705675929784775, 0.04016527161002159, -0.07626564055681229, 0.025800656527280807, -0.12193271517753601, -0.10059445351362228, -0.04563828930258751, -0.13079297542572021, -0.06563623994588852, -0.10082955658435822, -0.15010318160057068, 0.0455939806997776, 0.03159597888588905, -0.032444871962070465, -0.12268543243408203, -0.06856922805309296, -0.11291246116161346, -0.15289464592933655, 0.04632364585995674, -0.04100944101810455, -0.07866748422384262], [0.011495256796479225, -0.062244903296232224, 0.0017746021039783955, -0.12566635012626648, 0.03074094094336033, -0.14740262925624847, 0.00386186339892447, -0.07363570481538773, -0.09592151641845703, -0.1089673787355423, -0.010638468898832798, -0.1547398865222931, -0.07250434160232544, -0.03235403820872307, -0.06266669929027557, -0.10801345854997635, -0.06124010682106018, -0.042767707258462906, -0.08203528076410294, -0.01989583857357502, 0.013894908130168915, -0.108442023396492, -0.0401984266936779, 0.0435359850525856, -0.08702492713928223, 0.04557063430547714, -0.12906570732593536, 0.03897210583090782, 0.021780576556921005, -0.0026788273826241493, -0.05533301457762718, -0.044115472584962845, -0.04079798609018326, -0.1634291112422943, -0.05880815535783768, -0.09687565267086029, -0.1288185566663742, -0.12996810674667358, -0.1053575649857521, 0.021150175482034683, -0.18372105062007904, -0.12132823467254639, -0.15918441116809845, -0.05284569039940834, -0.03217221796512604, -0.09461662173271179, -0.07962984591722488, -0.18695420026779175, -0.013633104972541332, -0.058999285101890564, -0.18955114483833313, -0.10583221167325974, -0.0015845600282773376, -0.052756790071725845, -0.1901957392692566, 0.011254326440393925, -0.13682472705841064, -0.13691839575767517, -0.0692538470029831, -0.07135160267353058, -0.04594381898641586, -0.09778270870447159, -0.06952456384897232, -0.02806679904460907, 0.06153354048728943, -0.08667811006307602, -0.021121501922607422, 0.006657790392637253, -0.12029898166656494, 0.007631947752088308, -0.10707289725542068, -0.1569644808769226, -0.07580340653657913, -0.006758549716323614, -0.031124943867325783, -0.07456768304109573, -0.07088031619787216, 0.04049593210220337, -0.06295358389616013, -0.032938167452812195, -0.0988122820854187, -0.17873023450374603, -0.09441446512937546, -0.08715415745973587, -0.005378269590437412, -0.038868311792612076, -0.016638772562146187, -0.14049534499645233, -0.15697909891605377, 0.014131404459476471, -0.14971590042114258, -0.008569021709263325, -0.011818069033324718, -0.030548427253961563, -0.0732751414179802, -0.14411772787570953, -0.11388910561800003, 0.005165107548236847, -0.11840420216321945, -0.0628608986735344, 0.05002303048968315, 0.011574411764740944, -0.059475336223840714, 0.028530942276120186, 0.03608211502432823, -0.018230028450489044, 0.020370448008179665, -0.2782433032989502, -0.06963454931974411, -0.1120469719171524, -0.039772942662239075, -0.02938542701303959, -0.1600273698568344, -0.22897520661354065, -0.006798398680984974, -0.031269270926713943, -0.012985369190573692, 0.0024292205926030874, 0.001068679615855217, -0.07560988515615463, -0.1428459882736206, 0.03187064081430435, -0.04724792018532753, -0.004078610800206661, -0.007179475389420986, -0.045584164559841156, -0.00700047193095088, -0.1253264993429184], [-0.05384645238518715, -0.10232110321521759, -0.028899945318698883, -0.16033175587654114, -0.1434916853904724, -0.07931438833475113, -0.1291567087173462, -0.05731276050209999, -0.030334604904055595, -0.1849782019853592, -0.04978358745574951, 0.011761454865336418, -0.16294094920158386, -0.03128261864185333, -0.01277843676507473, -0.08063038438558578, -0.06493484228849411, -0.011700519360601902, -0.12316171824932098, -0.11333547532558441, -0.04462409019470215, -0.04531761631369591, -0.09317228198051453, -0.08275820314884186, -0.03260292112827301, -0.10784312337636948, -0.14102306962013245, -0.11087717115879059, -0.10129667073488235, 0.0026437656488269567, 0.02865769900381565, -0.1436406672000885, -0.03644373640418053, 0.052985258400440216, -0.16383808851242065, -0.11070388555526733, 0.013255542144179344, -0.16718892753124237, 0.00433503370732069, -0.13828225433826447, 0.016631783917546272, -0.16087563335895538, -0.12959426641464233, -0.134255051612854, -0.15729951858520508, -0.15363113582134247, 0.04599253833293915, -0.07320825755596161, -0.05421935021877289, -0.056851889938116074, -0.01684931106865406, -0.18801483511924744, -0.1024186983704567, -0.017571359872817993, -0.04027465358376503, -0.16442589461803436, -0.04845599830150604, -0.041301429271698, -0.12234321236610413, 0.013746134005486965, -0.10733595490455627, -0.13934889435768127, -0.18451963365077972, -0.17168255150318146, -0.046236950904130936, -0.06931567192077637, -0.10424473881721497, -0.1465868055820465, 0.03167831152677536, -0.1533096879720688, -0.11064162850379944, -0.04704902693629265, -0.07478897273540497, -0.06582430750131607, -0.015713093802332878, -0.04077831283211708, -0.1271677315235138, -0.07426706701517105, -0.04792063310742378, -0.12908606231212616, -0.05576115474104881, -0.11956825852394104, 0.024283038452267647, -0.040101345628499985, -0.08729443699121475, -0.08695029467344284, -0.03357930853962898, -0.14254602789878845, -0.023495465517044067, -0.0554836243391037, 0.012322871945798397, -0.09112556278705597, -0.03729485347867012, -0.12950529158115387, -0.15032505989074707, -0.017355043441057205, -0.12130207568407059, -0.11839700490236282, -0.14766550064086914, -0.054599326103925705, -0.13604940474033356, -0.04660055786371231, -0.17155833542346954, 0.0035079396329820156, -0.17948278784751892, -0.13356751203536987, -0.17371919751167297, 0.11324597895145416, -0.018661338835954666, -0.02531716227531433, -0.005061674397438765, 0.018943583592772484, -0.0874849334359169, 0.030751826241612434, -0.1442965418100357, -0.03520159795880318, -0.0128838075324893, -0.04321565479040146, 0.038456302136182785, -0.04075838252902031, 0.03436511754989624, -0.01194077916443348, -0.14194422960281372, -0.02578086592257023, -0.026307301595807076, -0.026167115196585655, -0.15873996913433075, -0.06198767200112343], [-0.14354915916919708, -0.0910431444644928, -0.01185765489935875, -0.09345623105764389, -0.16079513728618622, -0.10825271159410477, -0.06186671182513237, 0.03047245554625988, 0.044824037700891495, -0.15335747599601746, -0.1775122582912445, -0.050305336713790894, -0.01181687694042921, -0.13278719782829285, -0.10035283118486404, -0.027521859854459763, -0.061979297548532486, -0.0742734894156456, 0.02190353162586689, -0.0029374391306191683, -0.15966100990772247, -0.07262270897626877, 0.115020751953125, -0.21131521463394165, -0.06928452104330063, -0.09847259521484375, -0.012615707702934742, -0.06294240057468414, -0.2101745456457138, -0.02632256969809532, -0.12100143730640411, -0.13983184099197388, -0.0790480300784111, -0.12237207591533661, -0.06488220393657684, -0.012181774713099003, -0.09805641323328018, 0.004679957404732704, -0.05653122439980507, -0.06407544761896133, 0.06143268942832947, -0.011408899910748005, -0.026988055557012558, -0.21819722652435303, -0.17818371951580048, -0.038623545318841934, -0.07246431708335876, -0.1945238709449768, -0.10207507759332657, -0.1307670921087265, -0.1611258089542389, -0.03768118470907211, 0.028054876253008842, -0.08502738177776337, -0.18001292645931244, -0.09888942539691925, -0.19442853331565857, -0.18328192830085754, -0.06991076469421387, -0.19395580887794495, -0.03553582355380058, -0.1562507003545761, -0.06985854357481003, -0.052146632224321365, -0.09468427300453186, -0.14825217425823212, -0.18528631329536438, -0.07089953869581223, -0.26672986149787903, -0.08767496049404144, 0.011197362095117569, -0.10927557200193405, -0.15552890300750732, -0.03927008435130119, -0.20723561942577362, -0.20445282757282257, -0.10682019591331482, 0.002579945605248213, -0.13262967765331268, -0.06106040999293327, 0.13076767325401306, -0.08965396136045456, -0.11672593653202057, -0.11074256896972656, -0.06539437919855118, -0.16484400629997253, -0.18305188417434692, -0.14627496898174286, -0.0653129443526268, -0.19493617117404938, -0.07839443534612656, -0.13196225464344025, -0.014695163816213608, 0.021104691550135612, -0.027941947802901268, 0.04172724485397339, -0.11539626866579056, -0.21260833740234375, -0.13633644580841064, -0.07983265817165375, -0.12613412737846375, -0.07234784960746765, -0.16180561482906342, -0.18035510182380676, -0.19586281478405, -0.11629709601402283, -0.09774483740329742, -0.05988965928554535, -0.12725627422332764, 0.1326901912689209, -0.16640205681324005, -0.21476881206035614, 0.07330963015556335, -0.0746675580739975, -0.05994200333952904, -0.04445037245750427, 0.027277762070298195, -0.036823172122240067, -0.10105829685926437, -0.12745454907417297, -0.16715273261070251, -0.06778544932603836, -0.016002893447875977, -0.05161258205771446, -0.1067613810300827, -0.1380990445613861, -0.049473024904727936, 0.010961281135678291], [-0.019557097926735878, 0.020281877368688583, 0.04889484867453575, 0.04459424316883087, 0.1203145980834961, 0.009410994127392769, 0.178902268409729, 0.032733917236328125, -0.17222611606121063, 0.009994163177907467, 0.19968262314796448, 0.030782494693994522, 0.07620138674974442, 0.21448291838169098, 0.33304545283317566, -0.12251678109169006, -0.23769964277744293, 0.25601333379745483, 0.12080297619104385, -0.02154371328651905, 0.1646026223897934, 0.035294730216264725, -0.13203266263008118, 0.07874686270952225, 0.08517897874116898, 0.2362750768661499, 0.05688972398638725, 0.22035455703735352, 0.3583344519138336, 0.15124215185642242, 0.11238186806440353, 0.3796478509902954, 0.03809650242328644, -0.16422832012176514, 0.35985231399536133, -0.11507416516542435, -0.1796000897884369, -0.10118667781352997, -0.006186050828546286, 0.16373994946479797, -0.04499320685863495, 0.2106095552444458, -0.014680040068924427, -0.08059342950582504, 0.11387822031974792, -0.13221995532512665, 0.08302261680364609, -0.1417391002178192, 0.16573257744312286, 0.23817366361618042, -0.08056367933750153, 0.31590136885643005, 0.17952293157577515, -0.056583814322948456, -0.22503085434436798, 0.12863396108150482, 0.0795547142624855, -0.020555894821882248, 0.15858738124370575, 0.0883110761642456, 0.032126590609550476, 0.3554150462150574, 0.4068644642829895, 0.3856799602508545, 0.42402520775794983, -0.13521692156791687, 0.17038796842098236, 0.13614360988140106, -0.14039655029773712, 0.05773032829165459, 0.019587762653827667, -0.20587699115276337, 0.4103405773639679, 0.10260976850986481, 0.445070743560791, 0.168487086892128, -0.05616803094744682, 0.18613506853580475, 0.11115032434463501, 0.28487297892570496, -0.08569512516260147, 0.021206943318247795, -0.3110085725784302, 0.2082706093788147, 0.39834412932395935, 0.4222344160079956, -0.024433884769678116, 0.08255774527788162, 0.0509757474064827, 0.3273327350616455, 0.14531438052654266, 0.1660551130771637, 0.08550193160772324, -0.13752277195453644, -0.06266048550605774, -0.14938488602638245, 0.07045257836580276, 0.21385663747787476, -0.15073968470096588, 0.289869487285614, 0.2795748710632324, 0.1906118094921112, 0.12333652377128601, 0.0961422249674797, 0.44233083724975586, 0.14070023596286774, 0.2719076871871948, -0.3629799783229828, 0.17773525416851044, -0.08005058020353317, 0.12091390788555145, 0.22629207372665405, 0.05241356045007706, -0.1455499678850174, 0.3193191885948181, 0.06741262972354889, 0.04698587954044342, 0.3530896008014679, 0.1807941347360611, 0.12339891493320465, -0.05074930563569069, 0.0394732803106308, -0.14208130538463593, 0.3742721378803253, 0.15719471871852875, 0.04992822930216789, 0.013974811881780624, 0.007752630859613419], [-0.535940408706665, 0.2431798279285431, -0.994147777557373, 0.3484657108783722, 0.34631896018981934, -0.018162012100219727, 0.22477424144744873, -0.0749443769454956, -0.9455630779266357, 0.25772330164909363, 0.33732444047927856, -1.1109846830368042, -0.516477644443512, -0.2088455706834793, 0.0249942559748888, 0.09388996660709381, -1.1469686031341553, -0.22149236500263214, -0.2820052206516266, -0.8665338754653931, 0.2761346995830536, 0.21205690503120422, -0.8514330983161926, -0.677237331867218, -0.27203962206840515, 0.17764407396316528, 0.07768498361110687, -0.2813968360424042, -0.2583844065666199, -0.4336830675601959, -0.1362350732088089, 0.0013410539831966162, 0.07720774412155151, -1.507119059562683, 0.20976229012012482, -0.839573860168457, -1.4018001556396484, -0.23142442107200623, -0.3151688277721405, 0.36865055561065674, -0.8787536025047302, 0.20208753645420074, 0.16702236235141754, 0.29164013266563416, 0.15458329021930695, -0.5311524271965027, -0.30761662125587463, -1.3608288764953613, 0.25049716234207153, -0.160191148519516, -1.379357099533081, 0.21241408586502075, -0.14533482491970062, 0.3219524919986725, -1.2025494575500488, 0.34003332257270813, -0.06298111379146576, -0.5569959878921509, -0.3806185722351074, -0.007565234787762165, 0.30780407786369324, 0.1474592387676239, 0.058131467550992966, 0.31830817461013794, 0.02113891765475273, -1.1360644102096558, 0.334865927696228, 0.15679141879081726, -0.9035120606422424, 0.2329331487417221, -0.8668588995933533, -1.1786487102508545, 0.11819557100534439, -0.5626592636108398, 0.09146219491958618, -0.7961180806159973, -0.945837140083313, -0.36648935079574585, 0.19636964797973633, 0.23962639272212982, -0.9147049784660339, -0.2795693278312683, -1.5143189430236816, -0.3151375651359558, -0.3016132414340973, -0.05452772229909897, -0.013576416298747063, 0.3477838337421417, 0.21608364582061768, 0.2019432634115219, 0.061332765966653824, 0.2958473265171051, -0.02763470634818077, -1.2118757963180542, -0.000902957865037024, -0.8808453679084778, 0.3434984087944031, 0.26078468561172485, 0.03424382582306862, 0.15410439670085907, 0.35747167468070984, -0.45599523186683655, 0.2422320544719696, 0.00771725457161665, 0.15244154632091522, -0.24054855108261108, -0.1431031972169876, -1.538736343383789, 0.0616937018930912, -0.8173300623893738, 0.10229592025279999, -0.5212775468826294, -0.5435775518417358, -1.3626600503921509, 0.054746903479099274, -0.545814573764801, -0.2751442492008209, -0.23457013070583344, -0.16291825473308563, 0.06301162391901016, -0.22677862644195557, -0.427518755197525, -0.9227244853973389, 0.11188080906867981, -0.27027884125709534, -0.6532268524169922, -0.9433757066726685, -0.7804052233695984], [0.21089902520179749, -0.10927537828683853, 0.07726694643497467, 0.033989567309617996, 0.05826665088534355, -0.07690365612506866, 0.11721629649400711, -0.06888066977262497, -0.08460646867752075, -0.030609535053372383, 0.12894678115844727, -0.1122322753071785, 0.23537695407867432, -0.11711010336875916, 0.1887962818145752, -0.19033829867839813, -0.2488488256931305, 0.30694445967674255, 0.25272974371910095, 0.13459190726280212, 0.10766075551509857, -0.14804522693157196, -0.15848249197006226, 0.0971137210726738, 0.1933356523513794, 0.17539682984352112, -0.18239231407642365, 0.31030797958374023, 0.18990586698055267, 0.12035446614027023, -0.10898306220769882, 0.19899427890777588, -0.0615263469517231, -0.23867665231227875, 0.09366335719823837, 0.027470475062727928, -0.30801236629486084, -0.26475581526756287, -0.18068228662014008, 0.1267791986465454, -0.1979326605796814, 0.06336305290460587, -0.1502188742160797, -0.1694592982530594, 0.1217874065041542, -0.2286491096019745, -0.12258446961641312, -0.15427038073539734, 0.10816094279289246, 0.1768295019865036, -0.16647681593894958, 0.2528991401195526, 0.20905636250972748, -0.1978471279144287, -0.1375967115163803, -0.032647017389535904, -0.16750626266002655, -0.08914683759212494, 0.12649916112422943, -0.25235214829444885, -0.11269441246986389, 0.2961288094520569, 0.24426235258579254, 0.2235819697380066, 0.21310527622699738, -0.12552990019321442, 0.0545879565179348, 0.10514325648546219, -0.1117205023765564, 0.12307405471801758, -0.02173948474228382, -0.12507426738739014, 0.24090434610843658, 0.2483343929052353, 0.22804763913154602, -0.01727675274014473, 0.11988036334514618, 0.20057880878448486, -0.021437130868434906, 0.0865471139550209, -0.2191501408815384, -0.07652714103460312, -0.26682597398757935, 0.32536354660987854, 0.29186227917671204, 0.29979145526885986, -0.309841126203537, -0.007904469035565853, -0.0806896761059761, 0.18353219330310822, -0.2281542271375656, 0.1398988515138626, 0.21151915192604065, -0.06503152847290039, -0.23621444404125214, -0.15309497714042664, 0.08888180553913116, 0.09248170256614685, -0.1710536628961563, 0.13872931897640228, 0.12735998630523682, 0.18302763998508453, -0.0032741022296249866, -0.11064518988132477, 0.26600220799446106, 0.20024754106998444, 0.28083938360214233, -0.29975277185440063, 0.17899984121322632, -0.35934504866600037, -0.029563620686531067, 0.11836956441402435, -0.06187141314148903, -0.2906901240348816, 0.2953963279724121, 0.09120418131351471, 0.1309397965669632, 0.18226715922355652, 0.09803266078233719, -0.21884816884994507, -0.2939559519290924, 0.21703267097473145, -0.02295500971376896, 0.18491913378238678, 0.1802465170621872, -0.17602135241031647, -0.10378627479076385, 0.06676283478736877], [-0.05200846865773201, -0.1336492896080017, 0.03753411024808884, -0.1669493317604065, -0.05084620788693428, -0.09455741196870804, -0.18177872896194458, -0.11517422646284103, 0.008286245167255402, -0.09955444186925888, -0.07452662289142609, -0.04589109495282173, -0.10907544195652008, -0.11452595144510269, -0.07163909077644348, -0.15884841978549957, 0.007951737381517887, -0.0836058259010315, 0.004861166700720787, -0.015597930178046227, -0.14278952777385712, -0.0730946809053421, -0.025428900495171547, -0.05635826662182808, -0.0205587949603796, -0.07146939635276794, -0.11249200254678726, -0.033765241503715515, -0.11308755725622177, 0.024049485102295876, 0.032075196504592896, -0.10278131812810898, -0.13865059614181519, 0.04024443030357361, -0.07588066905736923, -0.07298118621110916, 0.07413306832313538, -0.11700940132141113, -0.03481452912092209, -0.14891450107097626, -0.1572815477848053, -0.00850633718073368, -0.05458943545818329, -0.12105339765548706, -0.06815780699253082, -0.04522426053881645, 0.06110602244734764, -0.013713542371988297, -0.09301244467496872, -0.009950426407158375, -0.08611881732940674, -0.01493124384433031, -0.14602790772914886, -0.06378307193517685, -0.059660185128450394, -0.13519947230815887, -0.0710974782705307, -0.07459665834903717, -0.067562997341156, -0.04713577777147293, -0.08734611421823502, 0.018052732571959496, -0.11710996180772781, -0.04711245000362396, -0.13660673797130585, -0.007824083790183067, -0.171547532081604, -0.1513114869594574, -0.08889120072126389, -0.17337997257709503, -0.06267457455396652, -0.0831138864159584, -0.09347886592149734, -0.07486371695995331, -0.13817135989665985, 0.034086551517248154, -0.015959681943058968, -0.03423468768596649, -0.059064678847789764, -0.13751408457756042, -0.14941105246543884, -0.0027510400395840406, -0.010302664712071419, -0.09070754051208496, -0.06574316322803497, -0.025734994560480118, -0.03770013526082039, 