[{"weight": [[0.7770050764083862, -0.6411502957344055], [-0.9898416996002197, 1.217972993850708], [-0.9191955327987671, 0.9951825141906738], [1.3286806344985962, 1.0322332382202148], [0.4722999334335327, -0.5329656004905701], [-1.0209760665893555, -0.7746131420135498], [-0.8345163464546204, -0.9497970342636108], [1.4096400737762451, 1.255334496498108], [-0.3721778094768524, -1.248821496963501], [-1.0163379907608032, 1.2769756317138672], [0.17739440500736237, -0.3233526051044464], [-0.9954604506492615, 1.157131314277649], [-0.8147585391998291, -1.5473542213439941], [-0.8499974608421326, 0.9559409022331238], [0.49209219217300415, -0.3381651043891907], [-0.7642750144004822, 0.8389914631843567], [0.5163993239402771, -0.8674837946891785], [0.35970234870910645, -0.7044624090194702], [-0.010989956557750702, 0.17186720669269562], [0.8684117794036865, 0.4269527494907379], [0.29807233810424805, 0.28919363021850586], [0.5677810907363892, -0.2628534138202667], [0.3140248656272888, -0.6506957411766052], [0.7498089671134949, -0.7433220744132996], [-1.0166964530944824, 1.0657691955566406], [0.8644992113113403, -0.6623599529266357], [-1.459236741065979, 1.5474543571472168], [0.550236701965332, -0.1811302900314331], [-0.08170809596776962, 0.023212721571326256], [0.5294155478477478, 1.3478857278823853], [-0.6478151679039001, 0.6872406601905823], [1.2399646043777466, 1.472572922706604], [0.47746652364730835, -0.802106499671936], [1.4259921312332153, 0.5641531348228455], [0.7455217838287354, -0.9943090677261353], [1.6186038255691528, -0.4633277654647827], [0.9180433750152588, -0.6842818260192871], [-0.7378064393997192, 0.9372912645339966], [0.2005194127559662, 1.0973013639450073], [0.7256420850753784, -0.4330765902996063], [-0.3039572834968567, 0.5314311981201172], [-0.44662562012672424, 1.0466631650924683], [-0.8160539865493774, 0.8998884558677673], [0.9072890877723694, -0.5434783101081848], [-0.4376552700996399, 0.43688446283340454], [0.13851837813854218, 0.006821875926107168], [1.1355639696121216, 0.41180235147476196], [-1.124013066291809, -0.07851407676935196], [1.3504711389541626, 0.9569627046585083], [-0.39604875445365906, -1.5360527038574219], [1.147513747215271, 1.341002106666565], [0.2680455148220062, -0.1909981071949005], [-0.4795334041118622, 0.5242058634757996], [-1.1838383674621582, 1.301486849784851], [1.273763656616211, 1.1533769369125366], [-0.5825504660606384, 0.4801795184612274], [-0.405307799577713, 0.5120430588722229], [1.204596757888794, 0.9031113982200623], [0.3005528450012207, -0.3296259641647339], [-0.4439064860343933, 0.7439996004104614], [1.2819396257400513, -0.33055952191352844], [1.3062636852264404, 1.020409345626831], [-0.6551764011383057, -0.3070881962776184], [-0.6556854248046875, 0.862601101398468], [0.5867457985877991, -0.7390688061714172], [0.4001308083534241, 1.0656191110610962], [0.89467453956604, 0.3270500600337982], [1.0743753910064697, 0.8184529542922974], [-0.34791994094848633, 0.2721782922744751], [1.0499858856201172, 0.34276244044303894], [0.6023154258728027, -0.5213431715965271], [0.2365632951259613, -0.24940288066864014], [0.7185350656509399, 1.3051594495773315], [-0.4228039085865021, -0.6075725555419922], [-0.26500147581100464, -0.33223840594291687], [-0.700676679611206, -0.978460967540741], [0.7810949683189392, 0.3159051537513733], [-0.12106983363628387, 0.03486195579171181], [0.17425437271595, -0.264514684677124], [0.7937136292457581, -0.7058824896812439], [0.2905685603618622, -0.25498536229133606], [1.2856316566467285, 0.41071709990501404], [-0.8051929473876953, -1.004881501197815], [1.7386186122894287, 0.7676255106925964], [-0.9740298986434937, 1.0274410247802734], [-0.11981143802404404, 1.080911636352539], [-1.414720058441162, 1.5447200536727905], [0.926213800907135, 0.08790924400091171], [-1.0092278718948364, -0.9108349084854126], [0.708894670009613, -0.8024856448173523], [1.2860478162765503, 0.39651891589164734], [-0.7232853770256042, -1.1090319156646729], [-0.2997579872608185, -1.401533842086792], [-0.7509739398956299, 0.8455044031143188], [1.366588830947876, 0.08785787224769592], [0.4344292879104614, 0.09221647679805756], [-0.8204944729804993, 1.1709182262420654], [-0.9868185520172119, -0.8224849700927734], [-0.6586552262306213, 0.6678904891014099], [-1.1584242582321167, 0.22863256931304932], [0.017884371802210808, -1.536490797996521], [0.6151130795478821, -0.9556058645248413], [0.7366223335266113, -0.9511433243751526], [1.3644551038742065, 0.10975866764783859], [-0.650184154510498, 0.8398212790489197], [0.7522165179252625, -1.0359019041061401], [-0.8310250043869019, -1.1445116996765137], [1.2914905548095703, -0.08559201657772064], [-0.8714539408683777, 0.9154855608940125], [-0.9190638661384583, -0.35448822379112244], [-0.8914493918418884, -0.9737419486045837], [1.1338762044906616, -0.5358483791351318], [-0.6014439463615417, -1.1947470903396606], [1.285282015800476, 1.1345560550689697], [1.4783909320831299, 0.393828809261322], [-1.1159405708312988, 1.3835450410842896], [1.3741836547851562, 0.6412420272827148], [-0.5823739171028137, 0.7833873629570007], [0.12453632056713104, 0.8842138648033142], [0.28607866168022156, -1.399146556854248], [-0.4555191397666931, -1.3619894981384277], [0.18379506468772888, -0.21168051660060883], [0.15100888907909393, -0.16120190918445587], [-0.7074722051620483, 0.38154247403144836], [-1.3902528285980225, 1.533192753791809], [0.8454806208610535, -0.33951929211616516], [1.2894936800003052, -0.5664124488830566], [-0.23922055959701538, 0.3580453097820282]], "bias": [0.880632221698761, 0.9097705483436584, 0.27741923928260803, 0.43769571185112, 0.6764733791351318, -0.668554961681366, -0.7317785024642944, 0.8627128601074219, -0.2358243316411972, 0.07501043379306793, 0.16386359930038452, 0.5237218141555786, 0.688262403011322, 1.2157366275787354, 0.781134843826294, 0.24843080341815948, 0.8210076689720154, 0.5038923621177673, 0.1569495052099228, -0.2986316978931427, 1.1812684535980225, 1.235922932624817, 1.4293030500411987, 1.6011420488357544, 0.3917157053947449, 0.7904161214828491, 0.7280861735343933, 0.042543184012174606, 0.8168498873710632, -0.8433901071548462, 0.612186849117279, -0.8462332487106323, 0.7939743995666504, -0.39955243468284607, 1.2873622179031372, 0.8626037240028381, 0.7206769585609436, 1.0359703302383423, 0.3952493965625763, 0.14934781193733215, 0.053821861743927, -0.286827951669693, 0.5020755529403687, 0.4210297167301178, 0.7847169041633606, 0.2261776179075241, 0.3443518877029419, -0.5454068183898926, -0.5653392672538757, -0.1040772870182991, -0.8016424775123596, 0.23546582460403442, 0.7824950218200684, 0.3382703363895416, 0.027148962020874023, 0.6860119104385376, 1.0274896621704102, -0.6004139184951782, 1.0696858167648315, 0.6647787094116211, 0.1812538355588913, -0.7586299777030945, -0.003153884084895253, 0.03288760036230087, 1.3695203065872192, 0.6800040602684021, 0.19463486969470978, -0.8099974989891052, 0.03476028889417648, -0.28798893094062805, 1.2594761848449707, -0.07512584328651428, -0.9522254467010498, 0.030702931806445122, -0.38810569047927856, 0.21370232105255127, 0.46721151471138, 0.7811872363090515, 0.865469217300415, 0.709603488445282, 0.2622019648551941, 0.08524522930383682, -0.4078757166862488, 0.5288220643997192, 0.41842377185821533, 0.5039530396461487, 0.3625078499317169, 0.4108179807662964, -0.875975489616394, 1.4809281826019287, 0.7480083107948303, -0.14065349102020264, -0.16822031140327454, 0.5679925084114075, 0.46852684020996094, 0.9394383430480957, 0.2890264093875885, -0.8839937448501587, 0.3271309435367584, -0.14715872704982758, 0.8578993082046509, 0.6419399976730347, 1.4111218452453613, -0.5835402607917786, 0.3401697278022766, 1.2379534244537354, 0.44455212354660034, -0.12601469457149506, 0.7482238411903381, 0.216079980134964, -0.5186830163002014, 0.9037526249885559, 0.4838930368423462, -0.3060932755470276, -0.014511813409626484, 0.11005990952253342, 0.1511387974023819, -0.19958434998989105, 0.3575294017791748, 0.25788795948028564, -0.3968265652656555, 0.6318953037261963, 0.04743568226695061, 0.9559845328330994, 0.2622095048427582, 0.14754091203212738, 0.4114411473274231, 0.6137570142745972]}, {"weight": [[0.05726216360926628, -0.08037349581718445, -0.06866053491830826, -0.14410261809825897, -0.10018593072891235, -0.17955029010772705, -0.009874810464680195, -0.08514288812875748, -0.13563179969787598, -0.10703969746828079, 0.052885498851537704, -0.011857307516038418, -0.1681569367647171, -0.020288195461034775, -0.03397056460380554, -0.033754877746105194, -0.005850655026733875, -0.020876161754131317, 0.02701990306377411, -0.0811898410320282, -0.0508706197142601, -0.07862358540296555, -0.10355748981237411, 0.039340607821941376, -0.06121470406651497, -0.008874605409801006, 0.05992923676967621, -0.03277067840099335, -0.05697720870375633, -0.16229894757270813, -0.06391875445842743, -0.1520882248878479, -0.12099131941795349, -0.12639795243740082, -0.12149278819561005, -0.029284857213497162, 0.01824237033724785, -0.09612453728914261, 0.008693436160683632, 0.020955491811037064, -0.012654992751777172, 0.042714398354291916, 0.0029579182155430317, 0.047664444893598557, 0.04113936424255371, -0.09938761591911316, -0.04492625594139099, -0.03928777575492859, -0.046956866979599, -0.16494321823120117, -0.12132998555898666, -0.07956288754940033, -0.0993577316403389, 0.06306980550289154, -0.019061492756009102, 0.016852514818310738, -0.10295627266168594, -0.03320237621665001, -0.07810550183057785, 0.0010505731916055083, -0.12184590846300125, -0.03985198214650154, -0.014014051295816898, 0.012315717525780201, -0.10088738054037094, -0.08223994821310043, -0.060434795916080475, -0.20178185403347015, -0.032971788197755814, -0.02255118265748024, 0.040130820125341415, -0.04451125115156174, -0.09621721506118774, 0.0014243212062865496, 0.036887623369693756, -0.044061850756406784, -0.1056193932890892, -0.0506783053278923, 0.02770114690065384, 0.059179723262786865, 0.037426698952913284, -0.04844376817345619, -0.07645052671432495, -0.08176420629024506, 0.07253222167491913, -0.02453933283686638, 0.005164438392966986, -0.06480523198843002, -0.06742251664400101, -0.019142329692840576, -0.024155929684638977, -0.07480108737945557, -0.09890810400247574, -0.08461838215589523, -0.0937078595161438, -0.0677688717842102, 0.006664649583399296, -0.10906390845775604, -0.04489002749323845, 0.006880605593323708, -0.13271796703338623, -0.08731401711702347, -0.09502706676721573, -0.13085880875587463, 0.04325196519494057, -0.08756232261657715, -0.10658163577318192, -0.03363024443387985, -0.001859126379713416, -0.01451607421040535, -0.046876780688762665, -0.0242763701826334, -0.04988876357674599, -0.014709274284541607, -0.0699150487780571, -0.08067115396261215, -0.1526462435722351, 0.002216659253463149, 0.03837982565164566, -0.16899767518043518, -0.1264651119709015, 0.05456695705652237, -0.04039159417152405, -0.025220654904842377, -0.03179769963026047, 0.057148683816194534, -0.07215771824121475, 0.02793572098016739], [-0.010183708742260933, 0.03764692693948746, -0.05729237198829651, -0.1232590302824974, 0.05474606901407242, -0.04571687430143356, -0.07951654493808746, -0.05926109850406647, -0.09215302765369415, -0.09219580888748169, 0.02941630594432354, -0.01469501480460167, -0.14414632320404053, -0.06781645864248276, 0.04402695223689079, 0.05071090906858444, -0.08335024863481522, -0.10716463625431061, 0.07709523290395737, -0.014401890337467194, 0.0439208447933197, -0.04879537224769592, 0.03510284051299095, 0.026652825996279716, -0.017895972356200218, 0.027930723503232002, -0.05114498361945152, 0.05405401811003685, -0.05392485111951828, -0.025983477011322975, 0.09999492019414902, -0.015992671251296997, 0.0190872959792614, -0.045926474034786224, 0.06520289182662964, -0.04404810070991516, -0.020053837448358536, -0.04240792989730835, 0.07023946940898895, -0.05502021685242653, 0.075676828622818, 0.04448604956269264, 0.002288796938955784, -0.08147032558917999, -0.07053901255130768, 0.05375300720334053, -0.025520456954836845, -0.09573977440595627, -0.11389709264039993, -0.08194628357887268, -0.1619226187467575, 0.0449368879199028, 0.013140814378857613, 0.042125154286623, -0.00854849349707365, -0.023094050586223602, 0.05342912673950195, -0.04241281375288963, 0.02398361824452877, -0.05767614394426346, -0.05176558345556259, -0.18268024921417236, 0.032938431948423386, -0.019039088860154152, 0.024583037942647934, 0.07732830196619034, -0.09375053644180298, -0.06092758849263191, 0.08769507706165314, -0.08567558974027634, -0.08033037185668945, 0.03726832568645477, -0.08126310259103775, -0.0652455985546112, -0.04723653942346573, -0.07714661210775375, 0.05525173991918564, -0.05397690087556839, 0.08142741024494171, 0.03504175320267677, -0.030630623921751976, -0.14005586504936218, -0.0500778928399086, -0.04210310056805611, -0.03450728952884674, 0.046768952161073685, -0.10846327245235443, -0.0557493232190609, -0.16197209060192108, 0.05074375867843628, -0.08354629576206207, -0.1191718801856041, -0.13925248384475708, -0.04100138694047928, -0.0171944722533226, 0.09957754611968994, -0.0425163209438324, -0.1190003752708435, 0.09087424725294113, -0.003683143761008978, -0.11147277057170868, -0.10837484151124954, -0.014895740896463394, -0.08402746170759201, -0.01114147249609232, -0.10767484456300735, -0.023958854377269745, -0.049599774181842804, 0.07463163882493973, -0.15480294823646545, -0.09732042253017426, 0.062376949936151505, -0.07602440565824509, -0.15202002227306366, -0.014682509005069733, -0.09170826524496078, -0.03004314750432968, 0.0667649507522583, 0.08504807204008102, -0.15630507469177246, -0.11966592818498611, -0.05623919144272804, 0.07991144061088562, 0.07442983239889145, -0.017046261578798294, 0.0026504683773964643, 0.061117853969335556, 0.000981049844995141], [0.10448765009641647, -0.06821919232606888, -0.05434682220220566, 0.03439900651574135, -0.008721963502466679, -0.13072213530540466, -0.07556333392858505, 0.07041002064943314, -0.08741605281829834, -0.08383025228977203, -0.07273388653993607, 0.05009246617555618, 0.0026469812728464603, 0.05948830023407936, 0.02936065010726452, -0.016402214765548706, 0.029302453622221947, -0.05196458473801613, 0.0013766724150627851, -0.03971138224005699, 0.06748609244823456, -0.05774782970547676, -0.054335590451955795, -0.037545956671237946, -0.008446534164249897, -0.02117128297686577, -0.050238221883773804, 0.0007894523441791534, 0.07523799687623978, -0.08863440901041031, -0.03984392061829567, -0.03842943534255028, -0.02618691883981228, -0.0066954949870705605, -0.0064369444735348225, 0.01241136435419321, 0.037069570273160934, -0.03211458772420883, 0.07085750997066498, 0.10636177659034729, -0.08449134230613708, 0.05886591598391533, 0.0063059283420443535, 0.014043175615370274, -0.04843031242489815, 0.011109692975878716, -0.027197489514946938, -0.009589727967977524, -0.02013584040105343, -0.0769137516617775, -0.09234324097633362, -0.006387393921613693, -0.040441084653139114, -0.10277655720710754, -0.057849060744047165, -0.0211653895676136, 0.0678568184375763, -0.07311297953128815, -0.02864745818078518, 0.02512391470372677, -0.03149132803082466, 0.01588171347975731, -0.0164731964468956, 0.0687330886721611, -0.0021791511680930853, 0.08584894984960556, 0.08109437674283981, -0.008316060528159142, 0.07369966059923172, -0.10379134118556976, -0.027132058516144753, -0.05143123120069504, -0.13505734503269196, -0.00927810836583376, 0.003433495294302702, -0.02663464844226837, -0.0828259289264679, -0.08065877109766006, 0.08183855563402176, -0.026787493377923965, 0.09088121354579926, -0.028365638107061386, -0.0733245462179184, 0.0364806242287159, -0.09721037745475769, 0.06819956749677658, -0.06639362871646881, -0.014056084677577019, -0.11356757581233978, 0.05743839219212532, 0.02060103416442871, -0.054260313510894775, -0.028969934210181236, -0.07322069257497787, -0.05717410519719124, -0.05111343041062355, 0.06832234561443329, -0.04848923534154892, -0.09794481843709946, -0.10978177934885025, 0.005130980629473925, -0.04017888009548187, -0.006070508621633053, -0.04829858988523483, -0.053108781576156616, -0.07153047621250153, 0.003062222618609667, -0.08557353913784027, -0.09356404840946198, -0.079086072742939, -0.0301949642598629, 0.0529012605547905, -0.0466124527156353, 0.050347596406936646, -0.03415858373045921, 0.0533016100525856, -0.06477078050374985, 0.008130758069455624, -0.059098150581121445, -0.027919702231884003, -0.11908559501171112, 0.08612853288650513, 0.02609355002641678, -0.00830847304314375, 0.0381147600710392, 0.04073704406619072, -0.03248731419444084, 0.07557766884565353], [-0.03339141607284546, -0.10657818615436554, -0.09171461313962936, -0.0008700529579073191, 0.045791059732437134, -0.13292820751667023, -0.0402270145714283, -0.012194905430078506, -0.02940503880381584, -0.15598580241203308, -0.0035683775786310434, -0.07085759192705154, -0.0042082020081579685, -0.09023480862379074, 0.1121365875005722, -0.001109435223042965, 0.04792892187833786, 0.012896265834569931, 0.019481100142002106, -0.07981206476688385, -0.028475241735577583, 0.051863957196474075, -0.03473816439509392, -0.013621712103486061, -0.057089779525995255, 0.10792390257120132, -0.15859319269657135, 0.014825653284788132, -0.034696634858846664, 0.02205604873597622, -0.11755936592817307, -0.03480817377567291, 0.08292216062545776, -0.06796480715274811, -0.038926973938941956, -0.01454995758831501, 0.08921021223068237, -0.04437299445271492, 0.0861097127199173, 0.008767528459429741, -0.09790799766778946, 0.01283013541251421, -0.040247995406389236, -0.009690903127193451, -0.017843887209892273, 0.0629153922200203, 0.055546559393405914, -0.10542507469654083, -0.022035928443074226, 0.0214817076921463, -0.006491478998214006, 0.0297408327460289, 0.0463385134935379, -0.17343564331531525, -0.028777820989489555, -0.06624593585729599, 0.03711685538291931, -0.09994661808013916, 0.011125166900455952, -0.0928473174571991, -0.09393573552370071, -0.07531625777482986, -0.07697135955095291, -0.023953163996338844, 0.005896865855902433, 0.05756588652729988, 0.05195152759552002, -0.13080692291259766, -0.008843931369483471, -0.05879274010658264, 0.0052170720882713795, 0.006933107040822506, -0.00620830524712801, -0.08684138208627701, -0.1214023157954216, -0.10590510070323944, -0.03861995041370392, -0.03348154574632645, -0.08808274567127228, -0.0641428679227829, -0.020618861541152, -0.11268660426139832, -0.044652242213487625, -0.06536780297756195, -0.12874269485473633, 0.06879578530788422, -0.22979386150836945, 0.06835667788982391, -0.0434986837208271, -0.06474572420120239, -0.07468849420547485, -0.09607281535863876, -0.05307288467884064, -0.12421799451112747, -0.016785286366939545, -0.0575435571372509, -0.14782366156578064, -0.08258403092622757, 0.025724340230226517, -0.06328081339597702, -0.00444021075963974, -0.050771281123161316, 0.08685823529958725, -0.14475472271442413, -0.06710057705640793, -0.0004546839918475598, -0.03065446950495243, -0.13030944764614105, -0.007021659053862095, -0.10086852312088013, -0.07302916049957275, 0.08008909225463867, -0.12624655663967133, 0.01866179145872593, -0.02839752845466137, -0.17552736401557922, 0.034371305257081985, -0.05603721737861633, 0.008153189904987812, 0.017230767756700516, 0.019799642264842987, -0.057150211185216904, -0.06425263732671738, -0.09716136008501053, -0.08508294075727463, -0.0518619678914547, 0.014498217962682247, 0.055239588022232056], [-0.0220615416765213, -0.0939168855547905, -0.005084511823952198, -0.040475714951753616, -0.01352843176573515, -0.0888918861746788, -0.032873332500457764, -0.12312627583742142, -0.1310795545578003, -0.06377781927585602, -0.1404426395893097, -0.03494345396757126, -0.09470828622579575, -0.011442308314144611, -0.10286301374435425, -0.011489727534353733, -0.10619208216667175, -0.036745864897966385, -0.08502104878425598, -0.11138536036014557, -0.018901405856013298, -0.13219508528709412, 0.015903763473033905, -0.025623701512813568, 0.011118263937532902, 0.019518617540597916, -0.055829014629125595, -0.02988654002547264, -0.05357753485441208, 0.027765817940235138, 0.0009213428711518645, -0.0019877625163644552, -0.11514513194561005, -0.02970157004892826, 0.014101115055382252, -0.12047499418258667, -0.007001750636845827, -0.013212388381361961, -0.12194377928972244, -0.0834321677684784, -0.15026120841503143, 0.016719410195946693, -0.03551538661122322, 0.012159205041825771, -0.10217995941638947, 0.009826812893152237, -0.0530846081674099, -0.040563568472862244, -0.010281344875693321, 0.0347745418548584, -0.05241446942090988, -0.008659813553094864, 0.01512883324176073, 0.007395561318844557, -0.056540362536907196, -0.039665088057518005, -0.06347378343343735, 0.002018954139202833, -0.10868868231773376, -0.08135250210762024, -0.10226790606975555, -0.07298731058835983, -0.042661089450120926, -4.49012077297084e-05, 0.012723591178655624, -0.11813022196292877, -0.060281891375780106, -0.07701417803764343, -0.08172013610601425, -0.012110325507819653, -0.04041607677936554, -0.0038112192414700985, -0.07080860435962677, -0.13111698627471924, -0.04146086424589157, -0.04970385506749153, 0.008257297798991203, -0.11730068922042847, -0.05796075612306595, -0.07557278871536255, -0.10652710497379303, -0.11541609466075897, -0.135537251830101, -0.08466441929340363, 0.02166050486266613, -0.03822624683380127, -0.15025362372398376, -0.026916535571217537, 0.0062801893800497055, -0.06563892960548401, 0.021677033975720406, -0.11957313120365143, 0.013493318110704422, 0.01934622973203659, 0.02942657843232155, 0.023251324892044067, -0.1401708722114563, -0.06716512143611908, -0.10345983505249023, -0.13751423358917236, -0.11993437260389328, -0.04486307501792908, -0.0009011680376715958, 0.0394345223903656, -0.1410512924194336, -0.07786551117897034, -0.07760337740182877, -0.024864541366696358, -0.1361142098903656, -0.006109254434704781, -0.07589785009622574, -0.02867419831454754, -0.1290767788887024, -0.027711007744073868, -0.11942646652460098, -0.07634790241718292, -0.11325360834598541, -0.11090600490570068, -0.09345204383134842, -0.041625358164310455, 0.008350997231900692, -0.07290082424879074, -0.12946894764900208, -0.03671782836318016, -0.04389835521578789, -0.09032119810581207, -0.029862605035305023, 0.0008382989326491952], [-0.29140704870224, 0.5139826536178589, 0.5657954812049866, 0.015511754900217056, -0.30462729930877686, -0.21643699705600739, -0.18234531581401825, 0.021613307297229767, -0.2182157188653946, 0.5407688617706299, -0.08154141902923584, 0.6009460687637329, -0.15965887904167175, 0.34148386120796204, -0.06731663644313812, 0.41312485933303833, -0.44057416915893555, -0.4053865075111389, 0.12930135428905487, -0.11122267693281174, 0.0463295504450798, -0.0719594955444336, -0.2537790536880493, -0.25571727752685547, 0.5666210651397705, -0.40915074944496155, 0.6488083600997925, -0.20828032493591309, 0.06371358782052994, 0.11595029383897781, 0.39691463112831116, -0.016522472724318504, -0.29595309495925903, 0.014600163325667381, -0.39944207668304443, -0.26433444023132324, -0.31786540150642395, 0.40469756722450256, 0.16819614171981812, -0.26912811398506165, 0.24395433068275452, 0.3786487877368927, 0.37116190791130066, -0.2977049648761749, 0.29926568269729614, 0.014034844003617764, -0.11403001844882965, -0.0028321293648332357, -0.06642947345972061, -0.24263763427734375, -0.0072102309204638, -0.05802633985877037, 0.3363719582557678, 0.5978160500526428, 0.07704579085111618, 0.24546638131141663, 0.2514564096927643, -0.01234976202249527, -0.1287575364112854, 0.3844374418258667, -0.20024248957633972, -0.04678981378674507, -0.06836241483688354, 0.45768362283706665, -0.38025495409965515, 0.07891417294740677, -0.09974629431962967, 0.0007065713871270418, 0.10994073748588562, 0.002767824102193117, -0.24552303552627563, -0.040513843297958374, 0.08220790326595306, -0.2018466293811798, -0.03200353682041168, -0.14970126748085022, 0.06382047384977341, 0.07301945239305496, -0.07377205044031143, -0.4101965129375458, -0.1297525316476822, -0.08166763931512833, -0.20424681901931763, 0.04891842231154442, 0.40320518612861633, 0.162808358669281, 0.6797868013381958, -0.0787099078297615, -0.22874997556209564, -0.37735068798065186, -0.05990029126405716, -0.2036277800798416, -0.23794154822826385, 0.46124300360679626, -0.020063333213329315, 0.05516478046774864, 0.4525405466556549, -0.16820573806762695, 0.33890753984451294, -0.052934419363737106, -0.32320570945739746, -0.4982983469963074, -0.3562413454055786, -0.23382055759429932, 0.35437873005867004, -0.4448660910129547, -0.23522958159446716, -0.2347138524055481, 0.335267037153244, -0.17063850164413452, -0.12810799479484558, -0.3215714991092682, -0.24955956637859344, 0.052331097424030304, -0.16552487015724182, 0.5685831904411316, 0.0018064479809254408, 0.36576607823371887, 0.13076749444007874, -0.3717244565486908, -0.2618406414985657, -0.13199104368686676, -0.1214851513504982, 0.11346931010484695, 0.6528580784797668, -0.22658590972423553, -0.3554971516132355, 0.24358932673931122], [-0.7534712553024292, -0.05638311430811882, 0.004514269530773163, 0.1303049474954605, -1.0223538875579834, -0.7646593451499939, -0.6780703663825989, 0.17552514374256134, -1.0639387369155884, 0.20415686070919037, -1.049487829208374, 0.01658417470753193, -0.6301952600479126, -0.21779152750968933, -0.3892234265804291, -0.1348695307970047, -1.4988272190093994, -1.3581796884536743, -0.18423700332641602, 0.2677035331726074, -0.02510880120098591, -0.30215710401535034, -1.3369916677474976, -0.8658982515335083, -0.06362799555063248, -0.8014546632766724, 0.09962581098079681, -0.1493339240550995, -0.6662797927856445, 0.3487211763858795, -0.1977415680885315, 0.39566129446029663, -1.3446121215820312, 0.2777673602104187, -1.4402936697006226, -0.2822869122028351, -0.872062087059021, -0.15600638091564178, 0.13058818876743317, -0.4795994758605957, 0.007654190994799137, 0.425098180770874, -0.03947288170456886, -0.5371070504188538, -0.3730560541152954, -0.2713574171066284, 0.11806797236204147, -0.7277848124504089, 0.3170778751373291, -0.7223616242408752, 0.3549481928348541, -0.4243157207965851, -0.2467976212501526, 0.1958816796541214, 0.22948431968688965, -0.45953965187072754, -0.3845575153827667, 0.347164124250412, -0.6842068433761597, 0.0020906252320855856, -0.20995794236660004, 0.3227745294570923, -0.9691617488861084, 0.09924054145812988, -1.1982415914535522, 0.13862134516239166, 0.18317335844039917, 0.3408627212047577, -0.5207681059837341, 0.1650933027267456, -0.578016459941864, -0.6759913563728333, 0.4218135178089142, -1.403122067451477, -0.987743616104126, -0.8085650205612183, 0.15775994956493378, -0.6299588680267334, -0.7911717891693115, -0.9987818002700806, -0.5116227269172668, 0.18302412331104279, -0.7841956615447998, 0.22787633538246155, 0.023877045139670372, 0.1629076600074768, 0.153560072183609, 0.0417109951376915, -0.40887460112571716, -1.2055795192718506, 0.0573846697807312, -0.7805798649787903, -0.9803641438484192, -0.19540272653102875, 0.043284766376018524, -0.007685124408453703, 0.1997457891702652, -0.5659040212631226, -0.21812008321285248, -0.477579265832901, -1.4613113403320312, -1.4327665567398071, -1.370620846748352, 0.1972687840461731, -0.013493824750185013, -1.4889764785766602, -0.8195108771324158, -0.03436322510242462, -0.09056604653596878, -0.9004207253456116, -0.6619575619697571, -0.27408555150032043, -0.8869530558586121, 0.24117308855056763, 0.13324813544750214, 0.3643883764743805, 0.1262528896331787, -0.004453720990568399, 0.2576184570789337, -1.653338074684143, -0.9824350476264954, -0.7446384429931641, -0.6477654576301575, -0.4293282926082611, 0.20635168254375458, -0.22176654636859894, -0.4308890104293823, -0.29905202984809875], [-0.034574296325445175, -0.009421979077160358, 0.018627867102622986, -0.08069685846567154, 0.04500700160861015, 0.00198919465765357, -0.007131028454750776, 0.07481175661087036, -0.13539493083953857, -0.09529856592416763, 0.058558445423841476, -0.049841828644275665, -0.01807154342532158, -0.09772635996341705, -0.048829201608896255, -0.09973888099193573, 0.006549085024744272, -0.057887714356184006, 0.03348564729094505, -0.002673198701813817, 0.05461955443024635, 0.026588188484311104, 0.030513683333992958, 0.0027915313839912415, -0.06733222305774689, 0.006021900102496147, -0.044522251933813095, 0.04806045442819595, -0.04845304787158966, -0.04027620330452919, -0.03576155751943588, -0.09073532372713089, 0.052514854818582535, 0.002505889628082514, -0.09187022596597672, -0.00435169693082571, -0.05408520624041557, 0.06275995820760727, 0.02764740027487278, -0.0898546352982521, 0.044905710965394974, -0.0027536603156477213, 0.02569258026778698, -0.04383634030818939, -0.05190811678767204, 0.06639822572469711, -0.0481334812939167, -0.1359565109014511, -0.08923215419054031, 0.01580742374062538, 0.011639151722192764, 0.04164137318730354, -0.08870829641819, -0.07073485106229782, -0.026177002117037773, 0.043436355888843536, -0.012847531586885452, 0.02655087225139141, -0.009930485859513283, 0.024454230442643166, -0.03918255493044853, -0.09105272591114044, -0.04519461840391159, -0.01795355975627899, -0.009469780139625072, 0.10642565041780472, 0.0413980595767498, -0.10846591740846634, -0.0006967005901969969, -0.020614853128790855, -0.06727948039770126, -0.008616155944764614, 0.03521331399679184, -0.11392148584127426, -0.10332564264535904, -0.08610717952251434, -0.07228598743677139, -0.040766991674900055, -0.07281094789505005, 0.04134269058704376, -0.03882305324077606, 0.030607236549258232, 0.02749815210700035, -0.05631299689412117, -0.13285602629184723, -0.01894591562449932, -0.1377909779548645, -0.052757628262043, -0.14168861508369446, 0.05252455547451973, -0.021094918251037598, -0.04774574190378189, -0.06192253902554512, -0.008486890234053135, 0.03950459510087967, -0.0003378791152499616, -0.08872964978218079, -0.10365114361047745, -0.02081633172929287, 0.019869912415742874, -0.12872354686260223, -0.1122688353061676, -0.025982826948165894, -0.06057995930314064, 0.009466905146837234, -0.029582051560282707, -0.07297825813293457, 0.03676183894276619, -0.05875670909881592, -0.13361628353595734, -0.13166677951812744, -0.04862057417631149, -0.12168727070093155, -0.06301771104335785, -0.007898697629570961, 0.01514364778995514, -0.014339763671159744, -0.026144569739699364, -0.027847452089190483, -0.021599166095256805, -0.06402544677257538, -0.025825150310993195, -0.048419877886772156, 0.057135652750730515, -0.021701542660593987, 0.03974345698952675, -0.05289965495467186, -0.08597156405448914], [0.02939677983522415, -0.02720695547759533, -0.12082421779632568, -0.09763210266828537, -0.04103250056505203, -0.0962987095117569, -0.08899054676294327, -0.02495497465133667, -0.13386501371860504, -0.10120636969804764, -0.028962835669517517, -0.009256893768906593, -0.0034697032533586025, -0.04106909781694412, -0.12962712347507477, -0.03650689497590065, -0.08200531452894211, -0.07420150935649872, 0.001342069124802947, -0.12552891671657562, -0.026641396805644035, -0.00047189410543069243, 0.023944269865751266, -0.044544778764247894, -0.023846454918384552, 0.056521348655223846, -0.137539342045784, -0.010926693677902222, -0.041443951427936554, -0.018114734441041946, -0.07016341388225555, -0.1411561816930771, -0.04545291140675545, 0.02334112673997879, -0.0055346498265862465, 0.03451342135667801, 0.05497410520911217, -0.10624894499778748, -0.021127935498952866, -0.06009243056178093, -0.13067132234573364, -0.016219260171055794, -0.08482404798269272, -0.055106423795223236, -0.07386459410190582, -0.03203905373811722, -0.043537721037864685, -0.04836225509643555, -0.13778963685035706, -0.03344826400279999, -0.017844993621110916, -0.08501149713993073, 0.0066579794511199, -0.054470520466566086, -0.04057649150490761, -0.12698526680469513, -0.16228967905044556, -0.09520553052425385, -0.037926722317934036, -0.08411324769258499, -0.014989231713116169, -0.1350809633731842, 0.0005748991388827562, -0.07474812865257263, -0.02022075280547142, -0.11295229196548462, -0.04383064806461334, 0.018418656662106514, -0.02212080918252468, 0.014260029420256615, -0.03545433282852173, -0.1551385074853897, -0.06768621504306793, 0.006117829121649265, -0.14868003129959106, -0.11975659430027008, -0.10213761031627655, -0.08378644287586212, -0.08407169580459595, 0.04402128607034683, -0.00915409903973341, -0.0068333931267261505, -0.1125578060746193, -0.061687637120485306, 0.0019902093335986137, -0.07908715307712555, -0.0033077942207455635, 0.011380680836737156, -0.00702241575345397, -0.11760996282100677, -0.006032527890056372, -0.10862547904253006, 0.011209068819880486, -0.16733749210834503, 0.034322116523981094, -0.017582708969712257, -0.14974333345890045, -0.03221774101257324, -0.02064572460949421, -0.04815879464149475, -0.06592538952827454, -0.009576626121997833, -0.07383106648921967, -0.014622315764427185, -0.14265722036361694, 0.03676978126168251, -0.0009724933770485222, -0.033477067947387695, -0.05412454903125763, -0.03062327764928341, -0.10810025036334991, -0.03329290822148323, -0.025535060092806816, -0.07344616949558258, 0.030599387362599373, -0.16120679676532745, 0.02115950919687748, -0.0617874339222908, -0.13325843214988708, -0.02993602119386196, -0.11835643649101257, -0.07387718558311462, -0.14424200356006622, -0.11373373866081238, -0.13472619652748108, -0.010547931306064129, 0.07243210077285767, -0.1238672211766243], [0.015528032556176186, -0.12907464802265167, 0.016307881101965904, -0.12802334129810333, -0.07440158724784851, 0.007736067287623882, 0.0013758494751527905, -0.14154496788978577, 0.016845403239130974, -0.03481723368167877, -0.08874499052762985, -0.022925376892089844, -0.06451607495546341, -0.07248662412166595, -0.01619613915681839, -0.002092938870191574, -0.09509485214948654, -0.004146872088313103, -0.011328577063977718, -0.1100761741399765, 0.014608683995902538, 0.020124463364481926, -0.13373570144176483, -0.00564973708242178, -0.02956579253077507, -0.08054061979055405, -0.09695179760456085, -0.08898058533668518, 0.01798068918287754, -0.09100942313671112, -0.13316595554351807, -0.05108075216412544, 0.028696032240986824, -0.09204897284507751, -0.08161266893148422, -0.09738002717494965, 0.06918486952781677, -0.06694504618644714, -0.02484920248389244, 0.025356046855449677, -0.07277055829763412, -0.06268710643053055, -0.12594406306743622, -0.035562194883823395, -0.012729340232908726, -0.08652475476264954, -0.09638471901416779, -0.03776264935731888, -0.05342591926455498, -0.04740786552429199, -0.0011992159998044372, -0.02198302373290062, -0.12092526257038116, -0.019106514751911163, -0.06657415628433228, -0.10322550684213638, -0.006077314727008343, -0.06858938187360764, -0.11154982447624207, -0.10384095460176468, -0.09938237071037292, -0.07260420173406601, -0.13843858242034912, 0.005378157366067171, 0.03703656792640686, -0.053391024470329285, -0.06226691976189613, -0.05991761386394501, 0.01367341447621584, -0.11790565401315689, -0.11474010348320007, -0.08478569984436035, -0.014858005568385124, -0.04657347500324249, 0.0055186329409480095, -0.0030120909214019775, -0.09851182997226715, -0.13176892697811127, -0.0574314184486866, -0.0343770906329155, -0.01937379129230976, -0.012872683815658092, -0.13202837109565735, 0.025141198188066483, -0.0830886960029602, -0.13388055562973022, 0.019572442397475243, -0.05113458260893822, -0.15322136878967285, -0.041372012346982956, -0.1338927149772644, -0.08324149250984192, -0.08713877201080322, -0.10937674343585968, 0.03655792400240898, -0.06938903778791428, -0.09850965440273285, -0.02678760141134262, -0.0009046054328791797, 0.0064107938669621944, -0.057808782905340195, 0.009299972094595432, -0.06344835460186005, 0.009650480933487415, -0.08254732191562653, 0.057059600949287415, -0.06356871873140335, -0.031602971255779266, -0.15712453424930573, -0.12368806451559067, -0.12579938769340515, -0.06436285376548767, -0.048949141055345535, -0.11116599291563034, 0.003698049345985055, 0.020953001454472542, -0.011113204061985016, -0.0015020654536783695, -0.14625360071659088, -0.11252868920564651, -0.0763004869222641, -0.06883089244365692, -0.09259899705648422, -0.06878954917192459, -0.018775256350636482, -0.09437145292758942, -0.08560322970151901, -0.058417465537786484], [-0.8274734020233154, 0.25468137860298157, 0.3367123603820801, -0.1575208157300949, -0.39812377095222473, 0.20855510234832764, 0.23957550525665283, -0.03280963748693466, 0.016238078474998474, 0.2999579608440399, -0.08953803777694702, 0.40236178040504456, 0.009764248505234718, 0.2249651998281479, -0.471663236618042, 0.37454524636268616, -0.37328198552131653, -0.38561534881591797, -0.11858260631561279, -0.13595566153526306, -0.1544041633605957, -0.4876970648765564, -0.27364930510520935, -0.7179993391036987, 0.3832739591598511, -0.7911848425865173, 0.6690886616706848, -0.49719175696372986, -0.09528637677431107, 0.07527830451726913, 0.23442748188972473, 0.06372271478176117, -0.44268643856048584, -0.1424623727798462, -0.6265655755996704, -0.9043762683868408, -0.9118677377700806, 0.23126818239688873, 0.028034305199980736, -0.7680359482765198, 0.07611814141273499, 0.1432134211063385, 0.30381783843040466, -0.8623037934303284, 0.12424689531326294, -0.23804418742656708, -0.2340850532054901, 0.31979984045028687, 0.06013074517250061, -0.01414493564516306, 0.1094188541173935, -0.3826009929180145, 0.12378869950771332, 0.5002453923225403, -0.026015449315309525, 0.10183282941579819, -0.037219882011413574, 0.01749906688928604, -0.24044281244277954, 0.10353561490774155, -0.728828489780426, 0.12349846214056015, 0.22210286557674408, 0.1757146567106247, -0.4574904441833496, -0.024801278486847878, -0.23806124925613403, 0.01984969712793827, 0.0740140825510025, -0.10093968361616135, -0.5677645802497864, -0.22217725217342377, 0.11415848135948181, 0.07893885672092438, 0.07648180425167084, 0.08529473841190338, -0.15150748193264008, -0.07551278918981552, -0.17726455628871918, -0.6990640759468079, -0.38520514965057373, -0.09251263737678528, 0.2214154601097107, -0.09907938539981842, 0.4536375105381012, 0.06424473226070404, 0.6905140280723572, -0.41463717818260193, 0.2209462970495224, -0.6230563521385193, -0.23193800449371338, 0.16134889423847198, -0.02095998264849186, 0.2880347669124603, -0.3704039454460144, -0.3211386203765869, 0.19075363874435425, 0.2780577838420868, 0.27174392342567444, 0.4353839159011841, -0.16725338995456696, -0.5753272771835327, -0.4987618327140808, -0.3093244433403015, 0.17174121737480164, -0.471832275390625, 0.1416543573141098, -0.39925333857536316, 0.29280292987823486, 0.18041162192821503, 0.2082679271697998, -0.8962797522544861, 0.058284711092710495, 0.029457395896315575, -0.13978050649166107, 0.37339529395103455, -0.10119666159152985, 0.1264995038509369, -0.053575336933135986, -0.2872626781463623, 0.07872383296489716, -0.27633702754974365, -0.22397726774215698, 0.16203522682189941, 0.6232681274414062, -0.7172190546989441, -1.194530725479126, 0.020013373345136642], [0.05443200096487999, 0.00422079861164093, -0.0014002752723172307, -0.09774578362703323, -0.04727227985858917, -0.12596644461154938, 0.00018325878772884607, -0.1022290289402008, -0.10460024327039719, 0.026963165029883385, -0.11893133074045181, -0.0231992918998003, -0.007253493648022413, -0.11063522845506668, -0.07617176324129105, -0.09101644903421402, -0.11185229569673538, -0.016632456332445145, -0.0714874267578125, -0.06220279633998871, 0.0060860225930809975, 0.025396978482604027, -0.076909638941288, -0.028885049745440483, -0.06867606192827225, -0.0054480526596307755, -0.018058625981211662, 0.03614314645528793, -0.03945384547114372, 0.007407026831060648, 0.004193870350718498, -0.11219558119773865, -0.04427962005138397, 0.004281122237443924, -0.02691824547946453, -0.09698884189128876, -0.0916137546300888, 0.033911097794771194, 0.044090788811445236, 0.004065447486937046, -0.02063564956188202, 0.010349088348448277, -0.1170337051153183, -0.06603451073169708, -0.07625775039196014, -0.019100749865174294, 0.009782206267118454, -0.00492120161652565, 0.03236546367406845, -0.10395105183124542, -0.09333810955286026, -0.04964980110526085, -0.087650366127491, -0.047296855598688126, 0.016042795032262802, -0.029289385303854942, -0.12993450462818146, -0.10405194759368896, -0.107899010181427, -0.06582466512918472, -0.039914198219776154, 0.021009739488363266, 0.018828345462679863, -0.0444207601249218, -0.004939371719956398, -0.06658779084682465, -0.027849286794662476, -0.012800893746316433, -0.07327152043581009, -0.003114562015980482, -0.07096917927265167, -0.050970178097486496, -0.08434361219406128, -0.11217668652534485, -0.12048415094614029, -0.0014820605283603072, -0.024715518578886986, -0.09975305199623108, 0.010899398475885391, -0.10902438312768936, -0.10568805038928986, -0.07631897926330566, -0.033067259937524796, -0.12347082048654556, -0.03371317684650421, -0.11820746958255768, -0.009001130238175392, 0.045878816395998, -0.031818486750125885, -0.0104611124843359, -0.026417886838316917, -0.10978448390960693, 0.017318038269877434, -0.02841756120324135, 0.05188126862049103, -0.08222583681344986, -0.11784155666828156, -0.07613375782966614, -0.02907312661409378, -0.006828071549534798, -0.05314023792743683, 0.0021759660448879004, -0.08365258574485779, -0.015525821596384048, 0.031685564666986465, -0.09663102775812149, -0.12212926149368286, 0.05362892523407936, 0.018144743517041206, -0.058988746255636215, -0.12281710654497147, 0.03378001227974892, -0.0035761892795562744, -0.06277043372392654, -0.02096150442957878, 0.011981045827269554, -0.0033179910387843847, 0.030271220952272415, -0.07660063356161118, -0.10118308663368225, -0.09698063880205154, -0.04587237164378166, -0.01713513769209385, -0.032374780625104904, -0.027056876569986343, 0.03617246076464653, -0.10332256555557251, 0.031507693231105804], [0.38837844133377075, -0.6166226863861084, -0.5535720586776733, 0.27300408482551575, 0.2874087393283844, 0.06525763124227524, 0.22189269959926605, 0.17302794754505157, 0.3669964075088501, -0.6255277395248413, 0.11192753165960312, -0.6326807141304016, 0.08209344744682312, -0.403076171875, 0.18888801336288452, -0.4823686182498932, 0.40714845061302185, 0.36823537945747375, -0.009166589006781578, 0.1564183235168457, 0.16259437799453735, 0.312475323677063, 0.273573100566864, 0.4092945456504822, -0.6412468552589417, 0.39878618717193604, -0.8703799247741699, 0.14443333446979523, -0.04050330072641373, -0.034654829651117325, -0.3301214575767517, 0.19225850701332092, 0.4115859568119049, 0.21359311044216156, 0.5264970660209656, 0.5244059562683105, 0.4188964068889618, -0.4684348404407501, -0.003421046305447817, 0.30268609523773193, -0.22569212317466736, -0.1829109638929367, -0.493492990732193, 0.46101367473602295, -0.11718450486660004, 0.12811687588691711, 0.23971927165985107, -0.012529140338301659, 0.12393239140510559, 0.3963131606578827, 0.1317075937986374, 0.10257255285978317, -0.20341874659061432, -0.7763717770576477, 0.1357291340827942, -0.2963780164718628, -0.24006709456443787, 0.14207923412322998, 0.14499391615390778, -0.32305073738098145, 0.46765053272247314, 0.1722571849822998, 0.03254672884941101, -0.4467266798019409, 0.38926947116851807, 0.18180379271507263, 0.274787962436676, 0.13098305463790894, -0.10413014888763428, 0.17854920029640198, 0.27185386419296265, 0.19495820999145508, 0.1269315481185913, 0.1652100831270218, 0.029882872477173805, 0.19045798480510712, 0.2514713704586029, -0.020471366122364998, 0.13515472412109375, 0.4178123474121094, 0.1870408058166504, 0.31136465072631836, 0.26007917523384094, 0.2397298663854599, -0.6516892910003662, -0.021681366488337517, -0.8032858967781067, 0.22285883128643036, 0.21901196241378784, 0.45596426725387573, 0.330099880695343, 0.2743467688560486, 0.4864552915096283, -0.5126368999481201, 0.38175925612449646, 0.22249586880207062, -0.42600002884864807, 0.2183239459991455, -0.4249402582645416, -0.11168252676725388, 0.3787349462509155, 0.5033165812492371, 0.42348694801330566, 0.3388245105743408, -0.4446539580821991, 0.41508716344833374, 0.159978985786438, 0.33923089504241943, -0.41509267687797546, -0.04524064064025879, 0.265993595123291, 0.3994517922401428, 0.19318275153636932, 0.16969545185565948, 0.37619292736053467, -0.5943077206611633, 0.17285022139549255, -0.4067799746990204, -0.02591356635093689, 0.5744528770446777, 0.4312152564525604, 0.20477154850959778, 0.20175635814666748, -0.1341126710176468, -0.860192596912384, 0.4192342758178711, 0.49668654799461365, -0.12155059725046158], [-0.33041054010391235, 0.023562243208289146, 0.19765980541706085, -0.2204323559999466, -0.10957232117652893, 0.21299433708190918, 0.18919892609119415, -0.2799748480319977, 0.10604741424322128, 0.04820319265127182, 0.01422113087028265, 0.15266230702400208, 0.12330340594053268, 0.14209327101707458, -0.23768937587738037, 0.074417844414711, -0.1626613587141037, -0.1206795796751976, -0.07174481451511383, -0.30628323554992676, -0.12396740913391113, -0.2076927125453949, -0.13132146000862122, -0.19518284499645233, 0.18572606146335602, -0.2082258015871048, 0.08606260269880295, -0.1526528149843216, 0.05464986711740494, -0.3181003928184509, 0.026642106473445892, -0.18699264526367188, -0.07639437913894653, -0.1796288937330246, -0.1735517680644989, -0.47145724296569824, -0.27226167917251587, -0.01402956061065197, -0.12645223736763, -0.22035770118236542, -0.011377769522368908, -0.07201749086380005, 0.027561528608202934, -0.40949612855911255, -0.03802233934402466, -0.09539156407117844, -0.3908913731575012, 0.29716190695762634, -0.24560073018074036, -0.01531148049980402, -0.272645503282547, -0.11959425359964371, 0.09839267283678055, 0.08175771683454514, -0.2742677628993988, 0.006199142429977655, 0.023526674136519432, -0.26250606775283813, -0.10081377625465393, -0.040701866149902344, -0.5162714123725891, -0.1297633796930313, 0.0487995520234108, 0.025553474202752113, -0.05208040028810501, -0.21462444961071014, -0.4483094811439514, -0.2866040766239166, 0.12484274804592133, -0.3144538700580597, -0.12785175442695618, -0.1199939101934433, -0.2537038326263428, 0.08309297263622284, 0.13817332684993744, 0.12791362404823303, -0.3238697350025177, -0.01834201253950596, -0.08164693415164948, -0.33398717641830444, -0.14340803027153015, -0.436648964881897, 0.14865915477275848, -0.22413164377212524, 0.03225225955247879, -0.21729803085327148, 0.17117519676685333, -0.4114125669002533, 0.1794651597738266, -0.10893716663122177, -0.4249497652053833, 0.10751517117023468, 0.14171242713928223, 0.030453767627477646, -0.4388437867164612, -0.2600807547569275, 0.07578641176223755, 0.28022539615631104, 0.13282175362110138, 0.18828913569450378, 0.04804285988211632, -0.09551462531089783, -0.18873678147792816, -0.3149354159832001, 0.006806396413594484, -0.16761553287506104, 0.04862002655863762, -0.3722327947616577, 0.1383998990058899, 0.17819690704345703, 0.12528464198112488, -0.4894208610057831, 0.11969506740570068, -0.2334480881690979, -0.4164682924747467, 0.11449500918388367, -0.360930860042572, 0.0021971031092107296, -0.09994329512119293, -0.029898641631007195, 0.10606639832258224, -0.0683237761259079, -0.09136137366294861, 0.1356622725725174, 0.2223958820104599, -0.34721165895462036, -0.44276300072669983, -0.06740880012512207], [-0.019155330955982208, 0.006889197044074535, 0.04623335599899292, 0.0541752465069294, -0.09965328872203827, -0.038688044995069504, -0.02609337866306305, 0.01135660707950592, -0.0010759008582681417, -0.09562807530164719, 0.06503825634717941, 0.04872129485011101, -0.053110942244529724, -0.08296537399291992, -0.11029578745365143, 0.024321015924215317, 0.0119604067876935, -0.07883035391569138, 0.0660223439335823, -0.0949300155043602, -0.09293430298566818, -0.041402678936719894, -0.052942562848329544, -0.09362524002790451, -0.007748719304800034, -0.05889365077018738, -0.11117321997880936, -0.026233088225126266, -0.0818994864821434, -0.019293928518891335, 0.04153703153133392, 0.014916093088686466, -0.08505676686763763, 0.023756476119160652, -0.06684976071119308, 0.012624035589396954, -0.022698046639561653, 0.002888259943574667, -0.0815812274813652, -0.02975863590836525, -0.029227349907159805, 0.026954125612974167, 0.06251075118780136, -0.11156994849443436, -0.023659635335206985, -0.06564704328775406, 0.03400449454784393, -0.12366662919521332, 0.006838369183242321, -0.06695439666509628, -0.045120250433683395, -0.08350663632154465, 0.0504995696246624, 0.024309145286679268, -0.08955352008342743, -0.005629396066069603, -0.05297604575753212, -0.04669125750660896, -0.016738377511501312, -0.08631081879138947, 0.024469265714287758, 0.06580785661935806, -0.01546373963356018, 0.004101889207959175, -0.06492237001657486, 0.02549673430621624, -0.034938208758831024, 0.01168984454125166, -0.031881507486104965, -0.006966117303818464, 0.04206903278827667, 0.04422030597925186, -0.010812908411026001, 0.009985849261283875, -0.11471818387508392, 0.044814951717853546, -0.05591294541954994, -0.06006677448749542, 0.039269883185625076, -0.04299916326999664, 0.028300264850258827, -0.09270701557397842, -0.085028737783432, -0.09649128466844559, -0.11921480298042297, -0.06367387622594833, -0.03312784060835838, -0.06520815938711166, -0.0076575689017772675, -0.05122185871005058, 0.0034945777151733637, -0.12162762135267258, -0.03514564782381058, -0.05267047509551048, 0.029570376500487328, -0.07622887194156647, 0.0604291670024395, -0.12208481132984161, -0.09892340749502182, -0.05989646166563034, 0.02751295454800129, -0.07658702880144119, 0.02543121762573719, -0.0032566592562943697, 0.06219806149601936, 0.029131636023521423, 0.009918983094394207, 0.0009033124661073089, 0.05288679525256157, -0.11563306301832199, 0.038738738745450974, 0.02467629313468933, -0.07255250215530396, 0.061628904193639755, 0.062148503959178925, -0.010702414438128471, -0.09637512266635895, 0.07020613551139832, 0.02274101786315441, -0.09843909740447998, 0.038269635289907455, -0.012105005793273449, 0.04348808154463768, -0.10346626490354538, -0.10441748797893524, -0.0112769128754735, -0.09416784346103668, 0.005152772646397352], [-0.04451300576329231, -0.07933003455400467, -0.056198302656412125, 0.03308270499110222, -0.12897290289402008, -0.09217338263988495, 0.03794962540268898, 0.02702879160642624, 0.008182799443602562, 0.0028009081725031137, -0.06650535017251968, -0.06315474957227707, -0.031078608706593513, -0.13083653151988983, -0.09896354377269745, -0.015678752213716507, -0.10429710894823074, -0.006687955465167761, -0.028559232130646706, 0.024757420644164085, -0.07376490533351898, 0.005171247757971287, -0.015310095623135567, 0.04038660228252411, -0.09071577340364456, 0.020808514207601547, -0.08818034082651138, -0.005530264228582382, -0.12809035181999207, 0.05796913057565689, -0.06441011279821396, 0.007433383725583553, -0.11360642313957214, -0.06099070608615875, 0.0028646294958889484, 0.0389125682413578, -0.11266595125198364, -0.11608339101076126, 0.011746746487915516, 0.038349926471710205, 0.01498604565858841, -0.1118326410651207, 0.024795526638627052, -0.038841407746076584, -0.02496648021042347, 0.047138117253780365, 0.025459997355937958, -0.017002740874886513, -0.08381423354148865, -0.11369720846414566, -0.06294561177492142, -0.0630607083439827, -0.07544954121112823, -0.013909829780459404, -0.07288099080324173, -0.023646043613553047, -0.10678780823945999, -0.06329431384801865, 0.03820168226957321, -0.11491719633340836, 0.03415607288479805, -0.06456595659255981, -0.019616002216935158, -0.133629709482193, 0.023645536974072456, -0.03482591733336449, -0.08315970003604889, 0.0572451613843441, -0.04654260724782944, -0.0077545917592942715, -0.06931255012750626, -0.09754343330860138, 0.06159299612045288, -0.0005838244687765837, -0.04213257133960724, -0.0796346515417099, 0.058721598237752914, -0.026214605197310448, 0.004866467788815498, 0.0027661416679620743, 0.026528380811214447, 0.026372365653514862, -0.11647369712591171, -0.06423965096473694, -0.035798925906419754, -0.09237658977508545, -0.11531991511583328, -0.04129868000745773, -0.030385011807084084, -0.07691605389118195, 0.011612380854785442, 0.04557359218597412, -0.0036004229914397, -0.07194744795560837, -0.09607747942209244, 0.03857392072677612, -0.08218903094530106, 0.008202217519283295, -0.10275831818580627, -0.037658195942640305, -0.039389606565237045, -0.09692983329296112, -0.07190210372209549, -0.007772631477564573, -0.05165786296129227, -0.12043775618076324, -0.0043741753324866295, -0.023622455075383186, -0.0650373175740242, -0.006610311567783356, 0.012967832386493683, 0.05877933278679848, -0.08324825018644333, 0.049008697271347046, -0.0401955209672451, -0.06322935223579407, -0.029734734445810318, 0.0065253120847046375, -0.024730371311306953, -0.022313522174954414, -0.0527031384408474, 0.020316574722528458, 0.01135360635817051, -0.07709819078445435, 0.010953995399177074, -0.044281966984272, -0.07101675122976303, -0.1018461361527443], [0.1571667641401291, 0.06768384575843811, 0.029283668845891953, -0.05232340097427368, 0.12814511358737946, -0.17482829093933105, -0.24370664358139038, -0.03646833822131157, -0.22623783349990845, -0.12700359523296356, 0.1289261430501938, -0.06848292797803879, -0.14219364523887634, 0.08161389082670212, 0.1124287024140358, 0.029258964583277702, 0.016184810549020767, 0.11649928241968155, 0.007563172373920679, -0.017882848158478737, 0.0409570187330246, 0.11923859268426895, 0.0572076253592968, 0.06318244338035583, 0.02063886635005474, 0.09372676908969879, -0.05948186665773392, 0.04982472211122513, -0.02303304895758629, -0.014934339560568333, 0.05472896620631218, -0.06225009635090828, -0.011818643659353256, -0.15001924335956573, 0.14780326187610626, -0.021264567971229553, -0.004797821864485741, 0.032569706439971924, 0.04807111248373985, 0.1323295384645462, -0.0027700839564204216, -0.10691505670547485, -0.08778955042362213, 0.12394683808088303, 0.11417901515960693, 0.027340015396475792, -0.05867445096373558, -0.1923799216747284, -0.142987921833992, -0.2711070477962494, -0.1894049346446991, 0.07303457707166672, -0.057627253234386444, -0.06985059380531311, -0.11613144725561142, -0.05460866168141365, 0.06480850279331207, -0.13873709738254547, 0.09402092546224594, 0.05365130677819252, -0.010862029157578945, -0.10599552094936371, -0.013606227934360504, -0.06618937849998474, 0.12799112498760223, 0.0439995676279068, 0.043133217841386795, -0.05703306943178177, -0.025516681373119354, 0.001714792917482555, 0.014360531233251095, 0.067531056702137, -0.10661256313323975, -0.0387473925948143, -0.07586299628019333, -0.0983060821890831, 0.05727952718734741, 0.06518184393644333, 0.07466229796409607, 0.03403197601437569, 0.07164998352527618, -0.06876708567142487, -0.10453727841377258, -0.09513931721448898, 0.04899965971708298, -0.0039965021423995495, -0.02927946299314499, -0.07074187695980072, -0.26958486437797546, 0.1410246342420578, -0.07250618934631348, -0.09618093073368073, -0.07803693413734436, -0.037827201187610626, -0.009619813412427902, -0.0037812739610671997, -0.022315984591841698, -0.11180673539638519, -0.06268640607595444, -0.12510088086128235, -0.15367640554904938, 0.12612378597259521, 0.05602484941482544, -0.05984540283679962, -0.03426514193415642, 0.04024100676178932, -0.0718798115849495, -0.12198340147733688, -0.013081436976790428, -0.1308477520942688, -0.11958051472902298, 0.07724877446889877, -0.10347326844930649, -0.03772759437561035, -0.028527284041047096, 0.02579551190137863, -0.0242853332310915, 0.02249898575246334, 0.05192223936319351, -0.0536654032766819, -0.20205456018447876, 0.05111546441912651, 0.08122424781322479, -0.03714564070105553, 0.012588591314852238, 0.07275614142417908, -0.032667096704244614, 0.023717543110251427], [-0.0018294667825102806, -0.003556600073352456, -0.015257108956575394, -0.004587425850331783, -0.07208122313022614, -0.0012348568998277187, -0.07804571837186813, -0.08679911494255066, -0.04955673962831497, -0.14534345269203186, -0.08659898489713669, -0.16644015908241272, -0.09214790165424347, -0.06182184815406799, 0.02732124738395214, -0.15340250730514526, -0.11313427239656448, -0.017814315855503082, -0.09648304432630539, 0.0016128455754369497, -0.06258532404899597, -0.052999936044216156, -0.03132608160376549, 0.015083027072250843, 0.009885837323963642, -0.0010909915436059237, -0.12210266292095184, -0.024066856130957603, 0.035127878189086914, -0.08779984712600708, -0.0015457776607945561, -0.10293623805046082, 0.030344437807798386, 0.013381166383624077, 0.011130906641483307, -0.16357611119747162, -0.10049404948949814, -0.09730254113674164, -0.1172369197010994, -0.023547448217868805, -0.10323979705572128, -0.06207597255706787, -0.08704690635204315, -0.10192429274320602, -0.048728521913290024, -0.058762431144714355, -0.10533995181322098, 0.050340522080659866, -0.05170370265841484, -0.08105552196502686, -0.03850618004798889, -0.14161424338817596, 0.0030160783790051937, -0.04358532279729843, 0.016023805364966393, -0.09992586076259613, 0.00420089066028595, -0.06998112797737122, 0.002612841548398137, -0.07091188430786133, -0.0788905993103981, -0.010709843598306179, -0.09511585533618927, -0.13310234248638153, -0.015279082581400871, 0.0410294272005558, -1.7042075342033058e-06, -0.04701424390077591, 0.034306228160858154, -0.09523950517177582, -0.07095273584127426, -0.06584466248750687, 0.01255846582353115, -0.02631448581814766, 0.03731633722782135, 0.03667697682976723, 0.03913172334432602, -0.10306905210018158, 0.028976669535040855, -0.12832437455654144, -0.049149807542562485, -0.00935460440814495, 0.04665377736091614, -0.07526326179504395, -0.03437938913702965, -0.096764475107193, -0.04583090543746948, -0.09784373641014099, -0.0886547788977623, -0.062240295112133026, -0.12106102705001831, 0.05241718515753746, -0.02272384613752365, 0.01977403089404106, -0.03507542237639427, -0.0736328512430191, 0.008372385054826736, -0.06323633342981339, -0.01722722500562668, 0.031219637021422386, -0.010159258730709553, -0.034031134098768234, 0.0317082554101944, -0.13038644194602966, 0.006401761434972286, -0.020306183025240898, 0.041561197489500046, -0.06229407340288162, -0.00672477250918746, -0.08196303248405457, 0.016289247199892998, -0.14192503690719604, -0.015575870871543884, -0.036036595702171326, -0.021329320967197418, -0.13428279757499695, 0.03817558288574219, -0.026677899062633514, -0.09624267369508743, -0.026280537247657776, 0.013143283315002918, 0.01086018793284893, -0.1356465071439743, -0.07668107748031616, -0.09716483950614929, -0.05740044265985489, -0.055077098309993744, -0.1249002143740654], [0.03770090267062187, -0.059421002864837646, -0.01755657233297825, -0.1283189207315445, 0.004883567802608013, -0.13941450417041779, -0.10653261840343475, -0.13895991444587708, -0.13712702691555023, -0.07570884376764297, -0.047075480222702026, -0.1353173702955246, -0.1611717939376831, -0.043849680572748184, -0.07135435193777084, -0.10684263706207275, -0.06435640156269073, -0.03074643574655056, -0.07148843258619308, 0.0003116816224064678, -0.05460892990231514, -0.10367705672979355, -0.0753958597779274, -0.10030680149793625, -0.03279046714305878, 0.02411939948797226, 0.0026917429640889168, -0.11149942874908447, -0.054485224187374115, -0.0914601981639862, 0.029161715880036354, -0.06991053372621536, -0.06769151240587234, -0.04621336981654167, 0.014337305910885334, -0.06485389173030853, -0.10337787121534348, -0.034552108496427536, -0.12123707681894302, -0.0929587185382843, 0.048939548432826996, -0.02483714371919632, 0.0053257509134709835, -0.031056273728609085, -0.011849960312247276, -0.03736381605267525, -0.06452182680368423, -0.03044269233942032, -0.09440702199935913, -0.07691585272550583, -0.0749669298529625, 0.04208675026893616, 0.04994030296802521, -0.06050487980246544, -0.0440676249563694, -0.10208120197057724, -0.10642370581626892, -0.11371652036905289, -0.006990235298871994, -0.0864744707942009, -0.04464052617549896, -0.08136190474033356, -0.1224675178527832, -0.06834570318460464, 0.02490285597741604, 0.028393711894750595, -0.007833549752831459, -0.09777416288852692, -0.05110897496342659, -0.08671745657920837, 0.052865415811538696, 0.011196200735867023, -0.058419860899448395, -0.06474997103214264, -0.06766451895236969, -0.1117808073759079, -0.019092561677098274, 0.0775233805179596, 0.04140063375234604, 0.02045280672609806, -0.08717213571071625, -0.028870705515146255, -0.07821545004844666, -0.11189001053571701, 0.033005762845277786, -0.004778917413204908, -0.11098962277173996, -0.12524843215942383, -0.17940300703048706, 0.03942488133907318, -0.012751763686537743, -0.032170046120882034, -0.12507863342761993, -0.09224157780408859, -0.11493980139493942, 0.05504652112722397, -0.01510375551879406, -0.13581179082393646, 0.0039323195815086365, -0.0858454778790474, -0.0880880206823349, -0.057308971881866455, -0.11604732275009155, -0.08395161479711533, -0.053543563932180405, 0.008930802345275879, -0.013079315423965454, -0.09329503029584885, -0.09692041575908661, -0.12863372266292572, -0.012828572653234005, -0.13926278054714203, -0.059018246829509735, -0.09600845724344254, -0.10797448456287384, -0.1613607406616211, 0.0019057361641898751, -0.04545925557613373, -0.05254117399454117, -0.03370065242052078, -0.08241972327232361, 0.05776289105415344, -0.06290698051452637, -0.057631444185972214, -0.18115714192390442, -0.007291867863386869, -0.12992049753665924, 0.06312969326972961], [-0.04929285869002342, -0.06188160553574562, -0.023965470492839813, -0.032602909952402115, -0.01667061820626259, -0.05599077418446541, -0.03643787279725075, -0.08435598760843277, -0.09612321108579636, -0.03227722644805908, -0.07822404056787491, 0.00158204126637429, -0.04823637753725052, 0.02499503269791603, -0.050539471209049225, -0.10776682198047638, 0.007672302424907684, -0.05038789287209511, -0.0602397583425045, -0.13462336361408234, -0.05695382133126259, -0.006393983028829098, -0.05439743772149086, -0.07179693877696991, -0.1416841596364975, -0.017778998240828514, -0.0660642683506012, -0.028480548411607742, -0.13318441808223724, -0.1174541562795639, -0.07227511703968048, -0.03443586081266403, -0.0051687126979231834, -0.08453480899333954, -0.05909762904047966, -0.012492668814957142, -0.029926009476184845, -0.059781864285469055, -0.05673506483435631, -0.028022460639476776, -0.10245104134082794, -0.12986312806606293, -0.11989514529705048, -0.0033401313703507185, -0.12015834450721741, -0.11378499120473862, -0.09194306284189224, 0.01157545018941164, -0.12384775280952454, -0.1030486598610878, -0.0930337980389595, 0.017253991216421127, -0.059428729116916656, -0.021284472197294235, 0.0335577167570591, -0.08778467774391174, -0.061280570924282074, 0.03988831490278244, -0.09854811429977417, 0.0160512737929821, -0.017966851592063904, 0.029107283800840378, -0.04893471300601959, -0.03630610927939415, -0.02693917788565159, -0.08745782822370529, -0.00041979472734965384, -0.07509560883045197, -0.01890609599649906, -0.021478744223713875, -0.11060013622045517, -0.07189709693193436, -0.040469713509082794, -0.06168254092335701, 0.003218982834368944, -0.08082086592912674, -0.04457546025514603, -0.047440897673368454, -0.0613175705075264, -0.06787801533937454, -0.02455631084740162, -0.04607447609305382, -0.04096336290240288, -0.09186870604753494, -0.05404594913125038, -0.1128106415271759, -0.0011114042717963457, 0.029565388336777687, -0.10470385104417801, -0.10992880165576935, 0.018565386533737183, 0.011623097583651543, -0.057239431887865067, -0.13875016570091248, -0.0353381484746933, 0.0084364740177989, -0.02217588946223259, -0.09230567514896393, -0.03155379369854927, -0.05189678817987442, -0.11121009290218353, -0.10972834378480911, -0.11925671994686127, -0.019617291167378426, 0.02980484999716282, -0.1072455644607544, -0.13538026809692383, 0.036160338670015335, -0.0029413748998194933, -0.11731692403554916, -0.0025691830087453127, -0.043228745460510254, -0.06203470006585121, -0.011450774036347866, -0.10887550562620163, -0.04056910052895546, -0.02729669213294983, -0.026967212557792664, -0.02715960331261158, -0.12855501472949982, -0.1309380680322647, -0.001773187192156911, -0.10885895043611526, 0.020321110263466835, -0.0571720264852047, 0.008871856145560741, -0.06770126521587372, -0.00397946871817112], [-0.03339703008532524, -0.10122417658567429, 0.022784266620874405, 0.029822975397109985, -0.06607946008443832, -0.026665179058909416, -0.07269491255283356, -0.0016758525744080544, -0.040634170174598694, 0.020709028467535973, -0.06158362701535225, -0.034919023513793945, -0.014422454871237278, -0.02078341692686081, 0.007024491671472788, -0.07080517709255219, -0.06420091539621353, -0.008669652044773102, -0.08910016715526581, -0.05740819498896599, 0.02126680128276348, 0.0008123647421598434, 0.01593802683055401, -0.08266042172908783, -0.043812043964862823, 0.025172818452119827, -0.10710042715072632, -0.03926453739404678, -0.008487280458211899, -0.053733598440885544, 0.016311345621943474, 0.0017025766428560019, -0.0563521534204483, -0.02585766091942787, -0.12414072453975677, 0.0031408860813826323, -0.11681179702281952, 0.03453720360994339, -0.010193098336458206, -0.029113147407770157, 0.05097566172480583, 0.046773556619882584, 0.008511335588991642, 0.013925987295806408, 0.060053665190935135, -0.09210281074047089, -0.08713845163583755, -0.023478927090764046, -0.11023412644863129, -0.08567728102207184, 0.036367617547512054, 0.007275574374943972, -0.06436118483543396, -0.1744196116924286, -0.022245101630687714, -0.08586428314447403, -0.09121765941381454, 0.01620820164680481, -0.05967230722308159, 0.03721405565738678, -0.07587695121765137, 0.03077412210404873, -0.09986948221921921, 0.04061111435294151, 0.04548540338873863, -0.032531365752220154, -0.081525057554245, 0.025316355749964714, -0.005828872323036194, -0.03302638977766037, -0.07975553721189499, -0.008835731074213982, 0.013128126040101051, -0.10586544871330261, -0.06093284860253334, -0.03902801126241684, 0.025814766064286232, 0.030760973691940308, 0.051011357456445694, 0.01285784225910902, 0.04235457256436348, -0.06573235243558884, -0.08041206002235413, -0.09929902106523514, 0.0029016267508268356, -0.06941734254360199, -0.10222677141427994, -0.03762258589267731, -0.05933895707130432, 0.05534816533327103, -0.03792646899819374, -0.11394447088241577, -0.13274970650672913, -0.04952671378850937, -0.0370853990316391, -0.03367442265152931, -0.00784713588654995, -0.10731814056634903, -0.034460701048374176, -0.07724177837371826, -0.0553402304649353, -0.1375519335269928, 0.019314192235469818, -0.11856463551521301, 0.028013374656438828, 0.011302832514047623, 0.006362392567098141, 0.007759836968034506, -0.12034054845571518, -0.021195486187934875, -0.10211030393838882, -0.03709898889064789, -0.05149541795253754, -0.07054149359464645, -0.0013665768783539534, -0.0797385424375534, 0.034586016088724136, -0.004087206907570362, -0.00020465863053686917, -0.0951850488781929, -0.03598557785153389, 0.039391256868839264, -0.004574954975396395, -0.047862276434898376, -0.159783735871315, -0.04774116352200508, -0.02801259607076645, -0.10528777539730072], [0.11976873129606247, 0.09646964818239212, 0.0479549802839756, -0.05505414679646492, 0.27220603823661804, -0.3538534939289093, -0.3288918733596802, -0.011673030443489552, -0.15573379397392273, 0.01569458097219467, 0.17246834933757782, 0.20283639430999756, -0.24997352063655853, 0.1949295997619629, 0.2029644250869751, 0.16003333032131195, 0.13355828821659088, 0.1890404373407364, 0.14792630076408386, 0.008684022352099419, 0.17483162879943848, 0.0820118710398674, 0.11291828751564026, 0.16659818589687347, 0.1982525736093521, 0.15809106826782227, 0.1301759034395218, 0.13342063128948212, 0.18427905440330505, -0.02021660842001438, 0.10712011158466339, -0.06252967566251755, 0.07466625422239304, -0.0664948895573616, 0.04487012326717377, 0.0011013345792889595, -0.011015013791620731, 0.12841655313968658, 0.08003441244363785, 0.14887753129005432, 0.15971188247203827, 0.06471545994281769, 0.19210600852966309, 0.08469507843255997, 0.23380990326404572, 0.16300037503242493, -0.05433434993028641, -0.19304661452770233, -0.16746863722801208, -0.3051372468471527, -0.11192790418863297, 0.23988530039787292, 0.16101816296577454, 0.15060044825077057, 0.013421165756881237, 0.2218261957168579, 0.2541195750236511, -0.10091223567724228, 0.27369606494903564, 0.2080031931400299, -0.14199194312095642, -0.21672584116458893, 0.015015027485787868, 0.10763479024171829, 0.17411641776561737, 0.03757835552096367, -0.040220923721790314, -0.14399123191833496, 0.27853497862815857, -0.09881240874528885, 0.14686082303524017, 0.15406936407089233, -0.19233709573745728, 0.0068228114396333694, 0.09027701616287231, -0.1783575415611267, 0.04893362522125244, 0.2700199782848358, 0.16827046871185303, 0.16705840826034546, 0.1958165317773819, -0.15602955222129822, -0.37176579236984253, -0.03195635601878166, 0.13469120860099792, 0.013770880177617073, 0.07165725529193878, 0.03218022361397743, -0.4384981095790863, 0.1120791807770729, 0.014680333435535431, -0.328423410654068, -0.22708934545516968, 0.1563592255115509, -0.12942616641521454, 0.044857457280159, 0.16378556191921234, -0.2627723813056946, 0.20627598464488983, -0.09947700798511505, -0.1250702291727066, 0.19998164474964142, 0.17747418582439423, -0.1406000405550003, 0.19724570214748383, 0.15578396618366241, -0.23215775191783905, -0.16351903975009918, 0.2501319944858551, -0.0811404436826706, -0.30043500661849976, 0.05579814314842224, -0.26593345403671265, -0.05682910978794098, -0.13774777948856354, 0.0795961543917656, 0.0070999073795974255, 0.07106105983257294, 0.12651829421520233, -0.09708110988140106, -0.2956531047821045, 0.2452685832977295, 0.22772978246212006, 0.1711886078119278, 0.1700916737318039, -0.02018226496875286, -0.12954528629779816, 0.11282066255807877], [-0.10982145369052887, -0.0894874557852745, -0.0010437347227707505, 0.06017216667532921, -0.1131727322936058, -0.11138655245304108, -0.13893771171569824, -0.05018259584903717, -0.11641865968704224, -0.11047768592834473, -0.0806679055094719, 0.010287033393979073, 0.011487520299851894, -0.004318180959671736, -0.10773976892232895, -0.09182928502559662, -0.02644387073814869, -0.02472311072051525, 0.03693985193967819, -0.05511327460408211, 0.03726152330636978, 0.02038453333079815, 0.00042742022196762264, -0.035522397607564926, 0.02737324871122837, -0.07429914176464081, -0.08942421525716782, -0.06728831678628922, 0.018867511302232742, 0.01827038824558258, -0.0026009436696767807, -0.04805803671479225, 0.010574094951152802, 0.008387777023017406, -0.025497760623693466, -0.038822777569293976, -0.051369041204452515, -0.03354121372103691, -0.04957509785890579, -0.11792110651731491, -0.10873572528362274, -0.010489342734217644, -0.109165258705616, 0.0007905649254098535, 0.014507525600492954, 0.02677367627620697, -0.08506687730550766, -0.04601871967315674, -0.02202894352376461, -0.02431241050362587, -0.05862013250589371, -0.09801078587770462, 0.015343094244599342, 0.014880531467497349, -0.08439036458730698, -0.005548869259655476, -0.12304236739873886, 0.0653391033411026, -0.13376614451408386, 0.020768703892827034, 0.005735080689191818, -0.03434592857956886, -0.06910544633865356, -0.01023854874074459, -0.1154961884021759, -0.07960271090269089, -0.008893894962966442, -0.025190018117427826, -0.02086763083934784, 0.00349375419318676, 0.039493922144174576, -0.042458947747945786, -0.044444065541028976, -0.011307036504149437, -0.09924529492855072, 0.006724043749272823, -0.026346132159233093, -0.05441722646355629, -0.10928253829479218, -0.09083011746406555, 0.044314634054899216, 0.04788507893681526, -0.0689062848687172, 0.05493805930018425, -0.11608291417360306, -0.0999118760228157, 0.024962488561868668, -0.09006257355213165, 0.02023964747786522, 0.032576147466897964, -0.020899685099720955, -0.11468736082315445, -0.11324391514062881, -0.025260843336582184, -0.10702228546142578, -0.007005672436207533, -0.0907420814037323, 0.024710796773433685, -0.11862847208976746, -0.1239716112613678, 0.015860948711633682, -0.004948295187205076, -0.09191379696130753, -0.02518957294523716, -0.08650146424770355, 0.012226288206875324, -0.08880121260881424, -0.06492438167333603, 0.01917319931089878, 0.0027173098642379045, -0.1195325255393982, -0.037574127316474915, -0.06777198612689972, 0.004410161171108484, -0.05464479327201843, 0.03313493728637695, 0.05249298736453056, -0.05228223651647568, -0.0693126693367958, -0.0054170358926057816, -0.05030617117881775, 0.03233593329787254, -0.0330764465034008, -0.01961572654545307, 0.007853173650801182, -0.03002913109958172, -0.03982485085725784, -0.028759334236383438], [0.1798732876777649, 0.1792209893465042, 0.1841471791267395, -0.3506341576576233, 0.22689640522003174, -0.14698061347007751, -0.17801855504512787, -0.3249552845954895, -0.05812542885541916, 0.27578526735305786, 0.22660715878009796, 0.19704917073249817, 0.1097140908241272, 0.3138490319252014, 0.3506285846233368, 0.1423240602016449, 0.05687713995575905, 0.15404027700424194, 0.17248444259166718, -0.1288820058107376, 0.1480637490749359, 0.28336891531944275, 0.19200128316879272, 0.18040020763874054, 0.2184848189353943, 0.2478456199169159, 0.15407174825668335, 0.2899491488933563, 0.13668060302734375, -0.2215059995651245, 0.1796318143606186, -0.47706133127212524, 0.14840765297412872, -0.2801837921142578, 0.22047843039035797, 0.0343048982322216, 0.28873780369758606, 0.3075358271598816, -0.06730633974075317, 0.25168198347091675, 0.19187158346176147, 0.1917193979024887, 0.18993817269802094, 0.27315327525138855, 0.26809337735176086, 0.22827352583408356, -0.1688525378704071, -0.06153741851449013, -0.40680232644081116, -0.045201029628515244, -0.42438432574272156, 0.16637516021728516, 0.16395969688892365, 0.20179162919521332, -0.3772920072078705, 0.2536506652832031, 0.32297295331954956, -0.38948678970336914, 0.1426878273487091, 0.21801692247390747, 0.19942925870418549, -0.4598143994808197, 0.1070125550031662, 0.1782991588115692, 0.25509312748908997, -0.08157623559236526, 0.043881118297576904, -0.25909435749053955, 0.09602203220129013, -0.10411914438009262, 0.2520374357700348, 0.31479597091674805, -0.23531274497509003, 0.03838740661740303, 0.03987665846943855, -0.05312115699052811, 0.014725673012435436, 0.28694334626197815, 0.2232079952955246, 0.21099555492401123, 0.27095216512680054, -0.08627723157405853, -0.1741684377193451, -0.3536742627620697, 0.21290132403373718, -0.012778844684362411, 0.21969549357891083, 0.18171435594558716, -0.2582695484161377, 0.23482075333595276, -0.1715172380208969, -0.08138686418533325, -0.15378819406032562, 0.25933030247688293, -0.03793705999851227, 0.2398349642753601, 0.19165106117725372, -0.23702818155288696, 0.24494123458862305, 0.021551836282014847, 0.010457172058522701, 0.14603783190250397, 0.10377119481563568, -0.26254501938819885, 0.21893246471881866, 0.1763177067041397, -0.03404080495238304, -0.06497176736593246, 0.15678885579109192, -0.03779631108045578, -0.2300480753183365, 0.19444850087165833, 0.0194796621799469, -0.3554123640060425, -0.3688744604587555, 0.1395425945520401, -0.3372233808040619, 0.3004956543445587, 0.10047870129346848, 0.10689842700958252, -0.08921997249126434, 0.1811925768852234, 0.1574675291776657, 0.07493222504854202, 0.19308140873908997, 0.3760830760002136, 0.12838560342788696, 0.249564528465271], [-0.05812936648726463, -0.08880981802940369, -0.08903401345014572, -0.09042307734489441, 0.04626383259892464, -0.14098724722862244, -0.11431211978197098, -0.05619693920016289, -0.012139401398599148, -0.019489310681819916, -0.05068693682551384, 0.04409370571374893, -0.04799628630280495, -0.07828198373317719, 0.030772849917411804, 0.028390023857355118, -0.03862927481532097, 0.025751709938049316, 0.01080184243619442, -0.041254058480262756, 0.0017622114391997457, -0.07858704030513763, -0.05867216736078262, 0.03228764235973358, -0.046090178191661835, -0.08314108103513718, -0.10712754726409912, -0.060838401317596436, -0.036125123500823975, -0.006201751530170441, 0.050091393291950226, -0.11373082548379898, -0.10721534490585327, 0.010316510684788227, -0.08332342654466629, 0.03801388293504715, -0.06187522038817406, 0.018938859924674034, -0.019783681258559227, 0.07752347737550735, 0.056116316467523575, -0.07143661379814148, -0.06349647790193558, 0.024969613179564476, 0.0609314888715744, -0.08572448790073395, -0.034477345645427704, -0.1235196441411972, -0.11063697189092636, -0.08491367101669312, -0.09082123637199402, 0.03952892869710922, -0.0011976752430200577, -0.013455774635076523, -0.031694840639829636, -0.024220557883381844, -0.011976980604231358, -0.03416655585169792, 0.03390743210911751, -0.10495685040950775, 0.04247564822435379, -0.02790389023721218, 0.03394420072436333, -0.01112576387822628, -0.06239229068160057, -0.0047719585709273815, -0.09381693601608276, 0.03699824959039688, -0.026609810069203377, -0.08011399954557419, 0.009691508486866951, -0.006556598003953695, -0.04096633568406105, -0.03730478882789612, -0.026021942496299744, -0.12899963557720184, 0.020773006603121758, 0.06276487559080124, 0.016440924257040024, -0.051690779626369476, 0.049622029066085815, -0.020902832970023155, -0.04295295104384422, 0.0391087606549263, 0.02464836835861206, -0.04301139712333679, -0.09052637219429016, -0.025912990793585777, 0.004383689258247614, -0.005630616098642349, 0.042092133313417435, 0.021523388102650642, -0.0424671545624733, -0.010870091617107391, 0.01021785382181406, 0.046796396374702454, -0.04597910866141319, -0.10667244344949722, 0.02058793045580387, -0.03012455254793167, -0.1252496838569641, 0.02079593576490879, -0.05504317581653595, 0.010026409290730953, -0.03335592523217201, -0.021464863792061806, -0.11317773163318634, -0.06766358762979507, -0.07065501064062119, 0.004281830508261919, 0.012793292291462421, -0.10092438757419586, -0.0659162774682045, 0.0035316115245223045, -0.02481929026544094, -0.09901086241006851, 0.020140672102570534, -0.08278541266918182, 0.07812139391899109, -0.10926767438650131, -0.11258791387081146, 0.01923666149377823, -3.2351643312722445e-05, 0.025057977065443993, -0.055985625833272934, -0.04259328171610832, -0.10706650465726852, -0.029219407588243484], [-0.014621581882238388, -0.06747765094041824, -0.058031726628541946, -0.09147386252880096, 0.002552956575527787, -0.320269376039505, -0.32026252150535583, -0.13854920864105225, -0.2780005931854248, -0.08432977646589279, 0.05347741022706032, -0.09879590570926666, -0.13292038440704346, 0.04936773702502251, -0.023282069712877274, -0.11021041125059128, 0.013158033601939678, 0.09207157045602798, -0.016409622505307198, -0.06078086420893669, 0.01065828651189804, -0.01048995554447174, 0.029727624729275703, 0.057282038033008575, -0.09850895404815674, 0.030818410217761993, -0.1129787415266037, -0.006560684647411108, 0.06358454376459122, -0.24050359427928925, 0.057288024574518204, -0.12406624853610992, 0.03885875642299652, -0.12648309767246246, 0.10029084980487823, -0.14945192635059357, 0.06786268204450607, -0.10966815799474716, -0.10717105865478516, 0.05370638892054558, -0.06271014362573624, -0.14460380375385284, 0.022479185834527016, -0.05150628462433815, -0.056537121534347534, -0.06032635271549225, -0.14811260998249054, -0.13443589210510254, -0.15193204581737518, -0.22338351607322693, -0.20275482535362244, 0.006443008780479431, 0.06935656815767288, 0.0006497108843177557, -0.07520809769630432, 0.0381002314388752, 0.05519508570432663, -0.0999811664223671, -0.06643719971179962, -0.08945493400096893, -0.14480699598789215, -0.09344366937875748, -0.06334864348173141, -0.049832943826913834, 0.035630498081445694, -0.09453679621219635, -0.11778699606657028, -0.2399381548166275, 0.04398750513792038, -0.16439874470233917, -0.05628562718629837, 0.004913465119898319, -0.22359123826026917, -0.1500863879919052, -0.009635108523070812, -0.16368427872657776, -0.05616529658436775, -0.06950877606868744, 0.06441188603639603, 0.08568406105041504, -0.06827583909034729, -0.07730866968631744, -0.2857116758823395, -0.07170610874891281, -0.07565319538116455, -0.029659423977136612, 0.0076625472865998745, -0.14544931054115295, -0.3138750195503235, 0.02755720540881157, -0.05909546837210655, -0.2014935463666916, -0.1594676971435547, -0.0056110261939466, -0.09810703247785568, -0.07910484820604324, -0.022270547226071358, -0.19362811744213104, 0.030732138082385063, -0.20606227219104767, -0.058802530169487, 0.05171755701303482, 0.06694761663675308, -0.14391247928142548, -0.0626550018787384, 0.09221256524324417, -0.24102143943309784, -0.20948094129562378, 0.026581808924674988, -0.14249475300312042, -0.23223698139190674, 0.05237554386258125, -0.2610071301460266, -0.09308655560016632, -0.05307721346616745, -0.051565021276474, -0.1302737146615982, -0.035179778933525085, -0.08256272971630096, -0.1502123922109604, -0.28164586424827576, 0.08781950175762177, -0.055510345846414566, 0.0433538444340229, -0.09999831765890121, -0.10607492923736572, 0.002675345866009593, 0.029566554352641106], [0.1822562962770462, 0.15816745162010193, 0.09295840561389923, -0.10363124310970306, 0.1733751893043518, -0.29051515460014343, -0.27613016963005066, 0.03829449042677879, -0.226888507604599, 0.1375788301229477, 0.25848397612571716, 0.08137998729944229, -0.22731555998325348, 0.1434497833251953, 0.24371124804019928, 0.1570897251367569, 0.23331774771213531, 0.09965861588716507, 0.1278778314590454, -0.028029099106788635, 0.15504349768161774, 0.26384544372558594, 0.21705399453639984, 0.13836431503295898, 0.06254711747169495, 0.11173511296510696, -0.01357100997120142, 0.08382256329059601, 0.25244447588920593, -0.2213861048221588, 0.1573793888092041, -0.23797334730625153, 0.10705642402172089, -0.2578401565551758, 0.1860186755657196, -0.06201377138495445, 0.06233452260494232, 0.1864699274301529, 0.04599536210298538, 0.16464200615882874, 0.22930870950222015, 0.0011546050664037466, 0.1780877262353897, 0.0510031059384346, 0.15773479640483856, 0.12260770052671432, -0.05485113710165024, -0.24045027792453766, -0.2514685094356537, -0.27609366178512573, -0.20934289693832397, 0.14171673357486725, 0.24644261598587036, 0.09321627020835876, -0.0758952796459198, 0.19856157898902893, 0.12195191532373428, -0.11093165725469589, 0.2184019237756729, 0.1279929280281067, -0.02701447531580925, -0.17033709585666656, 0.018872370943427086, 0.20247909426689148, 0.21643398702144623, 0.07128177583217621, -0.008197853341698647, -0.2001844197511673, 0.22255875170230865, -0.05579685419797897, 0.24791738390922546, 0.1641387641429901, -0.23340171575546265, -0.13572195172309875, 0.04899671673774719, -0.26444077491760254, 0.09956710040569305, 0.25688913464546204, 0.18322405219078064, 0.22875666618347168, 0.1293097585439682, -0.15570370852947235, -0.2713576853275299, -0.16822496056556702, 0.058420851826667786, 0.13393044471740723, 0.11298490315675735, -0.032120391726493835, -0.33219701051712036, 0.16492851078510284, -0.014573446474969387, -0.28634554147720337, -0.28248968720436096, 0.1591099053621292, -0.056757088750600815, 0.23224836587905884, 0.016957903280854225, -0.3195841908454895, 0.07629767805337906, -0.16429296135902405, -0.19387376308441162, 0.09446661919355392, 0.13788527250289917, -0.16629940271377563, 0.21151818335056305, 0.19817815721035004, -0.19532707333564758, -0.100665383040905, 0.09016626328229904, -0.08684438467025757, -0.2281588762998581, 0.13486212491989136, -0.12957948446273804, -0.16959592700004578, -0.13442297279834747, -0.021030211821198463, -0.12279555946588516, 0.18968753516674042, 0.015043015591800213, -0.05320344865322113, -0.283451646566391, 0.18602927029132843, 0.24594254791736603, 0.1268952339887619, 0.019022220745682716, 0.15742580592632294, 0.02750481478869915, 0.12404103577136993], [-0.06448568403720856, -0.062249984592199326, -0.08898407965898514, 0.05382983386516571, -0.11025062948465347, -0.03729734569787979, -0.16023488342761993, 0.02328963205218315, -0.10257656872272491, -0.14075665175914764, -0.12834733724594116, -0.09942756593227386, -0.03351542353630066, -0.022874856367707253, -0.01443592831492424, -0.07707052677869797, -0.09002355486154556, -0.027969373390078545, -0.07746084034442902, 0.007344209123402834, 0.03748640418052673, 0.008502057753503323, 0.006690720561891794, -0.07105157524347305, -0.013143421150743961, -0.0035995279904454947, -0.10063280165195465, -0.028843535110354424, -0.06234370544552803, -0.006876953411847353, -0.030634725466370583, -0.02118730917572975, -0.022305287420749664, -0.10054604709148407, 0.05962361395359039, 0.02926279976963997, -0.04170731455087662, -0.10839392244815826, -0.08762931078672409, 0.03967481851577759, 0.030176041647791862, -0.10371916741132736, -0.016570039093494415, 0.0066643632017076015, 0.00783633440732956, -0.08817167580127716, -0.04199795797467232, -0.1629408597946167, -0.11385161429643631, -0.04821586236357689, -0.04788407310843468, -0.07098041474819183, -0.014408129267394543, -0.09550727158784866, -0.04075164347887039, -0.009639810770750046, -0.010716311633586884, -0.08523090183734894, -0.05764973536133766, -0.09812571108341217, 0.014632048085331917, 0.03947395458817482, 0.0010664109140634537, 0.003251523245126009, -0.04190338775515556, -0.07008285820484161, -0.05808919295668602, -0.0837978720664978, -0.07390359789133072, 0.021070152521133423, -0.005537923891097307, -0.001107150106690824, -0.026553666219115257, -0.008044017478823662, -0.01371083315461874, -0.12795157730579376, -0.050234828144311905, -0.003394837724044919, -0.046077385544776917, 0.0526423342525959, -0.03631000965833664, 0.044870927929878235, -0.09260530024766922, 0.040874410420656204, -0.1279076635837555, 0.03573278710246086, -0.01009463332593441, -0.05521519482135773, -0.0037245575804263353, 0.024992579594254494, 0.03152826428413391, -0.15835212171077728, -0.055386800318956375, -0.025799650698900223, -0.014276678673923016, 0.03469610959291458, -0.04444599524140358, -0.024507584050297737, -0.03401505947113037, -0.11337505280971527, 0.02632780745625496, 0.033004894852638245, -0.02398320659995079, 0.027239961549639702, -0.12321074306964874, -0.060103751718997955, -0.06516566872596741, -0.08634942024946213, -0.03599248453974724, -0.0907394289970398, -0.06323112547397614, 0.08094915747642517, -0.08201997727155685, -0.03720434755086899, 0.07048383355140686, -0.08091209083795547, -0.09430740028619766, -0.11627727001905441, -0.03239390254020691, -0.0713258907198906, -0.110836461186409, -0.10649366676807404, -0.007653526961803436, -0.0406031534075737, -0.13043095171451569, -0.04449361190199852, 0.03955493122339249, 0.00177933054510504], [0.011318572796881199, -0.10942763090133667, -0.05688387155532837, -0.04843846708536148, -0.11261700838804245, -0.08970823884010315, -0.12327183783054352, 0.017652207985520363, -0.05404023453593254, -0.01444103755056858, 0.005049616098403931, 0.030201951041817665, -0.02157794125378132, -0.08739770948886871, -0.008788430131971836, -0.05230718106031418, -0.07940168678760529, -0.11399796605110168, -0.05196305736899376, -0.06019841134548187, 0.023386085405945778, 0.044660784304142, -0.03761866316199303, 0.0019149960717186332, 0.023466508835554123, -0.01154088694602251, -0.01813148893415928, 0.03478959575295448, -0.02169281616806984, -0.045364029705524445, 0.020116383209824562, 0.025945914909243584, -0.1443461775779724, -0.1133645549416542, 0.013666362501680851, -0.05236022174358368, -0.04191897436976433, -0.07867073267698288, -0.0380188450217247, -0.09680714458227158, -0.062324196100234985, -0.12004426121711731, -0.11139532178640366, -0.15015976130962372, -0.12010280787944794, 0.03432679921388626, -0.0874299481511116, -0.011303252540528774, -0.015560940839350224, -0.16743557155132294, -0.03727373480796814, 0.04882192611694336, -0.07286745309829712, -0.1285974532365799, -0.04317320138216019, -0.028315018862485886, -0.08871614933013916, -0.05419488251209259, 0.04109944403171539, -0.030912872403860092, -0.12762057781219482, -0.09000075608491898, -0.10033134371042252, -0.07339655607938766, -0.09329339861869812, -0.054814234375953674, -0.029410524293780327, -0.05716780200600624, -0.06154366955161095, -0.048512835055589676, -0.10598240047693253, 0.02125004678964615, 0.005474073812365532, 0.0008328430121764541, 0.019485263153910637, -0.15185123682022095, -0.10311011224985123, -0.08559471368789673, -0.015445291064679623, 0.0027286866679787636, 0.033983014523983, 0.014343527145683765, -0.001922162133269012, 0.0200645849108696, -0.05824131891131401, -0.00820275116711855, -0.10704516619443893, -0.09119566529989243, -0.15301872789859772, -0.06434071809053421, -0.032598573714494705, -0.07628367096185684, -0.1466282606124878, -4.346409696154296e-06, -0.13586685061454773, -0.0890660509467125, 0.004531734623014927, -0.15476320683956146, -0.016544470563530922, -0.061746541410684586, -0.04716464877128601, 0.00610691262409091, -0.017922865226864815, -0.026019105687737465, -0.01211244985461235, -0.07772495597600937, -0.14003758132457733, -0.11337260156869888, 0.009644847363233566, -0.14110003411769867, -0.12364829331636429, 0.008846817538142204, 0.006939126178622246, 0.030957240611314774, -0.1480075567960739, -0.07920067012310028, -0.005477671977132559, -0.05593126639723778, -0.1060294359922409, -0.08384627848863602, -0.11070943623781204, -0.03266819939017296, 0.025537224486470222, -0.11379998177289963, -0.0073756203055381775, -0.14431990683078766, -0.06854434311389923, 0.026827316731214523], [-0.07652666419744492, 0.027988916262984276, -0.06679286807775497, -0.11928697675466537, -0.07289332151412964, -0.08683504164218903, 0.009747643023729324, -0.12154689431190491, -0.09791326522827148, -0.10599597543478012, -0.05907066911458969, -0.03187965601682663, 0.020314734429121017, -0.014557166956365108, 0.03531321510672569, 0.04369794949889183, -0.05392608791589737, 0.009971003979444504, 0.06857670098543167, 0.03257018327713013, 0.05788359045982361, -0.008269411511719227, 0.06365189701318741, 0.03945077210664749, -0.02069922722876072, -0.10171323269605637, -0.04391399770975113, -0.02471015974879265, 0.00547826150432229, 0.012748719193041325, 0.04437762498855591, -0.02493070811033249, 0.031352218240499496, -0.049823176115751266, 0.029765697196125984, -0.05449702963232994, 0.030481556430459023, -0.08690623193979263, 0.018918689340353012, -0.03480234742164612, 0.023913687095046043, 0.021486500278115273, 0.013852234929800034, -0.04496321082115173, 0.022545328363776207, 0.047681499272584915, 0.03006994165480137, 0.012856309302151203, -0.009007873944938183, -0.12015446275472641, -0.12185178697109222, 0.05280653387308121, -0.03284052014350891, -0.13674412667751312, -0.053982146084308624, -0.045050911605358124, -0.07243181765079498, -0.07969146966934204, -0.04701986536383629, -0.09828925877809525, -0.11730481684207916, -0.014721361920237541, 0.04456150531768799, 0.044489942491054535, -0.09122836589813232, -0.037668321281671524, -0.06496606767177582, -0.04209383204579353, -0.07007493078708649, -0.12710632383823395, 0.009296217001974583, 0.04612874984741211, -0.0005735631566494703, -0.02067105658352375, -0.09966478496789932, -0.04979392886161804, 0.034172993153333664, 0.019976560026407242, -0.06390387564897537, 0.02678067795932293, 0.028885068371891975, -0.08954112976789474, -0.016633128747344017, -0.09790513664484024, -0.11584313213825226, -0.006156927905976772, -0.08868493884801865, -0.0980357676744461, -0.05658050999045372, 0.06242629140615463, -0.1124093160033226, -0.030643286183476448, -0.07406092435121536, -0.01342677604407072, -0.10573311150074005, -0.008104974403977394, -0.029074477031826973, 0.026274776086211205, -0.02549109049141407, -0.022796206176280975, -0.018420539796352386, -0.025757204741239548, 0.052246857434511185, -0.14467941224575043, -0.08455325663089752, -0.1004907414317131, -0.08413944393396378, -0.04161001369357109, 0.03617318719625473, -0.054018229246139526, -0.09752629697322845, 0.027296246960759163, -0.038786787539720535, -0.07077017426490784, 0.01494191400706768, -0.13834592700004578, -0.08595775067806244, -0.0848752036690712, -0.04127513989806175, -0.10195451229810715, 0.017478078603744507, -0.004741158336400986, 0.08680655807256699, 0.09290888905525208, -0.19239859282970428, -0.04402129724621773, -0.042601216584444046, 0.07095211744308472], [0.21537438035011292, 0.11850190162658691, 0.10119202733039856, -0.10450886934995651, 0.20667032897472382, -0.25142568349838257, -0.19299165904521942, -0.09992877393960953, -0.14436517655849457, 0.10821589082479477, 0.2407628744840622, -0.006249519996345043, -0.1459047496318817, 0.03169994801282883, 0.2868136167526245, 0.11254458129405975, 0.08594392985105515, 0.11089348047971725, 0.2429138869047165, -0.03159673511981964, 0.07832068204879761, 0.16072368621826172, 0.07902077585458755, 0.26524627208709717, 0.009741256013512611, 0.2744453251361847, 0.03874529153108597, 0.048195283859968185, 0.2579234540462494, -0.17948698997497559, 0.18494771420955658, -0.1971859335899353, 0.1482977569103241, -0.24207442998886108, 0.25991758704185486, 0.06564811617136002, 0.21104303002357483, 0.12254995107650757, 0.036585867404937744, 0.14730432629585266, 0.13404269516468048, 0.0014475516509264708, 0.09264752268791199, 0.2682264745235443, 0.14918819069862366, 0.11230486631393433, -0.13130325078964233, -0.15866719186306, -0.23213104903697968, -0.2584414482116699, -0.17686815559864044, 0.20905427634716034, 0.15189506113529205, -0.01661396585404873, -0.19134178757667542, 0.10267294943332672, 0.20956598222255707, -0.2735394239425659, 0.21665479242801666, 0.19499388337135315, 0.06383800506591797, -0.18908244371414185, -0.012837916612625122, 0.03617798164486885, 0.21963509917259216, 0.02375165745615959, -0.06285541504621506, -0.16235192120075226, 0.07307172566652298, -0.17192581295967102, 0.14105470478534698, 0.2247842401266098, -0.21059732139110565, -0.012207848019897938, -0.041873734444379807, -0.16165988147258759, -0.05495240539312363, 0.14680399000644684, 0.17616324126720428, 0.25140732526779175, 0.2600173354148865, -0.11241474002599716, -0.1981947422027588, -0.12278895825147629, 0.027107322588562965, 0.051428958773612976, 0.032165881246328354, 0.08152173459529877, -0.20152506232261658, 0.3120901882648468, -0.02257927879691124, -0.29896700382232666, -0.2843998074531555, 0.13327649235725403, 0.023385150358080864, 0.06877900660037994, 0.09070689231157303, -0.2662998139858246, 0.17968373000621796, -0.053273070603609085, -0.1013600155711174, 0.09955008327960968, 0.1126919537782669, -0.14754588901996613, 0.09116930514574051, 0.23482906818389893, -0.2551242411136627, -0.17296555638313293, 0.15384231507778168, -0.15037603676319122, -0.2914159893989563, 0.06881452351808548, -0.1897507756948471, -0.15682943165302277, -0.19326138496398926, -0.035809244960546494, -0.17502449452877045, 0.16300688683986664, 0.014385437592864037, -0.023149635642766953, -0.20321136713027954, 0.11437763273715973, 0.15977798402309418, 0.1556103676557541, 0.06672981381416321, 0.1825156956911087, 0.10367889702320099, 0.2181612253189087], [0.3844466805458069, -0.1632528156042099, -0.06243027746677399, -0.05763794481754303, 0.19850000739097595, 0.025706952437758446, 0.036807235330343246, -0.03785361349582672, 0.019175883382558823, -0.3487897217273712, 0.12141682952642441, -0.11455559730529785, 0.10030795633792877, 0.040036559104919434, 0.35829633474349976, -0.011554666794836521, 0.22646573185920715, 0.2307797223329544, 0.23661795258522034, 0.032829929143190384, 0.15085898339748383, 0.24397635459899902, 0.26754021644592285, 0.3454288840293884, -0.1385563760995865, 0.24802882969379425, -0.2624080181121826, 0.34435978531837463, 0.06490059942007065, -0.07936867326498032, -0.07294238358736038, -0.21964579820632935, 0.23236247897148132, -0.14105650782585144, 0.32561272382736206, 0.15643177926540375, 0.2467561662197113, -0.09605672955513, -0.02133086696267128, 0.28127947449684143, 0.04579596593976021, -0.16775070130825043, -0.13918279111385345, 0.32127583026885986, 0.11834351718425751, 0.18210497498512268, 0.04932156577706337, -0.030063018202781677, -0.07518897950649261, 0.1522652506828308, -0.18025656044483185, 0.334913432598114, 0.05422680824995041, -0.3172108829021454, -0.11626775562763214, -0.04382801428437233, 0.15135233104228973, -0.14596328139305115, 0.27227747440338135, 0.0018129064701497555, 0.21695275604724884, -0.12588411569595337, 0.02461109682917595, -0.043858639895915985, 0.33067768812179565, 0.042011480778455734, 0.19162271916866302, -0.02055254578590393, 0.09646469354629517, 0.0497821606695652, 0.3400815427303314, 0.30533480644226074, -0.14404332637786865, 0.058239784091711044, 0.06297682225704193, -0.03940003365278244, 0.1254679262638092, 0.07169294357299805, 0.20395326614379883, 0.2688881456851959, 0.33439674973487854, 0.12136857211589813, -0.07386718690395355, -0.09430857002735138, -0.07048385590314865, -0.017525706440210342, -0.33949950337409973, 0.24761952459812164, -0.09782208502292633, 0.32609322667121887, 0.08286809921264648, -0.00875304825603962, 0.10101708024740219, -0.12303799390792847, 0.16719265282154083, 0.1742684245109558, -0.14378207921981812, -0.010881984606385231, -0.004315600730478764, -0.09415648877620697, 0.1777006834745407, 0.18533743917942047, 0.29845407605171204, -0.0016551318112760782, -0.11174757778644562, 0.18537069857120514, -0.037644121795892715, 0.07502957433462143, 0.005972773768007755, -0.013825968839228153, 0.017754141241312027, 0.2975598871707916, -0.0005356636247597635, -0.16542264819145203, -0.01405256986618042, -0.38821256160736084, 0.039148226380348206, -0.043118540197610855, 0.019395040348172188, 0.24721311032772064, 0.17245708405971527, 0.15048576891422272, 0.19674526154994965, 0.04384836181998253, -0.3430144190788269, 0.26677006483078003, 0.1868928223848343, 0.12467704713344574], [0.5583292245864868, -0.4462284445762634, -0.6051711440086365, 0.005077014677226543, 0.44380873441696167, -1.0488801002502441, -1.3246405124664307, 0.04461158439517021, -0.4080204665660858, -0.6485475301742554, 0.1699344366788864, -0.5226888656616211, -0.34183448553085327, -0.38566306233406067, 0.22882907092571259, -0.4786464273929596, 0.615115761756897, 0.43349489569664, 0.09201187640428543, 0.13044613599777222, 0.028602130711078644, 0.32414546608924866, 0.33162760734558105, 0.6299450993537903, -0.6748165488243103, 0.6905734539031982, -0.8652684092521667, 0.28060171008110046, 0.013080143369734287, -0.17600026726722717, -0.27773070335388184, -0.052183568477630615, 0.6505401730537415, 0.20916591584682465, 0.8489486575126648, 0.5313458442687988, 0.7350229024887085, -0.3255263864994049, -0.05231041833758354, 0.5666884779930115, -0.22434170544147491, -0.24623392522335052, -0.5074847340583801, 0.7210954427719116, -0.11871007829904556, 0.1311555653810501, 0.14849652349948883, -0.34383249282836914, -0.015905968844890594, -0.8462668657302856, 0.05427108705043793, 0.22163644433021545, -0.17390196025371552, -0.7900077700614929, -0.02439013309776783, -0.22481001913547516, -0.16943402588367462, 0.1100873127579689, 0.339084655046463, -0.14203035831451416, 0.4524092972278595, -0.05086912587285042, -0.09634274989366531, -0.48067182302474976, 0.5371435284614563, -0.022051583975553513, 0.03418557718396187, 0.06836890429258347, -0.19182059168815613, 0.21828606724739075, 0.4915339946746826, 0.23216234147548676, 0.00194909842684865, 0.11359108984470367, 0.07310793548822403, -0.12274550646543503, 0.1607336401939392, 0.053545136004686356, 0.16750547289848328, 0.7579489350318909, 0.18201151490211487, 0.08459939062595367, -0.9986200332641602, 0.18211381137371063, -0.5227994918823242, -0.10337260365486145, -0.918993353843689, 0.22698341310024261, -1.522009015083313, 0.6649135947227478, 0.16557541489601135, -0.733797013759613, -0.5871651768684387, -0.36121097207069397, 0.29217153787612915, 0.11266865581274033, -0.3817172348499298, -1.2177093029022217, -0.3389906883239746, -0.3828655183315277, 0.47174257040023804, 0.8126763701438904, 0.7339102029800415, 0.2563941180706024, -0.3969951272010803, 0.8574680089950562, -0.24089862406253815, 0.3059498369693756, -0.41053980588912964, -0.2730861306190491, -1.0915493965148926, 0.5502143502235413, -0.11857803165912628, -0.042939286679029465, 0.2350378781557083, -0.5477400422096252, 0.14381390810012817, -0.3930101692676544, -0.04238590970635414, 0.5643200278282166, -1.07437264919281, 0.13095474243164062, 0.13829286396503448, -0.2588113844394684, -0.8365902304649353, 0.5070497989654541, 0.7625448107719421, 0.002521967049688101], [-0.07190980017185211, 0.03459819033741951, 