[{"weight": [[-0.5186883211135864, -0.12514737248420715], [-0.3394474983215332, 0.023714086040854454], [-0.5562635660171509, 0.4561634957790375], [0.03903866186738014, -0.5765976905822754], [0.24705561995506287, -0.2693636119365692], [-0.43097710609436035, 0.5261620283126831], [-0.02337666228413582, 0.6646202206611633], [0.3328227996826172, -0.05211677402257919], [-0.18737363815307617, -0.5320056080818176], [-0.14578816294670105, 0.7841438055038452], [0.381095290184021, -0.7223811745643616], [0.048826564103364944, 0.288083553314209], [-0.12760645151138306, 0.09612943977117538], [-0.7181271314620972, 0.05590689554810524], [0.5745639801025391, -0.570354700088501], [-0.3912581205368042, 0.34341147541999817], [-0.20514729619026184, 0.5906899571418762], [0.7041470408439636, 0.699337899684906], [0.13463900983333588, -0.07527194917201996], [0.08474583178758621, -0.5501419901847839], [0.5750316381454468, 0.8772345781326294], [-0.9685381054878235, 0.04275492951273918], [0.6063670516014099, 0.028781941160559654], [0.7830698490142822, -0.48592379689216614], [0.7962231040000916, 0.4788280129432678], [0.38968396186828613, 0.6601565480232239], [0.770230770111084, 0.5010699033737183], [0.30542364716529846, 0.5314680337905884], [-0.10742500424385071, -0.35639020800590515], [-0.14107409119606018, 0.8179404735565186], [0.2126687467098236, -0.16174334287643433], [0.21712078154087067, -0.3367665708065033], [0.20092935860157013, 0.852845311164856], [0.3986741900444031, 0.4065786898136139], [-0.7454373836517334, -0.06726909428834915], [0.16797000169754028, -0.05374236777424812], [-0.7984980344772339, -0.05452888831496239], [-0.5373319387435913, 0.2843303084373474], [0.8249728083610535, -0.6111839413642883], [0.11697450280189514, 0.09350124001502991], [-0.6403289437294006, 0.4353385865688324], [-0.8628759980201721, -0.5754115581512451], [-0.19397307932376862, -0.16616277396678925], [0.5861472487449646, 0.020762253552675247], [0.8475186228752136, -0.8216314315795898], [-0.5946440696716309, 0.6003885865211487], [-0.19638732075691223, 0.4788779020309448], [0.5263285040855408, 0.7060913443565369], [0.16937865316867828, -0.24491514265537262], [-0.45183661580085754, 0.7510878443717957], [-0.25867074728012085, 0.7734013199806213], [0.6867676973342896, -0.7390085458755493], [0.6172571182250977, 0.42919981479644775], [0.8389782905578613, 0.5572222471237183], [0.5831179618835449, 0.21235674619674683], [0.1826862096786499, -0.48720043897628784], [0.287505567073822, 0.6218171715736389], [-0.8264163732528687, -0.10931002348661423], [-0.003082066774368286, -0.25057631731033325], [-0.24130424857139587, -0.5870463848114014], [-0.12924592196941376, 0.35083457827568054], [0.023439018055796623, -0.5056536793708801], [0.08158249408006668, -0.28459060192108154], [0.03805098310112953, -0.6017618775367737], [-0.8458989262580872, -0.7095673084259033], [-0.410356730222702, -0.17042817175388336], [0.040626171976327896, 0.7470672130584717], [0.8019828796386719, -0.6567560434341431], [0.976279616355896, 0.484401136636734], [0.17997711896896362, -0.37020283937454224], [0.7935090065002441, 0.7140909433364868], [-0.5934340357780457, -0.46458229422569275], [-0.48209962248802185, 0.27613699436187744], [-0.1592850685119629, -0.5076078176498413], [-0.449291467666626, 0.45132026076316833], [-0.7201586365699768, -0.5064198970794678], [0.4483615458011627, -0.8280282616615295], [-0.6772724390029907, -0.5391514897346497], [0.9286425709724426, 0.44204163551330566], [0.056911952793598175, -0.6247756481170654], [0.07103308290243149, -0.236169695854187], [-0.8798337578773499, 0.34799712896347046], [-0.42313799262046814, -0.39999616146087646], [0.4881134033203125, 0.7462195158004761], [0.8546366095542908, 0.39865219593048096], [0.6584991216659546, 0.6887937188148499], [0.046651873737573624, -0.7977334260940552], [0.8784665465354919, 0.3954927325248718], [0.07317458093166351, 0.2932738661766052], [-0.7086770534515381, -0.6602264642715454], [0.5603880882263184, -0.6669915914535522], [0.25836947560310364, -0.726671040058136], [0.3408934473991394, -0.18408899009227753], [-0.388893723487854, 0.6210298538208008], [0.6024986505508423, 0.942546010017395], [-0.4633486568927765, -0.6385878324508667], [-0.10599684715270996, 0.39525535702705383], [0.22857362031936646, 0.8004965782165527], [0.34505394101142883, -0.6602204442024231], [0.5524502396583557, -0.3272433578968048], [0.43301448225975037, 0.08746296912431717], [-0.3136163651943207, 0.34923055768013], [-0.9041492342948914, 0.6320062875747681], [-0.4458596706390381, -0.6054110527038574], [0.9888155460357666, 0.45099160075187683], [-0.708503007888794, -0.2546556890010834], [0.1665126383304596, -0.6705681085586548], [0.027348048985004425, 0.791353166103363], [-0.7010139226913452, 0.5839291214942932], [0.3971613943576813, -0.6328935623168945], [-0.7893429398536682, 0.13349159061908722], [0.8838892579078674, 0.38382649421691895], [0.737841010093689, -0.06476430594921112], [-0.591870903968811, -0.5397905707359314], [0.1597854644060135, -0.4120941162109375], [-0.3200475871562958, 0.41606032848358154], [-0.7346089482307434, -0.7773177623748779], [-0.5159256458282471, -0.26830047369003296], [-0.7297305464744568, 0.1658453643321991], [0.46689027547836304, -0.4291740655899048], [-0.06201281026005745, 0.658523440361023], [0.41054192185401917, -0.8747036457061768], [0.42230066657066345, 0.44833266735076904], [0.4008633494377136, 0.05811897665262222], [0.38458049297332764, 0.5700385570526123], [-0.7698833346366882, 0.013668644241988659], [0.1803978979587555, -0.4263313412666321], [-0.3106277287006378, -0.7659476399421692]], "bias": [0.2580784261226654, 0.2840786278247833, -0.25628477334976196, 0.3345341980457306, -0.29927727580070496, 0.5059874653816223, -0.8307424187660217, -0.7131369709968567, 0.6107387542724609, 0.2978745102882385, 0.00214950367808342, -0.4744202196598053, -0.5960274934768677, -0.47179481387138367, 0.3366784155368805, -0.5286864638328552, 0.051523055881261826, -0.10053220391273499, -0.4492533206939697, 0.6143488883972168, -0.22803370654582977, -0.40111106634140015, 0.27138441801071167, 0.588607132434845, -0.7250444889068604, 0.555699348449707, 0.30626726150512695, 0.19143113493919373, 0.5681833624839783, -0.16464875638484955, 0.25368666648864746, -0.5545886754989624, -0.6056069731712341, -0.7381467819213867, -0.021278275176882744, -0.04229907691478729, 0.19025073945522308, -0.6625069379806519, 0.6664659976959229, 0.03707696869969368, -0.18757125735282898, -0.7025719285011292, -0.6918086409568787, -0.5204500555992126, 0.2692858576774597, 0.06441882252693176, 0.5445985198020935, -0.15393315255641937, 0.306548535823822, -0.22955739498138428, -0.5542818307876587, 0.5093392133712769, -0.4124792814254761, -0.3080233633518219, 0.3960763216018677, -0.6091694831848145, 0.15564800798892975, -0.5390951633453369, -0.33729127049446106, -0.11385717988014221, -0.2907043695449829, -0.672440230846405, -0.40788260102272034, -0.1322639137506485, 0.47333213686943054, -0.0467732734978199, -0.6565786004066467, -0.22342625260353088, -0.5087377429008484, -0.3353344202041626, 0.3508170247077942, 0.4080386459827423, -0.20262038707733154, 0.584071695804596, 0.16971971094608307, -0.0359654538333416, 0.2950621247291565, 0.33579137921333313, -0.028911247849464417, -0.4319583773612976, -0.3519132733345032, 0.15872810781002045, 0.288346529006958, -0.30735015869140625, 0.0994064062833786, -0.16101551055908203, -0.38316038250923157, -0.15522903203964233, 0.18662035465240479, 0.24060063064098358, 0.6000388264656067, -0.5222242474555969, -0.09401602298021317, 0.49732986092567444, -0.6125543713569641, 0.35060712695121765, 0.3805365264415741, 0.04916108027100563, -0.3578738868236542, -0.09108959883451462, 0.32120004296302795, -0.03410939499735832, -0.45514997839927673, 0.45115625858306885, -0.5200355648994446, -0.18646152317523956, -0.15989911556243896, -0.3358354866504669, 0.3906313478946686, -0.28553253412246704, -0.27491268515586853, 0.3922024369239807, 0.26723363995552063, 0.110767662525177, 0.2307538390159607, 0.3526514768600464, -0.3721047639846802, -0.6123972535133362, -0.5288347601890564, 0.5342724323272705, -0.013854838907718658, -0.4255482256412506, 0.36195456981658936, -0.5706804394721985, -0.5703545808792114, 0.5541041493415833, 0.0816989615559578, 0.6506548523902893]}, {"weight": [[-0.11735644191503525, -0.027196241542696953, -0.10064370930194855, -0.12093954533338547, -0.10296433418989182, -0.03668030723929405, 0.014713375829160213, -0.001388915115967393, -0.18597076833248138, -0.050256211310625076, -0.0543258860707283, -0.00943314004689455, -0.10996682941913605, -0.12843933701515198, -0.09269120544195175, -0.06503171473741531, -0.13058783113956451, 0.17556968331336975, -0.10031329840421677, -0.04275617375969887, 0.08726000785827637, -0.0589534193277359, 0.07864204794168472, -0.04684942960739136, 0.12606748938560486, -0.03437034413218498, 0.062339428812265396, 0.010757045820355415, -0.03307757526636124, 0.047492578625679016, -0.026099376380443573, -0.04123425856232643, 0.08144684880971909, 0.1105622872710228, -0.11297237873077393, 0.0007194569334387779, -0.06745649129152298, -0.17486907541751862, -0.10385335981845856, 0.025508727878332138, -0.13606250286102295, -0.064078688621521, -0.1280464231967926, 0.00535003375262022, -0.014995982870459557, -0.03231440857052803, -0.1330481618642807, 0.001758868107572198, -0.13549785315990448, -0.08996879309415817, -0.026492889970541, -0.081534743309021, 0.08545659482479095, 0.11924140900373459, 0.02031506970524788, -0.1571841984987259, 0.06832224875688553, -0.1328393518924713, -0.15253986418247223, -0.08847077935934067, -0.046350300312042236, -0.03758746385574341, -0.08039901405572891, -0.07149840891361237, -0.04446083679795265, -0.14127059280872345, 0.0376967117190361, -0.03429434821009636, 0.1829514503479004, -0.037555865943431854, 0.015466454438865185, -0.12308294326066971, -0.06702418625354767, -0.05343244597315788, -0.1054828092455864, -0.0762992724776268, -0.11797448992729187, -0.12605053186416626, 0.14324933290481567, -0.13275623321533203, -0.13605371117591858, -0.177925243973732, -0.10038386285305023, 0.1351214200258255, 0.058900393545627594, 0.1730426698923111, -0.0823385939002037, 0.06458825618028641, -0.1363498717546463, -0.020237112417817116, -0.11452209204435349, -0.08233635872602463, -0.08274297416210175, -0.06930834800004959, 0.21256044507026672, -0.016653668135404587, -0.1395048350095749, -0.010404959321022034, -0.040737394243478775, -0.01937456987798214, -0.02559809572994709, -0.16602344810962677, -0.18527644872665405, -0.10967889428138733, 0.11572825908660889, -0.02971002645790577, -0.03657536581158638, -0.009006288833916187, -0.04677996784448624, -0.04874764010310173, -0.06908875703811646, 0.08186109364032745, -0.048346515744924545, -0.023081788793206215, -0.049466464668512344, -0.15014293789863586, -0.13279250264167786, -0.11884626746177673, -0.16150164604187012, -0.08641508221626282, -0.00041453458834439516, -0.08988545835018158, 0.0591387003660202, -0.015748264268040657, 0.0880376324057579, -0.04924192279577255, -0.07166346907615662, -0.1643466055393219], [-0.12036304175853729, -0.14918670058250427, -0.22334784269332886, 0.05904795974493027, 0.1477690488100052, -0.19473868608474731, -0.12454631924629211, 0.019960276782512665, 0.07154957950115204, -0.3007652461528778, 0.19682882726192474, -0.10558110475540161, -0.12890581786632538, -0.1629198044538498, 0.1425655037164688, -0.15738914906978607, -0.11469590663909912, -0.14308878779411316, -0.054859645664691925, 0.009472661651670933, -0.06991925835609436, -0.3443939685821533, -0.011607330292463303, 0.20318084955215454, -0.04414011910557747, -0.1784154176712036, -0.11372911930084229, -0.0248778834939003, -0.028421461582183838, -0.17568717896938324, 0.09200038015842438, 0.0431690476834774, -0.18058134615421295, -0.0869981199502945, -0.19052670896053314, -0.02819918841123581, -0.2846299409866333, -0.1794041246175766, 0.2131207138299942, -0.13299956917762756, -0.21008391678333282, -0.15550702810287476, -0.10918663442134857, 0.0448184609413147, 0.27030932903289795, -0.33400747179985046, -0.15183977782726288, -0.09081993997097015, 0.08178362250328064, -0.1969107687473297, -0.20356397330760956, 0.17980065941810608, -0.05340368673205376, 0.015016003511846066, -0.04749910905957222, 0.05985325574874878, -0.1377711445093155, -0.22455917298793793, -0.03469926863908768, -0.014409719035029411, -0.13249589502811432, 0.048257920891046524, 0.02622528187930584, 0.14875879883766174, -0.05979325249791145, -0.019174790009856224, -0.1358855813741684, 0.29337379336357117, 0.012029835022985935, 0.1491864025592804, -0.039016980677843094, -0.02057037688791752, -0.2359960824251175, -0.015746209770441055, -0.15319114923477173, -0.14132028818130493, 0.19927170872688293, -0.04365294426679611, -0.09066931903362274, 0.10843771696090698, 0.09961461275815964, -0.22688981890678406, -0.0968998596072197, -0.1735311895608902, 0.013780086301267147, -0.1349126398563385, 0.09790296852588654, -0.02106689102947712, -0.025982201099395752, 0.006790307816118002, 0.21957294642925262, 0.22734281420707703, 0.04389519244432449, -0.21389921009540558, -0.17577199637889862, -0.0748782828450203, -0.2109944075345993, -0.23145373165607452, 0.24849392473697662, 0.1955621987581253, -0.05248519033193588, -0.10228883475065231, -0.3337293863296509, -0.0027973856776952744, -0.060318730771541595, -0.11843428015708923, 0.21837083995342255, -0.09455067664384842, -0.35968029499053955, 0.2549782991409302, -0.2875717580318451, -0.050952255725860596, 0.028911283239722252, -0.015231604687869549, 0.06627773493528366, -0.1120358407497406, 0.00923036690801382, -0.08579491823911667, -0.31046396493911743, 0.06426805257797241, -0.2536343038082123, 0.246756449341774, -0.01426689513027668, -0.05940745770931244, -0.14935192465782166, -0.22186800837516785, 0.10071240365505219, 0.1053915023803711], [0.014380800537765026, 0.008745481260120869, -0.0728365033864975, -0.0777912437915802, -0.0399945005774498, -0.06829505413770676, -0.08620117604732513, 0.0025785802863538265, 0.03533833101391792, -0.0834602564573288, 0.05436384677886963, -0.12037794291973114, 0.016159499064087868, 0.026975132524967194, -0.069077268242836, -0.0702749639749527, -0.09497729688882828, 0.03749173879623413, -0.10873710364103317, -0.11837603151798248, -0.02787121944129467, -0.021839916706085205, -0.037519972771406174, -0.07560007274150848, -0.007152965292334557, -0.05296410620212555, -0.07025547325611115, 0.036210671067237854, -0.10803399980068207, 0.032022055238485336, -0.08040609955787659, -0.07279179245233536, -0.1316555291414261, -0.09505193680524826, -0.11481927335262299, -0.04341314360499382, -0.017752887681126595, -0.07430296391248703, -0.07992573827505112, -0.10204393416643143, -0.05448044091463089, 0.02647688053548336, 0.0010695124510675669, -0.09660358726978302, -0.07018274068832397, -0.06211953982710838, -0.05600515380501747, -0.0071989246644079685, 0.012202613987028599, 0.02764677070081234, -0.020754430443048477, -0.08895859122276306, -0.0012912576785311103, -0.0847204253077507, -0.06208884343504906, 0.015660669654607773, 0.03370337560772896, 0.006131699308753014, -0.12316334247589111, 0.016327865421772003, -0.017608223482966423, -0.021562226116657257, -0.015968909487128258, -0.07868512719869614, -0.027614139020442963, -0.08330941945314407, -0.09142939746379852, -0.12218014895915985, 0.011871850118041039, -0.007134420797228813, -0.007766883820295334, -0.06224903464317322, -0.12925656139850616, 0.011563392356038094, -0.10875445604324341, 0.018192898482084274, 0.022079413756728172, 0.04393431916832924, -0.04972749948501587, -0.03398776799440384, -0.021494584158062935, -0.00019235993386246264, -0.06602604687213898, -0.01445329561829567, -0.03910281881690025, -0.07139839231967926, -0.021509215235710144, -0.004599122796207666, -0.07884544134140015, 0.038727808743715286, -0.0954303964972496, -0.11867674440145493, -0.03278133273124695, -0.126701220870018, -0.038594286888837814, -0.027468524873256683, -0.12599308788776398, -0.1124013140797615, -0.04347521811723709, -0.045514628291130066, -0.1224142462015152, -0.11713015288114548, 0.005228365771472454, -0.05970965325832367, -0.03151920065283775, 0.04287856072187424, -0.09696643799543381, -0.059940166771411896, 0.011843833141028881, 0.011588294990360737, -0.03930113837122917, -0.0717732235789299, -0.09496606141328812, -0.011087227612733841, -0.06692226976156235, -0.0334378220140934, 0.04039454832673073, -0.05661022663116455, -0.01260134857147932, -0.02323629893362522, -0.07366704940795898, 0.0021248972043395042, -0.08392570912837982, 0.023948874324560165, -0.11455795913934708, -0.0948987528681755, -0.1144028827548027, -0.05835408717393875], [-0.0158076174557209, -0.05848371610045433, -0.0741896778345108, -0.07207198441028595, 0.044662997126579285, -0.019347846508026123, 0.02282589301466942, -0.11302720010280609, 0.05304240807890892, -0.004416430834680796, 0.0563802532851696, -0.10831143707036972, 0.016175653785467148, -0.03894384205341339, 0.03887923061847687, 0.030462568625807762, 0.04729015752673149, -0.06427332758903503, 0.05305643007159233, 0.06716766953468323, -0.08938325196504593, -0.04396954923868179, 0.008455675095319748, 0.06338753551244736, -0.10743389278650284, -0.11891672015190125, -0.007314758375287056, -0.10218221694231033, -0.07278305292129517, 0.03508308529853821, -0.03571184724569321, 0.03865739703178406, -0.11406722664833069, 0.028217410668730736, -0.1505165994167328, 0.02962878718972206, 0.015608626417815685, 0.043977778404951096, 0.059304047375917435, -0.08994828909635544, -0.003100345144048333, -0.1500043272972107, -0.10772830992937088, 0.0004486168618313968, -0.011354358866810799, -0.05398176982998848, -0.05814402177929878, -0.11079457402229309, -0.056858692318201065, 0.02261626161634922, 0.04317875951528549, 0.05537564679980278, 0.0025179018266499043, -0.12394170463085175, -0.005719839595258236, -0.08563105016946793, 0.009565690532326698, 0.0028855293057858944, -0.07969240844249725, 0.036088984459638596, -0.10764402151107788, 0.031201442703604698, -0.08255816996097565, -0.031521473079919815, -0.02462969534099102, -0.0703403651714325, -0.05015875771641731, 0.08773408830165863, -0.005670513026416302, -0.09865075349807739, -0.017724186182022095, -0.030786389485001564, -0.036484938114881516, 0.01845972053706646, -0.06525839120149612, -0.012980667874217033, 0.08642647415399551, -0.1122988611459732, -0.046772584319114685, -0.005621466785669327, -0.10812213271856308, -0.05157526955008507, -0.010787616483867168, -0.08150509744882584, -0.13078513741493225, -0.08414225280284882, -0.049324650317430496, -0.1228189542889595, 0.05294051021337509, -0.12207493931055069, 0.01656557247042656, -0.017130842432379723, -0.05691388249397278, -0.0606364905834198, -0.0036663697101175785, -0.0978364646434784, -0.11996804922819138, -0.08387910574674606, 0.004844771232455969, -0.004076960496604443, -0.013264667242765427, -0.03566419333219528, -0.08702520281076431, -0.07996495068073273, 0.02449512481689453, -0.09234265983104706, -0.021492967382073402, -0.09339217841625214, -0.039131730794906616, 0.008074368350207806, -0.09276670962572098, -0.10813846439123154, -0.046367790549993515, -0.0845540389418602, 0.07606452703475952, -0.11269715428352356, -0.023623982444405556, -0.033650439232587814, -0.07929759472608566, 0.0427095964550972, -0.04619550704956055, -0.020368577912449837, -0.11764604598283768, -0.08282352238893509, -0.07856359332799911, -0.13194508850574493, 0.001452409429475665, -0.07526060193777084], [0.06073436513543129, 0.029701564460992813, -0.09856253117322922, 0.14031882584095, 0.04473390057682991, -0.07696697115898132, -0.10898840427398682, -0.1344355195760727, 0.06292660534381866, -0.1370331048965454, 0.1533960998058319, -0.06571206450462341, -0.03991898521780968, 0.03050702065229416, 0.09868978708982468, -0.0889434814453125, -0.09145677834749222, -0.270426869392395, -0.00943724811077118, -0.02336067520081997, -0.18813066184520721, 0.05534924566745758, -0.09641599655151367, -0.08363784849643707, -0.2471323162317276, -0.15031680464744568, -0.26998835802078247, -0.1381528079509735, -0.047425128519535065, -0.12674874067306519, -0.07332862168550491, -0.027993669733405113, -0.17425653338432312, -0.11506237089633942, -0.05989190563559532, -0.07866553962230682, -0.0449427105486393, -0.01446663960814476, 0.014363830909132957, -0.1042805090546608, -0.07928014546632767, 0.1631709784269333, 0.03587839752435684, -0.1679011583328247, -0.037609994411468506, -0.06814799457788467, -0.12161199003458023, -0.1470598578453064, -0.06773758679628372, -0.11586794257164001, -0.12436719983816147, 0.09823882579803467, -0.14965280890464783, -0.2493915557861328, -0.12806585431098938, 0.1357073187828064, -0.22383257746696472, 0.004653909709304571, 0.08670119941234589, 0.01692805252969265, -0.029259897768497467, 0.08518755435943604, -0.02769993245601654, 0.001800027908757329, 0.07645541429519653, 0.04595816507935524, -0.05321579799056053, 0.009122584015130997, -0.17743580043315887, 0.09659035503864288, -0.20785139501094818, 0.09659018367528915, -0.059641044586896896, 0.11776120215654373, -0.027420369908213615, 0.015323744155466557, 0.1431719958782196, 0.07901974022388458, -0.31242793798446655, 0.05635712295770645, -0.06541576236486435, 0.007640042342245579, -0.00554629135876894, -0.16623206436634064, -0.23248276114463806, -0.11380423605442047, 0.1025756224989891, -0.13963480293750763, -0.09546925127506256, 0.055688872933387756, 0.09629107266664505, 0.044477835297584534, 0.007344583049416542, -0.00907965563237667, -0.2588037848472595, 0.11650888621807098, -0.043023038655519485, -0.17681388556957245, 0.036661747843027115, -0.04322981461882591, -0.0552717000246048, -0.009816789999604225, -0.009960649535059929, 0.0906079113483429, -0.34386780858039856, 0.010535486042499542, 0.03034314513206482, -0.11621478945016861, -0.11314608156681061, 0.04678422957658768, 0.027376525104045868, -0.1851375252008438, -0.17503157258033752, 0.06346575170755386, 0.05829250440001488, -0.03224083408713341, 0.1939387023448944, -0.02602630853652954, 0.016176855191588402, 0.03445824980735779, -0.14629198610782623, 0.057568084448575974, -0.0547599121928215, -0.04739542677998543, -0.12167716026306152, 0.011553781107068062, -0.000795719912275672, 0.06376132369041443], [-0.05411720275878906, 0.03068140149116516, -0.06878601759672165, -0.06161797046661377, 0.023265037685632706, -0.05355177819728851, -0.07906349748373032, -0.08577501028776169, 0.017860863357782364, 0.02291920594871044, -0.01058870367705822, -0.04128863662481308, 0.021659264340996742, -0.08101639151573181, 0.004121715202927589, -0.030875643715262413, -0.12017776072025299, -0.08122371882200241, -0.0828620046377182, -0.047263916581869125, -0.022324472665786743, -0.09685482084751129, -0.06548197567462921, 0.03392463177442551, 0.05576324462890625, 0.048273779451847076, -0.02895599976181984, -0.09690029919147491, -0.032498180866241455, -0.09148485958576202, -0.07846570760011673, -0.04920804873108864, 0.016455993056297302, 0.0097128851339221, -0.11095114052295685, 0.017562905326485634, -0.09513981640338898, -0.12464332580566406, 0.09073977917432785, -0.0899001732468605, -0.11175670474767685, -0.06485734134912491, -0.06016802415251732, -0.009802229702472687, 0.0969669297337532, 0.021491682156920433, -0.11900529265403748, -0.10306711494922638, -0.05959872156381607, -0.1376069188117981, -0.10146085172891617, -0.006478265859186649, 0.055352505296468735, 0.009237932972609997, -0.014138421043753624, 0.029603756964206696, -0.0858691930770874, 0.01911805383861065, -0.040269508957862854, -0.10402676463127136, -0.017505880445241928, -0.06112171709537506, -0.03440108895301819, 0.0004411771660670638, -0.004227536730468273, -0.11545289307832718, 0.005620764568448067, 0.1218002513051033, -0.048487477004528046, 0.03551195189356804, -0.050769057124853134, -0.10939540714025497, -0.018929174169898033, 0.010387166403234005, -0.08381832391023636, -0.06963691115379333, 0.09102410078048706, -0.008728080429136753, 0.08322351425886154, 0.04587159305810928, 0.05599401891231537, -0.13779595494270325, -0.05987897887825966, 0.027709757909178734, -0.07348562777042389, -0.1123594418168068, -0.030771974474191666, 0.06544578820466995, -0.051638342440128326, -0.010718236677348614, -0.0031701824627816677, 0.07194457203149796, -0.03365662321448326, -0.0570894256234169, -0.03000890091061592, -0.038114387542009354, -0.006101750303059816, -0.04976104572415352, -0.05310504138469696, -0.06960300356149673, 0.019693715497851372, -0.05649130046367645, -0.000508724304381758, 0.02356690913438797, 0.034181755036115646, 0.0008784584351815283, 0.039074745029211044, -0.012143795378506184, -0.11913636326789856, 0.029264112934470177, -0.07680101692676544, -0.07777365297079086, -0.03593933954834938, -0.13702969253063202, 0.05803248658776283, -0.10655418038368225, -0.14820031821727753, -0.09889716655015945, -0.09472368657588959, -0.07746784389019012, -0.01935724914073944, 0.04813496395945549, -0.038091301918029785, -0.03917088359594345, -0.08168543130159378, -0.04644608125090599, -0.03797123208642006, -0.061951301991939545], [-0.026550546288490295, -0.031075114384293556, 0.029929853975772858, -0.0920710563659668, -0.019563496112823486, 0.03218173235654831, 0.008856898173689842, -0.06908387690782547, -0.005744564346969128, -0.048798974603414536, -0.13726642727851868, 0.06641179323196411, -0.012167136184871197, -0.10010801255702972, 0.0033191319089382887, -0.08888108283281326, 0.021793970838189125, -0.014224117621779442, -0.07265977561473846, 0.06543674319982529, 0.003843778045848012, -0.02163161151111126, -0.08889656513929367, 0.010090740397572517, 0.031141268089413643, -0.037061139941215515, 0.006483628414571285, -0.09696821868419647, 0.051463041454553604, -0.024120952934026718, 0.040914617478847504, -0.0481240451335907, -0.09191887825727463, -0.05362502485513687, -0.014258726499974728, -0.0627887099981308, -0.08779511600732803, -0.11246522516012192, -0.15697628259658813, -0.007609011605381966, -0.061675168573856354, 0.08051720261573792, -0.0253034345805645, -0.07219115644693375, -0.1554504930973053, 0.007502651307731867, 0.05825262516736984, 0.015375147573649883, 0.042362529784440994, -0.11498831957578659, -0.07874099910259247, -0.0647982731461525, 0.013761495240032673, -0.03768937289714813, -0.09825237840414047, -0.09195078909397125, 0.006025164388120174, 0.0004396830918267369, -0.0024739757645875216, 0.02386431023478508, 0.0033492916263639927, -0.06192774325609207, -0.08684390783309937, 0.03336291015148163, -0.018407385796308517, -0.04145647957921028, -0.0991666167974472, -0.10704366862773895, -0.08050636202096939, -0.015707049518823624, -0.04648888111114502, -0.010469191707670689, -0.08235816657543182, -0.08225958049297333, -0.09933984279632568, 0.07389330118894577, -0.008784634992480278, -0.032855767756700516, -0.00347599177621305, -0.055394481867551804, -0.033087410032749176, 0.03499361500144005, -0.03222962096333504, -0.043703388422727585, -0.08328662812709808, -0.05489027500152588, 0.028010748326778412, -0.12426722049713135, -0.07353674620389938, -0.025010790675878525, -0.10585489124059677, -0.00838465616106987, -0.08032306283712387, -0.033891722559928894, 0.016449660062789917, 0.025216814130544662, 0.054390646517276764, 0.03950665146112442, -0.0753331407904625, -0.12910336256027222, 0.024626126512885094, 0.05442141741514206, -0.03428901359438896, 0.0403561107814312, -0.04896301403641701, 0.008266827091574669, -0.04713904485106468, -0.06218348443508148, -0.1332390457391739, -0.1498640924692154, -0.062076568603515625, 0.03844202682375908, -0.08673946559429169, 0.038002800196409225, 0.015364624559879303, -0.08358319848775864, 0.03157975524663925, 0.06830838322639465, -0.0648355558514595, -0.026201730594038963, -0.016302457079291344, -0.029912443831562996, 0.0663309171795845, 0.04857008159160614, -0.03738594427704811, -0.04424436017870903, -0.09624021500349045, 0.06651017814874649], [-0.26429909467697144, -0.28627562522888184, -0.14977824687957764, 0.034559886902570724, 0.022384872660040855, -0.22152480483055115, -0.2669801712036133, -0.03300967440009117, 0.04786159098148346, -0.2554481625556946, 0.2774387300014496, -0.12571871280670166, -0.22588737308979034, -0.35099563002586365, 0.1275116354227066, -0.25624555349349976, -0.13741204142570496, -0.22381392121315002, -0.07925096154212952, 0.053730305284261703, -0.23362687230110168, -0.2514881491661072, -0.03923375532031059, 0.159945547580719, -0.24675844609737396, -0.24595573544502258, -0.12199413776397705, -0.20276452600955963, -0.02977594919502735, -0.14577063918113708, 0.03615671023726463, 0.034016430377960205, -0.226182758808136, -0.21382498741149902, -0.3301818072795868, -0.023811839520931244, -0.3703879714012146, -0.3224232792854309, 0.14505410194396973, -0.06585661321878433, -0.2713008224964142, -0.2365645468235016, -0.10466637462377548, 0.04587401822209358, 0.2709657549858093, -0.1924538016319275, -0.276810884475708, -0.2641107141971588, 0.07168738543987274, -0.25579404830932617, -0.2201729267835617, 0.15277177095413208, -0.1447346806526184, -0.1933373510837555, -0.13294486701488495, 0.13409478962421417, -0.2477567195892334, -0.37142515182495117, 0.051679812371730804, -0.03541216626763344, -0.1494852602481842, 0.08353450894355774, -0.01237474475055933, 0.140374094247818, -0.2431449145078659, -0.265015572309494, -0.15792666375637054, 0.1961786150932312, -0.12282424420118332, 0.05879560112953186, -0.27211958169937134, -0.19509616494178772, -0.1818920075893402, -0.0006454995600506663, -0.22938264906406403, -0.2739410996437073, 0.22288967669010162, -0.16578465700149536, -0.16983766853809357, 0.04402988404035568, 0.011061624623835087, -0.3198989927768707, -0.15279552340507507, -0.2815059721469879, -0.06613672524690628, -0.21066080033779144, 0.24882838129997253, -0.21719492971897125, -0.23985739052295685, -0.22287024557590485, 0.10803834348917007, 0.2920188009738922, 0.057284675538539886, -0.2647397518157959, -0.38290488719940186, -0.0793391764163971, -0.21627908945083618, -0.14909406006336212, 0.15589334070682526, 0.1584426760673523, -0.1446625292301178, -0.22578702867031097, -0.23129671812057495, -0.07665778696537018, -0.23577292263507843, -0.29675930738449097, 0.14278727769851685, -0.22546695172786713, -0.17238397896289825, 0.13281221687793732, -0.3233575224876404, -0.08215194195508957, 0.07760710269212723, -0.18086081743240356, -0.0013472832506522536, -0.19957862794399261, -0.18251559138298035, -0.29023200273513794, -0.3718838095664978, 0.16173604130744934, -0.24329684674739838, 0.33800071477890015, -0.1868467926979065, 0.026636159047484398, -0.21847715973854065, -0.3021436929702759, 0.1610395759344101, 0.07095438241958618], [-0.05211111903190613, 0.06555159389972687, 0.008268867619335651, -0.02584431692957878, -0.02065305784344673, -0.05229878053069115, 0.011676760390400887, 0.07428751140832901, -0.07889153808355331, 0.030723657459020615, -0.07028601318597794, -0.08647467941045761, 0.002987362677231431, -0.10774663835763931, -0.03303324058651924, -0.05829452723264694, -0.1016911119222641, 0.0331311896443367, -0.04400336742401123, 0.0034676596987992525, 0.07744595408439636, -0.07654711604118347, -0.06336833536624908, -0.025695716962218285, -0.05812273547053337, -0.023915579542517662, 0.0009424773743376136, 0.06043730303645134, -0.04260662570595741, -0.021062424406409264, 0.0071736969985067844, -0.10110213607549667, -0.07042255252599716, 0.07185608148574829, 0.02766771800816059, 0.08039331436157227, -0.0034798376727849245, 0.016696039587259293, -0.018305793404579163, -0.08773794770240784, -0.11055632680654526, -0.10565443336963654, 0.04678768664598465, 0.009687117300927639, 0.01763853244483471, -0.13501931726932526, 0.03335897997021675, 0.07503318786621094, -0.0887066200375557, 0.002408432075753808, -0.06856587529182434, -0.0883268490433693, -0.023451222106814384, -0.004440185148268938, -0.06571795046329498, 0.04499795287847519, 0.0006097501609474421, 0.0395781584084034, -0.09811265021562576, 0.051357824355363846, -0.012139718979597092, 0.008645892143249512, 0.06401796638965607, -0.020774303004145622, -0.011190429329872131, 0.02638377621769905, -0.0892377644777298, -0.08252783864736557, -0.03895827382802963, -0.06455991417169571, -0.002145691541954875, -0.01506439782679081, 0.01036983821541071, -0.09714984893798828, -0.10197924822568893, -0.05241743102669716, -0.11598855257034302, -0.022081268951296806, -0.05097973719239235, 0.03908000886440277, 0.033677421510219574, -0.09801103919744492, -0.07053805887699127, 0.014812313951551914, 0.03347897157073021, 0.09158837050199509, -0.06340530514717102, 0.02484031766653061, 0.015382718294858932, -0.10506638884544373, -0.06716939061880112, -0.009695776738226414, 0.05574147030711174, -0.002844741800799966, 0.04681763797998428, -0.07897096127271652, 0.012940026819705963, -0.045714978128671646, -0.06182820722460747, -0.02101769857108593, 0.08179622888565063, -0.01780438981950283, -0.06226670369505882, 0.03950738161802292, -0.059077080339193344, 0.028960643336176872, -0.09433981776237488, -0.0873849168419838, 0.008534181863069534, -0.11852789670228958, 0.037872083485126495, -0.05375667288899422, 0.054304227232933044, 0.047655072063207626, -0.05785924196243286, 0.026571717113256454, -0.11723820120096207, -0.07547728717327118, -0.0713423416018486, 0.04617201164364815, 0.055971115827560425, -0.13114425539970398, -0.023552678525447845, -0.03806167095899582, -0.0366557314991951, 0.003481789492070675, -0.10062015801668167, 0.0285224299877882], [-0.01700328290462494, -0.0526738278567791, -0.04244513437151909, 0.07690692692995071, 0.0898180902004242, -0.06410106271505356, -0.13891242444515228, -0.053269658237695694, 0.04715123027563095, -0.1212884858250618, 0.12053080648183823, -0.10094106197357178, -0.08772853761911392, -0.21840208768844604, 0.1186850517988205, -0.08953626453876495, -0.08985324203968048, -0.009080561809241772, 0.02878611534833908, 0.06330327689647675, -0.15995748341083527, -0.19361329078674316, 0.006023273803293705, 0.07681155949831009, -0.041002169251441956, -0.04451383277773857, -0.039528738707304, -0.026226529851555824, -0.002080024452880025, -0.14651638269424438, -0.032615382224321365, -0.011975055560469627, -0.11622457206249237, -0.059906553477048874, -0.20997047424316406, -0.01611221209168434, -0.09751366823911667, -0.15146881341934204, 0.09337572008371353, -0.0364973358809948, -0.15146206319332123, -0.08860606700181961, -0.0005205175839364529, 0.02862790785729885, 0.07973548769950867, -0.023070095106959343, -0.11811652034521103, -0.15473569929599762, -0.10059674084186554, -0.039919618517160416, -0.023388436064124107, 0.10520785301923752, -0.06618151813745499, -0.020544739440083504, -0.1209874078631401, 0.11538504809141159, -0.04622611775994301, -0.1513756662607193, -0.00939010176807642, -0.054995086044073105, -0.1318637579679489, -0.037031855434179306, -0.040273699909448624, -0.021973390132188797, 0.02456473559141159, -0.021927352994680405, -0.016539808362722397, 0.08925176411867142, -0.07123397290706635, -0.028592631220817566, -0.03955598548054695, -0.12366022914648056, -0.046408217400312424, 0.02249237336218357, -0.17887093126773834, -0.024343188852071762, 0.062245503067970276, -0.14418765902519226, -0.029984788969159126, 0.028847135603427887, -0.06140734255313873, -0.12684528529644012, 0.020359182730317116, -0.13453309237957, -0.14029724895954132, -0.06305365264415741, 0.03864606097340584, 0.02296905778348446, -0.007617766037583351, -0.019184809178113937, 0.011229559779167175, 0.0025979066267609596, -0.04159144312143326, -0.10347864031791687, -0.08687698096036911, 0.01854482665657997, -0.04892889782786369, -0.10520961135625839, 0.09414105862379074, -0.032098472118377686, 0.004624916706234217, -0.12812981009483337, -0.15495039522647858, -0.006179084535688162, -0.1230643093585968, -0.10583145171403885, 0.05614308640360832, -0.042245928198099136, -0.17054587602615356, 0.02749689295887947, -0.06857770681381226, -0.018005631864070892, -0.004067501984536648, -0.002035618992522359, 0.059372756630182266, -0.1591852903366089, 0.0008083223947323859, -0.13282109797000885, -0.17097723484039307, -0.015571645461022854, -0.021390942856669426, 0.19608482718467712, -0.05936772748827934, -0.09436508268117905, -0.03810371086001396, -0.1898273229598999, 0.09939010441303253, -0.03551904484629631], [-0.0720413401722908, -0.080900177359581, -0.06688220053911209, -0.03362060338258743, -0.05024543032050133, 0.020054727792739868, 0.017988450825214386, -0.07229531556367874, -0.0051164086908102036, -0.018137486651539803, -0.11073603481054306, 0.028159644454717636, -0.042466502636671066, -0.027002928778529167, -0.11851993948221207, -0.13815824687480927, -0.06730607897043228, -0.10200615227222443, -0.11826343089342117, -0.09853313863277435, -0.03463096171617508, -0.005027277395129204, -0.009906219318509102, 0.001197298290207982, -0.11900529265403748, -0.06514552235603333, -0.05388224869966507, -0.07520890235900879, -0.1170349195599556, -0.03345548361539841, 0.013143842108547688, -0.0033767996355891228, -0.06581831723451614, -0.0703710988163948, -0.14239560067653656, -0.041102465242147446, -0.12042618542909622, -0.09735714644193649, -0.10024238377809525, -0.13051001727581024, -0.11248363554477692, 0.03246012330055237, -0.023871073499321938, 0.002447152975946665, 0.015417929738759995, -0.10102882236242294, 0.02822195179760456, 0.028083277866244316, -0.12287513166666031, 0.0007639305549673736, -0.0768573135137558, -0.07883328199386597, 0.021092891693115234, -0.03537079319357872, -0.08023566752672195, -0.07503637671470642, -0.04641788825392723, -0.10885154455900192, -0.020781682804226875, -0.002304737688973546, -0.09390895813703537, -0.047309745103120804, 0.003590602893382311, 0.03377888724207878, -0.008852052502334118, -0.025723779574036598, -0.109951913356781, -0.05551692098379135, -0.05621786788105965, -0.03625353425741196, -0.0909956693649292, -0.10724622756242752, 0.025745639577507973, -0.11280457675457001, -0.08256213366985321, -0.007170465309172869, -0.01180213876068592, -0.1219172552227974, -0.00802498310804367, -0.04038121551275253, 0.014575989916920662, -0.03584016487002373, 0.00563052436336875, 0.03531292453408241, 0.02117764577269554, -0.0334056094288826, 0.03451045975089073, -0.11137182265520096, -0.054203055799007416, -0.025594307109713554, -0.09738253802061081, -0.05939967930316925, -0.05229010060429573, 0.02291114069521427, -0.10723525285720825, 0.023896079510450363, 0.031207678839564323, -0.10197403281927109, -0.033070992678403854, -0.05957334116101265, -0.09320180118083954, -0.026774555444717407, 0.019707968458533287, -0.07196088880300522, -0.054354019463062286, -0.08455456048250198, 0.011504335328936577, -0.048010583966970444, 0.027480751276016235, -0.05226396769285202, -0.0786035880446434, -0.03306468203663826, 0.011224029585719109, -0.06269282102584839, -0.11060561239719391, -0.06300647556781769, -0.11667302250862122, 0.029587065801024437, 0.0017656185664236546, 0.00790757592767477, -0.04756709560751915, 0.030818302184343338, 0.02287452109158039, -0.05132521316409111, -0.1211017370223999, -0.03546483442187309, -0.027361100539565086, -0.07792367786169052], [-0.0825495794415474, 0.052290961146354675, -0.0512877032160759, 0.02403404749929905, 0.0736854150891304, 0.006248171441257, -0.02213524468243122, 0.030636969953775406, 0.05373372882604599, -0.0021767253056168556, 0.05912723392248154, -0.04239615797996521, -0.07814681529998779, -0.1094283014535904, -0.05684775114059448, 0.005900579504668713, 0.007805918343365192, -0.1000041663646698, 0.06731285154819489, 0.007517852820456028, -0.09946074336767197, 0.0037064070347696543, -0.000794815830886364, -0.06446198374032974, -0.11656565219163895, -0.056185200810432434, -0.10999486595392227, -0.02433306723833084, 0.03062901645898819, 0.07132606208324432, 0.06239992007613182, 0.0453113317489624, -0.036105189472436905, -0.07924647629261017, -0.04852401092648506, -0.018077760934829712, -0.07655750960111618, 0.07337217777967453, -0.07063835859298706, -0.08352699130773544, -0.07409956306219101, -0.09368599206209183, -0.020422765985131264, -0.08107389509677887, -0.01872069016098976, -0.07647153735160828, 0.07462603598833084, 0.06685570627450943, -0.011784687638282776, 0.07401842623949051, 0.046656716614961624, -0.0932200476527214, -0.10375076532363892, -0.10402905195951462, -0.06141798570752144, -0.05807587876915932, -0.0692393034696579, -0.09098880738019943, -0.030955014750361443, -0.08088979870080948, 0.03194813430309296, -0.0855071023106575, -0.05535594001412392, 0.005390816833823919, -0.11516181379556656, -0.005605139769613743, 0.08738812059164047, -0.11618863791227341, -0.06299740821123123, 0.08029817789793015, -0.0065295095555484295, -0.05387333407998085, -0.03609533980488777, 0.04945704713463783, 0.07537905126810074, -0.030481815338134766, 0.03831225633621216, -0.07962586730718613, -0.14257772266864777, -0.06820880621671677, -0.010829830542206764, 0.057539720088243484, -0.0749092847108841, -0.01575203239917755, 0.024078771471977234, -0.061818961054086685, 0.05721651390194893, -0.02327835187315941, -0.0027638974133878946, -0.10473708808422089, -0.022542569786310196, -0.016453152522444725, 0.06148156151175499, 0.051551453769207, -0.047426093369722366, -0.048444073647260666, 0.016912616789340973, 0.09681354463100433, 0.03725552558898926, -0.06791507452726364, -0.07191795855760574, 0.053945254534482956, -0.049485985189676285, 0.03269195184111595, -0.03365463763475418, 0.00878189131617546, 0.010117393918335438, -0.01859724335372448, 0.01645858958363533, 0.01759558543562889, -0.09043511748313904, -0.10837031900882721, -0.005754584446549416, 0.04675798490643501, 0.06526796519756317, -0.07547791302204132, -0.13299746811389923, -0.030907372012734413, -0.05163942649960518, -0.0251628328114748, 0.04329061135649681, -0.06315218657255173, 0.024041447788476944, 0.0070363846607506275, -0.01882866397500038, -0.09402099996805191, 0.05948929488658905, -0.02958531491458416], [-0.014804337173700333, -0.0773625522851944, -0.03674226626753807, 0.04557178542017937, -0.005294826813042164, -0.009877128526568413, -0.0859852135181427, 0.05338982865214348, 0.00018293247558176517, -0.13046449422836304, -0.06326916813850403, -0.0015150929102674127, -0.03911103680729866, -0.06856457889080048, 0.059397730976343155, 0.038298364728689194, 0.030705075711011887, -0.06286495923995972, 0.01999395526945591, -0.08730237931013107, -0.017707427963614464, -0.0677124410867691, -0.11131873726844788, 0.010321695357561111, -0.1064240038394928, -0.11522295325994492, -0.02527018077671528, -0.019991843029856682, 0.0392000712454319, 0.026549531146883965, 0.029109520837664604, 0.05221584439277649, -0.05880042165517807, 0.02524481900036335, -0.018116571009159088, -0.09673911333084106, 0.0022827410139143467, 0.001302647520788014, -0.10402137786149979, -0.10857631266117096, -0.04220229387283325, -0.08554951101541519, -0.06705474853515625, -0.03588973730802536, -0.09973891079425812, -0.049636512994766235, 0.03377027064561844, -0.06509766727685928, -0.014273805543780327, -0.046534933149814606, -0.07251781970262527, -0.0037699618842452765, -0.033622805029153824, 0.036351341754198074, 0.012608598917722702, 0.005984320305287838, -0.11459045112133026, -0.11360789090394974, -0.06669733673334122, -0.030746424570679665, -0.1132192313671112, 0.008927617222070694, -0.007361442316323519, 0.02540629170835018, -0.005974926054477692, 0.011272520758211613, -0.058539219200611115, -0.07795774936676025, 0.0447763130068779, 0.015510546043515205, -0.04186777397990227, -0.09778332710266113, -0.04738906770944595, -0.10900392383337021, -0.12377085536718369, -0.0703832134604454, -0.08783746510744095, -0.11338311433792114, 0.026487860828638077, -0.07539580762386322, -0.07369676977396011, -0.057948652654886246, -0.09215150773525238, -0.07959292829036713, -0.10816901922225952, -0.06299356371164322, -0.08662448823451996, -0.056181006133556366, 0.04536110907793045, -0.005139194894582033, -0.049557797610759735, -0.06260444223880768, 0.02472255937755108, 0.022381065413355827, 0.009096303023397923, -0.014144232496619225, 0.021406875923275948, -0.004060304258018732, -0.01788693107664585, 0.024329666048288345, -0.019567016512155533, -0.015071679838001728, -0.025466758757829666, 0.045692671090364456, -0.037801485508680344, -0.11823196709156036, -0.08979085832834244, -0.02550044283270836, -0.033700160682201385, -0.03348017483949661, 0.03833111748099327, -0.013159442692995071, -0.006462690886110067, -0.0883871540427208, -0.0545576810836792, 0.034582529217004776, -0.03945110738277435, -0.0982513427734375, -0.023190390318632126, -0.021702874451875687, 0.03488292172551155, 0.038431473076343536, 0.02186921052634716, -0.059687212109565735, -0.029227783903479576, -0.12762947380542755, -0.04943511262536049, -0.03505038097500801], [-0.08231455832719803, -0.1092320904135704, -0.07446522265672684, -0.0030849147588014603, -0.07192935049533844, -0.10277436673641205, -0.0037651576567441225, 0.013657809235155582, 0.012274003587663174, -0.008888165466487408, 0.06256816536188126, -0.0207597017288208, -0.04357653856277466, -0.11943690478801727, 0.09400642663240433, -0.08316969871520996, 0.006585818249732256, -0.021234307438135147, -0.0951574370265007, -1.5940895536914468e-05, -0.04919639602303505, -0.01853584311902523, 0.010483136400580406, -0.014165645465254784, 0.034676190465688705, -0.12499356269836426, -0.002904529683291912, -0.06804066151380539, -0.008768608793616295, 0.01760047860443592, -0.04948524758219719, 0.03349580988287926, -0.10661187767982483, -0.07029035687446594, -0.05017169937491417, -0.09228956699371338, -0.023164305835962296, -0.043836627155542374, 0.0646255686879158, 0.01164101529866457, -0.01787065528333187, -0.0844949260354042, -0.1302611231803894, 0.02176450379192829, 0.15326416492462158, -0.10406816005706787, 0.009667923673987389, -0.1440565437078476, -0.05588207766413689, -0.12736429274082184, -0.033160123974084854, 0.0034291818737983704, -0.11692266166210175, -0.08751562237739563, 0.04717014729976654, -0.04604831710457802, -0.05092509463429451, -0.09665395319461823, -0.10358142107725143, -0.07349905371665955, -0.06757482886314392, -0.1019957885146141, -0.039126213639974594, 0.05674656853079796, -0.20130416750907898, -0.09015688300132751, -0.13428594172000885, 0.07243677228689194, 0.0265119019895792, 0.02049475908279419, -0.08902649581432343, -0.17823076248168945, -0.012413591146469116, -0.00612222496420145, -0.02065715566277504, -0.13821586966514587, 0.06779104471206665, -0.12049064040184021, -0.04233871400356293, -0.020659245550632477, 0.007053546141833067, -0.10169458389282227, -0.026287736371159554, -0.04170132428407669, 0.00706883892416954, -0.1303151249885559, 0.07196023315191269, 0.040737561881542206, -0.05307689681649208, -0.1357172578573227, 0.07807236909866333, 0.1223113164305687, -0.016754543408751488, 2.8495727747213095e-05, -0.03921768069267273, -0.16380974650382996, 0.029258301481604576, -0.04863271117210388, -0.022748315706849098, 0.01702098548412323, 0.00025576227926649153, -0.029746059328317642, -0.0007770047523081303, -0.08461413532495499, -0.09734643250703812, -0.1745757758617401, -0.032128188759088516, 0.021142233163118362, -0.01557199563831091, -0.018081048503518105, -0.06085842847824097, 0.02886768989264965, 0.010115649551153183, -0.10687431693077087, 0.041354432702064514, -0.07855547219514847, -0.14393815398216248, -0.09756700694561005, -0.07176021486520767, 0.04090012237429619, -0.13682319223880768, 0.0171749759465456, 0.020629126578569412, 0.03620334714651108, -0.09676049649715424, -0.07410633563995361, 0.0703488290309906, 0.015586474910378456], [-0.13317126035690308, -0.13706548511981964, -0.1812153309583664, 0.1376575082540512, -0.05275578424334526, -0.0836331769824028, -0.019898753613233566, -0.09851571172475815, -0.0713990181684494, -0.14324621856212616, 0.1439700573682785, -0.09858129918575287, -0.1041586771607399, -0.2522655129432678, 0.13790033757686615, -0.17962372303009033, -0.04947910085320473, -0.11145992577075958, 0.02610972337424755, -0.02175087481737137, -0.1969234198331833, -0.18816515803337097, -0.1022740975022316, 0.18378770351409912, -0.21363118290901184, -0.061987753957509995, -0.1316106766462326, -0.20008324086666107, 0.010801076889038086, -0.02840394526720047, -0.09083505719900131, -0.02452895976603031, -0.058338895440101624, -0.10754542797803879, -0.1499936580657959, -0.08589664101600647, -0.17460571229457855, -0.18508242070674896, 0.2126762866973877, -0.0791831687092781, -0.12999142706394196, -0.31128183007240295, -0.07751954346895218, -0.0018497072160243988, 0.18481843173503876, -0.04035087302327156, -0.06682076305150986, -0.17636823654174805, 0.006065168417990208, -0.009499295614659786, -0.15988025069236755, 0.14752613008022308, -0.091998390853405, -0.10541043430566788, -0.1650707721710205, 0.12058260291814804, -0.06499765813350677, -0.16474872827529907, 0.008172975853085518, -0.017731547355651855, -0.05104508250951767, 0.03845035657286644, -0.02953597903251648, 0.1214955747127533, -0.2201288342475891, -0.14368048310279846, -0.06059936061501503, 0.1805141121149063, -0.14645549654960632, 0.019934074953198433, -0.11205343902111053, -0.14037741720676422, -0.1063513532280922, 0.028273113071918488, -0.07712414860725403, -0.10243340581655502, 0.2607060372829437, -0.16182968020439148, -0.0674540102481842, 0.06029853597283363, 0.01953928917646408, -0.13797041773796082, -0.048465851694345474, -0.19227883219718933, -0.15943500399589539, -0.058993883430957794, 0.2441200464963913, -0.18372313678264618, -0.20133499801158905, -0.12524160742759705, 0.1342298984527588, 0.13201867043972015, -0.0869022086262703, -0.02958299033343792, -0.1917237937450409, -0.06008651852607727, -0.15442106127738953, -0.15055353939533234, 0.119627945125103, 0.054531022906303406, -0.09383781254291534, -0.07065264135599136, -0.08182822167873383, -0.07325071096420288, -0.17880626022815704, -0.18020527064800262, 0.08207796514034271, -0.1706671565771103, -0.15672847628593445, 0.24207724630832672, -0.212100550532341, -0.09164496511220932, 0.03008235991001129, -0.21886153519153595, -0.02249434031546116, -0.06460244953632355, -0.07048489153385162, -0.15899963676929474, -0.17591209709644318, 0.01590130291879177, -0.026082871481776237, 0.3327715992927551, -0.12569299340248108, -0.10376724600791931, -0.13306471705436707, -0.1319512575864792, 0.005424845032393932, -0.07549094408750534], [-0.04755115881562233, 0.011875821277499199, -0.033223994076251984, -0.10617498308420181, -0.01790313795208931, -0.08338211476802826, -0.08528126031160355, -0.04671139642596245, -0.06168431043624878, 0.03979867324233055, 0.006629826035350561, 0.013825680129230022, -0.04244097322225571, -0.11889238655567169, -0.11796866357326508, -0.0851578488945961, -0.09191171079874039, -0.05467147007584572, -0.0890410766005516, -0.06196551024913788, -0.06466381251811981, -0.054562244564294815, -0.01634804531931877, -0.0030981546733528376, -0.0968940481543541, -0.10219678282737732, 0.031160946935415268, 0.045957982540130615, -0.07666461169719696, -0.04586692526936531, -0.05663205683231354, -0.06676314026117325, -0.024578744545578957, 0.0703701451420784, -0.07757634669542313, -0.09116823971271515, -0.08244327455759048, 0.047436781227588654, -0.1048600971698761, -0.0689881220459938, 0.035157062113285065, -0.10949545353651047, 0.0046649775467813015, -0.10856609791517258, -0.08548151701688766, -0.08896635472774506, -0.06111227348446846, -0.005882933735847473, -0.0766962394118309, -0.01604100689291954, -0.10228768736124039, -0.04505704715847969, -0.008956405334174633, 0.009456699714064598, -0.01456944365054369, 0.05509282276034355, -0.038766566663980484, -0.09298478811979294, -0.03896799683570862, -0.0023349891416728497, -0.08669590204954147, 0.005046859383583069, -0.037312183529138565, -0.11133149266242981, -0.03870648518204689, -0.0359308160841465, -0.030968638136982918, -0.07693030685186386, -0.08887634426355362, 0.05684817582368851, -0.010871886275708675, -0.03345402702689171, 0.01812036707997322, -0.0202387273311615, -0.06238427013158798, -0.050826266407966614, -0.0012065372429788113, -0.04207861050963402, -0.10148000717163086, -0.07194674760103226, 0.04944242537021637, 0.013719940558075905, -0.04242772236466408, -0.03844030946493149, -0.10130689293146133, -0.03932833671569824, -0.038211390376091, 0.05531111732125282, 0.06937423348426819, -0.10906782746315002, -0.014003962278366089, 0.0011201337911188602, -0.1018039658665657, 0.03919924795627594, -0.07848081737756729, 0.020971769466996193, -0.08315447717905045, 0.05740472301840782, -0.03508191183209419, -0.03844090923666954, -0.07404398918151855, 0.011375394649803638, -0.04329145699739456, -0.04170168191194534, -0.005378223489969969, -0.0029352414421737194, -0.12124202400445938, 0.02992512844502926, 0.04466154798865318, 0.012449857778847218, -0.05041104927659035, 0.03659670427441597, -0.01794370263814926, -0.10389533638954163, -0.050535522401332855, 0.026681991294026375, -0.023188795894384384, -0.049052078276872635, 0.02719721384346485, -0.11049237847328186, -0.03141120821237564, -0.15310730040073395, -0.09208330512046814, -0.04249041527509689, 0.012544682249426842, -0.031187284737825394, -0.05374755710363388, -0.0696362778544426], [-0.029833830893039703, -0.09610795974731445, -0.03232128545641899, 0.03763992339372635, 0.04770059138536453, -0.013043456710875034, -0.10728418827056885, 0.03163805976510048, 0.012955088168382645, -0.036275267601013184, -0.04331672936677933, -0.047693680971860886, -0.05814748257398605, -0.08432775735855103, 0.044798705726861954, 0.006365650333464146, -0.02630765363574028, 0.005572941619902849, 0.022387325763702393, 0.004995988681912422, 0.060062795877456665, -0.03035832941532135, -0.09760793298482895, 0.03169635683298111, -0.010410566814243793, -0.018937602639198303, -0.0668528825044632, 0.05562657490372658, -0.08903956413269043, -0.1182670071721077, -0.006208197679370642, -0.09872619807720184, -0.054698821157217026, -0.10975833982229233, -0.07630220055580139, 0.01385544240474701, -0.016796212643384933, -0.022210685536265373, -0.08063500374555588, -0.07888390123844147, -0.06876445561647415, -0.0031591488514095545, -0.09484920650720596, -0.06342145055532455, 0.025928812101483345, -0.07453665882349014, 0.05523420497775078, -0.02758708782494068, 0.006633574143052101, 0.018699266016483307, -0.08172290027141571, -0.1258157193660736, 0.018879596143960953, 0.016017919406294823, -0.0792665183544159, -0.06405076384544373, 0.007442037109285593, -0.0463629812002182, 0.002527007134631276, -0.033682528883218765, -0.0034866738133132458, -0.06962944567203522, -0.03571805730462074, -0.11421061307191849, -0.05466664955019951, -0.08191248774528503, 0.011956097558140755, 0.0020708413794636726, 0.01427492219954729, -0.09638526290655136, 0.0611891932785511, -0.04507856070995331, 0.0017006415873765945, 0.030572379007935524, 0.046869851648807526, 0.0017908249283209443, -0.08974093198776245, -0.030548833310604095, 0.06037822738289833, -0.09680279344320297, -0.09776493161916733, -0.026365945115685463, -0.050914593040943146, -0.0706060454249382, 0.0310674961656332, -0.043356798589229584, -0.12842252850532532, -0.03264552727341652, 0.03383158519864082, 0.020343443378806114, -0.053962238132953644, -0.08409874141216278, 0.02004927210509777, -0.09648989140987396, -0.06799989938735962, -0.04145212098956108, -0.04663235321640968, -0.10288344323635101, 0.013813569210469723, -0.10441477596759796, 0.04217219725251198, -0.042245153337717056, -0.030441729351878166, -0.11941463500261307, 0.045849673449993134, -0.08838369697332382, -0.02426275610923767, -0.02116495743393898, -0.05972852557897568, -0.1305210441350937, -0.04971472918987274, 0.015620383433997631, -0.04488247632980347, -0.09919635951519012, 0.019195113331079483, -0.09969358146190643, 0.027648162096738815, -0.08338342607021332, -0.012442650273442268, -0.013934388756752014, -0.09313599020242691, 0.002426592633128166, 0.047198474407196045, -0.029427193105220795, 0.005053162109106779, -0.06165140122175217, 0.04966896027326584, -0.1096968725323677], [-0.33592304587364197, -0.31236186623573303, -0.1549099087715149, -0.43401864171028137, -0.1643873006105423, -0.1905023753643036, 0.11979418992996216, -0.005439458880573511, -0.38520240783691406, 0.02194848842918873, -0.3069128096103668, -0.12785853445529938, -0.15423791110515594, -0.31996962428092957, -0.16357631981372833, -0.0935337170958519, -0.07335870712995529, 0.15798084437847137, -0.07132650166749954, -0.41530463099479675, 0.24446679651737213, -0.20647341012954712, -0.014908133074641228, -0.0886450856924057, 0.2853073477745056, 0.10140585899353027, 0.0860036164522171, 0.04747970774769783, -0.3017352521419525, 0.07078001648187637, -0.2667194604873657, -0.2956463694572449, 0.13585475087165833, 0.029548117890954018, -0.31578510999679565, -0.14532437920570374, -0.2504255175590515, -0.24484720826148987, -0.16085760295391083, -0.2022162228822708, -0.15689702332019806, -0.25473496317863464, -0.2569490075111389, 0.12001398950815201, -0.032290589064359665, -0.09040587395429611, -0.07677056640386581, 0.14765240252017975, -0.3107988238334656, 0.02062135934829712, 0.04126081243157387, -0.14420902729034424, 0.16747909784317017, 0.11936265230178833, 0.0007903120131231844, -0.26735711097717285, 0.07473699003458023, -0.22546930611133575, -0.2548615336418152, -0.43191781640052795, -0.1775592863559723, -0.31636470556259155, -0.34728360176086426, -0.4424140155315399, -0.37652379274368286, -0.3661043643951416, 0.09210311621427536, 0.04304036498069763, 0.22065730392932892, -0.24228529632091522, 0.15693031251430511, -0.46222296357154846, -0.1923384666442871, -0.3819934129714966, -0.20203927159309387, -0.41238588094711304, -0.2486688196659088, -0.3767372667789459, 0.20028407871723175, -0.36573493480682373, -0.256817489862442, -0.12987136840820312, -0.34704744815826416, 0.12458734959363937, 0.13443498313426971, 0.1942727416753769, -0.39731377363204956, 0.23948436975479126, -0.04975426197052002, -0.4056924879550934, -0.09460963308811188, -0.3069307506084442, -0.06811048090457916, -0.0710168406367302, 0.2840181291103363, -0.3313777446746826, -0.12872101366519928, 0.032566823065280914, -0.2727496922016144, -0.012366114184260368, -0.06888438761234283, -0.08140050619840622, -0.1330491006374359, -0.3275938332080841, 0.202684685587883, -0.3669573664665222, -0.2700655162334442, -0.01191135123372078, -0.06105341017246246, -0.11407126486301422, -0.2620220482349396, 0.140694722533226, -0.039140090346336365, -0.4064617156982422, -0.35547590255737305, -0.15350057184696198, -0.3009110987186432, -0.40441253781318665, -0.20035959780216217, -0.2477235049009323, 0.06621295213699341, -0.174281045794487, -0.00034954166039824486, -0.02375737950205803, 0.09043850749731064, -0.3986474871635437, -0.24062293767929077, -0.44378361105918884], [-0.09790156036615372, 0.021863088011741638, 0.03938169404864311, -0.017820946872234344, -0.0855385810136795, -0.030531343072652817, 0.1116136685013771, -0.08846627920866013, -0.16408458352088928, 0.057495687156915665, -0.09066936373710632, 0.010757744312286377, 0.027692506089806557, -0.05108848214149475, -0.0051483651623129845, 0.05293198302388191, -0.04728320986032486, 0.03429596126079559, 0.01308425422757864, -0.09886973351240158, -0.0047995406202971935, -0.07572272419929504, -0.04529871046543121, -0.037986066192388535, -0.040092531591653824, -0.006795450113713741, 0.004321828484535217, -0.03604042902588844, -0.0826873853802681, -0.03316270187497139, -0.08026540279388428, -0.027732834219932556, -0.01674792729318142, -0.05343968793749809, 0.028894251212477684, 0.005901860538870096, -0.05517015606164932, 0.018187638372182846, -0.10559948533773422, -0.034472569823265076, -0.04464127495884895, -0.007811719086021185, -0.0886114165186882, -0.11430098116397858, -0.010018203407526016, 0.057989850640296936, 0.03632495552301407, -0.04801294207572937, -0.035002727061510086, 0.12022951245307922, -0.004171268083155155, -0.12884677946567535, -0.022868435829877853, 0.022965071722865105, -0.11154291778802872, -0.07561703771352768, 0.0013277530670166016, -0.057380855083465576, 0.005975013133138418, -0.16841524839401245, 0.040604546666145325, -0.10396773368120193, -0.00971377082169056, -0.07683147490024567, -0.10314581543207169, -0.08168033510446548, 0.06250903010368347, -0.03313002735376358, 0.013537820428609848, 0.007113592233508825, 0.002905643777921796, -0.04186013713479042, -0.08116601407527924, -0.011918260715901852, 0.0007781573804095387, -0.050543297082185745, -0.1461039036512375, -0.07418793439865112, -0.11235173791646957, -0.03292433172464371, -0.0026554670184850693, 0.0099057387560606, -0.15144245326519012, -0.08135171234607697, -0.024731557816267014, -0.04105949401855469, -0.08524343371391296, -0.10807975381612778, -0.04510323330760002, -0.10623830556869507, -0.16002291440963745, -0.06907203048467636, -0.07019136846065521, 0.005091369617730379, 0.08182776719331741, -0.15888549387454987, 0.033537209033966064, 0.06979504972696304, -0.05212758481502533, -0.03395529091358185, -0.13637246191501617, 0.03375723958015442, 0.11693497747182846, -0.060083530843257904, -0.00554446829482913, -0.04598039761185646, -0.15903834998607635, -0.05752837657928467, 0.11950293183326721, -0.06282702833414078, 0.08207867294549942, -0.07186076790094376, -0.14306750893592834, -0.12761379778385162, -0.1058851107954979, 0.028397059068083763, -0.03270800784230232, -0.04434690997004509, -0.010575837455689907, -0.023457778617739677, 0.06821928173303604, -0.02286640740931034, -0.08525672554969788, -0.007604952901601791, 0.0775543749332428, 0.06276298314332962, -0.14248237013816833, -0.10763252526521683], [-0.09415838867425919, -0.0029692237731069326, 0.0074801151640713215, -0.08172205835580826, -0.008710749447345734, 0.05246611684560776, 0.03257935494184494, -0.07993142306804657, -0.013683626428246498, -0.03236908093094826, -0.07490748912096024, -0.0794060006737709, 0.04320158064365387, -0.11243876814842224, -0.09077078104019165, -0.03866475075483322, 0.07222948968410492, -0.008919792249798775, -0.034714989364147186, 0.010367165319621563, -0.021911442279815674, -0.07451273500919342, -0.010077791288495064, -0.09866632521152496, 0.04391965642571449, 0.02423872798681259, 0.03562372550368309, -0.05138586834073067, -0.06083042919635773, -0.03625502809882164, -0.022025683894753456, 0.05869399383664131, -0.10642402619123459, 0.06550716608762741, -0.07344051450490952, 0.04651255905628204, -0.08457231521606445, -0.02196321077644825, -0.013116229325532913, 0.04919373616576195, 0.0006168772233650088, -0.12772707641124725, -0.009440306574106216, -0.030199766159057617, -0.11593882739543915, -0.047484513372182846, -0.030804496258497238, -0.0540805347263813, 0.05694054812192917, 0.008894121274352074, 0.0016261489363387227, -0.12638817727565765, -0.09112079441547394, 0.023379778489470482, 0.006049248389899731, -0.01557890698313713, 0.02999112196266651, -0.02617952786386013, -0.011897323653101921, -0.007546810898929834, 0.040052756667137146, -0.021045781672000885, 0.07609081268310547, 0.003996045328676701, -0.0011875067139044404, 0.004787163808941841, -0.09728363156318665, -0.007725488860160112, -0.025550691410899162, -0.07608005404472351, -0.0891321673989296, 0.016342688351869583, -0.01766469143331051, -0.09050101786851883, 0.020208172500133514, -0.000314515084028244, 0.02331066131591797, -0.0973084419965744, -0.06849059462547302, 0.008379434235394001, 0.07563623785972595, 0.007423700764775276, -0.09256640821695328, 0.011578073725104332, -0.0406825914978981, -0.09979726374149323, -0.06284216791391373, -0.028162231668829918, 0.07531948387622833, 0.042001571506261826, -0.10036105662584305, -0.04577930271625519, 0.0345727875828743, 0.005712882615625858, -0.0649968832731247, 0.01529686525464058, 0.04030870646238327, 0.026919851079583168, -0.10636784881353378, -0.0209235530346632, -0.024361368268728256, 0.060534439980983734, -0.11042379587888718, -0.05956649407744408, -0.007505886722356081, -0.010539494454860687, 0.015153922140598297, -0.0022912565618753433, -0.05490884184837341, -0.08794382959604263, -0.03383889049291611, 0.025494594126939774, 0.021535981446504593, -0.11160634458065033, 0.056305062025785446, 0.074078768491745, -0.12792077660560608, -0.06606953591108322, -0.11771617829799652, 0.05132708698511124, -0.040656257420778275, -0.09051922708749771, 0.007019932381808758, 0.054499302059412, -0.005179734900593758, 0.01947752572596073, -0.023349594324827194, -0.062203895300626755], [-0.0871780514717102, -0.10324270278215408, 0.03605758771300316, -0.056607913225889206, -0.04703385382890701, 0.030017530545592308, 0.03964819014072418, -0.054409533739089966, -0.06582936644554138, -2.5411078240722418e-05, -0.10051891207695007, -0.04295269399881363, -0.090733602643013, 0.035027433186769485, -0.1034248024225235, -0.07529046386480331, -0.05127278342843056, 0.00837820116430521, -0.06441958248615265, -0.07096197456121445, -0.03742936998605728, 0.043616436421871185, -0.12767761945724487, 0.012941967695951462, -0.04685252904891968, -0.10560525208711624, -0.12900719046592712, -0.09567493200302124, -0.06795518100261688, -0.09095827490091324, -0.05626266449689865, -0.08972179889678955, 0.01727958768606186, -0.12892678380012512, 0.06236718222498894, -0.11881600320339203, -0.10293705016374588, 0.030155571177601814, 0.01345343329012394, 0.027149183675646782, -0.017365911975502968, -0.007565449457615614, -0.002276424318552017, -0.05123871937394142, -0.04174305126070976, 0.029660308733582497, -0.03226650506258011, -0.11952496320009232, -0.08583997189998627, -0.013088860549032688, -0.03535837307572365, -0.05221620202064514, -0.11162775754928589, -0.1547672301530838, -0.1182015985250473, -0.11827760934829712, -0.11304323375225067, 0.01819278672337532, -0.05023611709475517, -0.018288135528564453, -0.029975425451993942, -0.009492586366832256, 0.05846331641077995, 0.05138297379016876, 0.06861981749534607, -0.03577320650219917, 0.02413685992360115, -0.1442069262266159, -0.043582066893577576, 0.04571867361664772, -0.11138871312141418, -0.06711126863956451, -0.045111604034900665, 0.03358032926917076, 0.041406452655792236, -0.013775312341749668, -0.09974459558725357, -0.019573446363210678, -0.11670327186584473, -0.08964038640260696, 0.01751815900206566, -0.03439022973179817, -0.06917014718055725, -0.0645541101694107, -0.10228035598993301, -0.1163272112607956, -0.027641139924526215, -0.06627576053142548, -0.008893878199160099, 0.02800874598324299, -0.07089806348085403, 0.04032888635993004, -0.10710633546113968, -0.05597175285220146, -0.09733501076698303, 0.029320381581783295, -0.05078141391277313, -0.13075166940689087, -0.09233064204454422, -0.13300873339176178, -0.03628339245915413, -0.10586327314376831, -0.019160840660333633, 0.05638273432850838, -0.01854238100349903, 0.05924943834543228, -0.05929892137646675, -0.05933721363544464, -0.036036595702171326, -0.07200952619314194, -0.0158078670501709, -0.12591104209423065, -0.12706248462200165, -0.06808784604072571, -0.020894084125757217, 0.0305479783564806, -0.04963354766368866, 0.03255501389503479, 0.05615002289414406, -0.07168958336114883, -0.13151894509792328, -0.07364653050899506, -0.13102860748767853, -0.041875481605529785, -0.1116693913936615, 0.04480503126978874, 0.02865125983953476, 0.0390297956764698], [-0.10743821412324905, -0.0937819704413414, -0.16414475440979004, -0.08265320211648941, 0.07735681533813477, -0.1652659773826599, -0.00990490335971117, -0.03506941720843315, -0.03828330710530281, -0.16245393455028534, 0.05887288972735405, -0.09987599402666092, -0.10811786353588104, -0.11334381252527237, 0.013692431151866913, -0.002681655576452613, -0.0468117855489254, 0.048407383263111115, 0.01567922532558441, -0.08432649821043015, -0.13678167760372162, -0.0065200915560126305, 0.0932849645614624, 0.1508689969778061, -0.05268324911594391, -0.07531534135341644, 0.04079990088939667, 0.03252613544464111, -0.13307805359363556, -0.13206373155117035, 0.0024300331715494394, 0.032306063920259476, -0.15001045167446136, -0.08866965770721436, -0.11753550171852112, 0.021739374846220016, -0.1389179676771164, -0.07885079830884933, 0.1254664808511734, -0.09676546603441238, -0.049910254776477814, -0.06842256337404251, -0.053067296743392944, 0.08478130400180817, 0.15013565123081207, -0.15849371254444122, -0.0863189846277237, 0.024711236357688904, -0.0881708562374115, -0.05846017971634865, -0.1576007604598999, 0.14660564064979553, -0.04975166916847229, -0.026001662015914917, 0.05228181555867195, 0.08861032128334045, -0.11853776127099991, -0.0851670578122139, -0.08661472797393799, -0.05430452898144722, -0.14881554245948792, -0.005485853645950556, -0.08647875487804413, -0.03456296771764755, -0.13446861505508423, -0.12020516395568848, -0.13405103981494904, 0.16288289427757263, 0.08782634139060974, 0.07597660273313522, 0.08345140516757965, -0.18947069346904755, -0.03772467002272606, -0.019576236605644226, -0.06231218948960304, -0.16939309239387512, -0.03588256239891052, -0.09499797224998474, 0.09246433526277542, 0.00915997102856636, -0.014072784222662449, -0.005846533924341202, -0.14868362247943878, 0.0017396232578903437, -0.029171781614422798, 0.07420530915260315, -0.09876859188079834, 0.1062038317322731, 0.030347982421517372, -0.18540868163108826, 0.014797262847423553, -0.07289400696754456, 0.01667945832014084, -0.013061141595244408, -0.04001648351550102, -0.049788057804107666, -0.014561789110302925, -0.031029850244522095, 0.027492452412843704, 0.033329978585243225, 0.0618053674697876, -0.1064329594373703, -0.054454777389764786, -0.10873964428901672, 0.03426200896501541, -0.11613037437200546, -0.029798297211527824, -0.03572230413556099, -0.08839360624551773, -0.024392148479819298, -0.045848142355680466, 0.003614871995523572, 0.13821177184581757, -0.09405740350484848, -0.013103004544973373, -0.104840949177742, -0.06985114514827728, -0.1468690186738968, -0.15234631299972534, 0.10630691051483154, -0.08464963734149933, 0.02185945026576519, -0.11168906837701797, 0.050661902874708176, -0.13946855068206787, -0.12084086239337921, -0.05159763991832733, -0.09743665903806686], [-0.12507638335227966, -0.05555151775479317, -0.07451067864894867, 0.007177793886512518, 0.10833989828824997, -0.1421918272972107, -0.09781904518604279, 0.112181656062603, -0.05631367489695549, -0.08429525792598724, 0.07930159568786621, -0.08594349026679993, -0.08357936143875122, -0.24034146964550018, 0.1912233829498291, -0.08906249701976776, -0.1091187372803688, -0.03503815829753876, -0.021741969510912895, 0.03333115205168724, 0.038403771817684174, -0.2035312056541443, 0.06168058142066002, 0.23020268976688385, 0.047024667263031006, 0.05885085463523865, -0.029170220717787743, -0.1081245169043541, -0.018043428659439087, -0.08584553748369217, 0.08470005542039871, 0.10452789813280106, -0.10916423052549362, 0.006453836802393198, -0.06813658773899078, -0.02377890609204769, -0.17647357285022736, -0.0584687665104866, 0.15202447772026062, -0.012234082445502281, -0.20401930809020996, -0.19704794883728027, -0.07289602607488632, 0.12204447388648987, 0.2585093080997467, -0.09278680384159088, -0.09434276074171066, -0.017314819619059563, 0.08298793435096741, -0.107467420399189, -0.0923600122332573, 0.1429087519645691, -0.04812880977988243, 0.027460642158985138, 0.0861806571483612, 0.17104879021644592, 0.011933940462768078, -0.19709791243076324, 0.009518085047602654, 0.07558830082416534, -0.06524617969989777, 0.05910992622375488, 0.006699324119836092, -0.0018150837859138846, -0.01593903824687004, 0.01158761978149414, -0.0031366292387247086, 0.20412179827690125, 0.10771919041872025, 0.1468300223350525, 0.008465097285807133, -0.1246100515127182, -0.1756039261817932, 0.02572188898921013, -0.03422067314386368, -0.17199872434139252, 0.1525813788175583, -0.08142771571874619, 0.0032889314461499453, 0.06915504485368729, -0.04265560582280159, -0.11764004081487656, 0.0064070504158735275, -0.0300020482391119, 0.09969533979892731, -0.05483046919107437, 0.08587200939655304, 0.12393985688686371, 0.010969680733978748, -0.015417123213410378, 0.18734323978424072, 0.15353798866271973, 0.005557120777666569, -0.06786057353019714, 0.03616233170032501, 0.005602232180535793, -0.10922885686159134, -0.10377615690231323, 0.10620675981044769, 0.1991877257823944, 0.10922045260667801, -0.023888884112238884, -0.17856156826019287, -0.08452388644218445, 0.04767480865120888, -0.14826403558254242, 0.13586468994617462, -0.09687597304582596, -0.22000209987163544, 0.07617595791816711, -0.22090451419353485, 0.008314820937812328, 0.06643747538328171, -0.15146684646606445, 0.03136489540338516, -0.11164948344230652, -0.09883115440607071, -0.020215613767504692, -0.2300451695919037, 0.14348508417606354, -0.04245993122458458, 0.1960950642824173, -0.008327674120664597, 0.02577146515250206, 0.04358372092247009, -0.1796540915966034, 0.12744341790676117, -0.06073545664548874], [-0.018449608236551285, 0.06647846102714539, 0.16025079786777496, 0.04657134413719177, 0.04807978495955467, 0.01734112948179245, 0.10031446814537048, -0.10110413283109665, 0.020030081272125244, 0.014367032796144485, -0.10859677195549011, -0.061742231249809265, 0.06170237809419632, 0.15439637005329132, -0.04991339147090912, -0.014683078043162823, 0.11585690081119537, -0.07863643765449524, -0.009880336932837963, -0.05417279526591301, -0.042963676154613495, 0.1697743833065033, -0.029003197327256203, -0.11668051779270172, 0.002011537319049239, -0.018717477098107338, -0.12335753440856934, -0.05694311857223511, 0.07603510469198227, 0.09283047169446945, -0.05324012413620949, 0.017608636990189552, 0.02886686474084854, 0.005865413695573807, 0.09001856297254562, 0.016983652487397194, 0.15049800276756287, 0.13502001762390137, -0.025614725425839424, -0.061737727373838425, 0.11952854692935944, 0.06237312778830528, 0.07037830352783203, -0.10550593584775925, -0.13565944135189056, 0.1450870782136917, 0.03827091306447983, -0.06326768547296524, 0.05431734398007393, 0.024777019396424294, 0.07559528201818466, -0.06260476261377335, 0.010510221123695374, -0.11871538311243057, -0.04840284213423729, -0.013612012378871441, 0.03310615196824074, 0.18745139241218567, -0.06860946863889694, 0.04513903707265854, 0.08124052733182907, -0.018598446622490883, -0.06723486632108688, 0.04813952371478081, 0.07231871783733368, 0.11029790341854095, 0.10606049001216888, -0.13627111911773682, -0.03653035685420036, -0.09442906081676483, -0.021446747705340385, 0.10227474570274353, 0.04503967612981796, -0.0002224320633104071, 0.08500366657972336, 0.10666285455226898, -0.08042643964290619, 0.06689802557229996, -0.08285390585660934, -0.06426495313644409, 0.05409926548600197, 0.0737643912434578, 0.03399508446455002, 0.04517088830471039, -0.09977459162473679, -0.08276288956403732, 0.06303413957357407, -0.014911109581589699, 0.06341671198606491, 0.030575528740882874, -0.0036797411739826202, 0.04471718892455101, -0.044447701424360275, 0.0488189235329628, -0.07418924570083618, -0.012016606517136097, 0.09861048310995102, 0.0064476123079657555, 0.0306896660476923, 0.008649516850709915, 0.050132475793361664, 0.07513050734996796, 0.18882839381694794, 0.014796698465943336, -0.0947856679558754, 0.11952363699674606, -0.015919741243124008, 0.10059209913015366, 0.09277603030204773, -0.14018724858760834, 0.09652453660964966, -0.07846317440271378, -0.16189639270305634, 0.056561265140771866, -0.09184178709983826, 0.052499279379844666, 0.1428067684173584, -0.0050841993652284145, 0.1820802539587021, -0.05794398486614227, 0.08225805312395096, -0.1196889728307724, -0.05337594076991081, 0.043317463248968124, -0.046590205281972885, 0.13929800689220428, 0.00949956476688385, 0.05335270240902901], [-0.11501865833997726, 0.004400694742798805, 0.031073356047272682, 0.045038238167762756, 0.05775799602270126, 0.02231995016336441, 0.017387649044394493, -0.03475993499159813, 0.0008603333262726665, -0.07322436571121216, -0.018095912411808968, -0.006124975625425577, -0.07191091030836105, -0.08998247236013412, 0.09837906062602997, -0.06839513778686523, -0.12697464227676392, -0.02275126241147518, -0.028479771688580513, -0.04388824850320816, -0.07849381864070892, -0.012746721506118774, -0.08153881132602692, 0.09964092075824738, 0.07271068543195724, 0.000965669983997941, -0.05266246199607849, 0.015533172525465488, 0.04964010789990425, 0.033127326518297195, 0.015229557640850544, 0.04962877556681633, -0.14307761192321777, -0.09149239212274551, 0.016201483085751534, -0.04334190860390663, -0.09891518950462341, -0.018224520608782768, 0.07300706207752228, -0.02368013933300972, -0.0678735002875328, 0.005771247670054436, -0.09803412109613419, 0.06883327662944794, 0.0759354904294014, -0.09673833101987839, 0.025809170678257942, 0.048883840441703796, -0.08563393354415894, -0.07565537095069885, 0.012876332737505436, 0.08213759958744049, 0.023857729509472847, -0.08187341690063477, 0.055752694606781006, -0.027240853756666183, -0.11647559702396393, -0.06593415886163712, -0.030021315440535545, 0.04555352032184601, -0.07537658512592316, -0.030748894438147545, -0.08271799981594086, -0.09283845871686935, -0.12552118301391602, -0.1118144616484642, -0.13190419971942902, -0.0007924269884824753, 0.03231343626976013, -0.016238421201705933, -0.09283562749624252, -0.06600833684206009, 0.024226628243923187, 0.04009582847356796, -0.01692376472055912, -0.040052544325590134, -0.01628352515399456, -0.1399247646331787, 0.05982925370335579, 0.03971182554960251, -0.07927476614713669, -0.1383843719959259, -0.09233065694570541, -0.12780211865901947, 0.01543491706252098, -0.05668279528617859, -0.07198836654424667, 0.004455080721527338, 0.0188138410449028, -0.04089983180165291, 0.11076373606920242, 0.013388225808739662, -0.00468179676681757, -0.006991473026573658, -0.06564178317785263, -0.05337327718734741, -0.09172255545854568, 0.0034137011971324682, -0.059433549642562866, -0.00842625554651022, 0.008469780907034874, 0.012996510602533817, -0.11594049632549286, -0.05050084739923477, 0.030203653499484062, 0.03665817528963089, 0.017021821811795235, 0.02706792764365673, -0.13421298563480377, -0.0354350320994854, 0.033450715243816376, 0.019976506009697914, -0.033025044947862625, -0.03022177517414093, -0.07436162978410721, -0.0819135382771492, -0.11643262207508087, -0.09031668305397034, -0.06482429057359695, 0.022244052961468697, -0.02615472488105297, 0.07789584994316101, -0.029336463660001755, -0.09304171800613403, -0.11958947032690048, -0.051729828119277954, 0.004705831408500671, -0.028030285611748695], [-0.07888618856668472, -0.09710336476564407, -0.044915273785591125, 0.14672066271305084, 0.043615296483039856, -0.16809895634651184, -0.06781676411628723, -0.07015109062194824, -0.007950647734105587, -0.08574080467224121, 0.15993472933769226, -0.02577262930572033, -0.06356789916753769, -0.06713874638080597, 0.18013489246368408, -0.06716316193342209, -0.08587334305047989, 0.011143536306917667, -0.002672663889825344, 0.05680049955844879, 0.01424138993024826, -0.14325182139873505, -0.0064698937349021435, 0.06659261882305145, -0.04130997881293297, -0.12651744484901428, -0.022410649806261063, -0.13071829080581665, 0.0403425432741642, -0.0557367168366909, 0.020478667691349983, 0.0003674049221444875, -0.09856314212083817, 0.013234676793217659, -0.22401975095272064, -0.050642888993024826, -0.211768239736557, -0.03962687402963638, 0.08591107279062271, -0.07881749421358109, -0.08138995617628098, -0.17373283207416534, -0.053456861525774, 0.07628826051950455, 0.12264025211334229, -0.18361660838127136, -0.14199653267860413, -0.11629773676395416, 0.05560404062271118, -0.023467186838388443, -0.135010227560997, 0.05176939070224762, 0.02091558650135994, 0.017114359885454178, 0.012215296737849712, 0.039533715695142746, -0.13372266292572021, -0.09814675152301788, 0.05737094581127167, 0.06347991526126862, -0.04306863993406296, -0.0024155466817319393, -0.003962196875363588, -0.0033077504485845566, -0.04638153314590454, -0.11040513962507248, -0.007059562020003796, 0.08914796262979507, -0.030029162764549255, 0.005157082341611385, 0.05833383649587631, -0.1341586410999298, -0.16594131290912628, 0.05534030497074127, -0.011253154836595058, -0.1304699182510376, 0.16473355889320374, 0.00874289683997631, -0.06682220846414566, 0.12528148293495178, -0.013667264953255653, -0.09728085994720459, -0.116382896900177, -0.06825769692659378, 0.06213058531284332, -0.03300532326102257, 0.10293656587600708, -0.0746089369058609, -0.05286870524287224, -0.11313105374574661, 0.11012423038482666, 0.04115994647145271, -0.008840219117701054, -0.0716768279671669, -0.11522314697504044, 0.02104559727013111, -0.060479771345853806, -0.0012445214670151472, 0.04422309994697571, 0.046716075390577316, -0.0060161990113556385, -0.04044484347105026, -0.242893785238266, -0.03183180093765259, 0.06644731760025024, -0.15441463887691498, 0.057397834956645966, -0.04220765829086304, -0.16842533648014069, 0.03869915008544922, -0.19180919229984283, 0.06848637014627457, 0.06585968285799026, 0.00964179914444685, -0.040281057357788086, -0.1522052139043808, -0.07443271577358246, -0.09235457330942154, -0.21097488701343536, 0.028405819088220596, -0.08451664447784424, 0.0816916897892952, 0.0110756391659379, -0.0670974850654602, -0.08551665395498276, -0.08220241218805313, 0.09347695112228394, -0.05087701231241226], [-0.11245091259479523, -0.003109486075118184, -0.03112029656767845, -0.06733362376689911, -0.0447072759270668, -0.022844543680548668, -0.011187776923179626, -0.03337712958455086, -0.021749597042798996, -0.05793556943535805, -0.04898449406027794, -0.08714589476585388, -0.024125967174768448, -0.00560454186052084, -0.04178442060947418, 0.03665367141366005, -0.010633725672960281, -0.11789178848266602, 0.05106736719608307, 0.06490781903266907, -0.09922727942466736, -0.011801132000982761, 0.030355161055922508, -0.10451068729162216, -0.10284841805696487, -0.009553450159728527, 0.03652828931808472, -0.09095924347639084, 0.04104214534163475, 0.041672851890325546, -0.11451996117830276, -0.09286989271640778, -0.004008869174867868, 0.03980162367224693, -0.04484720900654793, -0.09117740392684937, -0.04921605437994003, -0.03440644219517708, 0.02392725460231304, -0.04579903930425644, -0.06564449518918991, -0.029413025826215744, -0.0068853809498250484, -0.06846358627080917, 0.05104829743504524, -0.04341078922152519, -0.06277843564748764, -0.04672977700829506, -0.010020341724157333, -0.11286015808582306, 0.04528167471289635, 0.06156330555677414, -0.08010290563106537, -0.01600380800664425, 0.039333511143922806, 0.02617461048066616, 0.036070317029953, 0.0023896689526736736, -0.060981884598731995, 0.008289389312267303, 0.00023543853603769094, -0.019196266308426857, 0.05532399192452431, -0.10211660712957382, -0.07927176356315613, -0.033226750791072845, -0.06736547499895096, 0.03090631030499935, -0.058627650141716, -0.0692349448800087, -0.033932529389858246, -0.07360082864761353, -0.07323701679706573, 0.00988736655563116, -0.05369267240166664, -0.09446350485086441, -0.03462627902626991, 0.02949485555291176, 0.009122363291680813, -0.027563905343413353, -0.05638796091079712, -0.07700169831514359, -0.1139533743262291, -0.06015755236148834, 0.04099079221487045, -0.06515298038721085, -0.01581912860274315, 0.04795905202627182, 0.04524412378668785, -0.057744987308979034, 0.020656533539295197, -0.08427906781435013, -0.09171514958143234, -0.12478933483362198, -0.11163579672574997, 0.05241457000374794, -0.11594603210687637, 0.014793016947805882, -0.07945369184017181, -0.10242293775081635, -0.04519430547952652, 0.03726425766944885, -0.10597941279411316, -0.09072577208280563, -0.012408394366502762, 0.01204499788582325, -0.06436610221862793, -0.032213397324085236, 0.01267548929899931, -0.05387454852461815, 0.001872076652944088, -0.03569138050079346, 0.025715911760926247, 0.015022159554064274, -0.06744031608104706, -0.060002248734235764, -0.1054765060544014, 0.03864643722772598, -0.06851295381784439, -0.05077941343188286, -0.10386264324188232, 0.005541425198316574, 0.008029242977499962, -0.044316187500953674, -0.03732618689537048, 0.041990794241428375, -0.10514272004365921, -0.026878276839852333], [-0.0804453194141388, -0.024214938282966614, -0.14153672754764557, 0.05881591513752937, -0.04441668838262558, -0.04816628620028496, -0.045548222959041595, -0.042766764760017395, 0.10911042243242264, -0.1349005550146103, 0.042561013251543045, -0.018486658111214638, 0.006213594693690538, -0.05466840788722038, -0.022430986166000366, -0.0784771591424942, -0.01228462066501379, -0.08361026644706726, -0.13742302358150482, 0.07082366943359375, -0.10108502209186554, -0.03739527612924576, -0.06737908720970154, -0.07161463052034378, -0.2006276547908783, -0.14436796307563782, -0.18466420471668243, -0.15269099175930023, -0.07031146436929703, -0.049059830605983734, -0.09880352765321732, -0.019831959158182144, -0.04597717151045799, -0.12319399416446686, -0.07899928838014603, -0.10885872691869736, 0.08291106671094894, -0.05667763203382492, 0.015446162782609463, -0.11421804875135422, -0.034594666212797165, 0.02777997963130474, -0.07925308495759964, -0.11788180470466614, 0.11535069346427917, -0.07192295044660568, -0.13954320549964905, -0.12524892389774323, 0.005829802714288235, -0.06453393399715424, -0.14988726377487183, 0.02453741431236267, -0.1935468167066574, -0.08347079902887344, -0.07196728885173798, 0.09595876187086105, -0.04234708845615387, 0.04762496054172516, 0.058258481323719025, -0.0024738386273384094, -0.12533853948116302, 0.01951473392546177, 0.07445497810840607, 0.03941088914871216, 0.16340918838977814, -0.08196254819631577, -0.1337178498506546, -0.043898362666368484, -0.1889977604150772, -0.03881990164518356, -0.1810438185930252, 0.028014369308948517, -0.07974347472190857, 0.026825586333870888, -0.11883421987295151, 0.023867839947342873, 0.11090613901615143, 0.08579763770103455, -0.2007720023393631, 0.1247892677783966, -0.055231936275959015, -0.018034616485238075, -0.026044173166155815, -0.1645381599664688, -0.1260937750339508, -0.1425296515226364, 0.15781286358833313, -0.07998933643102646, -0.10429994016885757, 0.12404481321573257, 0.04422657564282417, 0.021266557276248932, -0.07025855034589767, -0.14827673137187958, -0.14087124168872833, 0.1143241673707962, -0.08130894601345062, -0.17873036861419678, -0.015377171337604523, -0.1230941042304039, -0.10593806207180023, -0.05164872109889984, -0.03966856375336647, 0.10933365672826767, -0.11448510736227036, 0.0795915275812149, 0.08542738109827042, -0.09450651705265045, 0.0002863753470592201, 0.08301454782485962, -0.12275925278663635, -0.24558812379837036, -0.09104110300540924, 0.07499299943447113, -0.03182206675410271, -0.014563314616680145, 0.1658170223236084, -0.05801175534725189, -0.0619061253964901, 0.054565947502851486, -0.0580720454454422, 0.10807710140943527, -0.19076116383075714, -0.10667400062084198, -0.18162204325199127, -0.07326392829418182, -0.056141894310712814, 0.10718251019716263], [-0.03273322060704231, -0.009996477514505386, -0.030750134959816933, -0.14778472483158112, -0.24389435350894928, -0.04054331034421921, 0.13871876895427704, -0.13809944689273834, -0.18097758293151855, 0.14341874420642853, -0.19791382551193237, 0.03965878114104271, -0.027422763407230377, 0.06334249675273895, -0.1555083692073822, 0.07824172079563141, -0.050569552928209305, 0.044917456805706024, -0.20366054773330688, -0.10313065350055695, 0.0782385990023613, -0.032796286046504974, -0.07652868330478668, -0.13886843621730804, 0.011792443692684174, -0.042627088725566864, -0.0007616473594680429, -0.03801645338535309, -0.15583735704421997, 0.11985651403665543, -0.22158092260360718, -0.21761581301689148, 0.019734825938940048, 0.0018022393342107534, 0.014348264783620834, -0.04935312271118164, -0.1318519562482834, 0.08364034444093704, -0.08771234005689621, -0.08200855553150177, 0.09425453841686249, -0.041762083768844604, -0.19193097949028015, -0.05810045823454857, -0.13793374598026276, 0.12921014428138733, 0.0034752499777823687, -0.008947298862040043, -0.12082870304584503, 0.18120026588439941, 0.16331060230731964, -0.1283571869134903, -0.10575548559427261, -0.01710682548582554, -0.16179019212722778, -0.15836967527866364, -0.017165789380669594, -0.08721362054347992, -0.06775465607643127, -0.1445443481206894, -0.013522438704967499, -0.16502068936824799, -0.12503626942634583, -0.17131692171096802, -0.12250526249408722, -0.06556244939565659, 0.10603433102369308, -0.150752991437912, -0.03800182417035103, -0.08877841383218765, -0.016448140144348145, -0.21298176050186157, 0.04744763672351837, -0.11482575535774231, 0.08893171697854996, -0.08029891550540924, -0.16517822444438934, -0.11971418559551239, 0.017672831192612648, -0.0856841504573822, -0.12748004496097565, 0.08429264277219772, -0.2280382364988327, -0.017345566302537918, 0.011670771986246109, 0.08212735503911972, -0.17732591927051544, -0.10253880172967911, 0.013874837197363377, -0.16461637616157532, -0.16126300394535065, -0.20860373973846436, -0.19814954698085785, -0.043259091675281525, 0.03902619332075119, -0.06686144322156906, -0.06617962568998337, 0.022801635786890984, -0.1322578340768814, -0.10530184954404831, -0.13684265315532684, -0.06660302728414536, 0.12294823676347733, -0.14863838255405426, -0.008486991748213768, -0.014406383037567139, -0.08130649477243423, 0.13209402561187744, 0.041797950863838196, -0.061801157891750336, -0.01443692110478878, -0.04354522004723549, -0.16978323459625244, -0.09057385474443436, -0.22997698187828064, -0.03766554221510887, -0.11308404058218002, -0.12981870770454407, 0.04372730478644371, -0.11521581560373306, -0.007632163818925619, -0.12527191638946533, -0.07041900604963303, -0.016810424625873566, 0.011311869136989117, -0.07413306087255478, -0.252301424741745, -0.18516488373279572], [-0.08015325665473938, -0.06401515007019043, -0.08371111005544662, -0.029954873025417328, 0.02135857753455639, -0.08609458804130554, -0.06262864917516708, 0.00542626203969121, -0.04769563674926758, -0.04825345426797867, 0.11974988877773285, -0.04008031263947487, -0.04185459762811661, -0.008008288219571114, 0.07251136749982834, -0.099022775888443, -0.0400022491812706, -0.07968667894601822, -0.02140004374086857, 0.0008502097334712744, -0.0730520486831665, -0.049397144466638565, 0.05303723365068436, -0.031033137813210487, 0.011633878573775291, 0.02505328506231308, -0.10046210885047913, -0.061967261135578156, 0.04021746665239334, -0.09962733089923859, 0.0033999918960034847, -0.08493099361658096, -0.028952855616807938, -0.085263691842556, -0.11415984481573105, 0.01716405339539051, 0.005800152663141489, -0.1268051415681839, 0.0037549827247858047, -0.0012464022729545832, -0.09041579812765121, -0.04085930809378624, 0.043850451707839966, 0.04050980508327484, -0.0017478866502642632, -0.14395390450954437, -0.11040305346250534, -0.010610838420689106, -0.08464249223470688, -0.11544819176197052, -0.0501774325966835, 0.06091908738017082, -0.05837458744645119, -0.028963008895516396, -0.00021653799922205508, 0.021648241207003593, -0.05748188495635986, -0.026510054245591164, -0.09874675422906876, -0.05983525514602661, -0.0793786272406578, 0.050262995064258575, -0.07142247259616852, -0.08199537545442581, -0.09479451179504395, -0.021891949698328972, -0.09365036338567734, 0.13732165098190308, 0.013382020406425, -0.021603815257549286, -0.07078356295824051, 0.01542759034782648, -0.102250836789608, -0.023425018414855003, -0.05671893060207367, -0.0014903369592502713, 0.06487156450748444, -0.032178204506635666, 0.04330430179834366, 0.061613231897354126, 0.039451468735933304, -0.08554349839687347, 0.032209862023591995, -0.11482803523540497, -0.09976494312286377, 0.05405258387327194, 0.07996564358472824, 0.01060398668050766, -0.0008109457558020949, 0.005957202520221472, 0.04920626059174538, 0.04577167332172394, -0.09529756009578705, -0.0416116826236248, 0.009312989190220833, -0.1044691652059555, -0.05697619915008545, -0.11124904453754425, 0.009885087609291077, 0.09224285930395126, -0.05998901650309563, -0.10100607573986053, -0.07755880057811737, -0.060096438974142075, -0.03108925186097622, -0.10836096853017807, 0.017618639394640923, -0.06978890299797058, 0.00441596657037735, -0.026634305715560913, -0.045159075409173965, 0.052044980227947235, -0.037579476833343506, -0.06694953143596649, 0.029173802584409714, 0.015989752486348152, -0.05731702595949173, -0.03723173588514328, -0.007526339963078499, -0.0035096697974950075, -0.11886149644851685, 0.05124244466423988, -0.0011875842465087771, 0.06014793738722801, -0.07818643003702164, -0.12312585860490799, -0.07148177176713943, -0.10625454783439636], [0.05525418370962143, -0.06138569861650467, -0.04287071153521538, -0.07881490886211395, -0.08330471068620682, -0.10637255758047104, -0.05444682016968727, -0.04849923029541969, 0.06246509775519371, 0.015463177114725113, -0.07665164023637772, -0.026510464027523994, -0.06774961203336716, -0.08394071459770203, 0.03784657642245293, -0.06747414916753769, -0.08086828887462616, -0.12014887481927872, -0.054885003715753555, -0.06562118232250214, 0.003009242471307516, -0.03180532902479172, -0.014664188958704472, -0.07753384858369827, -0.016946861520409584, -0.06433160603046417, -0.06703411787748337, -0.07143144309520721, -0.08234363794326782, 0.04794571176171303, 0.03555069491267204, 0.004863583482801914, -0.011946180835366249, -0.05000600591301918, 0.0587143674492836, -0.08612615615129471, -0.06312363594770432, -0.029289089143276215, -0.06274855136871338, 0.030742881819605827, 0.03593774512410164, 0.03654497116804123, -0.03526240214705467, -0.08983909338712692, -0.030896706506609917, 0.004275627434253693, 0.06435514986515045, -0.08175130933523178, -0.04031408578157425, 0.02847449854016304, 0.03031899221241474, 0.019239813089370728, 0.033011436462402344, -0.07123824208974838, -0.07024860382080078, -0.03375117480754852, -0.07695358246564865, -0.07838032394647598, 0.0707252100110054, 0.012832250446081161, -0.001023476361297071, -0.045689962804317474, 0.0205000601708889, 0.008505266159772873, -0.0510113500058651, 0.002711061853915453, 0.050797633826732635, -0.08325653523206711, 0.037587083876132965, 0.049649231135845184, -0.12185249477624893, -0.0727972611784935, 0.003919428214430809, -0.02668965980410576, -0.01113792136311531, 0.008179759606719017, -0.1094474196434021, 0.05282801017165184, -0.06287950277328491, -0.051530882716178894, -0.05409893020987511, 0.05183057114481926, 0.06361238658428192, 0.043287117034196854, 0.039808426052331924, 0.0429571233689785, -0.010794702917337418, -0.07480818778276443, -0.016101175919175148, -0.04016558825969696, 0.020054997876286507, -0.10966428369283676, -0.007597183808684349, -0.11363115161657333, -0.02445557713508606, -0.05813371017575264, -0.027578817680478096, -0.1128627210855484, -0.05899106711149216, -0.06877340376377106, 0.023545892909169197, -0.0009677990456111729, -0.06716171652078629, 0.07560700178146362, -0.057691000401973724, 0.0646386370062828, -0.0482557937502861, -0.02477126196026802, -0.10966647416353226, -0.08305593580007553, -0.0007912180153653026, 0.03287934884428978, 0.023507939651608467, 0.025717053562402725, 0.025037217885255814, -0.07850175350904465, -0.022951241582632065, 0.017062116414308548, 0.019384244456887245, -0.12093385308980942, -0.11649207025766373, -0.11054568737745285, -0.015927255153656006, -0.050967682152986526, -0.030253086239099503, -0.07909470051527023, -0.003650935599580407, 0.023140374571084976], [-0.011221351101994514, 0.07055474817752838, 0.0214768648147583, -0.11567170172929764, -0.013373494148254395, 0.009545677341520786, -0.10064318776130676, 0.07260541617870331, -0.10696332156658173, -0.0611051581799984, -0.08594261109828949, -0.020759211853146553, 0.014129459857940674, -0.07908367365598679, -0.023575054481625557, -0.07912977784872055, -0.03567790240049362, -0.10197016596794128, 0.046170249581336975, -0.020541483536362648, 0.014923951588571072, -0.12013473361730576, -0.050332218408584595, 0.027287911623716354, -0.06453020870685577, 0.05788883939385414, 0.046248700469732285, 0.04781557619571686, 0.013674469664692879, -0.0002325895184185356, -0.016076186671853065, -0.03606624901294708, -0.07764653116464615, -0.06566367298364639, 0.01737610250711441, -0.0648358091711998, 0.01374469418078661, 0.036428507417440414, 0.0013869397807866335, -0.011126061901450157, -0.09571875631809235, 0.002652553142979741, 0.006564101669937372, -0.0045824311673641205, 0.020307529717683792, -0.10083787143230438, -0.0017317656893283129, -0.07590507715940475, 0.0192332174628973, -0.026962045580148697, -0.011075961403548717, 0.0010470259003341198, 0.018251627683639526, 0.03130873292684555, -0.06995053589344025, -0.0160842202603817, 0.0412411093711853, -0.07377752661705017, -0.05566616728901863, -0.004039224702864885, -0.11602967977523804, -0.09250923991203308, -0.003082879353314638, -0.0332607664167881, -0.0472850576043129, -0.005573634058237076, -0.05037657171487808, 0.013937686569988728, -0.028933173045516014, 0.041286807507276535, -0.05318693444132805, -0.11207417398691177, 0.04223084822297096, -0.10516461730003357, -0.027142969891428947, -0.06567052751779556, 0.015849269926548004, -0.09735830128192902, 0.001023071352392435, -0.007906094193458557, -0.035732220858335495, -0.014122373424470425, -0.10266629606485367, -0.0643480122089386, -0.07486088573932648, -0.11184807121753693, -0.01146552711725235, -0.10035441815853119, 0.04495131969451904, 0.02503434382379055, -0.06457563489675522, -9.840517304837704e-05, 0.005231939256191254, -0.027999581769108772, -0.10903647541999817, -0.11139427870512009, -0.08266368508338928, -0.06312885880470276, -0.1311584860086441, -0.04216567799448967, -0.0748346820473671, 0.054662879556417465, -0.07821433246135712, -0.08162347227334976, 0.0543338879942894, 0.030285514891147614, -0.08849699050188065, 0.045796819031238556, 0.027038125321269035, -0.06901513785123825, -0.08757273852825165, 0.004118890967220068, -0.03646382316946983, -0.12032878398895264, -0.05640331655740738, 0.013692214153707027, -0.01691322773694992, -0.038537632673978806, 0.001272538211196661, 0.03464609384536743, -0.11711341142654419, -0.10001850873231888, 0.05425189808011055, -0.05801554024219513, 0.015908334404230118, -0.10537095367908478, 0.0030441454146057367, -0.0427018441259861], [0.031756334006786346, -0.005614300258457661, -0.01696409285068512, -0.09078148752450943, -0.057141635566949844, -0.03594706952571869, 0.051168929785490036, 0.003518600482493639, -0.0058696819469332695, -0.08091175556182861, -0.007895107381045818, 0.03220647573471069, -0.010792315006256104, -0.01166215818375349, -0.04956100508570671, 0.0049434686079621315, -0.04151740297675133, -0.11845235526561737, -0.06106440722942352, -0.07910101115703583, 0.050069257616996765, -0.06784667074680328, -0.07951133698225021, -0.05925288051366806, -0.06263930350542068, -0.01779867522418499, -0.008595735765993595, -0.026214703917503357, -0.028448527678847313, -0.08091782033443451, -0.022140860557556152, 0.0526149645447731, -0.041228193789720535, -0.10782668739557266, -0.0038856742903590202, -0.032419413328170776, -0.06169246509671211, 0.030965587124228477, 0.060938768088817596, 0.05897066369652748, -0.07930728793144226, -0.09609423577785492, 0.031219372525811195, -0.000713965913746506, -0.017387518659234047, -0.022632591426372528, 0.022377129644155502, -0.01062847301363945, -0.06521198153495789, -0.08813825994729996, -0.05317903310060501, -0.09295377135276794, -0.1036553829908371, -0.09290560334920883, 0.030964596197009087, 0.05863093584775925, -0.0970572978258133, -0.08924996107816696, -0.045492321252822876, -0.03458046913146973, -0.07939524948596954, -0.06471163779497147, 0.03379656746983528, 0.0028323412407189608, -0.08719103038311005, -0.015748966485261917, -0.1162925586104393, 0.054050181061029434, -0.04848947376012802, 0.006363448686897755, -0.029610630124807358, 0.05670061334967613, 0.045136138796806335, -0.02597498521208763, -0.03186377137899399, -0.09139378368854523, 0.04722924157977104, -0.10180484503507614, -0.1048261746764183, 0.03621538728475571, -0.06922038644552231, -0.06166043505072594, -0.02395298145711422, -0.0031364874448627234, -0.08202160149812698, 0.050864338874816895, -0.07047505676746368, 0.05955592542886734, 0.04788593575358391, -0.06472796946763992, -0.09197545796632767, -0.024546295404434204, -0.061385586857795715, -0.03095262683928013, 