[{"weight": [[-0.8164015412330627, 0.2008582502603531], [-0.22712700068950653, 0.8632463216781616], [-0.2848392724990845, -0.03601919114589691], [-0.12251555174589157, -0.22468270361423492], [-0.6241181492805481, 0.5166277289390564], [0.6924538016319275, -0.7193418145179749], [-0.9176705479621887, 0.3146052956581116], [-0.5705973505973816, -0.788407564163208], [-0.43877896666526794, -0.1556682139635086], [0.3110254108905792, 0.06425319612026215], [0.3171875774860382, -0.08009658753871918], [-0.10750552266836166, 0.10004547983407974], [1.0443655252456665, 0.4068564176559448], [-0.6822877526283264, 0.517297089099884], [-0.23134754598140717, 0.5890213251113892], [-0.006817486137151718, 0.22623774409294128], [0.9629296660423279, 0.6345486640930176], [0.2718893885612488, 0.28289908170700073], [1.0905852317810059, -0.9539931416511536], [-0.7952690720558167, -0.5780926942825317], [0.8782315850257874, -0.35439416766166687], [-0.4046719968318939, -0.010833327658474445], [0.937326192855835, -0.7297364473342896], [-0.35116299986839294, 0.6045504212379456], [-0.494302898645401, -0.12030459195375443], [1.1152671575546265, -0.9648965001106262], [0.09679064899682999, 0.699866771697998], [-0.29430705308914185, -0.10553305596113205], [-0.7289038896560669, 0.8353942632675171], [-0.19984443485736847, -0.17777156829833984], [0.6894664764404297, 0.8364331126213074], [-0.3614126741886139, 0.8253320455551147], [0.1276833713054657, 0.8988366723060608], [-0.5429019331932068, -1.2428780794143677], [0.25874969363212585, -0.04394394904375076], [0.7494958639144897, 0.4308915138244629], [1.1183040142059326, -0.22560204565525055], [-0.5124063491821289, -1.3630865812301636], [-0.08420135080814362, 0.10376746952533722], [0.0843576192855835, 0.019088050350546837], [0.04436345398426056, 0.28481459617614746], [0.7646795511245728, -0.19124042987823486], [-0.991544783115387, 0.3088115155696869], [-0.8449577689170837, -0.6607912182807922], [0.17459574341773987, -0.12120690196752548], [-0.39257577061653137, -0.7862867116928101], [0.24386920034885406, 0.8048692941665649], [0.9756829142570496, -0.16998550295829773], [-0.16883015632629395, 0.9188950657844543], [0.31145545840263367, -0.06089890003204346], [0.08952358365058899, 0.2155427634716034], [-0.08546531200408936, 0.9209890961647034], [-0.16601286828517914, -0.988106906414032], [-0.21060527861118317, -1.0661429166793823], [0.14887036383152008, 0.00014328028191812336], [-0.5697178244590759, 0.8832939267158508], [-0.20213358104228973, -0.16530434787273407], [-0.9153996706008911, -0.31418541073799133], [0.19921338558197021, 0.18560653924942017], [-0.08731946349143982, -0.37768319249153137], [-0.42012616991996765, -0.6639150977134705], [0.430624395608902, 0.0852620005607605], [0.06474520266056061, 0.3353032171726227], [-0.8659932017326355, -0.2547529935836792], [0.149447500705719, 0.8634167909622192], [0.2644740343093872, -0.1799445003271103], [0.4698929786682129, 0.7364645600318909], [-0.10848616063594818, 0.13965827226638794], [-0.6638948917388916, -0.4961099624633789], [-0.8966074585914612, -0.14925020933151245], [0.31981930136680603, -0.18497440218925476], [1.0308175086975098, 0.8395056128501892], [0.24831460416316986, 0.07676555961370468], [0.06902863830327988, -0.951066255569458], [1.2299081087112427, -0.5094268321990967], [0.3186604082584381, -0.28616082668304443], [0.3026150166988373, 0.054770734161138535], [-0.08714322745800018, 0.750755786895752], [0.1560182273387909, 0.18182587623596191], [0.8402785062789917, -0.9057632684707642], [0.23090152442455292, 0.9533782005310059], [-0.4048781394958496, 0.6344821453094482], [0.16753658652305603, -1.171603798866272], [0.09554692357778549, 0.19328390061855316], [-0.7559205889701843, 0.602260410785675], [-0.6447018980979919, -0.8350629210472107], [-0.6593814492225647, 0.7363277673721313], [-0.8139362335205078, 0.2787391245365143], [0.8993049263954163, 0.5171812772750854], [-0.5074490308761597, -0.21797822415828705], [0.3759152591228485, -0.023519031703472137], [-0.45343247056007385, 0.8796922564506531], [0.6724357604980469, 0.7732679843902588], [-0.8000050783157349, 0.3484649360179901], [-0.39212530851364136, 0.4198533594608307], [-0.8198550343513489, -0.29461953043937683], [-0.8017354607582092, 0.7228436470031738], [1.1528984308242798, -0.44450831413269043], [0.21012341976165771, 0.9542970657348633], [-0.2761664390563965, 0.5938482284545898], [0.6626598834991455, 0.7582528591156006], [0.7838906049728394, -1.00259530544281], [0.40896186232566833, 0.16644087433815002], [-0.8411359190940857, -0.6669484972953796], [-0.1580618917942047, -0.7838031649589539], [-0.26771771907806396, -1.0740187168121338], [0.25043147802352905, 0.07689184695482254], [0.6547707915306091, -0.8956807851791382], [0.6191929578781128, -0.21442827582359314], [0.09834351390600204, -0.46521931886672974], [-0.11916263401508331, 0.08164369314908981], [-0.5745050311088562, 0.5885512232780457], [0.04272303730249405, -0.1388658732175827], [-0.6984450817108154, 0.44108784198760986], [0.22537441551685333, 0.12256285548210144], [-0.7932302951812744, -0.7787217497825623], [-0.9133066534996033, -0.2346896231174469], [-0.7123216986656189, 0.44621774554252625], [0.2208240032196045, 0.8955779671669006], [0.7952449917793274, 0.697258710861206], [0.352704256772995, 0.8166583180427551], [-0.9787642359733582, -0.0774640142917633], [-0.12256761640310287, 0.39847469329833984], [-0.3799472153186798, -1.1463183164596558], [0.13324791193008423, -0.12093456089496613], [0.24714471399784088, 0.06284208595752716], [0.5779078006744385, 0.307820200920105], [-0.03444118797779083, 0.1576889455318451]], "bias": [0.466238796710968, -0.49910953640937805, 0.17677968740463257, 0.5375267267227173, -0.6310707926750183, -0.34495672583580017, -0.030054859817028046, -0.06099541112780571, 0.6464757323265076, -0.09662145376205444, 0.5580068826675415, 0.669119656085968, -0.36698803305625916, -0.5175825953483582, 0.8146173357963562, -0.29818835854530334, -0.4209684431552887, 0.30050182342529297, -0.0010497448965907097, 0.06181686371564865, 0.26869893074035645, 0.7214217782020569, -0.19051572680473328, -0.1744476854801178, 0.7094707489013672, 0.38120037317276, -0.19607912003993988, -0.5081673264503479, -0.47580161690711975, 0.7209085822105408, -0.6232786178588867, -0.6012780666351318, 0.03257984668016434, 0.6610888242721558, 0.8287516236305237, -0.03027101792395115, -0.49211886525154114, 0.6059767007827759, 0.5664461851119995, 0.43939992785453796, 0.5209886431694031, 0.8721216320991516, 0.9801779389381409, -0.25675082206726074, 0.7835848927497864, -0.14426203072071075, 0.6514707207679749, 0.31990090012550354, -0.1614983081817627, 0.42408254742622375, 0.13984036445617676, 0.6524385213851929, 0.7433626055717468, 0.1501334309577942, -0.154525026679039, -0.5838531851768494, 0.4774627983570099, -0.0072631556540727615, 0.6117305159568787, 0.779777467250824, 0.20914381742477417, 0.6476473212242126, -0.259589284658432, -0.01956673339009285, 0.5204806923866272, 0.42317143082618713, -0.48718228936195374, 0.41678881645202637, 0.7325035333633423, -0.17714078724384308, 0.2314353585243225, -0.20811335742473602, 0.2950836718082428, 0.35270220041275024, 0.47500181198120117, 0.5089795589447021, 0.4040716886520386, -0.3776181936264038, 0.7591221332550049, 0.7590948343276978, -0.4793199598789215, 0.24482329189777374, -0.35595282912254333, 0.7666714787483215, -0.4305458664894104, -0.04756500944495201, 0.2576330304145813, -0.11196234822273254, -0.5259789228439331, 0.523826539516449, -0.1941547691822052, -0.4954904615879059, 0.3094286024570465, -0.5363876223564148, 0.5012771487236023, 0.7316207885742188, 0.14255574345588684, -0.04576564207673073, 0.3709229826927185, 0.774970293045044, -0.5639861822128296, 0.6144959926605225, 0.17790605127811432, -0.13283009827136993, 0.3135620057582855, -0.6844261884689331, 0.6626790165901184, -0.22241345047950745, 0.5805850028991699, 0.3632856607437134, 0.26286765933036804, 0.07022656500339508, -0.25567352771759033, 0.38750046491622925, -0.40183863043785095, -0.125301793217659, -0.04548688605427742, 0.025884142145514488, 0.3976098299026489, -0.497002512216568, -0.45088908076286316, 0.8308859467506409, -0.19523964822292328, 0.43677207827568054, 0.826620876789093, 0.42765936255455017, 0.5399108529090881, -0.26575547456741333]}, {"weight": [[-0.09201709926128387, -0.05031033232808113, 0.034522172063589096, 0.09004095196723938, -0.009684527292847633, -0.11384975910186768, -0.06700342893600464, -0.0995604544878006, 0.08847210556268692, 0.006894721183925867, 0.11023353040218353, 0.04484862461686134, -0.18406334519386292, -0.04583233967423439, 0.06502753496170044, -0.010397963225841522, -0.08342552930116653, -0.07420364022254944, -0.09921890497207642, -0.011406452395021915, -0.045808661729097366, 0.009806929156184196, -0.09662079066038132, -0.018999608233571053, 0.10363838076591492, 0.007998458109796047, -0.10173460096120834, -0.04310768097639084, -0.038778722286224365, 0.06323404610157013, -0.14832405745983124, -0.040801819413900375, -0.07214336097240448, -0.1028614193201065, -0.016624707728624344, -0.03690408170223236, -0.05407118424773216, -0.06542842090129852, 0.014098938554525375, 0.10647387057542801, 0.021167082712054253, 0.0055251517333090305, -0.03915877640247345, -0.022675493732094765, 0.027182912454009056, -0.11364076286554337, 0.033880893141031265, -0.10613629966974258, -0.00414628442376852, 0.00207785377278924, 0.01390011701732874, 0.07600891590118408, 0.029735175892710686, -0.0049934242852032185, -0.0035263425670564175, -0.002215401269495487, 0.0650535449385643, -0.09968401491641998, -0.043318971991539, 0.0991768166422844, -0.03346484154462814, 0.012305942364037037, 0.06959445029497147, -0.10878389328718185, 0.03801959753036499, 0.0125057278200984, 0.007333829067647457, 0.03023967333137989, 0.06949640065431595, -0.08377926051616669, -0.044478889554739, -0.03530408442020416, 0.06944738328456879, -0.008596946485340595, -0.03593578189611435, 0.09060561656951904, -0.0223553329706192, -0.06600219011306763, 0.09275833517313004, 0.05768105015158653, -0.11947334557771683, 0.07553093135356903, -0.09612186253070831, 0.0625283345580101, -0.0037880544550716877, -0.05781005695462227, -0.07682144641876221, -0.10621862858533859, -0.1498866081237793, 0.00937221571803093, 0.048293422907590866, -0.01944993995130062, 0.02556213177740574, -0.15378524363040924, 0.06606952846050262, 0.04862670972943306, -0.08398254960775375, -0.026364093646407127, -0.06750444322824478, -0.03984279930591583, -0.03471286967396736, -0.04573008045554161, -0.08249383419752121, -0.13364939391613007, -0.07800278067588806, -0.09687624126672745, 0.08279161155223846, -0.047169219702482224, -0.0071481335908174515, 0.06076556071639061, 0.11267712712287903, -0.03968644514679909, 0.10235204547643661, -0.01336218137294054, 0.08613083511590958, -0.13474388420581818, -0.07918517291545868, -0.02222689799964428, 0.027722928673028946, -0.1327807903289795, -0.037041254341602325, -0.11426401883363724, 0.04708719998598099, -0.041750483214855194, 0.004901910200715065, 0.014198782853782177, -0.07466397434473038, -0.0030001066625118256], [-0.5188894867897034, -0.3192830979824066, -0.42757728695869446, -0.21445004642009735, -0.4049919843673706, 0.18748103082180023, -0.43864065408706665, -0.24121594429016113, -0.30665501952171326, -0.03601088747382164, -0.017535997554659843, -0.4182204306125641, 0.17774812877178192, -0.3273259103298187, -0.39388442039489746, -0.2393999844789505, 0.08583634346723557, -0.16272106766700745, 0.22442595660686493, -0.3604786694049835, 0.20679156482219696, -0.5040053725242615, 0.1940733939409256, -0.31854039430618286, -0.371228963136673, 0.17473489046096802, -0.24888953566551208, -0.311147540807724, -0.2822314500808716, -0.3060514032840729, -0.027761021628975868, -0.4046914577484131, -0.2022206038236618, -0.22515058517456055, -0.09208200126886368, 0.05376577004790306, 0.33400648832321167, -0.08689351379871368, -0.3713460862636566, -0.16245447099208832, -0.2960144877433777, 0.11412715166807175, -0.5294880270957947, -0.22640611231327057, -0.1278923898935318, -0.09466498345136642, -0.21250145137310028, 0.202207550406456, -0.45766520500183105, 0.04462185502052307, -0.17816433310508728, -0.31764811277389526, -0.10458243638277054, -0.05357846990227699, -0.12052346020936966, -0.41457951068878174, -0.34181633591651917, -0.32661980390548706, -0.19299566745758057, -0.25770944356918335, -0.2000250667333603, 0.013214172795414925, -0.2334064096212387, -0.3722163736820221, -0.2860126495361328, -0.06346447020769119, -0.10004042834043503, -0.35044243931770325, -0.27648451924324036, -0.3331945538520813, 0.008023299276828766, 0.011829034425318241, -0.14644528925418854, 0.038472652435302734, 0.21956278383731842, 0.03659297153353691, -0.12377787381410599, -0.25628483295440674, -0.21814978122711182, 0.12740622460842133, -0.20172633230686188, -0.4452323019504547, 0.14870436489582062, -0.24828378856182098, -0.43247729539871216, -0.1995963603258133, -0.37938007712364197, -0.4938593804836273, 0.06494815647602081, -0.41649550199508667, 0.07583633810281754, -0.46936142444610596, -0.04246128723025322, -0.449115127325058, -0.3620133101940155, -0.42245250940322876, -0.3440009355545044, 0.3123381435871124, -0.24494022130966187, -0.4506237506866455, -0.09451260417699814, 0.10489799082279205, 0.001199487829580903, -0.29328832030296326, -0.02175290510058403, 0.044946085661649704, -0.14120475947856903, 0.29100945591926575, 0.07334885746240616, 0.05565580353140831, -0.30828022956848145, -0.4619066119194031, -0.06786587089300156, -0.46316856145858765, -0.1321696937084198, -0.18696700036525726, -0.34362372756004333, -0.4434458613395691, -0.15896369516849518, 0.07690568268299103, -0.23370808362960815, -0.5348398089408875, -0.42503970861434937, -0.15898223221302032, -0.14171835780143738, -0.12079805880784988, -0.11509068310260773, -0.26448023319244385], [0.047272197902202606, -0.07501211762428284, -0.063904769718647, -0.08439575880765915, 0.03636692091822624, -0.07477613538503647, 0.009884047321975231, -0.02177499234676361, -0.06442950665950775, -0.07516990602016449, 0.04424291104078293, -0.03260132297873497, -0.08375146239995956, -0.11223120987415314, 0.05572535842657089, 0.019255099818110466, -0.044536881148815155, -0.042350731790065765, -0.09525538235902786, -0.10443342477083206, -0.01907455176115036, 0.050983212888240814, 0.03894113749265671, 0.01271122321486473, -0.019030628725886345, -0.0816926583647728, 0.015666112303733826, -0.025460580363869667, -0.09369394928216934, -0.0629677101969719, -0.12741002440452576, 0.020572073757648468, 0.054737333208322525, 0.005372917279601097, -0.00915858056396246, -0.005630976520478725, -0.09482450038194656, -0.09016814827919006, 0.003328092861920595, -0.05128508061170578, 0.06530454754829407, 0.05621737241744995, -0.06421294063329697, -0.06579135358333588, -0.05338708311319351, -0.02561751753091812, -0.02554183267056942, 0.011475496925413609, -0.051896657794713974, -0.07090948522090912, -0.08696848899126053, -0.03956584259867668, -0.005517448298633099, -0.06270856410264969, 0.010590734891593456, -0.010399993509054184, -0.027951380237936974, 0.008263065479695797, 0.06867966055870056, -0.08995257318019867, -0.01024946104735136, -0.061433326452970505, -0.06691654026508331, -0.10862353444099426, -0.07507777214050293, 0.04495368152856827, 0.028683550655841827, -0.07720525562763214, -0.058910321444272995, -0.06697212904691696, -0.07235302776098251, 0.03886830061674118, 0.0004097940109204501, 0.009808311238884926, -0.11757423728704453, 0.05090981349349022, -0.07234008610248566, 0.020804859697818756, 0.06946881115436554, -0.09800279885530472, -0.022896768525242805, -0.0629962831735611, -0.04857727512717247, -0.05296846106648445, -0.11570499837398529, 0.055561333894729614, -0.085899218916893, -0.011931291781365871, -0.06203184649348259, -0.09753409773111343, 0.023285813629627228, 0.007134330924600363, -0.028488002717494965, 0.026033159345388412, -0.01849057897925377, -0.047134626656770706, -0.0874706283211708, -0.04364582523703575, -0.10425814241170883, -0.08225532621145248, 0.022433118894696236, 0.028140921145677567, -0.06477676331996918, -0.05226786807179451, 0.019586484879255295, -0.0718236193060875, -0.06076605245471001, -0.0645269900560379, 0.02862091362476349, -0.012996743433177471, -0.03578179329633713, -0.07680267095565796, -0.008338259533047676, 0.016683824360370636, 0.0007621697150170803, 0.01623050682246685, 0.03328206390142441, -0.025373732671141624, -0.0974811464548111, 0.03329151123762131, -0.07306927442550659, 0.023573730140924454, 0.05560160428285599, -0.09666470438241959, -0.06803642958402634, -0.05652828514575958, 0.006840198300778866, -0.0013992182211950421], [-0.18697960674762726, 0.04606024548411369, -0.2252645194530487, -0.2052886188030243, -0.1079087108373642, -0.00741969607770443, -0.08573908358812332, -0.09696371853351593, -0.15326333045959473, 0.03554956242442131, -0.00617945846170187, -0.18657375872135162, 0.1983546018600464, -0.07740283012390137, -0.1763601303100586, -0.02256898768246174, 0.10244468599557877, 0.031447336077690125, 0.0974106639623642, -0.05033068358898163, 0.03691728040575981, -0.20243389904499054, 0.020535511896014214, -0.12757569551467896, -0.19655710458755493, 0.04452748969197273, 0.008580928668379784, -0.2590782046318054, 0.09086809307336807, -0.18014155328273773, 0.08699223399162292, 0.05676966533064842, -0.010011272504925728, -0.022525906562805176, -0.08049192279577255, 0.07064071297645569, 0.040771372616291046, -0.0677775964140892, -0.23734503984451294, -0.09491391479969025, -0.036802154034376144, 0.010421757586300373, -0.1315566748380661, -0.09283432364463806, -0.11362402141094208, -0.20517411828041077, 0.039644479751586914, 0.09536809474229813, 0.08840464055538177, -0.10091119259595871, -0.13333114981651306, 0.05539090558886528, -0.14252080023288727, -0.16766515374183655, -0.05634181573987007, 0.0019310450879856944, -0.16392982006072998, -0.09084521234035492, -0.030871013179421425, -0.13098539412021637, -0.1295582503080368, -0.05522788316011429, -0.1062508299946785, -0.0009181721252389252, 0.001315506175160408, -0.038248077034950256, 0.032687511295080185, -0.11346668004989624, -0.1827372908592224, -0.12721289694309235, -0.09660694748163223, 0.1444483995437622, 0.0019749377388507128, -0.14906300604343414, -0.06981635838747025, -0.10687985271215439, -0.13531380891799927, -0.04911987483501434, -0.16978411376476288, -0.07755151391029358, 0.014131876640021801, -0.13194724917411804, -0.1767309010028839, -0.1552637219429016, -0.0076607149094343185, -0.13598288595676422, -0.012605639174580574, -0.033530279994010925, 0.1229395940899849, -0.2568483054637909, -0.06441426277160645, 0.007496906444430351, 0.09045158326625824, 0.018048157915472984, -0.1045483648777008, -0.06556399911642075, -0.03844369202852249, 0.12158095091581345, 0.05121282488107681, -0.0969846099615097, 0.061235133558511734, -0.10365431010723114, 0.0012724038679152727, 0.011907539330422878, -0.2567974627017975, -0.06651688367128372, 0.002111040288582444, -0.06922855973243713, -0.07027463614940643, -0.25048771500587463, -0.17076683044433594, -0.012684454210102558, -0.23664598166942596, -0.10517418384552002, -0.0040471418760716915, -0.07416339963674545, -0.07840048521757126, -0.13065390288829803, 0.043366461992263794, 0.2125193327665329, 0.09036628901958466, -0.1278156042098999, -0.09455441683530807, -0.11727848649024963, -0.12531016767024994, -0.0369345061480999, 0.06414882838726044, -0.20027080178260803], [0.028650008141994476, -0.005411493591964245, -0.021850718185305595, -0.03629840537905693, -0.0632418692111969, -0.09132695198059082, -0.09533638507127762, -0.03824640437960625, -0.005578250624239445, -0.11943148821592331, -0.05993170663714409, 0.031014708802103996, -0.002502943156287074, -0.14280502498149872, 0.018721969798207283, -0.0372365303337574, -0.08158870041370392, 0.00558496406301856, -0.0334564633667469, -0.037965405732393265, 0.01590311899781227, -0.07697431743144989, -0.04494917392730713, -0.1120845153927803, 0.030939921736717224, -0.10632092505693436, 0.013617010787129402, -0.03661986440420151, -0.07974301278591156, 0.0009766649454832077, -0.06352657079696655, -0.029646705836057663, 0.0015908958157524467, 0.06802373379468918, 0.024764522910118103, -0.13544803857803345, -0.0009638314368203282, -0.06966252624988556, 0.0041443523950874805, -0.05687914788722992, -0.06272774934768677, 0.03872747719287872, 0.028689073398709297, -0.03764428570866585, -0.07965730875730515, -0.07484783977270126, 0.015139960683882236, 0.01247391477227211, -0.06160552054643631, -0.012143987230956554, 0.03530571609735489, 0.027606600895524025, -0.09851866960525513, 0.06397462636232376, -0.11638184636831284, -0.07172510027885437, -0.008091761730611324, -0.022983631119132042, 0.006205069366842508, -0.07216551154851913, -0.04785008728504181, -0.056510522961616516, -0.09444132447242737, -0.003755217185243964, -0.05169656127691269, -0.10908541083335876, -0.0701998770236969, -0.007495066616684198, 0.022238558158278465, -0.07787028700113297, -0.03851072117686272, 0.009639892727136612, 0.03558788076043129, -0.03025403618812561, -0.02899100072681904, -0.08473169803619385, -0.07518944144248962, 0.00611680606380105, -0.10872732102870941, -0.06690436601638794, -0.10634706169366837, -0.012410487979650497, -0.10014685988426208, -0.06965591758489609, -0.06092049181461334, -0.029627950862050056, -0.05613807216286659, -0.140399768948555, 0.02553742565214634, 0.008703755214810371, -0.026981323957443237, -0.026104193180799484, -0.01314687542617321, 0.0074864947237074375, -0.013549069873988628, 0.021106218919157982, -0.0727454349398613, 0.02906620129942894, -0.0943865180015564, -0.12751813232898712, -0.07505644857883453, -0.1306864321231842, -0.029903240501880646, 0.0374784879386425, -0.07148823142051697, 0.02193407341837883, -0.01207576971501112, 0.03824605792760849, -0.05804009363055229, 0.019834620878100395, 0.027464106678962708, -0.033331483602523804, 0.05726170167326927, -0.12339039891958237, -0.06000925600528717, 0.05040432885289192, 0.024812176823616028, -0.11411134898662567, -0.008631101809442043, -0.13734813034534454, -0.0064103505574166775, 0.036262378096580505, -0.11949879676103592, -0.02996208891272545, -0.022882139310240746, -0.04397682473063469, 0.009600893594324589, 0.012211882509291172], [-0.03004593960940838, 0.04060306400060654, 0.023865969851613045, -0.1358315795660019, 0.011767598800361156, -0.1360778510570526, 0.013633222319185734, -0.0898698940873146, -0.10063562542200089, -0.03201896697282791, -0.13871388137340546, -0.08150601387023926, -0.023798439651727676, 0.01732657477259636, -0.08021862059831619, -0.08277321606874466, -0.0069406586699187756, 0.03588646650314331, -0.04091208055615425, -0.040546782314777374, -0.034009985625743866, -0.09641601890325546, -0.11118041723966599, -0.002217371016740799, -0.0022866299841552973, -0.0025514140725135803, -0.043500132858753204, -0.0057858009822666645, 0.04008407145738602, 0.004918679129332304, -0.09367375075817108, -0.08397220075130463, 0.06910410523414612, -0.13560084998607635, -0.08921443670988083, -0.13189640641212463, -0.10319490730762482, -0.037106893956661224, 0.015792645514011383, 0.029046090319752693, 0.04550813511013985, -0.02529209293425083, 0.03277868404984474, -0.08647699654102325, -0.14860975742340088, -0.08773960173130035, 0.0538581982254982, -0.006814438849687576, -0.01650373823940754, -0.1436837911605835, 0.014241590164601803, -0.08971637487411499, -0.014747143723070621, -0.0686652734875679, -0.052872493863105774, 0.003193059703335166, 0.036028895527124405, -0.07014987617731094, -0.07043194025754929, 0.0148350540548563, -0.072910837829113, -0.10069376230239868, -0.09208381175994873, -0.13156506419181824, -0.0022992161102592945, -0.10208484530448914, -0.023499267175793648, -0.10726318508386612, -0.0013501975918188691, 0.032956406474113464, -0.00880308449268341, -0.06336059421300888, 0.03409400209784508, -0.07148147374391556, -0.12485012412071228, -0.037647999823093414, -0.042361821979284286, -0.07274600863456726, -0.06702015548944473, -0.004250926431268454, -0.10105949640274048, 0.053106024861335754, -0.03783884271979332, 0.029704628512263298, -0.047603167593479156, -0.07895127683877945, -0.06827498227357864, 0.03568889573216438, -0.05584190413355827, -0.0821109488606453, -0.13831211626529694, -0.01728168874979019, -0.11993131786584854, -0.11521831154823303, -0.09711920469999313, -0.06987714022397995, 0.07686038315296173, -0.0559646412730217, -0.07878699153661728, 0.06099317595362663, 0.0011041841935366392, -0.08632677048444748, -0.06543277949094772, -0.10096096247434616, -0.1252906322479248, -0.16138188540935516, -0.07690505683422089, -0.002604851732030511, -0.04361988976597786, -0.018070712685585022, -0.03209803253412247, 0.03071029670536518, -0.08305684477090836, -0.04618101939558983, -0.03379056602716446, -0.13013982772827148, -0.09119012951850891, 0.02452361211180687, 0.050863832235336304, 0.05000109598040581, -0.11292954534292221, -0.10193897038698196, 0.06914439052343369, -0.055631957948207855, -0.13059039413928986, -0.0926358550786972, -0.0036713676527142525, -0.08756863325834274], [0.0157200675457716, -0.03465011343359947, -0.10455168783664703, -0.12881162762641907, -0.05093512311577797, -0.03813817352056503, 0.043856069445610046, 0.025304216891527176, -0.09556521475315094, -0.030895574018359184, -0.18265844881534576, -0.048566605895757675, -0.06632287800312042, 0.059949710965156555, -0.01275041326880455, -0.02023889310657978, -0.08712960034608841, -0.08261125534772873, -0.04480705410242081, 0.03059135004878044, -0.11655526608228683, -0.1106935665011406, -0.09862682968378067, -0.00036061074933968484, -0.10392052680253983, 0.025905992835760117, -0.10807961225509644, -0.0700436607003212, 0.03306882828474045, 0.0005304767400957644, -0.033547502011060715, -0.06986828148365021, -0.043707117438316345, -0.09021884948015213, -0.14238949120044708, -0.0009406598401255906, 0.01563877798616886, -0.04888390749692917, -0.008964643813669682, -0.04788616672158241, -0.030539900064468384, -0.04341324418783188, -0.07382611930370331, 0.058805692940950394, -0.17326384782791138, -0.00489266449585557, -0.07044263929128647, -0.07196459919214249, -0.08093665540218353, -0.05990301072597504, -0.1812191754579544, -0.06764428317546844, -0.13463202118873596, 0.010892050340771675, -0.03525147587060928, -0.09247366338968277, -0.026672521606087685, 0.029749521985650063, -0.06559213250875473, -0.14415721595287323, 0.04434513673186302, -0.188288152217865, -0.010370510630309582, -0.046013571321964264, -0.04596845433115959, -0.03753388673067093, -0.040654800832271576, -0.1470278948545456, -0.032884396612644196, 0.02603592909872532, -0.030763773247599602, -0.044182710349559784, -0.07473485916852951, -0.05308753252029419, -0.12180173397064209, -0.05026394873857498, -0.1655326783657074, -0.047951262444257736, -0.08922293782234192, -0.11833248287439346, -0.021463727578520775, -0.09995058178901672, -0.06519144028425217, -0.07991509139537811, 0.043515730649232864, -0.030503954738378525, -0.0183485746383667, -0.1080499216914177, -0.1169719472527504, -0.07353811711072922, -0.12537242472171783, 0.040317486971616745, -0.018216917291283607, -0.0350990816950798, -0.019708622246980667, 0.04090159013867378, 0.05780346319079399, -0.08337927609682083, -0.04403723403811455, -0.11470147967338562, -0.09757114201784134, 0.020138246938586235, -0.13052499294281006, 0.07984559237957001, -0.10969395190477371, 0.048632871359586716, -0.10079877078533173, -0.11181317269802094, -0.14503630995750427, -0.07542528212070465, -0.041764821857213974, 0.006145439576357603, -0.1402440369129181, -0.0770883560180664, -0.14916250109672546, 0.03834313526749611, 0.04774608090519905, -0.043622273951768875, -0.061445657163858414, -0.027157966047525406, -0.11261343210935593, 0.03956430405378342, -0.0120158102363348, -0.03348115459084511, -0.1392316222190857, -0.18842269480228424, -0.15213848650455475, -0.09543398767709732], [0.1584656983613968, 0.08835509419441223, 0.050824038684368134, 0.04464287683367729, 0.23797649145126343, -0.47403866052627563, 0.17920701205730438, 0.1525236815214157, 0.18152013421058655, -0.4315871596336365, -0.35123229026794434, -0.07361335307359695, -0.6124634146690369, 0.21914075314998627, 0.03221622109413147, -0.036713436245918274, -0.5399136543273926, -0.23309215903282166, -0.6883133053779602, 0.24405410885810852, -0.46151527762413025, 0.12999923527240753, -0.6499325633049011, 0.11153163015842438, 0.06814032793045044, -0.5954841375350952, -0.06907737255096436, 0.1449679136276245, 0.2007613480091095, -0.02765163779258728, -0.3049294054508209, 0.10037808120250702, 0.012497378513216972, 0.037290945649147034, -0.36786168813705444, -0.3874513804912567, -0.6338545680046082, 0.05923200026154518, -0.05526240915060043, -0.2524716258049011, -0.0390966534614563, -0.5181635022163391, 0.23510465025901794, 0.2991958260536194, -0.22928784787654877, 0.12027828395366669, -0.247343972325325, -0.5057928562164307, 0.030990397557616234, -0.3760465383529663, -0.2040756642818451, -0.019001005217432976, -0.08562767505645752, 0.021941976621747017, -0.25643932819366455, 0.2573147118091583, 0.08729742467403412, 0.29810529947280884, -0.3282201588153839, -0.10438724607229233, 0.06831800937652588, -0.4472106695175171, -0.10819142311811447, 0.2754800319671631, -0.14400088787078857, -0.3328620493412018, -0.2827797532081604, -0.02815973199903965, 0.18081077933311462, 0.3080802857875824, -0.3632802665233612, -0.5547166466712952, -0.3584243059158325, -0.09294344484806061, -0.6166559457778931, -0.3023833930492401, -0.3887246549129486, -0.03742090240120888, -0.27828872203826904, -0.36505043506622314, -0.05038768798112869, 0.02792864665389061, -0.11026870459318161, -0.13361719250679016, 0.3174750506877899, 0.16424687206745148, 0.19874154031276703, 0.1676153987646103, -0.5336688160896301, 0.16245006024837494, -0.3060094714164734, 0.1698731631040573, -0.35803455114364624, 0.26513344049453735, 0.08587080985307693, 0.23007965087890625, 0.17615263164043427, -0.7271917462348938, -0.182076096534729, 0.040285054594278336, -0.39184215664863586, -0.3211100995540619, -0.44784438610076904, 0.23241972923278809, -0.045744433999061584, 0.18783734738826752, -0.2799886465072632, -0.4083790183067322, -0.3714638948440552, -0.09700272977352142, 0.03507929667830467, 0.10883967578411102, -0.07177618145942688, 0.23152130842208862, -0.2702670693397522, 0.24416309595108032, 0.29498836398124695, 0.2284315675497055, -0.12599480152130127, -0.4811568558216095, -0.1992531418800354, 0.24608230590820312, 0.021717414259910583, 0.04059171676635742, -0.2525883913040161, -0.35849258303642273, -0.4278343915939331, -0.11418543010950089], [-0.027906430885195732, -0.11952229589223862, -0.025601856410503387, -0.05554414540529251, -0.045033082365989685, -0.12182572484016418, -0.07418301701545715, -0.07695994526147842, -0.10463028401136398, -0.12220589071512222, -0.1413004845380783, -0.05470019206404686, -0.13749676942825317, 0.01092960499227047, 0.05021188408136368, -0.1179487332701683, -0.14666686952114105, -0.049199722707271576, -0.02697749249637127, 0.04845523461699486, -0.09431510418653488, 0.03585847094655037, -0.021354567259550095, -0.0827479213476181, 0.03955385088920593, -0.08430147171020508, -0.08969195187091827, -0.034652095288038254, 0.013089662417769432, 0.02862640842795372, -0.04479729011654854, -6.49953872198239e-05, -0.10506970435380936, -0.10731963813304901, -0.08262363076210022, -0.06274906545877457, -0.11151871085166931, -0.12486503273248672, 0.05635447055101395, -0.0429743155837059, -0.0874062031507492, -0.06900693476200104, -0.09804914891719818, -0.018390648066997528, -0.024225806817412376, -0.039720937609672546, -0.0650380402803421, -0.10509839653968811, -0.0042746663093566895, -0.1359987109899521, 0.033589210361242294, -0.0372169204056263, -0.12782031297683716, -0.046093687415122986, -0.059687912464141846, 0.03372448310256004, -0.02153998427093029, -0.102534219622612, -0.03282425180077553, -0.053896214812994, 0.026865748688578606, -0.008991660550236702, -0.015255953185260296, -0.060240063816308975, -0.09838209301233292, -0.11048515886068344, -0.045536208897829056, -0.023150460794568062, -0.015759769827127457, -0.10119672864675522, 0.024109357967972755, -0.014211020432412624, 0.02508809044957161, 0.0019963933154940605, -0.11467156559228897, 0.012634719721972942, -0.020425714552402496, -0.0438917875289917, -0.09690965712070465, -0.02676384337246418, -0.13170944154262543, 0.003429225878790021, 0.0166229959577322, 0.0052698757499456406, 0.019093159586191177, -0.020045273005962372, -0.08406244218349457, -0.00437171058729291, -0.06485147029161453, 0.013448696583509445, -0.0550030916929245, 0.01024886779487133, 0.017426418140530586, -0.07401179522275925, -0.04908899962902069, 0.030175678431987762, -0.025005843490362167, -0.1642228364944458, 0.008384624496102333, -0.03156595677137375, 0.010718205012381077, -0.006399034988135099, -0.034285981208086014, 0.021549643948674202, -0.030137859284877777, -0.054104723036289215, 0.006686713546514511, -0.0894145593047142, -0.022872865200042725, -0.13080942630767822, -0.018051130697131157, -0.0006639741477556527, -0.05810551717877388, -0.014783103950321674, -0.07974626868963242, -0.006897014565765858, 0.059375081211328506, 0.036366187036037445, -0.12430116534233093, -0.07766775786876678, -0.13941293954849243, -0.07277762144804001, 0.00011467239528428763, 0.0053890161216259, 0.0017100042896345258, -0.08206535875797272, -0.003163623157888651, 0.016810020431876183], [-0.026890162378549576, -0.046971261501312256, 0.05612391605973244, -0.018169380724430084, -0.032881513237953186, -0.05271469056606293, -0.02375112473964691, -0.08498683571815491, -0.04614614322781563, -0.011022296734154224, 0.014076603576540947, -0.018730822950601578, 0.001574465073645115, -0.00031374083482660353, 0.03444455936551094, 0.057371750473976135, -0.03599260374903679, 0.02077234908938408, -0.13804380595684052, -0.07524866610765457, -0.093088798224926, 0.03696363419294357, -0.09065420180559158, -0.003760702209547162, 0.00883534736931324, -0.0037969485856592655, -0.07193801552057266, -0.06948653608560562, 0.0017067568842321634, 0.03817357122898102, -0.031767845153808594, -0.12604573369026184, -0.031278613954782486, -0.08981963992118835, 0.09362203627824783, -0.08591847866773605, -0.03247509151697159, -0.0016553110908716917, -0.012441236525774002, 0.10976000875234604, -0.05786331743001938, -0.013294950127601624, -0.054305918514728546, -0.07617613673210144, 0.05736581236124039, -0.10070499032735825, -0.019218705594539642, -0.0014313797000795603, -0.08670015633106232, -0.012676432728767395, 0.02952253818511963, -0.04891278222203255, 0.0472889170050621, -0.09601672738790512, -0.03869376331567764, -0.12884435057640076, 0.03921547904610634, -0.06655114889144897, 0.08178003877401352, -0.03356634080410004, 0.06960543245077133, 0.043883755803108215, 0.08852639049291611, 0.0064885360188782215, -0.07401886582374573, -0.007336918264627457, -0.0338907390832901, -0.05464829131960869, -0.10739579051733017, -0.12679855525493622, 0.04471587762236595, -0.12328044325113297, 0.006453552283346653, 0.009844735264778137, -0.02262180484831333, 0.011640078388154507, -0.009525112807750702, 0.07198910415172577, -0.015916548669338226, 0.05315716937184334, 0.037781376391649246, 0.06080048531293869, -0.04760131984949112, 0.0016847050283104181, -0.014314210042357445, -0.01435568742454052, -0.01735273189842701, -0.045963890850543976, -0.13203750550746918, -0.07910309731960297, -0.03129402920603752, -0.06646385043859482, -0.06101948022842407, -0.06868071109056473, 0.05187840759754181, -0.08325470983982086, 0.02692645601928234, -0.04421369358897209, 0.017767056822776794, 0.04280513525009155, 0.01250933762639761, -0.03895094245672226, -0.04108168184757233, 0.01495895255357027, -0.05816703289747238, -0.03898574784398079, 0.09630287438631058, -0.10209599882364273, -0.06483987718820572, 0.03442220017313957, -0.039663005620241165, -0.045224811881780624, 0.0069844163954257965, -0.058699797838926315, 0.07474576681852341, -0.10843537747859955, 0.02918330579996109, -0.04261431097984314, -0.07086679339408875, -0.1346368044614792, 0.05594082921743393, -0.004536283202469349, -0.08564072847366333, 0.011995123699307442, 0.02079523541033268, -0.05774979665875435, 0.07785199582576752, -0.05261681228876114], [-0.06541489064693451, -0.04916990175843239, -0.0353163443505764, -0.07225486636161804, -0.0847519263625145, -0.011782228946685791, 0.003402900183573365, -0.007435524836182594, 0.007038740906864405, 0.017373306676745415, -0.06291072070598602, -0.09383171796798706, 0.04688837006688118, 0.0073021952994167805, -0.07167327404022217, -0.048288799822330475, 0.11302500218153, 0.04855925217270851, -0.002423165598884225, 0.019918186590075493, -0.056634675711393356, 0.02127055823802948, -0.11780726909637451, -0.12193244695663452, -0.05541679635643959, -0.10624606907367706, -0.12699855864048004, -0.0779980942606926, -0.10101950913667679, -0.08448544889688492, -0.009552929550409317, -0.09711303561925888, 0.005269187968224287, -0.11685443669557571, -0.05176115036010742, 0.037179894745349884, 0.10022620856761932, -0.13878946006298065, -0.05419014021754265, -0.11749083548784256, -0.06226140633225441, -0.10283853858709335, 0.016791122034192085, 0.021887464448809624, -0.030680952593684196, -0.07193837314844131, -0.024455614387989044, 0.057757433503866196, 0.023184940218925476, -0.08979245275259018, -0.011769426055252552, -0.04043380543589592, -0.006328904069960117, -0.010229228064417839, -0.07265561074018478, -0.07490094751119614, -0.0034577567130327225, -0.003381397109478712, -0.08272536844015121, -0.030817897990345955, 0.014242555946111679, -0.06508342921733856, 0.0006577289896085858, -0.08292326331138611, -0.08035176247358322, -0.12110203504562378, -0.011909622699022293, -0.01827785186469555, 0.012521149590611458, -0.0971548929810524, -0.046726737171411514, 0.000775410735514015, -0.1299915313720703, -0.0048226905055344105, 0.019627852365374565, -0.06616503745317459, -0.06709053367376328, -0.06979124993085861, -0.044267117977142334, -0.019728677347302437, -0.004894069395959377, -0.004379900172352791, -0.054879330098629, -0.012856830842792988, 0.012029017321765423, -0.1109328418970108, -0.06923561543226242, -0.045732058584690094, -0.038995224982500076, -0.01079463493078947, -0.09435223788022995, 0.04017603024840355, 0.020984621718525887, -0.10564552247524261, -0.06955944001674652, -0.07714112102985382, -0.07394658029079437, 0.02368549443781376, -0.022100120782852173, -0.12867002189159393, 0.09493837505578995, -0.016431275755167007, -0.04128003865480423, 0.034636788070201874, -0.10848348587751389, -0.05112379416823387, -0.013620088808238506, -0.13178406655788422, 0.01895756460726261, -0.0383562408387661, -0.09062892943620682, -0.01885514333844185, -0.14560917019844055, 0.020765189081430435, 0.04739798977971077, 0.003857023548334837, -0.02608986757695675, -0.10156005620956421, 0.02645236812531948, 0.07936348766088486, 0.06675729155540466, -0.11456175148487091, -0.10197804123163223, -0.13481074571609497, -0.07578285038471222, -0.05167081207036972, 0.009279702790081501, -0.014325225725769997], [-0.11672841757535934, 0.06162440404295921, -0.08375248312950134, -0.1218404546380043, -0.11908287554979324, -0.051252447068691254, -0.028335630893707275, 0.013343730941414833, -0.0026038524229079485, -0.09403502941131592, -0.08750074356794357, -0.08604306727647781, -0.08398083597421646, -0.05119551718235016, 0.029661504551768303, -0.10669014602899551, 0.016435347497463226, -0.13957281410694122, -0.09067881107330322, -0.03255012631416321, -0.009282969869673252, -0.0006712942267768085, -0.029845107346773148, 0.006179908290505409, -0.15314888954162598, -0.09365393221378326, -0.02267005853354931, -0.14128756523132324, 0.01248549297451973, -0.15553565323352814, 0.04695252701640129, 0.03754466772079468, 0.015660947188735008, 0.017726464197039604, -0.007206708658486605, -0.05885012820363045, -0.07589215040206909, -0.13617895543575287, -0.04738128185272217, -0.11420674622058868, -0.07900379598140717, 0.014209934510290623, -0.06532745063304901, -0.12247499078512192, -0.027226563543081284, -0.014642810449004173, -1.660028829064686e-05, -0.0116721261292696, 0.002610251773148775, -0.1315632462501526, -0.0626298263669014, -0.011223318055272102, -0.13214442133903503, -0.0619635134935379, -0.0017922339029610157, 1.0762894817162305e-05, -0.0436621755361557, -0.03988376632332802, -0.13187262415885925, -0.03307434916496277, -0.008941850624978542, -0.07666845619678497, -0.05472787842154503, -0.11146322637796402, 0.03507829084992409, -0.08261578530073166, -0.10087047517299652, -0.03969920054078102, 0.005239601247012615, -0.10768256336450577, -0.0075050946325063705, -0.12779830396175385, -0.032988157123327255, -0.004588195588439703, -0.10578471422195435, -0.07033976912498474, -0.09352504462003708, -0.06134180724620819, -0.10665678232908249, -0.033230073750019073, 0.05108559504151344, -0.10612553358078003, -0.07703741639852524, 0.013037900440394878, -0.12272745370864868, -0.0052549149841070175, 0.015074892900884151, -0.049234069883823395, -0.07017163932323456, 0.0010031979763880372, -0.12769605219364166, -0.00602314155548811, 0.009695944376289845, -0.03001941554248333, -0.11818082630634308, -0.15187972784042358, -0.025770477950572968, -0.12171392887830734, -0.0008584991446696222, 0.00908241793513298, -0.10348979383707047, -0.025944653898477554, -0.004251607693731785, 0.002732941647991538, -0.007132083643227816, 0.006536894012242556, -0.018796076998114586, -0.07521780580282211, -0.05265144631266594, -0.12128166109323502, -0.099309042096138, -0.11466281861066818, -0.1247674748301506, -0.13992992043495178, -0.07560473680496216, -0.00573648139834404, -0.1559462994337082, 0.029057325795292854, 0.04638071358203888, 0.012811758555471897, -0.02618771232664585, -0.050271615386009216, 0.019439322873950005, -0.018212806433439255, -0.012866114266216755, 0.0030551645904779434, -0.019252166152000427, -0.026296183466911316], [-0.11273480206727982, -0.06135646253824234, 0.038381900638341904, -0.04500458016991615, 0.018796510994434357, -0.024761542677879333, -0.06410427391529083, -0.035250965505838394, -0.05746057629585266, 0.0062577989883720875, -0.021539974957704544, -0.0396508164703846, -0.016956008970737457, -0.1243383064866066, 0.02777618169784546, 0.029102500528097153, -0.1066083088517189, 0.03124300390481949, 0.0026203698944300413, 0.029328439384698868, -0.040162503719329834, -0.023434177041053772, -0.1059115007519722, -0.0671253353357315, 0.06077612563967705, -0.03546048700809479, -0.04433639347553253, -0.012035112828016281, 0.003751947544515133, -0.09486953914165497, -0.10856378078460693, -0.03590361028909683, -0.05428452417254448, -0.11602789908647537, -0.04647790640592575, 0.012934737838804722, -0.13681425154209137, 0.02678559347987175, -0.0935671478509903, 0.03810371458530426, -0.03872619941830635, -0.10368592292070389, -0.04419916123151779, 0.0029176378156989813, 0.06872060149908066, -0.02260723151266575, -0.05490146204829216, -0.06426248699426651, 0.0022121071815490723, -0.05299880728125572, -0.03964005783200264, 0.05257154628634453, -0.08313749730587006, -0.10971057415008545, -0.01614665426313877, -0.1078868880867958, 0.0013885698281228542, -0.05214441567659378, 0.008852764964103699, -0.042052969336509705, 0.014292928390204906, -0.05710228160023689, 0.022015804424881935, -0.10472073405981064, 0.050552576780319214, -0.03917939215898514, -0.04209774360060692, -0.009234871715307236, -0.1273850053548813, 0.031747788190841675, 0.06361162662506104, 0.018001828342676163, 0.042421210557222366, 0.023498842492699623, -0.07539157569408417, 0.025076640769839287, -0.02057432010769844, 0.03498036414384842, 0.023038702085614204, 0.026743030175566673, 0.0018194542499259114, -0.008634104393422604, 0.040634818375110626, 0.00947706401348114, -0.09207125753164291, -0.07008233666419983, -0.06873732060194016, -0.006866876967251301, -0.05263068899512291, 0.026584452018141747, -0.10868386924266815, -0.11422544717788696, -0.04546547308564186, -0.053318046033382416, -0.04863455519080162, -0.11212024092674255, -0.08486510068178177, -0.11201952397823334, -0.058693453669548035, -0.0736941397190094, -0.10062368214130402, -0.005770470481365919, -0.053136829286813736, -0.022665882483124733, -0.07684236764907837, 0.015348090790212154, 0.018308382481336594, -0.1082628071308136, -0.09392469376325607, -0.06958133727312088, -0.07905363291501999, 0.03624751418828964, -0.052616823464632034, 0.0018841061973944306, 0.04384022206068039, -0.028239866718649864, -0.12166018784046173, 0.028950586915016174, 0.03566054254770279, -0.08484861254692078, 0.009924755431711674, -0.03902963921427727, 0.058627888560295105, -0.06919682025909424, 0.02110220678150654, 0.002107512205839157, -0.03336230292916298, -0.011191020719707012], [-0.09442807734012604, -0.044636521488428116, -0.12596231698989868, 0.010242613032460213, -0.049898918718099594, -0.06856826692819595, -0.11548474431037903, -0.005933490116149187, -0.12658293545246124, 0.03888962045311928, -0.05528907850384712, -0.090419702231884, -0.030713245272636414, -0.09397836029529572, 0.030423851683735847, -0.04366198554635048, 0.02085161954164505, -0.07815845310688019, 0.021918000653386116, -0.02193269319832325, -0.04252259433269501, -0.040058787912130356, 0.0446065291762352, 0.028296727687120438, -0.043387118726968765, -0.08380424976348877, 0.008539489470422268, -0.004749157000333071, 0.025375794619321823, -0.12638700008392334, -0.08682931214570999, -0.09897547960281372, 0.0007880788762122393, -0.024625256657600403, -0.021852990612387657, -0.11314228177070618, 0.03627922385931015, -0.036736179143190384, -0.06722907721996307, -0.04373608157038689, 0.00354377506300807, 0.032449088990688324, -0.025804277509450912, -0.03904402256011963, -0.02239648438990116, -0.11708922684192657, -0.013673909939825535, 0.05365430936217308, -0.11508113890886307, -0.008833074942231178, -0.12334199994802475, 0.0003835107199847698, -0.11662259697914124, -0.07197331637144089, -0.06272875517606735, -0.049180783331394196, 0.04835149645805359, 0.017732996493577957, 0.032140009105205536, 0.011684154160320759, 0.04737604781985283, -0.10995993763208389, 0.04531192407011986, -0.057015858590602875, -0.05930987372994423, -0.10046716034412384, -0.04288232699036598, -0.0636364221572876, -0.05097182095050812, -0.0847412496805191, -0.042233582586050034, -0.07569189369678497, -0.01726701110601425, 0.01260365266352892, -0.02172659896314144, -0.08563969284296036, -0.10014037787914276, -0.004799131769686937, 0.028353111818432808, -0.09050600975751877, -0.03189275786280632, -0.041187502443790436, 0.03722143918275833, -0.030130652710795403, -0.0178242027759552, 0.02327420562505722, -0.06221814453601837, -0.10642935335636139, 0.013209309428930283, 0.011793318204581738, 0.04170481860637665, -0.08460983633995056, -0.07285233587026596, -0.03898051008582115, 0.037687212228775024, 0.0070850127376616, 0.016841815784573555, -0.007254249881953001, 0.03505263477563858, -0.04374336823821068, 0.03682199493050575, -0.033363714814186096, -0.06675563752651215, -0.09209897369146347, -0.03780925273895264, 0.002896696561947465, -0.10787791758775711, 0.02313094586133957, -0.08682054281234741, -0.031129520386457443, -0.07715076953172684, -0.13126763701438904, 0.02133515477180481, -0.10330548137426376, -0.09945955872535706, 0.014621728099882603, -0.09332762658596039, -0.05874797701835632, -0.0756276547908783, -0.10927466303110123, -0.11743772029876709, 0.03237718343734741, -0.09663209319114685, -0.10073839128017426, -0.05542036518454552, -0.012793549336493015, -0.07630826532840729, -0.04887097328901291], [-0.0561528354883194, -0.04496116563677788, -0.05943053215742111, -0.07814715057611465, -0.10455430299043655, 0.06204243749380112, -0.031095949932932854, -0.10282853990793228, -0.11952303349971771, -0.021723086014389992, -0.05441322922706604, -0.002074948512017727, -0.13563838601112366, -0.027043355628848076, -0.09704802185297012, -0.008577742613852024, -0.00750731211155653, -0.01856931857764721, 0.06803253293037415, -0.05036626756191254, -0.059688664972782135, -0.1136147603392601, -0.08629803359508514, -0.09924601763486862, -0.08260399103164673, 0.0605168454349041, 0.006402889266610146, -0.05362415686249733, -0.0307671707123518, -0.022277621552348137, 0.013597313314676285, -0.0009624469676055014, -0.053493089973926544, -0.0933927372097969, -0.05917686969041824, -0.08300315588712692, 0.015289709903299809, -0.0950653925538063, -0.09017623215913773, -0.038942426443099976, -0.04935383424162865, -0.10112889111042023, -0.017491700127720833, -0.0159869696944952, -0.1297888159751892, 0.03249469771981239, -0.1285122185945511, -0.019409867003560066, -0.1483287662267685, -0.022134345024824142, -0.039920374751091, -0.04964376613497734, -0.0832114890217781, -0.0307743139564991, -0.0033767453860491514, -0.07335200160741806, -0.10601840168237686, -0.11245924979448318, -0.095869280397892, -0.06418873369693756, -0.0705525353550911, -0.12093845754861832, -0.017150096595287323, -0.10917317122220993, -0.031010549515485764, -0.1186152994632721, 0.031171491369605064, -0.09579133242368698, -0.09891731292009354, -0.06820252537727356, -0.11324720829725266, 0.0007234400836750865, -0.07504373788833618, -0.04920237138867378, -0.04821556434035301, -0.09312588721513748, -0.10488167405128479, -0.020018713548779488, -0.020917339250445366, -0.01408864464610815, -0.06816063076257706, -0.06812890619039536, 0.034129295498132706, -0.1419902741909027, -0.09754034876823425, -0.012139926664531231, -0.12309784442186356, -0.018954891711473465, -0.016574237495660782, -0.13114510476589203, -0.038276687264442444, -0.11872362345457077, 0.021067816764116287, -0.038042619824409485, -0.07886173576116562, -0.04348774999380112, -0.03288201242685318, -0.05791850388050079, -0.04745614528656006, 0.023350346833467484, -0.01024752389639616, -0.0842638686299324, -0.03471847251057625, -0.029116233810782433, -0.016550935804843903, -0.03426215425133705, -0.039346445351839066, -0.05039209872484207, -0.10603734850883484, -0.1042422205209732, -0.14628897607326508, -0.005604318808764219, 0.042618244886398315, -0.08124514669179916, -0.09838952869176865, -0.052486442029476166, -0.05490143224596977, -0.11999502778053284, 0.021770702674984932, -0.13546769320964813, -0.06312724947929382, 0.01299178134649992, -0.07712370902299881, 0.03898731991648674, 0.026784364134073257, -0.10110922902822495, -0.019083665683865547, -0.033599089831113815], [0.047330137342214584, 0.04315042495727539, -0.025272691622376442, -0.08815748244524002, -0.00034853897523134947, -0.00033833261113613844, -0.017974767833948135, -0.07832074910402298, -0.10585204511880875, 0.0009615711169317365, -0.05301952362060547, -0.026014339178800583, -0.06455302983522415, -0.11399859935045242, -0.060558680444955826, 0.0591723807156086, -0.11499188840389252, 0.04093648120760918, -0.12197863310575485, -0.06202901154756546, -0.04422522708773613, 0.04199691861867905, -0.09152140468358994, -0.01547599583864212, -0.00254275044426322, 0.022537415847182274, -0.10132168978452682, -0.0007736805127933621, 0.04441571235656738, 0.07330231368541718, -0.06801918894052505, -0.05051198974251747, 0.04236369952559471, -0.07654907554388046, -0.03258517012000084, -0.050727568566799164, -0.10042817145586014, -0.03730657324194908, 0.0003582192293833941, 0.04374146834015846, 0.0565657764673233, -0.10689697414636612, -0.0275884922593832, -0.07296358048915863, -0.06353305280208588, -0.08620700240135193, -0.036388568580150604, 0.0026699730660766363, -0.03519219532608986, 0.014837787486612797, -0.08740190416574478, 0.06758058071136475, 0.01715005561709404, 0.0025702279526740313, -0.06105102598667145, -0.08991619944572449, -0.01441220287233591, -0.0043880208395421505, -0.058408334851264954, -0.01849827915430069, -0.11919035017490387, 0.05821593478322029, 0.04925632104277611, -0.07039599865674973, -0.05638652294874191, 0.06241360679268837, -0.09099993854761124, 0.018634555861353874, -0.03595760837197304, -0.08810403198003769, 0.048523519188165665, -0.14242245256900787, -0.03300222381949425, 0.0022533817682415247, 0.003250031266361475, 0.0154600003734231, 0.02748728357255459, -0.05972437933087349, 0.07393301278352737, -0.030752383172512054, -0.07240723818540573, 0.04034796357154846, -0.01357613317668438, 0.051238272339105606, 0.03438781201839447, 0.00444776751101017, -0.06938128173351288, 0.019681835547089577, 0.019588636234402657, -0.004234207794070244, 0.05180490016937256, 0.01600831188261509, -0.000759424059651792, 0.0032343415077775717, -0.07552585750818253, -0.08310378342866898, 0.0046165441162884235, -0.13003970682621002, -0.08116786926984787, -0.032615453004837036, -0.08139302581548691, -0.010797778144478798, -0.04858807474374771, 0.011220821179449558, 0.03106331080198288, -0.002171710366383195, -0.04080434888601303, -0.002424408681690693, -0.008103773929178715, -0.057953882962465286, -0.0006690255831927061, -0.07125066965818405, -0.08009593933820724, -0.027668919414281845, 0.04090888798236847, -0.13872255384922028, -0.0060755531303584576, -0.10857439041137695, 0.01468950230628252, 0.005005759187042713, 0.008512978442013264, -0.011171848513185978, 0.06703095138072968, 0.049960870295763016, -0.09528996050357819, 0.06563303619623184, -0.0382407009601593, -0.08154134452342987], [-0.016603942960500717, -0.04817260429263115, 0.0005290956469252706, 0.06103355064988136, 0.009405635297298431, 0.017337441444396973, 0.005736906081438065, -0.0467103011906147, 0.05235248804092407, -0.08328106999397278, -0.022026482969522476, 0.008889405056834221, -0.06581056863069534, -0.017631102353334427, 0.06054779514670372, -0.0505463108420372, -0.009625169448554516, -0.028223181143403053, -0.10890138894319534, 0.0009956825524568558, 0.030359234660863876, 0.012046792544424534, -0.06216547638177872, -0.06347345560789108, -0.03299647942185402, 0.03087548539042473, -0.02905978448688984, -0.08459881693124771, -0.10056251287460327, 0.01726115494966507, -0.09403425455093384, -0.05752178281545639, 0.08050908893346786, -0.04081127420067787, -0.05040305107831955, -0.08168327808380127, -0.025135867297649384, 0.03576246649026871, 0.05052875727415085, 0.05122341215610504, -0.034140754491090775, 0.05283988267183304, -0.09126383066177368, -0.08442585170269012, -0.0795237347483635, 0.014038137160241604, -0.006018818821758032, -0.021175207570195198, -0.04587212949991226, -0.03363567218184471, -0.03786269575357437, -0.07408841699361801, -0.09887363761663437, 0.019350619986653328, 0.09862622618675232, -0.04716680943965912, 0.056569166481494904, -0.06119554489850998, -0.025885459035634995, -0.021110055968165398, -0.041344933211803436, -0.05976564437150955, 0.04658231511712074, 0.019634027034044266, -0.016954021528363228, 0.032414473593235016, -0.04507552087306976, 0.06461051851511002, -0.016307080164551735, -0.1255418062210083, -0.02908129245042801, -0.022120574489235878, -0.0531412735581398, -0.037040017545223236, -0.11887575685977936, 0.009591176174581051, -0.04050903022289276, -0.05554165318608284, 0.09367144107818604, 0.024833256378769875, -0.0020476938225328922, -0.0026362433563917875, -0.08393611758947372, 0.03855568543076515, -0.08076515048742294, -0.04624101519584656, 0.026101883500814438, 0.030033821240067482, -0.08717349171638489, -0.015952570363879204, 0.0022448364179581404, 0.009712416678667068, 0.07023627310991287, -0.033754732459783554, 0.037059344351291656, -0.07431997358798981, -0.015133974142372608, -0.13033664226531982, -0.0524066723883152, -0.00811703223735094, -0.07132485508918762, 0.03304547071456909, 0.012128517962992191, -0.03972373157739639, -0.0011960020055994391, 0.014063620008528233, -0.06692378968000412, -0.06135590746998787, 0.008717498742043972, 0.013446389697492123, 0.04654421657323837, -0.0005829091533087194, 0.006858118809759617, -0.09570642560720444, -0.04248951002955437, -0.02790442295372486, -0.06734336912631989, -0.09311286360025406, 0.024745503440499306, -0.08759130537509918, -0.0712960809469223, -0.07991219311952591, -0.04591044783592224, -0.06677030026912689, 0.012019313871860504, -0.051119543612003326, 0.04013267904520035, 0.019743774086236954], [-0.04053332284092903, -0.12229596078395844, -0.04562703147530556, 0.01650049164891243, -0.07683391869068146, -0.06152241304516792, -0.07275298982858658, -0.09780649095773697, -0.07117254287004471, -0.03459733724594116, -0.10832536965608597, -0.09323645383119583, -0.052365344017744064, -0.14186160266399384, -0.013492043130099773, -0.07182273268699646, -0.09764470160007477, -0.11545178294181824, 0.01384733710438013, -0.11584968864917755, -0.06493466347455978, -0.1086832731962204, -0.06495420634746552, -0.12792128324508667, -0.12676452100276947, -0.11057305335998535, -0.02600094862282276, -0.05893734470009804, -0.09180058538913727, 0.0420805849134922, -0.022624973207712173, -0.1297171711921692, -0.08467831462621689, -0.012511457316577435, -0.04881753772497177, -0.10505867004394531, -0.07904135435819626, -0.10257786512374878, -0.07848875224590302, -0.030664000660181046, -0.023204486817121506, -0.06948073953390121, -0.04097307473421097, -0.08925188332796097, -0.035710450261831284, 0.0511753186583519, -0.06727726012468338, -0.0679163858294487, -0.13254950940608978, -0.010693890042603016, -0.03080558031797409, -0.0009470662917010486, 0.001244975719600916, -0.03187347203493118, 0.020509609952569008, 0.0210451390594244, 0.01253834180533886, -0.05911644920706749, -0.13402757048606873, -0.04437248408794403, 0.035398148000240326, -0.07680124789476395, -0.01631675660610199, -0.056684646755456924, 0.008344852365553379, 0.0363917201757431, 0.0011829477734863758, -0.03641626238822937, -0.05004861205816269, 0.04642408341169357, 0.014657070860266685, 0.037133269011974335, -0.014683661982417107, -0.10854554921388626, -0.07254412770271301, -0.024666152894496918, -0.09860654175281525, 0.02237219735980034, -0.05261095240712166, 0.018965167924761772, -0.0007061129435896873, -0.05751042440533638, -0.07506740093231201, -0.00805149506777525, -0.08445990830659866, -0.09390519559383392, -0.11114878952503204, -0.10183735191822052, -0.11354897171258926, -0.09065722674131393, -0.006055111065506935, -0.006040866486728191, -0.041707780212163925, -0.02148597128689289, -0.12252415716648102, -0.004123474471271038, -0.014146936126053333, 0.004639850463718176, 0.012245687656104565, -0.018378501757979393, -0.10383480042219162, -0.07491885870695114, 0.021322105079889297, 0.04715965315699577, 0.010958235710859299, -0.11225980520248413, -0.1130417138338089, 0.05222158879041672, 0.035914596170186996, -0.03932110592722893, 0.03529474139213562, -0.13823755085468292, -0.08475621044635773, -0.039163317531347275, 0.013073558919131756, -0.10363709926605225, -0.011058519594371319, 0.012592063285410404, 0.0195467546582222, -0.029713131487369537, -0.03173438832163811, -0.13335630297660828, -0.06476021558046341, 0.010117747820913792, 0.01647685095667839, -0.046562954783439636, -0.0055998326279222965, -0.1104850247502327], [-0.05685880407691002, -0.04811931028962135, -0.05075990781188011, -0.04506466165184975, -0.0421675480902195, -0.06441952288150787, -0.007956566289067268, -0.035467032343149185, 0.06572944670915604, 0.003467789851129055, 0.010324557311832905, -0.05783829092979431, -0.12915760278701782, -0.11234559118747711, 0.06131071224808693, -0.04723650962114334, -0.10728908330202103, -0.04981091618537903, 0.028367361053824425, -0.0775303840637207, 0.02902880124747753, 0.011118763126432896, 0.016153277829289436, 0.021274717524647713, 0.013451684266328812, 0.00715101370587945, -0.038212016224861145, -0.01953994855284691, -0.00502034230157733, 0.05231839418411255, 0.03823243826627731, -0.00489567406475544, -0.07882371544837952, -0.08400037884712219, 0.05398307740688324, -0.015485093928873539, -0.03706949204206467, -0.013321957550942898, -0.09436605870723724, 0.07375866174697876, -0.04954599589109421, -0.09965995699167252, -0.044630907475948334, 0.02152547985315323, -0.06611702591180801, -0.0650942251086235, -0.053808361291885376, 0.03189072012901306, -0.08683754503726959, 0.015951259061694145, -0.07065042108297348, -0.08242181688547134, -0.048629675060510635, -0.054966896772384644, 0.02614697441458702, -0.13196420669555664, 0.03774804249405861, -0.07925810664892197, 0.03657018765807152, -0.09592349082231522, -0.0364363007247448, 0.0246695838868618, 0.028959427028894424, -0.0392303504049778, -0.1012679785490036, 0.0346967838704586, -0.01073943916708231, -0.021299535408616066, 0.05029649659991264, -0.0630674660205841, -0.07962140440940857, -0.10917927324771881, 0.04763142764568329, -0.06957545131444931, -0.06029512733221054, -0.012340912595391273, -0.06999549269676208, 0.05190006643533707, -0.01491787564009428, -0.08197943866252899, -0.03926088660955429, -0.0957944318652153, -0.07016725093126297, -0.07200844585895538, -0.08075687289237976, -0.009033122099936008, 0.02249729447066784, -0.039530351758003235, -0.016564587131142616, 0.005336871836334467, -0.10279640555381775, -0.09744053333997726, 0.018125606700778008, -0.10565711557865143, -0.10389071702957153, -0.06208822876214981, 0.02702055685222149, -0.10049957036972046, 0.004831312224268913, -0.10030507296323776, -0.03571993112564087, 0.0023951055482029915, -0.04887585714459419, -0.08198493719100952, -0.023922359570860863, -0.041818831115961075, -0.08203492313623428, 0.011182441376149654, -0.009759950451552868, 0.06091992184519768, 0.06751015782356262, -0.011025767773389816, -0.09330211579799652, -0.10345884412527084, 0.009324746206402779, 0.0032021997030824423, -0.05912330746650696, -0.008724438026547432, -0.027980636805295944, 0.03227176144719124, -0.016944849863648415, -0.034044794738292694, 0.03818108141422272, 0.04160574451088905, -0.07783029228448868, -0.04503599926829338, 0.005421043839305639, 0.03617674484848976], [-0.05300105735659599, -0.0633489191532135, -0.02692188322544098, -0.022527197375893593, 0.004659436177462339, 0.03281635791063309, -0.07224742323160172, 0.044225797057151794, -0.004839041270315647, -0.025812413543462753, 0.04244362190365791, -0.01278037577867508, -0.1139751598238945, -0.02343771792948246, 0.009757348336279392, -0.0810990259051323, 0.00966926384717226, 0.030449170619249344, -0.14435848593711853, 0.02258153073489666, 0.013999751769006252, -0.07168456166982651, -0.007568691857159138, 0.0338677316904068, -0.026080267503857613, 0.03555755689740181, 0.027032852172851562, -0.012293287552893162, -0.12610016763210297, -0.005566932260990143, -0.11495731770992279, -0.10302884876728058, -0.10140163451433182, -0.0957489088177681, -0.06440138816833496, -0.01757880114018917, -0.06701342016458511, -0.0018258028430864215, 0.02426961064338684, -0.058284517377614975, -0.06496230512857437, -0.02287944033741951, 0.026936909183859825, -0.06103774160146713, 0.06595921516418457, 0.05079515650868416, -0.012308123521506786, -0.0714164674282074, 0.03078673593699932, -0.0013007271336391568, -0.10118276625871658, 0.04552530497312546, -0.03896307200193405, 0.014802162535488605, -0.04002933204174042, -0.013100837357342243, 0.060404278337955475, -0.09958714991807938, -0.10124053806066513, 0.021824829280376434, -0.0719965472817421, 0.05237330496311188, -0.04931492730975151, 0.0009777735685929656, -0.10956542193889618, -0.06937342882156372, -0.07600267976522446, -0.04597116634249687, -0.030872710049152374, -0.0295124351978302, -0.054242875427007675, 0.01780206710100174, 0.012882641516625881, -0.015494007617235184, -0.06653650104999542, 0.05015210062265396, 0.05470247194170952, -0.05001094192266464, -0.02709362842142582, -0.09640641510486603, 0.03765881434082985, -0.014405472204089165, -0.11381697654724121, 0.03664013370871544, -0.08880528062582016, -0.0903623104095459, -0.13347303867340088, -0.022436732426285744, -0.015603790059685707, -0.05183495581150055, 0.0028397892601788044, -0.10643592476844788, -0.07235466688871384, 0.002185719320550561, -0.019658003002405167, -0.04645824432373047, -0.015896858647465706, -0.08802732825279236, -0.02199884131550789, 0.03112548589706421, -0.047621894627809525, 0.007921368815004826, -0.06273449212312698, -0.10825841873884201, 0.03395291045308113, 0.0035955633502453566, 0.00954805314540863, -0.06694252043962479, 0.01128565613180399, -0.05060611665248871, -0.08079621195793152, 0.029730316251516342, -0.04605022817850113, -0.06279756873846054, -0.06445341557264328, -0.03630674257874489, 0.048694051802158356, 0.034190572798252106, 0.034408360719680786, 0.00797629076987505, -0.03168332949280739, -0.10637709498405457, 0.043277062475681305, -0.073872409760952, 0.015858951956033707, -0.041514188051223755, -0.034994326531887054, 0.03674939274787903], [0.09024618566036224, 0.3013899326324463, 0.09695829451084137, -0.2123616486787796, 0.296625554561615, -0.45544934272766113, 0.2641291320323944, -0.03508736193180084, 0.04504471644759178, -0.24781520664691925, -0.3502434194087982, 0.011509567499160767, -0.37035855650901794, 0.2516878843307495, 0.14624223113059998, -0.024654019623994827, -0.06000535935163498, -0.13961245119571686, -0.4960425794124603, 0.012150404043495655, -0.3601509928703308, 0.04172990843653679, -0.3858219385147095, 0.08827617764472961, 0.10665759444236755, -0.48756369948387146, 0.06383005529642105, 0.0538298599421978, 0.3778665363788605, 0.00023698096629232168, -0.007543625775724649, 0.27219146490097046, 0.07102242857217789, -0.162127286195755, -0.22104166448116302, -0.1366380751132965, -0.6450791954994202, -0.21682272851467133, 0.007922672666609287, -0.09909480065107346, -0.01842430792748928, -0.4023049771785736, 0.18593846261501312, 0.08541606366634369, -0.2780478298664093, -0.14352644979953766, 0.09810459613800049, -0.49544307589530945, 0.2608771026134491, -0.32503047585487366, -0.08074930310249329, 0.13818365335464478, -0.2975112199783325, -0.30022236704826355, -0.2998431324958801, 0.31125593185424805, -0.15153475105762482, 0.09210751950740814, -0.1480029672384262, -0.1164640337228775, -0.16200248897075653, -0.2305748015642166, 0.04246990382671356, 0.14751966297626495, 0.050635796040296555, -0.3069801330566406, -0.04662767052650452, 0.040777478367090225, -0.04159384220838547, 0.17078883945941925, -0.24138037860393524, -0.11381246149539948, -0.24781334400177002, -0.3153219521045685, -0.47764769196510315, -0.29069754481315613, -0.28086841106414795, 0.17901980876922607, -0.1019921824336052, -0.5062505006790161, 0.19030942022800446, 0.24999409914016724, -0.6630838513374329, -0.09144490212202072, 0.22643113136291504, -0.11786923557519913, 0.28447818756103516, 0.13566657900810242, -0.27200448513031006, -0.02820756286382675, -0.26880666613578796, 0.2651708424091339, -0.061443913727998734, 0.20790788531303406, 0.107175312936306, 0.0633799359202385, 0.24428820610046387, -0.5469945669174194, 0.1390596330165863, 0.14979282021522522, -0.053520966321229935, -0.5209636688232422, -0.28171879053115845, 0.05309557914733887, -0.29123926162719727, -0.4838377833366394, -0.22431521117687225, -0.4241062104701996, -0.4122435748577118, -0.281627893447876, -0.06480325013399124, 0.26608362793922424, -0.17244312167167664, 0.18656529486179352, -0.13419564068317413, 0.02472628280520439, 0.12530013918876648, 0.14209121465682983, 0.0030516867991536856, 0.009492999874055386, 0.12605488300323486, 0.13221965730190277, 0.10299935191869736, -0.34810686111450195, -0.1867067515850067, -0.2331354022026062, -0.11807632446289062, 0.04496210068464279], [-0.0907282754778862, 0.02567358687520027, 0.03736952692270279, -0.075251504778862, -0.05353911221027374, -0.13238102197647095, 0.04744092375040054, -0.11348595470190048, -0.032872848212718964, -0.0735563263297081, -0.085964635014534, -0.040363844484090805, 0.016009680926799774, -0.043558500707149506, -0.09705569595098495, -0.07169361412525177, 0.04328383505344391, -0.06930629163980484, -0.08238811045885086, -0.10139583796262741, -0.03991501033306122, 0.024423126131296158, 0.037627361714839935, -0.09993692487478256, -0.011045487597584724, 0.028275970369577408, -0.015353433787822723, 0.022799769416451454, 0.007933026179671288, 0.0010158716468140483, -0.030548466369509697, 0.029588263481855392, -0.052962590008974075, -0.10550180822610855, -0.11200569570064545, -0.10941015928983688, -0.14174342155456543, -0.10784902423620224, 0.0473473034799099, -0.001240684767253697, -0.07457821071147919, -0.04905404523015022, -0.09183607995510101, 0.0064632585272192955, -0.07185328006744385, 0.006526121869683266, 0.027902206405997276, -0.04535931348800659, -0.09101175516843796, 0.034177809953689575, 0.015837261453270912, -0.07955699414014816, -0.045007672160863876, -0.09581533074378967, -0.02910039946436882, 0.056664466857910156, 0.05880202353000641, -0.08312100172042847, -0.04407436400651932, -0.049437280744314194, -0.07908213138580322, 0.051115769892930984, -0.0823347270488739, 0.03017614409327507, 0.059120479971170425, -0.0348704569041729, 0.018305690959095955, -0.06060422584414482, -0.01785859651863575, 0.002328457310795784, -0.049494776874780655, -0.021375436335802078, -0.055941421538591385, 0.017057210206985474, -0.0714639276266098, 0.05614966154098511, -0.04556683078408241, 0.023957107216119766, 0.010332147590816021, -0.0619661845266819, -0.07944059371948242, 0.04383073002099991, 0.03756428509950638, -0.05135641247034073, -0.10165232419967651, 0.002966810017824173, -0.0019533359445631504, -0.03191046789288521, 0.03759186714887619, -0.10959800332784653, 0.05429806932806969, -0.050359345972537994, 0.03459976240992546, -0.08189143240451813, 0.017070095986127853, 0.011513044126331806, 0.009267131797969341, -0.04649558663368225, 0.022578099742531776, -0.0004481920041143894, -0.11656566709280014, 0.04371298477053642, -0.08802656829357147, -0.09188845008611679, -0.014453127980232239, -0.062483832240104675, 0.04663088545203209, 0.016675375401973724, -0.047888386994600296, 0.056428417563438416, 0.06631013005971909, 0.013606025837361813, 0.05114110931754112, -0.029238689690828323, -0.04256829991936684, 0.009462078101933002, 0.026246245950460434, -0.09761176258325577, -0.10761100053787231, -0.07976078987121582, -0.03485109657049179, -0.045482419431209564, 0.006710866000503302, -0.00511099211871624, 0.009389103390276432, 0.018462706357240677, -0.04708093777298927, 0.0007929020212031901], [-0.006692001596093178, 0.16208069026470184, -0.18324804306030273, -0.15707682073116302, 0.1692885160446167, -0.10629983991384506, 0.07177677005529404, -0.19802424311637878, -0.20315350592136383, -0.21070066094398499, -0.32474541664123535, -0.19177736341953278, -0.06488526612520218, 0.18066105246543884, 0.06631024181842804, 0.003804171923547983, 0.04860953614115715, -0.07657290995121002, -0.09142609685659409, -0.13484327495098114, -0.17592903971672058, -0.07055816054344177, -0.08244787156581879, 0.0437803640961647, -0.18288898468017578, -0.027699463069438934, 0.01661011576652527, -0.2043391466140747, 0.21311773359775543, -0.2783336043357849, 0.17005671560764313, 0.2122984081506729, 0.07496453821659088, -0.052706290036439896, -0.24138930439949036, -0.11942358314990997, -0.26127544045448303, -0.18636400997638702, -0.1723599135875702, -0.2669186592102051, 0.03354191780090332, -0.27099528908729553, -0.044497303664684296, -0.21478788554668427, -0.25574663281440735, -0.11936325579881668, -0.010590881109237671, -0.1726231873035431, 0.11312676221132278, -0.18316034972667694, -0.07018870860338211, 0.035768620669841766, -0.2211950272321701, -0.15736117959022522, -0.13619843125343323, 0.24032244086265564, -0.11269405484199524, -0.07432840764522552, -0.07532329112291336, -0.2997034788131714, -0.2551441788673401, -0.24035824835300446, -0.05544081702828407, -0.18393574655056, 0.03514054790139198, -0.2667416036128998, 0.03787987306714058, -0.09164150059223175, -0.22903108596801758, -0.13981980085372925, -0.25945451855659485, -0.04030108079314232, -0.14409016072750092, -0.11025940626859665, -0.18679207563400269, -0.2902786135673523, -0.22440741956233978, 0.1604859083890915, -0.16130748391151428, -0.13487470149993896, 0.11725648492574692, -0.003925831988453865, -0.036211900413036346, -0.17853258550167084, 0.12271411716938019, -0.24669720232486725, -0.00024636322632431984, 0.10119897872209549, -0.001892861444503069, -0.12502127885818481, -0.2224007248878479, 0.1861104518175125, -0.02085207961499691, 0.08671945333480835, 0.054913777858018875, -0.12064197659492493, 0.12199724465608597, -0.09307821840047836, 0.04698235169053078, 0.0869869589805603, 0.08284765481948853, -0.1815849095582962, -0.15105192363262177, -0.13244818150997162, -0.16909131407737732, -0.0450952872633934, -0.23610004782676697, 0.00019956941832788289, -0.34409299492836, -0.2219504415988922, -0.13310234248638153, 0.03933889791369438, -0.33059564232826233, 0.010369988158345222, -0.08424918353557587, -0.12007226049900055, -0.17207928001880646, 0.00957572739571333, 0.06184610351920128, 0.05940893664956093, 0.12081833928823471, -0.05963846296072006, 0.0416942797601223, -0.19711562991142273, -0.272760272026062, -0.16390804946422577, -0.1528846025466919, 0.008455313742160797], [-0.058723364025354385, 0.019585076719522476, 0.06469999253749847, 0.10905248671770096, -0.040682483464479446, -0.07805979251861572, -0.13207688927650452, 0.032515719532966614, -0.05161559209227562, 0.10522140562534332, 0.0998346209526062, 0.03164001926779747, -0.12061363458633423, 0.021802034229040146, 0.05794992670416832, -0.013044411316514015, -0.03679154813289642, 0.061138708144426346, -0.10730426758527756, -0.12604175508022308, -0.07378336042165756, 0.0686800554394722, -0.03683353215456009, -0.08991771191358566, -0.0017331354320049286, -0.13940712809562683, -0.0017714204732328653, 0.07268619537353516, -0.11224820464849472, -0.011939352378249168, 0.015144041739404202, -0.10727759450674057, -0.12126334011554718, -0.06366447359323502, 0.08893804997205734, 0.00386985600925982, -0.08883105963468552, 0.020605551078915596, 0.1012958213686943, 0.010076510719954967, -0.01654224283993244, -0.012242909520864487, -0.09608004987239838, 0.015442767180502415, 0.017204774543642998, -0.06202033907175064, -0.05770193040370941, 0.03691774979233742, 0.015973445028066635, -0.03388109430670738, -0.0007622595876455307, -0.04626898095011711, 0.005309313535690308, -0.0012783309211954474, 0.11366316676139832, -0.010730552487075329, 0.03994501382112503, -0.07134567201137543, 0.09668061137199402, -0.06107797101140022, 0.026665465906262398, -0.013330230489373207, -0.03861718252301216, 0.03725762292742729, 0.06677228212356567, 0.0350475013256073, -0.039887722581624985, 0.083187997341156, 0.05540882423520088, -0.04843785986304283, 0.03233611211180687, -0.10211066156625748, 0.008113207295536995, 0.02347523532807827, -0.12101434171199799, -0.020704055204987526, -0.00802669208496809, -0.05551350489258766, 0.07443099468946457, -0.04068143665790558, -0.09740613400936127, -0.08018805086612701, -0.031011559069156647, 0.12098255008459091, -0.07232172042131424, -0.052179429680109024, 0.034087151288986206, -0.07263094931840897, -0.14986318349838257, -0.01807541400194168, 0.012349295429885387, -0.009473294951021671, -0.0076666176319122314, -0.1243954673409462, -0.0622994601726532, -0.10745271295309067, -0.06042679399251938, 0.0030927013140171766, 0.025384588167071342, 0.05351884663105011, 0.012563817203044891, -0.010035255923867226, -0.004952253308147192, -0.12267965823411942, 0.06291410326957703, -0.13094720244407654, 0.05874720215797424, -0.14945198595523834, -0.006328023970127106, 0.00254500238224864, -0.038358867168426514, -0.05127216875553131, -0.02649565413594246, 0.03446035459637642, -0.0005370173021219671, -0.12650398910045624, -0.10035845637321472, -0.050505515187978745, -0.11569685488939285, -0.10944903641939163, -0.057065557688474655, -0.061777401715517044, -0.007139565888792276, 0.01627911813557148, -0.01355301309376955, 0.07568397372961044, -0.02149047888815403, 0.04527677223086357], [0.25275638699531555, 0.03615943342447281, 0.2915301024913788, 0.19463109970092773, 0.05100079998373985, -0.5017343759536743, 0.14713291823863983, 0.08468443155288696, 0.13622865080833435, 0.03163352608680725, -0.05086343735456467, 0.2178204208612442, -0.3982829749584198, 0.11894556879997253, 0.15742367506027222, 0.1986636519432068, -0.19604012370109558, 0.11349194496870041, -0.8448306918144226, 0.08747588098049164, -0.6413154602050781, 0.20544548332691193, -0.7031773924827576, 0.24816572666168213, 0.2601337730884552, -0.7055923938751221, 0.01705918461084366, 0.11409863084554672, 0.09233804047107697, 0.12852828204631805, -0.1526833325624466, 0.1420377939939499, 0.006459682248532772, 0.1533188372850418, 0.0529041513800621, -0.14083874225616455, -1.2533507347106934, 0.053980469703674316, 0.13707475364208221, 0.19282755255699158, 0.2125924676656723, -0.3657868206501007, 0.2613382339477539, 0.036160387098789215, 0.09554325044155121, 0.04425714910030365, 0.1144937202334404, -0.6955881714820862, 0.06514768302440643, 0.031816527247428894, 0.12239311635494232, 0.05405799299478531, 0.03330276161432266, -0.04937652498483658, 0.14712369441986084, 0.054210733622312546, 0.229094997048378, 0.21001124382019043, 0.1179644837975502, 0.1236453503370285, 0.21971632540225983, -0.07156269252300262, 0.17435209453105927, 0.13782048225402832, 0.15272289514541626, -0.016013260930776596, 0.04241717606782913, 0.2802659273147583, 0.23727314174175262, 0.09990747272968292, -0.09789907932281494, -0.2632288336753845, 0.11028093844652176, -0.05502207204699516, -1.0252490043640137, -0.1323535442352295, -0.043884195387363434, 0.14827166497707367, 0.2065969705581665, -0.4623318910598755, -0.03915220871567726, 0.1519981473684311, -0.1806044578552246, 0.1933012753725052, 0.0820714607834816, 0.13146871328353882, 0.2493313103914261, 0.20926545560359955, -0.2608208656311035, 0.14191673696041107, -0.1115301176905632, 0.14517217874526978, 0.007748523727059364, 0.07301304489374161, 0.27574795484542847, 0.17850324511528015, 0.16335543990135193, -1.2013871669769287, 0.09876666218042374, 0.1979796588420868, -0.05936688184738159, -0.3702174127101898, -0.033377259969711304, 0.11855912953615189, 0.06294922530651093, -0.07295384258031845, 0.015711823478341103, -0.35369521379470825, -0.30442094802856445, -0.014868402853608131, 0.2190978229045868, 0.13256333768367767, 0.12406890094280243, 0.16270633041858673, 0.010793831199407578, 0.13516750931739807, 0.1314011961221695, 0.23175106942653656, 0.1311722844839096, -0.20323078334331512, 0.07766143232584, 0.22457651793956757, 0.15755808353424072, 0.0302280206233263, 0.20047546923160553, 0.04043760895729065, -0.13941964507102966, 0.23717831075191498], [-0.12594057619571686, -0.015957284718751907, -0.03996311128139496, -0.03212139382958412, 0.03554679825901985, -0.04578860104084015, -0.06971553713083267, -0.021446529775857925, -0.0019973916932940483, 0.0071764360181987286, -0.0038560391403734684, 0.02271430566906929, -0.03693293407559395, -0.07018972933292389, -0.009571842849254608, -0.039820875972509384, 0.06650730967521667, -0.09819323569536209, -0.05630677565932274, -0.05846366658806801, -0.06809092313051224, -0.05596619099378586, 0.05402541905641556, -0.011787453666329384, 0.0314900279045105, -0.03669315204024315, 0.0589386448264122, 0.02640414796769619, -0.04932324215769768, 0.03542434051632881, 0.05143390968441963, -0.0062987892888486385, 0.015130985528230667, -0.0402243509888649, 0.0032143709249794483, -0.10777250677347183, -0.07343096286058426, 0.03609202057123184, -0.06748408824205399, -0.03519818186759949, 0.007134004961699247, -0.07046472281217575, -0.0987190455198288, -0.08869962394237518, 0.036965250968933105, -0.10507829487323761, 0.012640289962291718, 0.05197285860776901, 0.02222745679318905, -0.10965441167354584, -0.014966597780585289, 0.043643105775117874, -0.034700099378824234, -0.026605596765875816, -0.07352596521377563, -0.020837051793932915, -0.04251360893249512, 0.010165449231863022, -0.037602875381708145, 0.0059751407243311405, -0.012191841378808022, -0.0004769217048306018, 0.011782561428844929, 0.007095182780176401, -0.11172769963741302, 0.0021023601293563843, 0.042040158063173294, -0.03241776302456856, -0.010401866398751736, -0.04406164214015007, -0.11007535457611084, -0.08666156232357025, 0.03272143751382828, -0.05506124719977379, -0.082204170525074, -0.12184707075357437, 0.040654752403497696, 0.03654523193836212, -0.09715362638235092, 0.015047110617160797, -0.018697630614042282, 0.028628433123230934, -0.026396023109555244, -0.003688899800181389, -0.058018073439598083, -0.07787929475307465, -0.04655373841524124, 0.023198265582323074, -0.08160556852817535, -0.11012817919254303, 0.0575232058763504, -0.04311452805995941, 0.053212232887744904, 0.045801032334566116, 0.04087553918361664, -0.08251654356718063, 0.03183051943778992, -0.1061391681432724, -0.039720699191093445, -0.053428784012794495, -0.023429974913597107, -0.09301740676164627, -0.026844028383493423, -0.10116247087717056, -0.051192522048950195, -0.10674776136875153, -0.02477935329079628, -0.08045189082622528, -0.024332430213689804, 0.034551139920949936, -0.016041403636336327, -0.049276601523160934, -0.007175751496106386, -0.009953871369361877, -0.08634670823812485, -0.006384782027453184, 0.05020451545715332, -0.04781501367688179, 0.005237039178609848, -0.06742449849843979, 0.045198507606983185, 0.025043029338121414, -0.08125674724578857, 0.0261248629540205, -0.06615321338176727, -0.008684966713190079, -0.05963277816772461, -0.11709468066692352], [-0.04817334562540054, -0.06843330711126328, -0.03004343807697296, -0.05286082625389099, -0.004851162433624268, 0.010886608622968197, -0.11183915287256241, -0.012994209304451942, 0.010683199390769005, 0.056964725255966187, 0.0003442607121542096, 0.051337387412786484, -0.04617612808942795, -0.0230281762778759, -0.02693898044526577, 0.10059743374586105, -0.047161269932985306, -0.06633841246366501, -0.10897616297006607, -0.09381227940320969, -0.011371727101504803, -0.045645225793123245, -0.055993467569351196, -0.04485776647925377, -0.11717979609966278, -0.07076813280582428, 0.05027015879750252, 0.03655661270022392, 0.02487790398299694, -0.02202454023063183, -0.042879629880189896, -0.028112264350056648, -0.08233194053173065, -0.05316206440329552, 0.03515731915831566, -0.0372706763446331, -0.17932593822479248, -0.12099406868219376, -0.07553189247846603, 0.09366928040981293, 0.04773594066500664, -0.04695001244544983, -0.014587609097361565, -0.14672362804412842, 0.10105608403682709, -0.15966039896011353, 0.04972117394208908, 0.017849624156951904, -0.059991952031850815, 0.04543798044323921, -0.03496633097529411, 0.019987286999821663, 0.03385068476200104, -0.08836599439382553, 0.06097490340471268, -0.003328701015561819, 0.019634826108813286, -0.20522111654281616, -0.04797077551484108, -0.03404409810900688, -0.019038967788219452, -0.06356984376907349, -0.05683783441781998, -0.02155405469238758, 0.02996961772441864, 0.05868694931268692, -0.05424917861819267, -0.047601547092199326, 0.0059586078859865665, -0.10409573465585709, 0.0394185408949852, -0.1074294000864029, -0.05530184134840965, 0.048857882618904114, 0.008254004642367363, 0.04606737196445465, 0.0621861070394516, 0.0030026272870600224, 0.038578860461711884, -0.011492811143398285, 0.04117243364453316, -0.05442778766155243, 0.04436267539858818, 0.09767022728919983, -0.09121040999889374, -0.19158458709716797, -0.11234846711158752, -0.06058378145098686, -0.07536491751670837, -0.1423095464706421, -0.06673901528120041, 0.057034000754356384, 0.010301964357495308, -0.07325185090303421, 0.025908946990966797, -0.14966054260730743, 0.0018273163586854935, -0.1098099872469902, -0.029574234038591385, 0.06863580644130707, -0.11566396057605743, 0.0432584211230278, 0.08186331391334534, -0.17244519293308258, -0.04098309949040413, -0.00921434536576271, -0.0479096993803978, -0.05288119986653328, 0.01303526945412159, 0.06198679283261299, 0.045704275369644165, -0.05961534008383751, -0.05622938275337219, 0.016167158260941505, -0.007541801780462265, -0.03987250104546547, -0.12769165635108948, -0.05151751637458801, -0.04235777631402016, -0.004924742039293051, 0.008764282800257206, -0.06941910833120346, 0.07987401634454727, -0.01120627112686634, 0.03221554681658745, 0.0070358687080442905, -0.027974653989076614, 0.10211054235696793], [-0.03931599482893944, -0.1477774977684021, -0.16149011254310608, -0.1461229920387268, -0.10090620815753937, 0.05859008803963661, -0.10529600828886032, -0.11200975626707077, -0.19161483645439148, -0.00700471131131053, -0.011545585468411446, -0.2142253816127777, 0.10564545542001724, -0.10999301820993423, -0.05560649186372757, -0.18637020885944366, 0.10516664385795593, 0.02594722807407379, -0.0009348827879875898, -0.012258373200893402, -0.02112136036157608, -0.20298241078853607, 0.12221042811870575, -0.08055577427148819, -0.07815395295619965, 0.04899156838655472, -0.030409542843699455, -0.2228821963071823, -0.0279060211032629, -0.11436378210783005, 0.1145971417427063, -0.18342676758766174, -0.004032074008136988, -0.07023701071739197, -0.07604643702507019, 0.10076339542865753, 0.2585907578468323, -0.1192561462521553, -0.15155525505542755, -0.19687636196613312, -0.09241268783807755, -0.08158861845731735, -0.02205195277929306, -0.10820694267749786, -0.2074982076883316, -0.07159421592950821, -0.08200730383396149, 0.0890582799911499, -0.07052892446517944, 0.017373573035001755, -0.15542957186698914, -0.04622884839773178, -0.20818206667900085, -0.1390630155801773, -0.05305730178952217, -0.10588221251964569, -0.15639521181583405, -0.12644751369953156, -0.09648128598928452, -0.24502281844615936, -0.10760895907878876, 0.02729949541389942, -0.011982807889580727, -0.14292626082897186, -0.010158538818359375, -0.11805231124162674, 0.00990102719515562, -0.24494488537311554, -0.05817729979753494, 0.03612780198454857, -0.0018970993114635348, 0.11414434015750885, -0.04364466294646263, -0.10835000872612, -0.023678703233599663, -0.10229036211967468, -0.06777583062648773, -0.15118004381656647, -0.15076620876789093, -0.10201412439346313, 0.06574810296297073, -0.11515171825885773, -0.07201622426509857, -0.10828394442796707, -0.0007369390805251896, -0.060884520411491394, -0.13606931269168854, -0.18287603557109833, 0.1874898374080658, -0.1338043510913849, 0.030345113947987556, -0.032752420753240585, -0.001022807788103819, -0.12356118857860565, -0.19343723356723785, -0.16881513595581055, -0.08064307272434235, 0.18850313127040863, -0.037680599838495255, -0.1252516359090805, 0.09083926677703857, 0.05293845385313034, -0.038332320749759674, -0.12012193351984024, -0.20507842302322388, -0.19644202291965485, -0.04485608637332916, 0.04070300981402397, 0.044057007879018784, -0.14246538281440735, -0.09832541644573212, -0.11123961210250854, -0.07159601151943207, -0.024300262331962585, -0.02097945287823677, 0.005206332542002201, 0.02833566814661026, -0.14071771502494812, -0.006687760818749666, -0.0065508619882166386, 0.015899939462542534, -0.07921094447374344, -0.12001881003379822, -0.06970865279436111, -0.12953120470046997, -0.06959205865859985, 0.0376463457942009, -0.2210029512643814], [-0.20555104315280914, 0.06326359510421753, -0.262244313955307, -0.27746912837028503, -0.04653279855847359, 0.039292290806770325, -0.15108121931552887, -0.2890257239341736, -0.28550633788108826, -0.07860910892486572, 0.01670939289033413, -0.1008215919137001, 0.256693035364151, -0.12717260420322418, -0.012786814011633396, 0.002343580359593034, 0.10240209102630615, 0.056746140122413635, -0.0030164294876158237, -0.19270431995391846, -0.05390173941850662, -0.22933799028396606, -0.03659554943442345, -0.05745597183704376, -0.3084288239479065, 0.10594993084669113, 0.09526032209396362, -0.18298441171646118, 0.0921262875199318, -0.30897924304008484, 0.23587612807750702, -0.009879494085907936, 0.13764870166778564, -0.3727731704711914, -0.12671859562397003, 0.154905304312706, 0.11908839643001556, -0.2605575621128082, -0.12941206991672516, -0.06843115389347076, 0.04395238310098648, 0.0344059057533741, -0.1510774940252304, -0.23240990936756134, -0.13641417026519775, -0.30426982045173645, 0.07973833382129669, 0.09620143473148346, 0.13454264402389526, -0.041995346546173096, -0.12585605680942535, 0.09717562049627304, -0.23195117712020874, -0.37022364139556885, -0.10430514067411423, 0.04216458275914192, -0.23907598853111267, -0.3029441237449646, -0.11353529989719391, -0.33613336086273193, -0.41980648040771484, 0.03812747076153755, 0.056746263056993484, -0.2574538588523865, 0.015554675832390785, -0.06540548801422119, 0.22043079137802124, -0.07326219975948334, -0.2366628348827362, -0.2908158004283905, -0.1329304724931717, 0.21981185674667358, -0.028969142585992813, -0.1750117838382721, -0.03697260096669197, -0.0396479032933712, -0.10556043684482574, 0.09212837368249893, -0.062384288758039474, 0.01926637999713421, 0.18825189769268036, -0.04090780019760132, -0.25841987133026123, -0.06527439504861832, -0.044387128204107285, -0.3216226398944855, -0.07392078638076782, -0.0882844626903534, 0.162787064909935, -0.32085052132606506, -0.08037898689508438, 0.09659583121538162, 0.15007762610912323, -0.1961820274591446, -0.1573488563299179, -0.340902179479599, -0.10232676565647125, 0.011546874418854713, 0.14037050306797028, -0.03457100689411163, 0.19812573492527008, -0.006981924641877413, 0.08971187472343445, -0.12887437641620636, -0.2179756760597229, -0.29465121030807495, -0.10653633624315262, -0.10282057523727417, 0.006930787581950426, -0.171487957239151, -0.12938156723976135, -0.14358609914779663, -0.17761309444904327, -0.0720304474234581, 0.05430726706981659, -0.2188877910375595, -0.1249920129776001, -0.14555364847183228, 0.04768393933773041, 0.24092301726341248, 0.20064213871955872, -0.21729694306850433, -0.03984552249312401, -0.3819948434829712, -0.2131769210100174, -0.021492986008524895, -0.009224473498761654, -0.13050878047943115], [-0.11081971228122711, -0.03758382424712181, -0.022478684782981873, 0.010142074897885323, -0.09389236569404602, -0.09263094514608383, 0.014303981326520443, 0.030023658648133278, -0.10960941016674042, -0.06140708178281784, -0.09886936098337173, -0.01681024767458439, -0.01800510659813881, -0.02466508559882641, -0.10087499767541885, -0.04515914246439934, 0.060963381081819534, -0.024680599570274353, 0.04752318933606148, -0.05529496446251869, -0.08820528537034988, -0.1044381856918335, -0.03802702575922012, -0.10253045707941055, -0.1004711240530014, 0.030765270814299583, -0.11680345237255096, -0.06302367150783539, 0.006949713919311762, -0.12783123552799225, 0.021749498322606087, -0.0012245307443663478, -0.03412246331572533, 0.0004580683307722211, -0.020635530352592468, -0.07208377867937088, 0.06790895760059357, -0.027970414608716965, 0.012644241563975811, -0.04810401052236557, -0.0703331008553505, -0.049868155270814896, -0.08267668634653091, -0.0032999184913933277, 0.02376866340637207, -0.007927270606160164, 0.04663289710879326, 0.04377703741192818, -0.03486459329724312, 0.02889043278992176, -0.03275736793875694, -0.11269590258598328, 0.014777877368032932, -0.11821351945400238, -0.1289515644311905, -0.0810408741235733, -0.023421751335263252, -0.11637432873249054, -0.033275071531534195, -0.08672000467777252, 0.017226696014404297, -0.032383378595113754, -0.04416372627019882, 0.030337098985910416, -0.003900691634044051, 0.002997283125296235, 0.04325021803379059, -0.03588524088263512, 0.034263934940099716, -0.07594451308250427, -0.03934147581458092, 0.06669687479734421, 0.029165102168917656, -0.1039455384016037, -0.08862001448869705, -0.0911581814289093, -0.12163075059652328, 0.012298064306378365, -0.04751601815223694, -0.09247393906116486, 0.031754061579704285, 0.018794013187289238, 0.022480688989162445, 0.011419994756579399, -0.07226794958114624, -0.033742550760507584, -0.0510924831032753, -0.07053693383932114, 0.06423283368349075, -0.09959176927804947, -0.09649939835071564, -0.048177894204854965, 0.06693590432405472, -0.015819968655705452, -0.0024106630589812994, -0.009669001214206219, -0.0008640553569421172, -0.08617471903562546, 0.058418963104486465, 0.02861979976296425, -0.061547476798295975, -0.06503791362047195, -0.09144201874732971, -0.10204389691352844, -0.13366124033927917, -0.09214691817760468, 0.0375058576464653, 0.00520690530538559, 0.04418276622891426, -0.13478893041610718, 0.002774583175778389, -0.10724842548370361, 0.007652674335986376, -0.02669294737279415, -0.08358598500490189, 0.04296083003282547, -0.12236974388360977, -0.0483999103307724, -0.06996317952871323, 0.011313743889331818, 0.023927751928567886, -0.12647439539432526, -0.037619784474372864, -0.014964939095079899, -0.01285606250166893, -0.14617502689361572, 0.018444852903485298, -0.1231495663523674], [-0.21281911432743073, 0.029292955994606018, -0.18312524259090424, -0.23570790886878967, -0.0449436753988266, 0.1423131376504898, -0.21253179013729095, -0.12036645412445068, -0.28231948614120483, 0.07646074146032333, -0.09478087723255157, -0.19604896008968353, 0.17110836505889893, -0.06761980056762695, -0.1257360875606537, -0.14677928388118744, 0.16653946042060852, -0.07597939670085907, 0.22497624158859253, -0.23744167387485504, 0.017971526831388474, -0.25546321272850037, 0.2058211863040924, -0.06275630742311478, -0.3545319139957428, 0.18586133420467377, 0.08612453192472458, -0.22416871786117554, 0.10998077690601349, -0.27099230885505676, 0.1699126958847046, 0.007197926286607981, 0.08823563903570175, -0.06081439554691315, -0.07695399969816208, 0.06844263523817062, 0.30191415548324585, -0.06587892025709152, -0.14924843609333038, -0.08362094312906265, -0.03884678706526756, -0.03308636322617531, -0.172446146607399, -0.2486235797405243, -0.12110874801874161, -0.06789045035839081, 0.023274190723896027, 0.0929427370429039, 0.015459529124200344, -0.0681491568684578, -0.10202890634536743, -0.08164207637310028, -0.11029832810163498, 0.027107302099466324, -0.09512174129486084, -0.030665364116430283, -0.1774386465549469, -0.36583012342453003, -0.04842032864689827, -0.19152946770191193, -0.11802767962217331, -0.03705320507287979, -0.02590111270546913, -0.30246832966804504, 0.019007431343197823, 0.017373185604810715, 0.19000136852264404, -0.15558136999607086, -0.2600354850292206, -0.20639023184776306, 0.05226139351725578, 0.18579767644405365, -0.11557524651288986, -0.07575316727161407, 0.015088058076798916, -0.10530143231153488, -0.07775862514972687, 0.1033860370516777, -0.13432620465755463, 0.14417868852615356, 0.20365339517593384, -0.1035701185464859, 0.1409054696559906, -0.08903005719184875, 0.01329217478632927, -0.2239675521850586, -0.06650892645120621, -0.26235896348953247, 0.2160152643918991, -0.34115415811538696, 0.025871973484754562, -0.011862136423587799, 0.03498730808496475, -0.15706048905849457, -0.16086480021476746, -0.31141960620880127, 0.019704114645719528, 0.14894399046897888, 0.06470917910337448, -0.1410110741853714, 0.1647382527589798, 0.11601563543081284, 0.029011137783527374, -0.1092638447880745, -0.16005003452301025, -0.00040646386332809925, -0.11718634516000748, 0.1669923961162567, -0.030867399647831917, -0.09331200271844864, -0.10158070921897888, -0.022817375138401985, -0.10355464369058609, -0.05991043895483017, 0.01189249474555254, -0.18920381367206573, -0.31778547167778015, -0.092839315533638, 0.1000150814652443, 0.2439703643321991, 0.1901434063911438, -0.291827529668808, -0.07594086974859238, -0.05819672346115112, -0.052782293409109116, -0.09820149093866348, 0.12021958082914352, -0.10534973442554474], [0.001623602700419724, -0.017884161323308945, -0.05966556444764137, -0.09069330990314484, 0.050440963357686996, -0.0007378198206424713, 0.014266435988247395, -0.035535357892513275, -0.1446339339017868, -0.03303832933306694, -0.043648820370435715, -0.02931380085647106, -0.052254874259233475, -0.07331342250108719, -0.03612225875258446, 0.03423887491226196, -0.0699782446026802, -0.008255359716713428, 0.07574498653411865, -0.14606644213199615, -0.03938483074307442, -0.023257145658135414, -0.04361466318368912, 0.027073070406913757, -0.061520520597696304, 0.0228282380849123, -0.0804796889424324, -0.1119646206498146, -0.01715659536421299, -0.12932612001895905, 0.04140393063426018, -0.07757358998060226, 0.0027107077185064554, -0.18846772611141205, 0.03295120969414711, 0.050358984619379044, 0.10322640091180801, -0.061783622950315475, -0.07364825904369354, -0.07992088049650192, -0.005984202492982149, -0.05322984233498573, 0.025999030098319054, -0.15632885694503784, -0.07139331847429276, -0.062487516552209854, -0.034256890416145325, -0.06523018330335617, -0.015275935642421246, 0.02985668182373047, 0.04453932121396065, 0.023022785782814026, -0.022464314475655556, -0.1870098114013672, -0.0411192812025547, 0.05254320800304413, -0.08129240572452545, -0.017771221697330475, 0.04475022852420807, -0.1353207677602768, -0.11688296496868134, -0.04235511273145676, -0.032790884375572205, -0.017063388600945473, -0.030269330367445946, -0.043966129422187805, -0.061174165457487106, -0.11434775590896606, -0.03144677355885506, -0.11850003153085709, 0.024107569828629494, -0.02727954089641571, -0.08329017460346222, -0.15026356279850006, 0.004274762235581875, -0.013724761083722115, -0.07029471546411514, -0.038369376212358475, -0.030808033421635628, -0.049037426710128784, -0.009505382739007473, 0.039151161909103394, 0.01266675814986229, -0.0460527166724205, 0.06334462016820908, -0.05665600299835205, 0.1101415827870369, -0.11061228066682816, -0.051864899694919586, -0.0476054847240448, -0.033998556435108185, -0.05530442297458649, 0.08443762362003326, -0.057058874517679214, 0.05662764608860016, -0.13811564445495605, -0.02839539386332035, 0.07669656723737717, -0.06426043063402176, -0.0420389249920845, -0.01626422442495823, -0.047575365751981735, 0.062139518558979034, -0.04989736154675484, -0.1390296220779419, -0.0677051767706871, 0.015730442479252815, -0.04945248365402222, -0.025146467611193657, -0.03346521779894829, 0.0076010990887880325, -0.026609379798173904, -0.11213962733745575, 0.0982578694820404, -0.07925842702388763, -0.0798063576221466, -0.08217941224575043, -0.03297896310687065, -0.04543172940611839, -0.04294204339385033, -0.032187480479478836, -0.0988776683807373, 0.0417393296957016, -0.048637572675943375, -0.14819000661373138, -0.009338178671896458, 0.06230801343917847, -0.10995636135339737], [-0.42622244358062744, -0.6006819605827332, -0.22520135343074799, 0.021859603002667427, -0.39427536725997925, 0.21089810132980347, -0.40847247838974, -0.002132476307451725, -0.16243942081928253, -0.024967394769191742, -0.024927077814936638, -0.1414930373430252, 0.12005626410245895, -0.41107267141342163, -0.345782995223999, -0.22005107998847961, 0.0535425990819931, -0.11377403140068054, 0.2082069367170334, -0.0928422212600708, 0.18323753774166107, -0.14019182324409485, 0.22680102288722992, -0.4274424910545349, -0.1220560148358345, 0.26543691754341125, -0.30646395683288574, -0.18173669278621674, -0.48359090089797974, -0.20104165375232697, -0.14843285083770752, -0.5109953880310059, -0.40096351504325867, 0.07795990258455276, 0.04336635768413544, -0.08348489552736282, 0.3018444776535034, 0.03842777758836746, -0.2282978743314743, -0.05577465146780014, -0.20784510672092438, 0.16142134368419647, -0.4264160692691803, -0.018657170236110687, -0.008601779118180275, 0.03655923157930374, -0.2016090601682663, 0.1880614161491394, -0.5461841821670532, 0.09541904926300049, -0.22932107746601105, -0.3082501292228699, 0.15477989614009857, 0.15701673924922943, -0.09258846938610077, -0.5724708437919617, -0.18068043887615204, -0.2396189123392105, -0.1952233463525772, 0.05102449283003807, -0.005322889890521765, -0.04481160268187523, -0.26062315702438354, -0.1953645646572113, -0.1731833815574646, 0.11524516344070435, -0.23594042658805847, -0.23814336955547333, -0.039885375648736954, -0.29883480072021484, 0.08410830050706863, -0.012681529857218266, 0.0075566647574305534, 0.11490901559591293, 0.23369379341602325, 0.07335400581359863, -0.055061984807252884, -0.3128805160522461, -0.1798461675643921, 0.12845765054225922, -0.42498308420181274, -0.4553832411766052, 0.2147737592458725, -0.10028675198554993, -0.3568282425403595, -0.059773851186037064, -0.505169689655304, -0.28325575590133667, 0.0719146579504013, -0.22320997714996338, 0.0579056553542614, -0.424165278673172, -0.006947075016796589, -0.3654775619506836, -0.27187514305114746, -0.24523024260997772, -0.489538311958313, 0.23348818719387054, 