[{"weight": [[-0.14636743068695068, 1.103667140007019], [-0.279196560382843, -0.04773122817277908], [-0.4024084806442261, 0.4563792049884796], [-0.9949501752853394, 0.272371768951416], [-0.18045450747013092, -0.983331024646759], [-0.8731605410575867, 0.49559760093688965], [0.6011173725128174, -0.780593752861023], [-1.027829647064209, -0.7140263319015503], [-0.8402262926101685, -0.3524608910083771], [-1.0193501710891724, -0.5723759531974792], [0.801968514919281, -0.47803178429603577], [-0.3767194449901581, 0.4236319661140442], [0.7533037662506104, -0.5648126006126404], [-0.6004580855369568, 0.8162638545036316], [-0.6303992867469788, -0.5377209186553955], [0.7993597984313965, 0.8043272495269775], [-1.0664385557174683, 0.8284919261932373], [0.010811354033648968, -0.9698901772499084], [0.5255805253982544, -0.46563494205474854], [0.8153351545333862, -0.644692063331604], [-0.7005876302719116, 1.062729835510254], [-0.8543106913566589, -1.0842291116714478], [0.7661707997322083, 0.3052753806114197], [-0.7208778262138367, 0.47847768664360046], [0.6787931323051453, -0.16769906878471375], [-0.014003163203597069, -0.6856721043586731], [-0.6455055475234985, 0.5155777931213379], [-0.5402689576148987, -0.636183500289917], [0.7736914157867432, -0.17733243107795715], [0.5870351195335388, -1.0067037343978882], [0.7868032455444336, -0.386243611574173], [-0.19313719868659973, -0.8723087310791016], [-0.7166983485221863, -0.44593334197998047], [-1.0978692770004272, 0.3102916181087494], [0.016499629244208336, -0.23731540143489838], [-0.43917199969291687, -0.4315074682235718], [-0.7681513428688049, 0.7656002640724182], [0.6998438835144043, -0.6650508642196655], [-0.5348108410835266, 0.15654990077018738], [0.8704242706298828, -0.7302009463310242], [-1.012221097946167, 0.34538576006889343], [-0.7639690637588501, 0.2807972729206085], [0.9254356026649475, -1.0814427137374878], [0.584657609462738, -0.4386501908302307], [0.27437636256217957, 1.0466094017028809], [-0.40059906244277954, -0.5237319469451904], [-1.0614920854568481, -0.20563267171382904], [-0.5381022095680237, 1.1708990335464478], [-0.7193734049797058, 0.4479805529117584], [-0.021213069558143616, 0.2158900946378708], [0.7292413711547852, -0.2103947401046753], [0.5094304084777832, 0.6656632423400879], [-0.6220988631248474, -0.8373881578445435], [0.8864374756813049, 0.7617884874343872], [-0.4679509699344635, -0.6411162614822388], [-0.6853474378585815, -1.004285454750061], [-0.47984886169433594, -0.6426244378089905], [0.16702230274677277, 0.3184986114501953], [0.8923218250274658, -0.850492537021637], [-0.9089521169662476, -0.7346934676170349], [-1.0989583730697632, -0.08477909862995148], [0.8968799114227295, 0.12344899028539658], [-0.008731375448405743, -0.5394827723503113], [-0.16808733344078064, 1.0817928314208984], [0.7451912760734558, -0.04154510796070099], [0.16610035300254822, -0.3839740753173828], [0.4708094298839569, 0.6174491047859192], [0.8140614628791809, 0.18422000110149384], [-1.110609531402588, -0.725005567073822], [-0.41169899702072144, 0.1905677318572998], [-0.0010399906896054745, -0.8476817011833191], [-0.4401076138019562, 0.8080481290817261], [0.6855568289756775, -1.0302064418792725], [-0.025483248755335808, 0.9901462197303772], [0.6693711876869202, -0.11887788027524948], [-0.5203302502632141, -1.0204237699508667], [0.07798956334590912, 0.03395099565386772], [-1.1171454191207886, 0.8192277550697327], [0.4798676669597626, -0.35146796703338623], [-0.9334729909896851, 0.03182593360543251], [0.11444128304719925, -0.972124457359314], [-0.4642271399497986, 0.40664419531822205], [0.14916923642158508, 0.5947590470314026], [0.008299335837364197, 0.20016543567180634], [0.027123134583234787, -0.17443719506263733], [0.2643077075481415, -0.7278825640678406], [0.38609498739242554, -1.100326418876648], [-0.019191453233361244, 1.12736177444458], [-0.7786842584609985, 1.0599058866500854], [-0.04437620937824249, 0.9313945174217224], [-0.17927849292755127, -0.6251789331436157], [0.32849058508872986, 1.0544248819351196], [0.3857077360153198, -0.7379963994026184], [0.7824065685272217, -0.10807328671216965], [0.2706756591796875, 0.08259499818086624], [0.8765310645103455, -0.7836019992828369], [0.798407256603241, -0.4162776470184326], [0.787389874458313, 0.7146942615509033], [0.20726986229419708, -1.11505126953125], [0.5091586112976074, -1.061381220817566], [0.14105458557605743, -1.0975617170333862], [-0.711469292640686, -0.9866173267364502], [0.6555183529853821, -0.9916562438011169], [0.4626871645450592, 0.802788257598877], [-0.01132886204868555, -0.03752513229846954], [-0.878294825553894, 0.4551185071468353], [0.5908341407775879, 0.5195214152336121], [0.8495348691940308, -0.28612473607063293], [0.12583233416080475, 0.9828397035598755], [0.05018112063407898, 0.10571230947971344], [0.7462612390518188, -0.4449756443500519], [-0.09933570772409439, 1.0338845252990723], [0.7854308485984802, 0.03849243000149727], [-1.3480042219161987, -0.9583561420440674], [-0.20890262722969055, -0.1297171264886856], [-0.2196749597787857, -0.2109876573085785], [0.7347689867019653, -0.49223336577415466], [-1.1456001996994019, 0.40478935837745667], [0.3392431437969208, -0.6909133791923523], [0.44995713233947754, 0.7493658661842346], [0.6929323077201843, -0.2230461984872818], [-0.9735700488090515, 0.566211462020874], [0.008005838841199875, 0.37157589197158813], [-1.2326619625091553, -1.0234649181365967], [0.035299673676490784, 0.9186564087867737], [0.966995120048523, -0.6545758843421936], [0.8790385723114014, 0.5745651721954346], [0.46868813037872314, 0.6011040806770325]], "bias": [0.5942022800445557, 0.26455146074295044, 0.519498348236084, 0.5192467570304871, 0.6509484052658081, 0.403795450925827, -0.15527871251106262, 0.4701119065284729, 0.28408434987068176, 0.14291441440582275, -0.18163944780826569, 0.7013292908668518, -0.07016772776842117, 0.5056560039520264, 0.2474806010723114, 0.5454803109169006, -0.19210152328014374, 0.7018800973892212, 0.5087233185768127, 0.5272566676139832, 0.32944339513778687, 0.25785118341445923, -0.37117087841033936, 0.16885267198085785, -0.055714841932058334, -0.08615703880786896, 0.38126319646835327, 0.6231526732444763, 0.6495343446731567, -0.07450061291456223, 0.08026712387800217, 0.10299516469240189, -0.10421529412269592, 0.22184710204601288, -0.7633156776428223, 0.7142452597618103, -0.2279285490512848, -0.4621916711330414, -0.2380036562681198, 0.16761437058448792, -0.5626068115234375, 0.09382959455251694, -0.3232162594795227, -0.42386502027511597, 0.04728342965245247, 0.5760909914970398, 0.012823374941945076, -0.1441386193037033, -0.07595799118280411, 0.12862025201320648, -0.30870768427848816, -0.05054813250899315, -0.444789856672287, -0.34221991896629333, -0.42731162905693054, -0.5831083655357361, -0.10820313543081284, 0.3207312226295471, 0.543317437171936, -0.01646493561565876, 0.34984076023101807, 0.19224360585212708, 0.3074726164340973, -0.22184593975543976, -0.2054765522480011, 0.24461707472801208, -0.42253124713897705, 0.5155465006828308, -0.3013926148414612, 0.27670082449913025, 0.448030948638916, -0.39324599504470825, 0.2243204563856125, 0.5172457098960876, 0.19577093422412872, 0.4636261463165283, 0.06441712379455566, -0.3223877251148224, -0.03243490308523178, -0.054570648819208145, 0.3206930458545685, 0.6709300875663757, 0.684476375579834, 0.3692556917667389, -0.7042437791824341, -0.6637668013572693, 0.07495146989822388, -0.4707672595977783, -0.019538860768079758, -0.1356012374162674, -0.5323273539543152, -0.4150661826133728, -0.17687170207500458, -0.05308615043759346, -0.4768390357494354, -0.3101767301559448, -0.2892749011516571, 0.6147229671478271, 0.567051351070404, -0.49767619371414185, 0.22632445394992828, -0.43299081921577454, -0.5857251286506653, 0.6763015389442444, 0.22090183198451996, -0.006817629560828209, -0.3708886504173279, 0.0337609201669693, -0.2115747481584549, -0.2299894541501999, 0.054191600531339645, 0.705114483833313, 0.7192818522453308, -0.03025183640420437, -0.18665462732315063, -0.593825101852417, -0.10733076930046082, -0.1596865952014923, -0.5693128705024719, -0.11581943184137344, 0.10152098536491394, -0.14654752612113953, -0.3546997606754303, -0.1861972063779831, -0.12135645002126694, -0.6209389567375183, -0.5473412871360779, 0.5494764447212219]}, {"weight": [[-0.27063265442848206, -0.13705308735370636, -0.16802479326725006, -0.24312448501586914, 0.039371270686388016, -0.30186763405799866, 0.04874807968735695, -0.2655547857284546, -0.29959535598754883, -0.2174098640680313, 0.0624505877494812, -0.20625437796115875, 0.11243270337581635, -0.2966304421424866, -0.20697450637817383, -0.08040294051170349, -0.22754284739494324, 0.002426699735224247, 0.11578782647848129, 0.08101847767829895, -0.25065693259239197, -0.14469075202941895, 0.010755321942269802, -0.2773565351963043, 0.036914024502038956, -0.08779678493738174, -0.19107812643051147, -0.12019579112529755, -0.039953991770744324, 0.0684615895152092, 0.11295661330223083, 0.047555893659591675, -0.25149983167648315, -0.31881698966026306, 0.01951706036925316, -0.1555713415145874, -0.2935226857662201, 0.05624129995703697, -0.2720714807510376, 0.116741843521595, -0.22683589160442352, -0.3006773591041565, 0.2476000189781189, 0.09267010539770126, -0.23118746280670166, -0.16197776794433594, -0.22429101169109344, -0.18857429921627045, -0.1861434429883957, -0.09396467357873917, 0.11005312949419022, -0.18622562289237976, -0.08703591674566269, -0.14621026813983917, -0.056860990822315216, -0.22967998683452606, -0.07120472937822342, -0.14017415046691895, 0.14680887758731842, -0.2694183588027954, -0.24827374517917633, 0.1045653223991394, 0.029818175360560417, -0.28227245807647705, 0.03537021949887276, 0.00768881943076849, -0.10652590543031693, 0.04132762551307678, -0.31364068388938904, -0.20767170190811157, -0.04611889645457268, -0.30702561140060425, 0.1445305049419403, -0.20552067458629608, -0.004835785366594791, -0.022995779290795326, -0.0909646525979042, -0.18285314738750458, 0.0222336333245039, -0.28170832991600037, 0.020943565294146538, -0.24201758205890656, -0.11945588886737823, -0.22159269452095032, -0.09006455540657043, 0.06398063898086548, 0.1605762094259262, -0.2809242010116577, -0.29451784491539, -0.3107612729072571, -0.060638319700956345, -0.3291788101196289, 0.13859222829341888, 0.09753090888261795, 0.01327041257172823, 0.14980697631835938, 0.09098128229379654, -0.11316925287246704, -0.005716477520763874, 0.2253037542104721, 0.06019598990678787, -0.10910122096538544, 0.13897860050201416, -0.06842169165611267, -0.03702123463153839, -0.23973143100738525, -0.05008061230182648, 0.02991340309381485, -0.29922229051589966, -0.13626952469348907, 0.09584934264421463, -0.23772591352462769, 0.081295907497406, -0.4077122211456299, -0.1660839170217514, -0.055651579052209854, 0.05785292759537697, -0.22446022927761078, 0.08950740844011307, -0.06086292862892151, 0.042799025774002075, -0.22987967729568481, -0.20404551923274994, -0.25293004512786865, -0.28972458839416504, 0.2156982421875, -0.030754107981920242, -0.09373638778924942], [-0.00741670373827219, 0.03202813118696213, -0.11058739572763443, -0.09285666793584824, -0.13903677463531494, -0.05499567463994026, -0.03786564618349075, -0.0657111257314682, -0.12881425023078918, -0.10131480544805527, -0.12215760350227356, -0.10428102314472198, 0.01740419492125511, -0.004582792520523071, -0.034655820578336716, -0.09346738457679749, 0.01902102865278721, 0.010930903255939484, -0.11734302341938019, -0.12619565427303314, -0.021254021674394608, -0.02660863660275936, -0.059173088520765305, -0.11892161518335342, -0.0066034262999892235, 0.02614734321832657, -0.08310428261756897, -0.05495840311050415, -0.11106698215007782, -0.09644823521375656, -0.07009445875883102, -0.02350245974957943, -0.0826403945684433, -0.02464872971177101, -0.05444524437189102, -0.07810954749584198, -0.06111764907836914, -0.1106075569987297, 0.009924057871103287, 0.006463772151619196, 0.024889526888728142, -0.12156582623720169, 0.0005721159395761788, -0.06701494008302689, -0.10620280355215073, -0.14479920268058777, -0.11525777727365494, 0.02906901203095913, 0.032817766070365906, -0.13287390768527985, 0.007496990263462067, -0.02329820953309536, -0.05341394990682602, 0.04328357055783272, -0.004978976212441921, -0.07513986527919769, -0.13109223544597626, -0.11946210265159607, -0.020100364461541176, 0.003318637842312455, -0.075646311044693, -0.03782393038272858, 0.027769707143306732, -0.10361962020397186, -0.03744000568985939, -0.012258277274668217, -0.07503107190132141, -0.033653270453214645, -0.04655038192868233, 0.00279476516880095, -0.12669247388839722, -0.08491817861795425, -0.11835574358701706, -0.097112275660038, 0.04417385905981064, -0.10155563801527023, -0.12801319360733032, -0.12168062478303909, 0.00669584795832634, -0.11267887055873871, 0.01777566783130169, -0.09034119546413422, 0.04900556802749634, 0.027714906260371208, -0.01896727830171585, -0.12490345537662506, -0.10882586985826492, -0.10268845409154892, -0.10172394663095474, 0.006915620528161526, -0.1415349245071411, -0.10590004175901413, -0.0003630271530710161, 0.008043146692216396, -0.1000647097826004, 0.039730969816446304, 0.04304109513759613, 0.014219577424228191, -0.04886547103524208, -0.1441114991903305, -0.015369421802461147, -0.1510372906923294, -0.09472682327032089, -0.07634855806827545, -0.03461828827857971, 0.011106239631772041, -0.10129814594984055, -0.07818871736526489, -0.023114092648029327, -0.09546390920877457, -0.012334720231592655, -0.060672055929899216, -0.075577013194561, -0.009008056484162807, -0.05936163291335106, 0.016260303556919098, -0.032938968390226364, 0.02123108133673668, -0.03528488799929619, -0.014621253125369549, -0.0947321280837059, 0.029264582321047783, 0.03963182121515274, -0.03358692675828934, -0.007378470152616501, -0.09272453188896179, 0.03780415281653404, -0.012292695231735706], [-0.16625793278217316, 0.023430848494172096, -0.017738373950123787, 0.030280286446213722, 0.030290113762021065, -0.06326190382242203, -0.012012975290417671, -0.050140757113695145, 0.04072503745555878, 0.04329650476574898, 0.029414501041173935, -0.06231900677084923, -0.106444351375103, -0.017636142671108246, 0.06142861396074295, -0.16927404701709747, -0.05493687465786934, 0.038029976189136505, -0.08966770768165588, 0.0482812225818634, -0.008269970305263996, 0.11141911894083023, -0.0008268483798019588, -0.13565222918987274, -0.05503622815012932, -0.03858081251382828, 0.0005628641811199486, 0.03321997448801994, -0.05216113477945328, 0.057842206209897995, -0.11050823330879211, -0.0037001853343099356, -0.05660612881183624, -0.12622053921222687, -0.049979083240032196, -0.03448009490966797, -0.16009075939655304, -0.06805936247110367, -0.04387471452355385, -0.03527689352631569, -0.10180143266916275, -0.020390218123793602, -0.027957476675510406, -0.09214620292186737, -0.16865037381649017, 0.021516846492886543, 0.03624773770570755, -0.16555963456630707, -0.09802203625440598, -0.13031791150569916, -0.011459490284323692, -0.006631024181842804, 0.002488720929250121, -0.05630781501531601, 0.08279890567064285, 0.048826783895492554, 0.08398541808128357, -0.13297563791275024, -0.09888996183872223, 0.044091999530792236, -0.08934196084737778, -0.0067950282245874405, -0.051872625946998596, -0.011235986836254597, 0.007516555488109589, 0.05368279665708542, -0.03079172968864441, -0.011066933162510395, 0.018477801233530045, -0.04262053966522217, -0.06388291716575623, -0.07086270302534103, 0.04568380117416382, -0.03423551097512245, -0.12807127833366394, 0.09701146930456161, -0.03152495250105858, 0.0023983793798834085, -0.07837814092636108, 0.0012011860962957144, -0.06119898706674576, -0.11173150688409805, -0.09408120065927505, 0.030054567381739616, -0.07523654401302338, 0.06360768526792526, 0.03968147188425064, -0.028164569288492203, -0.014887691475450993, -0.08843967318534851, 0.018330495804548264, -0.09710975736379623, 0.03098442032933235, 0.013534200377762318, -0.10180028527975082, -0.11934095621109009, -0.04599781706929207, -0.06636441498994827, 0.052516669034957886, -0.02811584807932377, -0.037232305854558945, -0.01536163967102766, 0.03942393511533737, -0.0842587873339653, -0.10548394173383713, 0.022064030170440674, -0.06427296996116638, 0.005562790669500828, -0.17347630858421326, -0.0590292327105999, -0.05304688215255737, -0.164986252784729, 0.02462511695921421, 0.004918115213513374, -0.04459862411022186, -0.02325882390141487, -0.08304176479578018, -0.07992546260356903, 0.06734670698642731, -0.15636396408081055, -0.021198134869337082, -0.03363729268312454, -0.034691184759140015, 0.1314670741558075, -0.17203174531459808, 0.02265348844230175, -0.029486294835805893, -0.1109132394194603], [0.14645062386989594, -0.10026256740093231, -0.017277389764785767, 0.029694192111492157, -0.2234119027853012, 0.030002489686012268, -0.2527574896812439, -0.14368896186351776, -0.06567072123289108, -0.10826671123504639, -0.1564311981201172, 0.012150458991527557, -0.25534239411354065, -0.01901041530072689, -0.13258926570415497, -0.033954475075006485, 0.05061844363808632, -0.2702011168003082, -0.28385797142982483, -0.2018635869026184, 0.10724727809429169, -0.1500604897737503, -0.008692420087754726, 0.07272472977638245, -0.21583524346351624, -0.24064971506595612, -0.04914484918117523, -0.22269964218139648, -0.2292875498533249, -0.28803935647010803, -0.09221102297306061, -0.22802932560443878, -0.09189903736114502, -0.0994541347026825, -0.08210829645395279, -0.047154515981674194, 0.050607334822416306, -0.16885849833488464, 0.017429452389478683, -0.14802047610282898, 0.08018743991851807, 0.027020994573831558, -0.22542664408683777, -0.16926570236682892, 0.18351146578788757, -0.1953696310520172, -0.09676140546798706, 0.22331596910953522, -0.05862246826291084, -0.05830955505371094, -0.20293448865413666, -0.042094919830560684, -0.05289415642619133, 0.0765317976474762, -0.09959112107753754, -0.19325993955135345, -0.1758520007133484, -0.062444448471069336, -0.11585075408220291, -0.04579247906804085, -0.07338489592075348, -0.14242567121982574, -0.1541421115398407, 0.19115246832370758, -0.18647481501102448, -0.2044537365436554, 0.06054888293147087, -0.028460685163736343, -0.07082929462194443, 0.004058639518916607, -0.26968851685523987, 0.07535848766565323, -0.21299587190151215, 0.13123030960559845, -0.2173418551683426, -0.09416048228740692, -0.06449970602989197, 0.016996048390865326, -0.23667287826538086, -0.09388329833745956, -0.1721532940864563, -0.06552493572235107, 0.029378315433859825, -0.16191107034683228, -0.12055661529302597, -0.17310090363025665, -0.26206034421920776, 0.08973954617977142, 0.1864631623029709, 0.10514666885137558, -0.19271071255207062, 0.21813742816448212, -0.15807853639125824, -0.10060886293649673, -0.1745159775018692, -0.2050599753856659, -0.13196128606796265, -0.024377556517720222, -0.17431536316871643, -0.29242536425590515, -0.18854841589927673, -0.07728489488363266, -0.2635803520679474, 0.06022541970014572, -0.10753517597913742, -0.012502072378993034, 0.05205189436674118, -0.07296957820653915, 0.05928679183125496, -0.06479189544916153, -0.14155367016792297, 0.12490264326334, -0.149581179022789, -0.059184711426496506, -0.1274796426296234, -0.13254095613956451, -0.12079962342977524, 0.02762356773018837, -0.20058879256248474, 0.023313889279961586, -0.15937946736812592, -0.042982492595911026, -0.14205780625343323, -0.05124602094292641, 0.08295745402574539, -0.22910359501838684, 0.048811882734298706, -0.012997481971979141], [-0.08297183364629745, -0.08445826917886734, 0.0456584170460701, 0.04940042272210121, -0.08592209964990616, -0.018140383064746857, -0.07778608053922653, 0.040254369378089905, -0.014805087819695473, -0.032998450100421906, -0.02151138335466385, -0.044475145637989044, -0.14522023499011993, -0.05498550832271576, -0.02434360980987549, -0.09450725466012955, -0.031932033598423004, -0.10441386699676514, -0.13072194159030914, -0.09757127612829208, 0.04969536513090134, -0.02257968671619892, -0.06254938244819641, -0.048315342515707016, -0.16077172756195068, -0.017574001103639603, -0.04522928223013878, -0.047451842576265335, -0.054248493164777756, -0.05017252266407013, -0.12107843905687332, -0.09616534411907196, -0.09537570178508759, -0.017231473699212074, -0.12581680715084076, -0.0813819095492363, 0.0804329365491867, -0.12143908441066742, 0.05339212715625763, -0.07840251922607422, 0.0033173353876918554, 0.011927569285035133, -0.10439029335975647, -0.09122507274150848, 0.01816505566239357, -0.11587821692228317, -0.03255494683980942, 0.09400129318237305, 0.08359848707914352, 0.02694627456367016, -0.027025114744901657, -0.0013538936618715525, -0.05235728621482849, -0.026848379522562027, -0.11774483323097229, -0.010499383322894573, -0.05803225189447403, -0.05094422399997711, -0.09367850422859192, 0.024475369602441788, 0.03464411199092865, -0.060789212584495544, -0.11960262060165405, 0.06385181844234467, -0.11983487010002136, -0.11951535195112228, -0.004347956273704767, -0.047179050743579865, -0.027150750160217285, -0.019533473998308182, -0.0016895401058718562, 0.04383724182844162, -0.1648111343383789, -0.043773312121629715, -0.14868824183940887, -0.04867906868457794, -0.025684809312224388, 0.03360975161194801, -0.07137032598257065, -0.05900251120328903, -0.08774857968091965, 0.0052131121046841145, -0.11271192878484726, 0.02690799906849861, -0.01002736110240221, -0.02148836851119995, -0.10860653966665268, 0.012361862696707249, -0.02773348055779934, -0.09189817309379578, -0.1498207151889801, -0.0550227016210556, -0.11173432320356369, -0.045167721807956696, -0.08541616052389145, -0.1778331696987152, -0.08073147386312485, -0.13823635876178741, -0.09934065490961075, -0.09144517779350281, -0.031159289181232452, -0.007308217231184244, -0.193604975938797, -0.06410425156354904, 0.011570638045668602, 0.0245235413312912, -0.10194718837738037, -0.02365795709192753, 0.006256616208702326, -0.0947359949350357, -0.12275799363851547, -0.0058937231078743935, -0.043489277362823486, -0.10443908721208572, -0.034877896308898926, -0.10094259679317474, -0.054813798516988754, 0.10518338531255722, -0.060618262737989426, -0.00990427564829588, -0.16748365759849548, -0.05184011161327362, -0.025677857920527458, -0.040323298424482346, 0.007074079010635614, -0.16041047871112823, -0.06450007110834122, 0.0021251726429909468], [-0.08120152354240417, 0.01896260492503643, -0.07706598192453384, -0.0575958751142025, -0.0799453929066658, -0.07506712526082993, -0.03174935281276703, -0.05274062603712082, -0.09603013098239899, -0.026709984987974167, -0.08508916199207306, -0.014315859414637089, -0.036918360739946365, 0.004488730803132057, -0.03627171367406845, -0.09439930319786072, 0.006115542724728584, -0.07409229874610901, 0.006046005990356207, -0.06537085026502609, -0.010618905536830425, -0.13259033858776093, -0.010411619208753109, -0.08421442657709122, -0.0975281223654747, -0.048856306821107864, 0.016480756923556328, 0.00419228570535779, 0.01657066121697426, -0.02638337016105652, 0.03300409018993378, 0.03191410005092621, -0.1001816838979721, -0.09206539392471313, -0.06389743089675903, -0.03457467257976532, -0.018318889662623405, -0.082932248711586, -0.04900579899549484, -0.06384600698947906, -0.11185767501592636, -0.018170204013586044, 0.007718055974692106, -0.10009169578552246, -0.06710916757583618, -0.03880523145198822, -0.0285414457321167, -0.08206906914710999, -0.009831109084188938, -0.021364780142903328, -0.103214330971241, -0.01220216415822506, -0.03885248303413391, 0.06895285099744797, 0.037054434418678284, 0.03696993738412857, -0.025600513443350792, -0.10900367796421051, 0.009653454646468163, 0.014048242010176182, -0.03651074320077896, -0.09918156266212463, -0.020488834008574486, -0.017806096002459526, 0.022069156169891357, -0.12192897498607635, -0.012892082333564758, -0.006151409819722176, -0.0717020258307457, -0.12974050641059875, -0.0197081808000803, -0.1086668148636818, 0.014301562681794167, -0.0604291670024395, -0.043282583355903625, -0.016385452821850777, -0.11123914271593094, 0.006933277472853661, -0.10383418947458267, -0.11839387565851212, -0.02698148600757122, -0.010337846353650093, -0.10278652608394623, -0.09871916472911835, -0.03226519003510475, -0.11531373113393784, -0.11842319369316101, -0.0133536197245121, 0.03794856369495392, -0.008868757635354996, -0.016829734668135643, 0.011622391641139984, -0.08324678242206573, -0.08227962255477905, -0.08806701004505157, 0.013558665290474892, -0.09293429553508759, 0.067924365401268, 0.035080671310424805, 0.02332918904721737, 0.005290152970701456, -0.10379322618246078, -0.014223900623619556, -0.03241308778524399, 0.02642298862338066, -0.12497672438621521, -0.10356486588716507, -0.041881877928972244, -0.06813207268714905, 0.047289956361055374, 0.009835719130933285, -0.008114784955978394, -0.07457192987203598, -0.09825824946165085, -0.10078991949558258, -0.10685814917087555, -0.014429109171032906, -0.04437673091888428, 0.020425444468855858, -0.047334980219602585, -0.08117276430130005, 0.03139812499284744, -0.05757879838347435, -0.04515405744314194, 0.010409176349639893, -0.08881528675556183, -0.03287144750356674, -0.09849546104669571], [-0.1899726390838623, -0.13512277603149414, -0.1994175910949707, -0.09431619942188263, 0.028649384155869484, -0.14093802869319916, -0.006925455294549465, 0.10213334113359451, -0.007056677248328924, 0.06694681942462921, -0.017606057226657867, -0.27926957607269287, -0.026978470385074615, -0.17910437285900116, -0.06334170699119568, -0.22749927639961243, -0.22816669940948486, 0.08190686255693436, -0.09223997592926025, 0.05995742604136467, -0.2841705083847046, 0.18260346353054047, -0.08961202204227448, -0.25450554490089417, 0.006766072474420071, 0.08123192936182022, -0.29725706577301025, -0.10725873708724976, -0.03301766887307167, 0.05558912828564644, 0.03522958606481552, 0.03154967352747917, 0.028549429029226303, -0.21569715440273285, -0.11552862823009491, 0.010544569231569767, -0.24727557599544525, -0.029262881726026535, -0.15759728848934174, 0.05350411683320999, -0.16611580550670624, -0.24704161286354065, 0.11115014553070068, -0.007052925880998373, -0.19099102914333344, 0.025773216038942337, 0.025677647441625595, -0.2526865303516388, -0.1864396333694458, -0.1453133374452591, -0.16822269558906555, -0.13937178254127502, 0.06622805446386337, -0.18176470696926117, -0.03459195792675018, 0.16103903949260712, 0.04591447860002518, -0.29381296038627625, -0.033150315284729004, 0.0073516517877578735, -0.07643181085586548, -0.11551044881343842, -0.09700790047645569, -0.267556369304657, -0.13012972474098206, -0.11126621812582016, -0.12449994683265686, -0.17362967133522034, 0.11561927199363708, -0.22563202679157257, 0.07115370035171509, -0.2372654527425766, 0.1366719752550125, -0.18042808771133423, -0.12305428087711334, 0.0029672179371118546, -0.2176031768321991, -0.23999710381031036, -0.1321893334388733, -0.09064265340566635, 0.08205936849117279, -0.15306638181209564, -0.21470069885253906, -0.1318538933992386, -0.07615461945533752, 0.02297017350792885, 0.17111660540103912, -0.24412915110588074, -0.24791671335697174, -0.17209328711032867, 0.052302248775959015, -0.11620031297206879, 0.06144452095031738, -0.13304321467876434, -0.10808170586824417, 0.12298821657896042, 0.05209362506866455, -0.1985752433538437, 0.07097961753606796, 0.11529296636581421, 0.11092668026685715, 0.15414118766784668, 0.07603036612272263, -0.17922531068325043, -0.1641940027475357, -0.21771931648254395, -0.19163383543491364, -0.10519769787788391, -0.25507795810699463, -0.11073650419712067, -0.043421875685453415, -0.16957134008407593, -0.08773267269134521, 0.1583682894706726, -0.16282948851585388, -0.057218749076128006, 0.04916602745652199, -0.21065562963485718, -0.04804476350545883, -0.141653910279274, -0.07292835414409637, -0.1548462063074112, -0.16996899247169495, 0.1997489035129547, -0.2169482409954071, 0.06565031409263611, -0.023679453879594803, -0.2642534673213959], [-0.12025215476751328, -0.11713419109582901, -0.01509665884077549, -0.13823726773262024, 0.0376448817551136, -0.05797657370567322, -0.13152296841144562, 0.027246255427598953, -0.06257468461990356, -0.03255777433514595, 0.022888468578457832, -0.05272820591926575, -0.08592361956834793, -0.08108509331941605, -0.07029350847005844, -0.08852265775203705, 0.004016761668026447, -0.13399051129817963, 0.01949325017631054, -0.09037523716688156, -0.07781454920768738, -0.07907303422689438, -0.03934561088681221, -0.09956495463848114, 0.022234434261918068, -0.01937752403318882, -0.0075522540137171745, 0.03168457746505737, -0.11478084325790405, -0.06293652206659317, -0.08047512173652649, -0.005157732870429754, -0.04759802669286728, -0.02188011258840561, -0.026755625382065773, -0.08974175155162811, 4.707628977485001e-05, -0.027969861403107643, -0.0942264124751091, -0.10280323028564453, -0.1433405578136444, -0.08724291622638702, -0.11195757240056992, 0.0338098406791687, -0.0029598576948046684, -0.030627859756350517, -0.09586978703737259, 0.006112666800618172, -0.12074210494756699, 0.022351298481225967, -0.10323356837034225, -0.11414340883493423, -0.04566819965839386, 0.0064282589592039585, -0.06380736082792282, -0.12014206498861313, -0.07856565713882446, -0.08085546642541885, -0.007554494310170412, -0.0923757255077362, -0.11951448023319244, -0.10259881615638733, -0.02844073995947838, -0.07534295320510864, 0.010147502645850182, -0.10699179023504257, 0.04106682911515236, -0.0058002108708024025, -0.025590617209672928, -0.07419174164533615, -0.0051935287192463875, -0.08767067641019821, 0.023166460916399956, -0.05353481322526932, -0.010770242661237717, -0.0931609570980072, -0.04697497934103012, -0.05002007633447647, -0.056736886501312256, -0.012412010692059994, -0.02149108797311783, -0.10212478041648865, -0.01737169548869133, -0.07133518159389496, -0.07478123903274536, -0.09136813133955002, 0.01143663004040718, -0.05190229415893555, -0.022972295060753822, -0.10073927789926529, -0.07195522636175156, -0.09033475816249847, 0.0013773839455097914, -0.07794085144996643, -0.06771430373191833, 0.03099033609032631, -0.016093259677290916, -0.11087973415851593, -0.050700001418590546, -0.07523897290229797, -0.053279999643564224, 0.025911422446370125, -0.08496362715959549, 0.012207201682031155, -0.0642668604850769, 0.012023946270346642, -0.13012006878852844, -0.11651065945625305, -0.007975280284881592, -0.07635822892189026, -0.040782954543828964, -0.024915078654885292, -0.04249441251158714, 0.0015917045529931784, -0.04628664255142212, -0.1291963756084442, 0.03212128207087517, -0.0508904755115509, 0.018037309870123863, 0.00033141192398034036, -0.002555269282311201, -0.0054274569265544415, -0.07962329685688019, -0.07513908296823502, 0.042393215000629425, -0.06854824721813202, 0.009263474494218826, -0.10384447127580643], [0.10066787898540497, -0.2634875178337097, -0.052877627313137054, -0.27636829018592834, -0.261038213968277, -0.1753057986497879, -0.11971163004636765, -0.4142587184906006, -0.30333584547042847, -0.3556147515773773, -0.06643306463956833, -0.1618608832359314, 0.008863472379744053, -0.14448891580104828, -0.30635231733322144, 0.23296065628528595, -0.14991147816181183, -0.23990659415721893, -0.1978336125612259, -0.06524233520030975, 0.03749389201402664, -0.3839613199234009, 0.15206623077392578, -0.22980502247810364, -0.002863622037693858, -0.24923616647720337, -0.2401064783334732, -0.3684159815311432, 0.014661149121820927, -0.13471826910972595, 0.03510680049657822, -0.24811860918998718, -0.2831551432609558, -0.38323086500167847, -0.14802345633506775, -0.3435150980949402, -0.07022356986999512, -0.12461045384407043, -0.22554267942905426, -0.04598057270050049, -0.33102020621299744, -0.30010274052619934, -0.24233900010585785, -0.1506701409816742, 0.2084328681230545, -0.3922883868217468, -0.39123278856277466, 0.07883848994970322, -0.1736523061990738, -0.16726864874362946, 0.042712271213531494, 0.09307322651147842, -0.3626466691493988, 0.20993714034557343, -0.2725681960582733, -0.313296914100647, -0.3266944885253906, -0.05599984526634216, -0.1152440533041954, -0.30364635586738586, -0.40069642663002014, 0.07739969342947006, -0.2653175890445709, 0.12773707509040833, 0.11585231870412827, -0.22288161516189575, 0.19653530418872833, 0.08923525363206863, -0.4134141206741333, -0.18350639939308167, -0.3104983866214752, -0.012785940431058407, -0.23221440613269806, 0.07074558734893799, -0.06304851174354553, -0.2603655159473419, -0.18853822350502014, -0.3012634813785553, -0.08260269463062286, -0.31224608421325684, -0.37367263436317444, -0.1029096469283104, -0.03143111243844032, -0.03304314613342285, -0.09635964035987854, -0.22135615348815918, -0.3226562738418579, 0.08286778628826141, 0.013718468137085438, 0.005842597223818302, -0.29773107171058655, 0.18411169946193695, -0.17651697993278503, 0.04048781469464302, 0.04640837013721466, -0.09963008761405945, -0.026536285877227783, 0.17383161187171936, -0.27722787857055664, -0.33434513211250305, -0.26934996247291565, -0.39321860671043396, -0.12584324181079865, 0.2002541869878769, -0.1349407285451889, -0.3009326756000519, 0.16576530039310455, 0.03673011064529419, 0.16182465851306915, -0.12714236974716187, -0.09557704627513885, 0.03620593622326851, 0.0304371640086174, -0.31458282470703125, -0.16862145066261292, -0.21279065310955048, -0.04063419625163078, -0.2599586546421051, -0.19314107298851013, 0.18303120136260986, -0.06308402121067047, -0.24157552421092987, -0.06260884553194046, -0.28427284955978394, 0.15316656231880188, -0.016481775790452957, 0.16191992163658142, 0.0064067542552948], [-0.04440058395266533, 0.01800386980175972, 0.05966934561729431, 0.041453830897808075, -0.03843757510185242, -0.0841757133603096, 0.047253113240003586, -0.02286430262029171, -0.005823191720992327, -0.06107853725552559, -0.03991706669330597, 0.03651655837893486, -0.1151570975780487, -0.07803680002689362, 0.012758432887494564, -0.14142164587974548, -0.036848749965429306, -0.09026544541120529, 0.014273188076913357, -0.05287739261984825, -0.132877379655838, -0.042820043861866, 0.03565425053238869, 0.06445245444774628, -0.06878763437271118, 0.06207968294620514, -0.029284760355949402, 0.061467673629522324, -0.11805156618356705, 0.028455430641770363, -0.0043052672408521175, 0.03672652319073677, -0.016524963080883026, -0.05724276602268219, -0.026666663587093353, 0.0836838111281395, 0.0050559276714921, 0.014008276164531708, 0.05190736800432205, -0.12467359751462936, 0.044930096715688705, 0.05512931942939758, 0.0016528472770005465, 0.04651999473571777, -0.0007104393444024026, 0.018653249368071556, -0.04577985033392906, 0.013125783763825893, 0.03116213157773018, 0.05024760216474533, -0.019374066963791847, -0.0017098275711759925, -0.0640140175819397, -0.0785968005657196, 0.05961951985955238, -0.004909523297101259, 0.0667501837015152, -0.0046571409329771996, -0.11213820427656174, 0.00343071180395782, -0.014539417810738087, -0.023893509060144424, 0.03606349974870682, -0.14242582023143768, 0.0032130989711731672, 0.030425870791077614, -0.033546485006809235, -0.0903313159942627, -0.02145778015255928, -0.042902588844299316, -0.09272757172584534, -0.04291696846485138, 0.022643761709332466, 0.0183132141828537, -0.08838246017694473, -0.006679450161755085, 0.03001878783106804, -0.06023590639233589, -0.028560664504766464, -0.0739363506436348, 0.025350075215101242, -0.04536674544215202, 0.028366396203637123, -0.09646855294704437, -0.013779441826045513, -0.011789384298026562, -0.02570287324488163, -0.010559067130088806, -0.09485229849815369, -0.07259037345647812, -0.044268928468227386, -0.021092895418405533, -0.08799950033426285, -0.07172863185405731, 0.04547609016299248, -0.1125490814447403, -0.08526536077260971, 0.01336301676928997, -0.11148493736982346, -0.1075831949710846, -0.0235426127910614, -0.01737183891236782, 0.0239569041877985, -0.14092549681663513, 0.03639013320207596, 0.0004557587089948356, -0.05106130987405777, 0.02991747483611107, -0.14654108881950378, 0.043286051601171494, -0.03529323637485504, -0.11992314457893372, -0.013883336447179317, -0.04563634470105171, -0.04859405383467674, 0.04091941937804222, -0.027094915509223938, 0.06847380846738815, -0.052781037986278534, -0.036111682653427124, -0.11801762878894806, -0.08977869898080826, 0.03659037873148918, -0.05526074022054672, -0.13294638693332672, -0.12990272045135498, -0.055749889463186264, -0.0701439380645752], [-0.10827634483575821, -0.09731373190879822, -0.05087944492697716, 0.06994056701660156, 0.020300235599279404, -0.05791870132088661, -0.09255269169807434, 0.04115861654281616, -0.03307228535413742, 0.01972000114619732, 0.02951909974217415, -0.08855327218770981, -0.02114555425941944, -0.017954934388399124, -0.06777361035346985, -0.11503554880619049, 0.07511839270591736, -0.10930129885673523, -0.10707595944404602, -0.035555362701416016, -0.07434368133544922, -0.06261886656284332, -0.024500137194991112, 0.038797713816165924, 0.026646599173545837, 0.04090631380677223, -0.05869026109576225, -0.0627630427479744, 0.021002106368541718, 0.056315671652555466, -0.020642243325710297, -0.004689254332333803, -0.08547299355268478, 0.07719752192497253, -0.11585994064807892, -0.08923597633838654, -0.0363440215587616, 0.05312174931168556, 0.01281325425952673, 0.027929985895752907, -0.06219753623008728, 0.052634332329034805, -0.0021996204741299152, 0.021991102024912834, -0.07745861262083054, -0.05798867717385292, 0.00238875113427639, 0.017588786780834198, -0.058049701154232025, -0.06204640865325928, 0.027845002710819244, -0.009219957515597343, -0.0031924203503876925, -0.06917432695627213, 0.009447142481803894, -0.09930200129747391, 0.002040242776274681, -0.11917629837989807, -0.03377624228596687, -0.017663460224866867, 0.05803779140114784, 0.03135136142373085, 0.022615009918808937, 0.03699050098657608, -0.049118705093860626, -0.04142080992460251, -0.005562181118875742, -0.01612219028174877, 0.05621640011668205, 0.0697285607457161, -0.03500010818243027, -0.07137764990329742, -0.06591083854436874, 0.049818649888038635, -0.06643721461296082, 0.028109585866332054, -0.0017027927096933126, -0.08847839385271072, -0.06608179211616516, -0.08460818976163864, -0.06268192082643509, -0.08130913227796555, 0.026179855689406395, -0.057101547718048096, -0.016154883429408073, 0.017048297449946404, -0.030679253861308098, 0.00688993139192462, 0.007766570430248976, -0.013943551108241081, -0.023811930790543556, -0.006909641902893782, -0.07313641905784607, 0.006554412189871073, -0.014890674501657486, 0.016588348895311356, -0.01559349987655878, 0.036109860986471176, -0.10436872392892838, 0.011333918198943138, 0.0405280664563179, 0.0513862669467926, 0.013259478844702244, 0.016754066571593285, -0.0542912557721138, 0.0213362667709589, -0.053179528564214706, -0.1043107733130455, 0.02528880350291729, -0.09069346636533737, 0.027556966990232468, -0.008160890080034733, -0.10213159024715424, 0.05939921736717224, 0.010137120261788368, -0.019905460998415947, -0.10432564467191696, -0.07687399536371231, -0.08322793245315552, -0.06273265182971954, 0.026662148535251617, -0.06110624596476555, -0.048937663435935974, 0.0182038564234972, -0.09529554098844528, 0.025184735655784607, 0.0003645724500529468, -0.09326429665088654], [-0.14055491983890533, -0.05844185873866081, -0.12418289482593536, -0.22187037765979767, -0.10493791103363037, -0.11530084162950516, 0.01676575094461441, -0.15786071121692657, -0.09328287094831467, -0.17176979780197144, 0.04641837626695633, -0.128273144364357, 0.001304937293753028, -0.13774923980236053, -0.16101400554180145, -0.00908665545284748, -0.1589026153087616, -0.05633315071463585, -0.02036168798804283, 0.021631116047501564, -0.11869390308856964, -0.07682076096534729, -0.023551542311906815, -0.19849427044391632, -0.06632662564516068, 0.01632869429886341, -0.2509995698928833, -0.03753318637609482, 0.09005483239889145, 0.10687331110239029, 0.0017241776222363114, -0.07658301293849945, -0.18337443470954895, -0.12163949757814407, -0.076621413230896, -0.13328906893730164, -0.13894601166248322, -0.02216154709458351, -0.11693958193063736, 0.008631149306893349, -0.15870301425457, -0.09580248594284058, 0.0578724704682827, 0.0253488477319479, -0.17214693129062653, -0.18718913197517395, -0.18838533759117126, -0.16425243020057678, -0.07711495459079742, -0.19758260250091553, 0.00712216692045331, -0.0764048621058464, -0.12076007574796677, 0.06749160587787628, -0.06685922294855118, -0.03496570140123367, -0.1199910044670105, -0.17593538761138916, 0.12902148067951202, -0.1703515350818634, -0.09565439820289612, 0.010931562632322311, -0.018348276615142822, -0.13333004713058472, 0.041925203055143356, 0.03979538753628731, 0.025710023939609528, 0.08428933471441269, -0.144788458943367, -0.10258171707391739, -0.07704847306013107, -0.08154095709323883, -0.0031542202923446894, -0.18992316722869873, -0.003365438664332032, -0.07891244441270828, -0.08751606196165085, -0.09016510844230652, -0.029234329238533974, -0.21290019154548645, 0.04528549313545227, -0.15713806450366974, -0.04508690908551216, -0.14884459972381592, -0.08084425330162048, 0.00037520957994274795, 0.13037541508674622, -0.10012461245059967, -0.07673754543066025, -0.15916676819324493, -0.06931186467409134, -0.1964479237794876, -0.0184123907238245, 0.0948154553771019, -0.024263624101877213, 0.15445512533187866, 0.12545883655548096, -0.02266979217529297, -0.03168381005525589, 0.15709014236927032, 0.021711597219109535, -0.012061751447618008, 0.10119464993476868, -0.06893070042133331, -0.03264523297548294, -0.177952840924263, -0.0326361246407032, 0.1349836140871048, -0.12023210525512695, -0.04918980598449707, 0.0627734437584877, -0.2142704874277115, 0.07035067677497864, -0.0591420903801918, -0.06273780763149261, -0.17719975113868713, 0.03429092839360237, -0.09489070624113083, -0.00199003703892231, 0.038624897599220276, -0.0018654392333701253, -0.09969842433929443, -0.1830786019563675, -0.1541900634765625, -0.18432201445102692, 0.09433473646640778, -0.009365653619170189, -0.05804634466767311], [-0.13302773237228394, 0.009983799420297146, -0.12251584231853485, -0.06864539533853531, -0.05359731242060661, 0.05507437512278557, -0.05972440168261528, 0.11358749121427536, -0.03558547794818878, -0.01476761233061552, -0.07520560175180435, -0.03126174584031105, -0.037388309836387634, -0.003950782120227814, -0.04716278240084648, -0.04034624993801117, -0.023027729243040085, -0.07722961157560349, -0.12911054491996765, -0.08414995670318604, 0.016441617161035538, 0.10321349650621414, -0.042789705097675323, -0.08741253614425659, -0.016827397048473358, 0.02280476875603199, -0.04060443118214607, -0.0903487354516983, -0.05311499908566475, -0.10176029056310654, -0.10711939632892609, -0.08713514357805252, 0.033197201788425446, 0.0637277364730835, -0.016137773171067238, -0.07547574490308762, -0.06766544282436371, -0.01435796543955803, 0.02578837238252163, 0.009560713544487953, 0.07605631649494171, 0.011998925358057022, 0.011136532761156559, -0.09891163557767868, -0.11515991389751434, -0.09970256686210632, 0.07806187868118286, -0.06013241410255432, -0.033101826906204224, -0.07014621794223785, -0.005018503870815039, -0.08887262642383575, 0.0950719565153122, -0.0513169951736927, 0.07123562693595886, 0.051204562187194824, 0.03678043186664581, -0.1777576208114624, -0.08670167624950409, 0.1247725561261177, 0.01594875007867813, -0.06901845335960388, -0.07265555113554001, -0.08267354220151901, -0.12944883108139038, 0.018452512100338936, -0.04919680953025818, -0.13686923682689667, 0.09082815051078796, -0.040922436863183975, -0.10250619053840637, 0.0018442117143422365, -0.06744591891765594, -0.039852891117334366, -0.07764392346143723, 0.08014753460884094, -0.14191879332065582, 0.047254614531993866, -0.007265027612447739, 0.09186991304159164, -0.10962823778390884, -0.06912282854318619, -0.1856377273797989, -0.14060673117637634, -0.016956880688667297, 0.032065678387880325, -0.09891023486852646, -0.06894396245479584, -0.10285283625125885, -0.06477044522762299, -0.0005635115085169673, -0.15215948224067688, -0.12952792644500732, -0.139759361743927, -0.02259283885359764, -0.0422692745923996, 0.006740037817507982, -0.07748410105705261, 0.006376174278557301, -0.06064368039369583, -0.025816289708018303, 0.03723275661468506, -0.07246235013008118, -0.04056740924715996, -0.10761511325836182, 0.06831615418195724, -0.10636501014232635, -0.089364193379879, -0.05651392415165901, -0.16151301562786102, -0.05618753284215927, -0.07884248346090317, -0.0076055750250816345, 0.08889169991016388, -0.12369304895401001, -0.13587339222431183, 0.011299686506390572, 0.10055296123027802, 0.007042320445179939, -0.16102199256420135, -0.0763484314084053, 0.05544697493314743, -0.12611506879329681, 0.15639497339725494, -0.18411614000797272, 0.008258305490016937, -0.10716446489095688, -0.048637643456459045], [-0.34057652950286865, -0.1797468662261963, -0.28457745909690857, -0.2760407328605652, 0.04820619150996208, -0.30831068754196167, 0.19004178047180176, -0.2896861135959625, -0.289232075214386, -0.2241171896457672, 0.21513696014881134, -0.23029159009456635, 0.17372949421405792, -0.2764054536819458, -0.1576894223690033, -0.10836571455001831, -0.1677270382642746, -0.05194639042019844, 0.02502412721514702, 0.09834186732769012, -0.3448507487773895, -0.2065548449754715, 0.06522374600172043, -0.21469774842262268, 0.058544453233480453, -0.004160954616963863, -0.30519357323646545, -0.19118359684944153, 0.04920414462685585, 0.19501715898513794, 0.1192958727478981, -0.07573898881673813, -0.1606789529323578, -0.18364983797073364, -0.1288430541753769, -0.2134547084569931, -0.318985253572464, 0.1214875653386116, -0.2406158298254013, 0.12081143260002136, -0.2871338725090027, -0.21441695094108582, 0.2817988693714142, 0.1606566309928894, -0.3706149160861969, -0.14941518008708954, -0.3681297302246094, -0.3527398407459259, -0.34955713152885437, -0.2664676904678345, 0.11411841213703156, -0.12846359610557556, -0.10287980735301971, -0.10139060765504837, -0.13558456301689148, -0.13349854946136475, -0.14745588600635529, -0.1682102233171463, 0.1373719871044159, -0.25018084049224854, -0.3032704293727875, 0.033400848507881165, -0.06588985025882721, -0.4008025825023651, 0.12202677875757217, -0.03698572888970375, -0.12445288151502609, 0.040474843233823776, -0.2941448390483856, -0.20455598831176758, 0.01563956029713154, -0.2892376184463501, 0.18497538566589355, -0.34973791241645813, 0.005254468880593777, -0.03805575147271156, -0.1467176228761673, -0.30563652515411377, 0.06193505972623825, -0.2420641928911209, 0.0028733115177601576, -0.2280983179807663, -0.2653689384460449, -0.23045839369297028, -0.0998566523194313, 0.05758854001760483, 0.19726505875587463, -0.37218114733695984, -0.33208292722702026, -0.23829014599323273, -0.12944014370441437, -0.3249785304069519, 0.13012845814228058, 0.08602066338062286, -0.12776976823806763, 0.17800280451774597, 0.1606975942850113, -0.1008969396352768, 0.13135488331317902, 0.18583977222442627, 0.07292065769433975, -0.22700832784175873, 0.18403524160385132, -0.2142869383096695, -0.04305857792496681, -0.3256928622722626, -0.11867181956768036, 0.13670474290847778, -0.2773808538913727, -0.1131497249007225, 0.14206404983997345, -0.35187870264053345, 0.05398816242814064, -0.28438428044319153, -0.2104126662015915, -0.06473252922296524, 0.07456062734127045, -0.2517188787460327, 0.08360454440116882, -0.11517113447189331, 0.0995238721370697, -0.2815363109111786, -0.13515743613243103, -0.29015231132507324, -0.3011612594127655, 0.14210805296897888, 0.009852463379502296, -0.15258283913135529], [-0.18026003241539001, -0.06810338795185089, -0.11033777892589569, 0.03953591734170914, 0.0813627615571022, 0.026009898632764816, -0.116427481174469, 0.017688503488898277, 0.097113236784935, 0.032407741993665695, -0.07162600755691528, -0.13144022226333618, -0.08173853904008865, -0.04634986072778702, 0.0634118914604187, -0.023267216980457306, 0.012049032375216484, -0.11545902490615845, -0.09296473860740662, -0.024080729112029076, -0.14840389788150787, 0.14020970463752747, -0.08841876685619354, 0.01829640008509159, -0.12928570806980133, 0.04886290058493614, -0.12364941835403442, 0.03417625278234482, -0.04647713527083397, 0.010745656676590443, -0.18204231560230255, 0.009800870902836323, 0.03541117534041405, 0.06775027513504028, 0.006628559902310371, -0.09209711104631424, 0.008961900137364864, -0.10193762183189392, -0.06558658182621002, -0.10249817371368408, 0.035157546401023865, 0.019120242446660995, -0.05095444619655609, -0.17037278413772583, -0.10086183249950409, 0.04900655895471573, -0.024820690974593163, -0.09667541831731796, -0.099042147397995, -0.09971097856760025, -0.1076958179473877, -0.06715048849582672, 0.12199414521455765, -0.1685357689857483, -0.0735263004899025, 0.04600420966744423, -0.0017684869235381484, -0.13362553715705872, -0.13494081795215607, 0.10261900722980499, 0.07512646913528442, -0.17563173174858093, -0.08311334997415543, -0.02063264138996601, -0.08276960998773575, -0.08615386486053467, -0.09578593075275421, -0.13487176597118378, 0.11662434786558151, 0.0167236365377903, -0.06795041263103485, -0.11090696603059769, 0.03055158630013466, -0.12952494621276855, -0.14222651720046997, 0.06542902439832687, -0.13006062805652618, -0.04628510773181915, -0.06301160901784897, 0.01535179652273655, -0.05758215859532356, -0.01662190817296505, -0.13617654144763947, -0.15057624876499176, -0.028669171035289764, 0.020725402981042862, 0.04080021381378174, -0.09869040548801422, -0.059012528508901596, -0.1065158024430275, 0.03798236697912216, -0.05797524005174637, 0.024884194135665894, -0.17944322526454926, -0.20865561068058014, -0.09224967658519745, -0.03320665657520294, -0.19478493928909302, -0.11241878569126129, 0.014927038922905922, -0.03341183811426163, 0.047640979290008545, -0.06175355613231659, -0.05229885131120682, -0.1504380702972412, -0.0581139512360096, -0.16333886981010437, -0.06659071147441864, -0.05097274109721184, -0.05203581601381302, -0.053697340190410614, -0.08322183042764664, -0.18412691354751587, 0.13399821519851685, -0.007630953565239906, -0.09808678179979324, -0.10634543001651764, 0.06389369815587997, -0.0465363971889019, -0.08201044797897339, -0.15209148824214935, -0.07049655169248581, -0.15597234666347504, 0.21806128323078156, -0.13503021001815796, -0.06459081918001175, -0.09107282012701035, -0.05384000390768051], [0.0004974487819708884, -0.056015145033597946, 0.003103088354691863, 0.058650221675634384, -0.08198673278093338, -0.09974950551986694, -0.11756065487861633, 0.024004628881812096, -0.030650556087493896, 0.00213735643774271, 0.025665057823061943, -0.07285168021917343, -0.052718840539455414, 0.010053899139165878, -0.09276284277439117, -0.08299260586500168, -0.1777830570936203, -0.09486701339483261, -0.1180470883846283, 0.031013231724500656, -0.14414554834365845, -0.006307451985776424, -0.0122836884111166, 0.040920864790678024, -0.0971904844045639, 0.010417522862553596, 0.01971791684627533, -0.028054209426045418, -0.11785002797842026, -0.05217187851667404, -0.04573226720094681, -0.04389195516705513, -0.041586585342884064, 0.0059694284573197365, -0.01743794046342373, 0.0306380745023489, -0.06727666407823563, -0.05109938979148865, 0.025737974792718887, -0.10184260457754135, -0.10320471227169037, -0.09143524616956711, -0.017963998019695282, 0.013902135193347931, 0.004706206265836954, -0.05741456523537636, -0.09400499612092972, -0.04400205984711647, -0.0050119333900511265, -0.009708133526146412, -0.035835836082696915, -0.10236585885286331, -0.04440024122595787, -0.09644109010696411, 0.010475745424628258, -0.09806317090988159, -0.029682917520403862, 0.05007583275437355, -0.05008413642644882, 0.05888550728559494, 0.018639784306287766, -0.08455950766801834, -0.005296980496495962, -0.03902886435389519, -0.03878917172551155, -0.08240741491317749, 0.037555992603302, -0.09539750218391418, -0.028304139152169228, 0.03659331053495407, 0.044734686613082886, -0.09369159489870071, -0.11602085083723068, 0.0379590280354023, -0.09180596470832825, 0.031046072021126747, 0.007802281994372606, -0.08271282911300659, 0.030414417386054993, 0.0011897592339664698, -0.04604497179389, -0.055747151374816895, -0.09974124282598495, -0.05320185422897339, -0.03874523937702179, -0.05650630220770836, -0.09424030780792236, -0.07787215709686279, -0.03408147022128105, 0.032413728535175323, 0.030184077098965645, -0.016902541741728783, -0.006000127177685499, 0.008266597986221313, 0.041957929730415344, -0.07583536207675934, -0.14603455364704132, 0.006296796724200249, -0.01780037395656109, -0.08844540268182755, 0.02102505788207054, -0.10774634778499603, -0.022036751732230186, -0.12526538968086243, -0.09213951975107193, 0.010479185730218887, -0.1067764163017273, -0.08661878108978271, 0.02889445051550865, -0.0532752126455307, -0.09236834943294525, -0.034389596432447433, -0.07857729494571686, -0.08403787016868591, 0.05651407688856125, -0.09304734319448471, -0.03717696666717529, -0.13541074097156525, 0.030235378071665764, -0.08879916369915009, -0.02235536091029644, -0.11104127019643784, 0.05318615958094597, -0.028049113228917122, -0.02521924301981926, -0.1408623456954956, -0.13432711362838745, -0.016455847769975662], [0.0053553213365375996, -0.2106069177389145, -0.19089403748512268, -0.41753220558166504, -0.2058027982711792, -0.3235088586807251, 0.039123836904764175, -0.3671916723251343, -0.41071775555610657, -0.41983482241630554, 0.07375532388687134, -0.13074356317520142, 0.087030328810215, -0.21480107307434082, -0.3630191683769226, 0.1565200537443161, -0.3408282697200775, -0.142957866191864, -0.010304145514965057, 0.06702099740505219, -0.2077942043542862, -0.42719945311546326, 0.19349129498004913, -0.2365172803401947, 0.11676425486803055, -0.1276877522468567, -0.30130043625831604, -0.3562247157096863, 0.1544112116098404, -0.06323522329330444, 0.15736909210681915, -0.15413838624954224, -0.38176628947257996, -0.44613850116729736, -0.048175372183322906, -0.23410259187221527, -0.2477952092885971, 0.11845092475414276, -0.2133488953113556, -0.004242627415806055, -0.3466215431690216, -0.38043665885925293, 0.1438400149345398, 0.0304194875061512, 0.15629787743091583, -0.3095961809158325, -0.4353088438510895, -0.04379473999142647, -0.21438974142074585, -0.16661116480827332, 0.02643464505672455, 0.09547737240791321, -0.364187628030777, 0.1767231971025467, -0.327348530292511, -0.41178491711616516, -0.36983051896095276, 0.023878151550889015, 0.07913997024297714, -0.34135839343070984, -0.41425520181655884, 0.1950412094593048, -0.16770502924919128, 0.05790112912654877, 0.11522611230611801, -0.11501483619213104, 0.19453038275241852, 0.18675091862678528, -0.39620834589004517, -0.2942924201488495, -0.19803392887115479, -0.1354682445526123, 0.07104763388633728, -0.03868415951728821, 0.13062766194343567, -0.3613387942314148, -0.06399435549974442, -0.31207624077796936, 0.06286036968231201, -0.456992506980896, -0.10258625447750092, -0.2509465217590332, -0.016089748591184616, -0.12240559607744217, -0.0893431007862091, -0.16631633043289185, 0.005577112082391977, 0.0672488808631897, -0.13797630369663239, -0.03279595822095871, -0.2994397282600403, 0.16745266318321228, -0.08963372558355331, 0.124796062707901, 0.03275838494300842, 0.01328611932694912, 0.040268536657094955, 0.09320433437824249, -0.04935644939541817, 0.051519110798835754, -0.19838829338550568, -0.2720564007759094, 0.001080638263374567, 0.14154787361621857, -0.09793349355459213, -0.29279932379722595, 0.11632639914751053, 0.15490995347499847, 0.052110739052295685, -0.04381305351853371, 0.08247765898704529, 0.020525220781564713, 0.13927626609802246, -0.3655939996242523, -0.1796274483203888, -0.15595239400863647, 0.06904446333646774, -0.40923935174942017, 0.00985715351998806, 0.04958845302462578, -0.0045586200430989265, -0.40012675523757935, -0.08760064095258713, -0.383036345243454, 0.024241244420409203, 0.1640568971633911, 0.31729570031166077, 0.018648236989974976], [0.08166657388210297, 0.09194295108318329, 0.060726895928382874, 0.24695688486099243, 0.137949138879776, 0.17574825882911682, -0.16941310465335846, 0.28437885642051697, 0.2641948163509369, 0.313967227935791, -0.30928391218185425, 0.08681144565343857, -0.18577343225479126, 0.18032237887382507, 0.20384064316749573, -0.2566242218017578, 0.19987259805202484, -0.04655785486102104, -0.2383490651845932, -0.21311365067958832, 0.15270772576332092, 0.2721022069454193, -0.32911986112594604, 0.12439100444316864, -0.29078593850135803, 0.09653586894273758, 0.07759129256010056, 0.09806966781616211, -0.34459158778190613, -0.10272151231765747, -0.24547477066516876, 0.1539076566696167, 0.14312317967414856, 0.36155563592910767, 0.024746844545006752, 0.05852875858545303, 0.1790616363286972, -0.20140430331230164, 0.1844480335712433, -0.35414522886276245, 0.19011738896369934, 0.1870187520980835, -0.3132142424583435, -0.16715534031391144, -0.13956736028194427, 0.18487350642681122, 0.2843167185783386, 0.06254027038812637, 0.11944398283958435, -0.024978328496217728, -0.31406962871551514, -0.2226647287607193, 0.14342853426933289, -0.39206162095069885, 0.1479818969964981, 0.17737489938735962, 0.07579647749662399, -0.08082811534404755, -0.2902217209339142, 0.17179808020591736, 0.23104140162467957, -0.3859482705593109, -0.03372917324304581, 0.011626504361629486, -0.3336139917373657, -0.05756440386176109, -0.19810768961906433, -0.27225616574287415, 0.33711859583854675, 0.14850029349327087, 0.006943879649043083, 0.147856205701828, -0.10304742306470871, 0.002756694797426462, -0.31714722514152527, 0.2325216680765152, -0.02203589864075184, 0.22378183901309967, -0.1617337018251419, 0.3295052945613861, -0.00896186288446188, 0.0781967043876648, -0.010118663311004639, -0.01901007816195488, 0.026205604895949364, -0.12447486817836761, -0.06580744683742523, -0.07332747429609299, 0.1613038182258606, -0.04592277854681015, 0.05651133507490158, -0.11044517159461975, -0.03194320201873779, -0.33478718996047974, -0.058383360505104065, -0.24764208495616913, -0.2647514045238495, -0.3540630638599396, 0.029840948060154915, -0.08034190535545349, 0.040300749242305756, 0.20761755108833313, -0.1623764932155609, -0.1519009917974472, 0.035459987819194794, 0.25045275688171387, -0.337583988904953, -0.33910810947418213, -0.1621270626783371, -0.014645584858953953, -0.2874547243118286, -0.08472783118486404, -0.28597044944763184, 0.39808088541030884, 0.06463506817817688, 0.09891863167285919, -0.3078158497810364, 0.22613590955734253, -0.10844973474740982, -0.19483795762062073, -0.31991463899612427, 0.29630038142204285, -0.07700709253549576, 0.24795939028263092, -0.09124132245779037, -0.29777467250823975, -0.3810484707355499, -0.1805880218744278], [0.05289513245224953, 0.01894054003059864, 0.039242975413799286, -0.07713548839092255, -0.059213701635599136, -0.01230668555945158, -0.034124068915843964, 0.045227158814668655, 0.06909412890672684, 0.010218162089586258, 0.052696049213409424, -0.05641474202275276, 0.015491830185055733, 0.016300976276397705, 0.08966722339391708, -0.04957092925906181, -0.017991915345191956, -0.018250320106744766, -0.03242501989006996, -0.057694822549819946, 0.006974371150135994, -0.06367826461791992, 0.011559654027223587, 0.06057978421449661, -0.06596343219280243, -0.0320444330573082, -0.04651450738310814, 0.03657586872577667, 0.01409156247973442, -0.09254773706197739, 0.05655818432569504, -0.06257845461368561, 0.015956399962306023, -0.06550968438386917, -0.05744151026010513, -0.023672083392739296, -0.1108916848897934, -0.12426561117172241, -0.003857803763821721, -0.10055414587259293, -0.05682814493775368, 0.03125148266553879, -0.006506472826004028, -0.06107252836227417, 0.03003430925309658, 0.07568281888961792, -0.08603081852197647, -0.04234372824430466, 0.06171935051679611, -0.07194898277521133, -0.10937546193599701, -0.1062314361333847, 0.026033950969576836, 0.018105430528521538, -0.020964520052075386, 0.002956767799332738, -0.08023553341627121, -0.03528573364019394, -0.030292682349681854, -0.07002394646406174, -0.09746194630861282, 0.0453927181661129, -0.05045735463500023, -0.08049564063549042, -0.08179893344640732, 0.028718454763293266, 0.04315498471260071, -0.09559570997953415, 0.035372428596019745, 0.05536504462361336, -0.09262196719646454, -0.004965947940945625, -0.09485948830842972, -0.06977666914463043, 0.05800739675760269, 0.03367021679878235, -0.05258752033114433, 0.0156710222363472, -0.0029998973477631807, 0.037875331938266754, 0.07130002975463867, 0.0708170086145401, -0.0525507777929306, 0.05233568698167801, -0.06485594063997269, 0.036358319222927094, -0.09461642801761627, -0.09066192060709, -0.13596786558628082, -0.098202183842659, -0.04453352838754654, -0.055547457188367844, -0.06554163247346878, -0.012019558809697628, 0.08168333768844604, -0.01965784654021263, -0.08486676961183548, -0.056695837527513504, 0.012850888073444366, 0.030346861109137535, -0.0707826241850853, 0.02107902802526951, -0.11308306455612183, -0.07917126268148422, 0.037900347262620926, -0.114946648478508, -0.07609708607196808, -0.043718840926885605, 0.014517327770590782, 0.0803617462515831, 0.05647648125886917, -0.015107411891222, -0.04438437148928642, -0.13007453083992004, -0.01648738794028759, 0.031373899430036545, 0.01590713858604431, -0.0758708193898201, -0.09635568410158157, 0.02707117423415184, 0.045404620468616486, 0.03984834998846054, 0.04574142396450043, 0.0033967909403145313, -0.0890483409166336, -0.1147899329662323, 0.0219151321798563, -0.09353800117969513], [-0.18226224184036255, -0.135338693857193, -0.20069825649261475, -0.3017866313457489, -0.08372615277767181, -0.22866451740264893, 0.061353933066129684, -0.11743538826704025, -0.25086092948913574, -0.13684329390525818, 0.15133488178253174, -0.2654491066932678, 0.06869977712631226, -0.22557465732097626, -0.24701054394245148, 0.020544009283185005, -0.26220831274986267, 0.02433110773563385, 0.04631073772907257, 0.005034583620727062, -0.25666630268096924, -0.09145593643188477, 0.085078164935112, -0.26865360140800476, 0.08097507059574127, -0.114783875644207, -0.27019378542900085, -0.1536458283662796, 0.027571512386202812, 0.1993553191423416, 0.1468118280172348, 0.013846535235643387, -0.1631903052330017, -0.2733096778392792, -0.07276386767625809, -0.16870522499084473, -0.18145503103733063, 0.10882673412561417, -0.19996558129787445, 0.19391512870788574, -0.20941044390201569, -0.24128474295139313, 0.13583867251873016, 0.13624686002731323, -0.1914358139038086, -0.14067009091377258, -0.23959773778915405, -0.26580914855003357, -0.25157374143600464, -0.25616219639778137, 0.11727476865053177, -0.12018495053052902, -0.026468029245734215, 0.09203185141086578, -0.16794002056121826, -0.12435540556907654, -0.12360604852437973, -0.16052128374576569, 0.06724861264228821, -0.18611817061901093, -0.20459291338920593, 0.01675373688340187, -0.05906297639012337, -0.28164541721343994, -0.016764579340815544, -0.08447042852640152, -0.0007647235179319978, 0.022674204781651497, -0.16676920652389526, -0.30330562591552734, -0.052839189767837524, -0.20524048805236816, 0.15156494081020355, -0.1168099045753479, -0.020449385046958923, -0.11507710069417953, -0.1898196041584015, -0.2559521794319153, 9.658857015892863e-05, -0.3246361315250397, -0.006334240082651377, -0.3533307909965515, -0.22556021809577942, -0.09044763445854187, -0.06847778707742691, -0.0007614853093400598, 0.14816103875637054, -0.11901354044675827, -0.28307703137397766, -0.25781407952308655, -0.06077466532588005, -0.20955844223499298, 0.02559925988316536, 0.029263455420732498, -0.08555114269256592, 0.22973474860191345, 0.0972440093755722, -0.06053726375102997, 0.11851590126752853, 0.22752881050109863, 0.010167531669139862, 0.012501412071287632, 0.21697930991649628, -0.13804662227630615, -0.10842301696538925, -0.3433768153190613, -0.01365811936557293, 0.09314567595720291, -0.17919407784938812, -0.24783043563365936, 0.03588283807039261, -0.29815471172332764, -0.024413544684648514, -0.1435641050338745, -0.21489013731479645, -0.05991342291235924, -0.006310618482530117, -0.26195213198661804, 0.06408591568470001, -0.018516989424824715, 0.021256426349282265, -0.1823996603488922, -0.21773558855056763, -0.1687827706336975, -0.28364327549934387, 0.19293168187141418, 0.017754174768924713, -0.06663265079259872], [-0.04709277302026749, -0.03600132837891579, -0.06320898979902267, -0.07701944559812546, 0.019399644806981087, 0.028480643406510353, -0.013571636751294136, -0.028572827577590942, -0.12316545099020004, 0.028507309034466743, -0.1066635400056839, 0.032538607716560364, -0.07424186915159225, 0.003168166847899556, -0.10145004093647003, -0.07136114686727524, -0.07632075250148773, -0.04436926543712616, -0.03731150180101395, -0.05705099552869797, -0.07754047214984894, -0.06354860216379166, -0.06734170019626617, -0.08445549756288528, -0.029227470979094505, -0.11334843933582306, -0.0747508704662323, -0.07066550105810165, -0.10619955509901047, -0.08421839028596878, 0.005371051374822855, 0.020111043006181717, -0.04902420565485954, -0.04164428636431694, -0.06730092316865921, -0.06397593766450882, -0.04922217130661011, -0.13333159685134888, -0.02586040087044239, -0.04845519736409187, -0.0007639598334208131, -0.06460689008235931, -0.025375062599778175, -0.14127637445926666, -0.05431033670902252, -0.11637897044420242, -0.06501305848360062, -0.0046646432019770145, 0.038457177579402924, -0.04191117361187935, -0.08566167205572128, 0.013990555889904499, -0.11758506298065186, -0.0140431122854352, -0.11561041325330734, -0.017239021137356758, -0.09797739237546921, -0.0758727565407753, -0.10361918061971664, -0.04721847176551819, 0.014284681528806686, -0.015072202309966087, -0.044570133090019226, -0.07700411975383759, 0.027634916827082634, -0.0024325011763721704, -0.00901623722165823, -0.05995442718267441, -0.0065750484354794025, 0.0176369808614254, -0.0951690524816513, -0.09911878407001495, -0.04062527418136597, -0.10600195825099945, -0.12088675796985626, 0.0006528983940370381, -0.06192897632718086, 0.09144897758960724, -0.11232288181781769, -0.09167227149009705, -0.037761565297842026, -0.00016382054309360683, -0.07531598210334778, -0.04521442949771881, -0.12028872966766357, -0.01771603338420391, -0.11521106958389282, 0.03054993785917759, 0.0847344696521759, -0.022237565368413925, -0.006453629583120346, -0.07568199932575226, -0.016534995287656784, -0.11900796741247177, -0.10939145088195801, -0.09838460385799408, -0.08974208682775497, -0.020529670640826225, 0.0015969518572092056, 0.003409767523407936, -0.04067278280854225, -0.11647289246320724, -0.13177421689033508, -0.054378848522901535, -0.10645262897014618, 0.044986121356487274, -0.1286303997039795, -0.09191328287124634, -0.0845794826745987, -0.07040579617023468, -0.06950424611568451, 0.02543460577726364, 0.017919043079018593, -0.07176105678081512, -0.1445993185043335, 0.001537452801130712, 0.0012185381492599845, -0.01078545767813921, -0.13395878672599792, -0.08275116980075836, 0.01968681439757347, 0.00790093932300806, -0.04172790050506592, 0.025466442108154297, -0.06271250545978546, -0.03624461963772774, -0.10947339236736298, 0.027041718363761902], [-0.10723111778497696, 0.03066607378423214, -0.09515906870365143, -0.11401887983083725, -0.024316197261214256, -0.13127803802490234, -0.03644905239343643, -0.12132938206195831, -0.10652486234903336, -0.10124886780977249, -0.0873454138636589, -0.04045623168349266, -0.08633862435817719, -0.07012488692998886, -0.02371964417397976, -0.1578042209148407, -0.044145647436380386, -0.05876053124666214, -0.08345960825681686, 0.00047387450467795134, -0.06137632578611374, -0.01869610883295536, -0.1395646184682846, 0.024569140747189522, -0.003694145241752267, -0.12997649610042572, -0.05067715421319008, -0.08697234839200974, -0.13525390625, 0.031913403421640396, -0.05922766774892807, 0.038722723722457886, -0.10260080546140671, -0.0685296580195427, -0.05069971829652786, -0.006143964361399412, -0.09759976714849472, -0.08158735185861588, 0.033568937331438065, -0.006726366467773914, -0.014012781903147697, -0.11021396517753601, -0.023439530283212662, -0.03873709216713905, -0.022279174998402596, -0.012739178724586964, 0.01412762887775898, -0.08839007467031479, -0.10148147493600845, -0.06389164924621582, -0.06716550141572952, -0.092084601521492, 0.019197799265384674, -0.17160317301750183, -0.04983915016055107, -0.1189323365688324, -0.08421628922224045, -0.045385245233774185, -0.019307401031255722, 0.016080904752016068, -0.07377838343381882, -0.005579584743827581, -0.12155432999134064, -0.0026229326613247395, -0.0005576999392360449, -0.07749678939580917, 0.006605014204978943, 0.0012106287758797407, -0.1048787534236908, -0.05495462939143181, -0.08704235404729843, 0.02153434231877327, -0.06316827237606049, -0.007845954969525337, 0.00795075111091137, 0.004090040922164917, -0.0993812307715416, -0.008576850406825542, -0.11639929562807083, -0.04919067770242691, -0.00654886057600379, -0.0344003401696682, -0.1389305144548416, -0.1496373862028122, -0.014934941194951534, -0.002283373847603798, 0.051890499889850616, -0.06621002405881882, -0.04251362755894661, -0.08779948949813843, -0.013178393244743347, -0.0395628847181797, -0.06612415611743927, -0.046382561326026917, 0.011937841773033142, -0.04482516646385193, -0.0738036036491394, -0.11547183990478516, 0.005794693250209093, -0.04764612391591072, -0.01084679551422596, -0.12060024589300156, 0.04544578120112419, -0.167302668094635, -0.03015918657183647, -0.0787213072180748, -0.0746682733297348, -0.04505316913127899, -0.10820106416940689, 0.007810072507709265, -0.07576525956392288, -0.12185615301132202, -0.11956873536109924, -0.0320584774017334, -0.09470583498477936, -0.12861482799053192, -0.029487112537026405, -0.11101434379816055, -0.004345924127846956, -0.014604754745960236, 0.031140610575675964, -0.13499166071414948, -0.04647956043481827, -0.046454258263111115, -0.15126371383666992, -0.0382378026843071, -0.06308121234178543, -0.0631415992975235], [-0.060346487909555435, -0.07085312157869339, -0.06024690717458725, -0.0396818071603775, 0.027558159083127975, -0.08806108683347702, -0.11754782497882843, -0.07809015363454819, -0.057640641927719116, 0.005284364800900221, -0.03297964856028557, 0.07171981036663055, -0.12803778052330017, 0.017475184053182602, 0.015970658510923386, 0.034548625349998474, -0.04855749383568764, -0.10118015110492706, -0.08888266980648041, -0.10018156468868256, -0.026403609663248062, -0.056126803159713745, -0.011101609095931053, 0.003573192749172449, 0.0504298098385334, 0.05992294102907181, -0.021563470363616943, 0.00857266504317522, -0.04958895593881607, 0.006399753503501415, -0.05065630003809929, 0.05032568797469139, -0.022061750292778015, 0.035884834825992584, 0.04622725769877434, -0.0036449325270950794, -0.09371525794267654, 0.0030984245240688324, 0.04583193361759186, 0.022735167294740677, 0.048540592193603516, 0.012945813126862049, -0.08284580707550049, -0.11757472902536392, -0.09881673008203506, -0.0309559628367424, -0.014822548255324364, -0.1474391371011734, 0.057925593107938766, -0.08620844781398773, -0.08159437775611877, 0.05976620316505432, -0.06310582160949707, -0.09215022623538971, -0.05121312662959099, 0.02479880303144455, 0.039642103016376495, 0.0479310043156147, -0.11396608501672745, 0.006247340235859156, 0.0735219269990921, 0.019584568217396736, 0.01272367499768734, 0.008690583519637585, 0.02282722108066082, 0.04659508168697357, 0.054792553186416626, -0.08294032514095306, 0.006550545804202557, 0.010183709673583508, 0.03411870822310448, -0.11642497032880783, 0.036318980157375336, -0.04156942293047905, -0.0930013433098793, -0.014028976671397686, -0.080900639295578, -0.07935624569654465, -0.011797155253589153, -0.06389619410037994, 0.006222049705684185, 0.05934529006481171, -0.040110550820827484, 0.022569628432393074, 0.010028527118265629, 0.029493648558855057, -0.018487507477402687, -0.043498337268829346, -0.05165186896920204, -0.09641345590353012, -0.05260251834988594, -0.07168767601251602, -0.06479626893997192, 0.01747245341539383, -0.021947288885712624, -0.04596703127026558, 0.0005397200584411621, 0.004211955238133669, -0.04686344042420387, -0.11920137703418732, -0.06918858736753464, -0.10203059017658234, -0.04241571202874184, -0.07018598169088364, 0.00036013766657561064, -0.03371690958738327, 0.04164443165063858, -0.022308552637696266, -0.09255166351795197, 0.05088448151946068, -0.07599582523107529, -0.11747901141643524, 0.06028098985552788, 0.07778771966695786, -0.07093026489019394, -0.06839430332183838, 0.019662804901599884, -0.023646289482712746, -0.11100784689188004, 0.028365379199385643, 0.03090566396713257, 0.037427227944135666, -0.027900559827685356, -0.09309546649456024, 0.03221486136317253, -0.005819128360599279, 0.0008331667049787939, -0.09997297078371048], [0.045543424785137177, 0.03681008145213127, 0.07887589931488037, 0.050836142152547836, 0.06228511407971382, -0.02129097282886505, 0.05634761229157448, 4.400793113745749e-05, 0.05858771502971649, 0.05345434695482254, -0.0905909538269043, 0.01056023221462965, 0.055440712720155716, 0.02371460385620594, 0.008234702982008457, -0.09677707403898239, -0.09304770082235336, -0.057169798761606216, -0.021266648545861244, -0.01328219287097454, -0.08904653787612915, 0.014766834676265717, -0.10227993130683899, -0.034386858344078064, -0.0647168830037117, 0.05253816395998001, 0.04562787339091301, -0.037165265530347824, -0.0736529529094696, -0.10457021743059158, -0.079098641872406, -0.05879135802388191, 0.04350057989358902, -0.032102733850479126, 0.0402044914662838, -0.05377199128270149, -0.031935229897499084, -0.0958576574921608, 0.016421517357230186, -0.09470763057470322, -0.1080731675028801, -0.02484244666993618, -0.11204204708337784, -0.06621979922056198, 0.004253910854458809, -0.06629350036382675, -0.07247988134622574, -0.05906984955072403, -0.00870864000171423, -0.007034517824649811, -0.07357945293188095, -0.09266744554042816, -0.01583358459174633, -0.06964416056871414, -0.036477040499448776, -0.025951799005270004, -0.08115218579769135, 0.05667419359087944, 0.069644033908844, -0.05191834270954132, -0.0547877736389637, 0.03601900488138199, 0.0547303669154644, -0.11629640311002731, 0.006700454279780388, -0.03335358574986458, -0.0016763308085501194, 0.05857887864112854, -0.0007931712898425758, -0.022542564198374748, 0.05259901285171509, -0.04972029849886894, -0.019912779331207275, -0.014035426080226898, -0.04133389890193939, 0.056802477687597275, 0.01737934723496437, -0.1326417475938797, -0.007280775345861912, -0.08393747359514236, 0.06704852730035782, 0.039243560284376144, 0.05880550667643547, -0.06000034511089325, 0.024401118978857994, -0.10157390683889389, -0.06737510114908218, 0.03816000744700432, -0.044814810156822205, -0.02441166527569294, 0.05585448816418648, 0.00410854909569025, 0.0339624285697937, -0.0034107319079339504, 0.07555978745222092, -0.1100214496254921, 0.005171665921807289, -0.05893082171678543, -0.04824541136622429, -0.10704880207777023, -0.09172559529542923, 0.04360246658325195, 0.008239131420850754, 0.05868598446249962, -0.03001101128757, 0.024173248559236526, -0.003138321451842785, 0.00686076981946826, -0.061428818851709366, 0.051722437143325806, -0.0774022713303566, -0.07767041772603989, -0.008741815574467182, -0.06131475418806076, -0.046300988644361496, -0.0018909943755716085, -0.04334128275513649, -0.08409566432237625, -0.006094417534768581, 0.048874128609895706, -0.08628935366868973, 0.01134302094578743, 0.056314192712306976, -0.1039719209074974, 0.04486054554581642, -0.10116681456565857, -0.04816337674856186, 0.0126500828191638], [-0.04658442363142967, -0.16430218517780304, -0.1610879898071289, -0.45538219809532166, -0.2700689435005188, -0.2929867208003998, -0.033053647726774216, -0.37735408544540405, -0.37650632858276367, -0.34399279952049255, 0.1652415543794632, -0.1578683704137802, 0.07931505888700485, -0.13565471768379211, -0.30675065517425537, 0.1626865714788437, -0.3724805414676666, -0.240133136510849, 0.04696961119771004, 0.15684930980205536, -0.13475510478019714, -0.4583859443664551, 0.27482640743255615, -0.38983920216560364, 0.0665692538022995, -0.21153448522090912, -0.31890973448753357, -0.39232397079467773, 0.07012218981981277, 0.02725216932594776, 0.17277611792087555, -0.17420439422130585, -0.31793567538261414, -0.40512940287590027, -0.11640073359012604, -0.385503888130188, -0.2222113162279129, 0.0588546022772789, -0.2597091794013977, 0.07961875945329666, -0.3708266615867615, -0.3852898180484772, 0.13130298256874084, -0.006143592298030853, 0.13330534100532532, -0.3055479824542999, -0.3487253785133362, -0.04309738427400589, -0.3408798575401306, -0.2000511884689331, 0.16459238529205322, 0.17356248199939728, -0.3129366338253021, 0.3484041392803192, -0.3152552545070648, -0.2955763041973114, -0.4086177945137024, -0.12330126762390137, 0.034679193049669266, -0.33017152547836304, -0.40545186400413513, 0.2620854079723358, -0.21005131304264069, 0.03463264927268028, 0.18430913984775543, -0.12783421576023102, 0.05773438513278961, 0.1682364046573639, -0.32082775235176086, -0.2449183464050293, -0.1719212681055069, -0.19033470749855042, 0.05655515938997269, -0.032179899513721466, 0.04682161659002304, -0.40646910667419434, -0.15065348148345947, -0.25363096594810486, -0.005177212413400412, -0.3384426236152649, -0.19458931684494019, -0.25951358675956726, -0.08300942927598953, -0.0809975266456604, -0.18144620954990387, -0.027156852185726166, 0.02644534967839718, 0.09576083719730377, -0.12001801282167435, -0.034632980823516846, -0.3478817641735077, 0.10545790195465088, -0.03636131063103676, 0.2146078646183014, 0.050854723900556564, 0.15195758640766144, 0.18846674263477325, 0.21024557948112488, -0.11620856821537018, -0.027101196348667145, -0.08574409037828445, -0.44568392634391785, 0.07783602923154831, 0.0544135756790638, -0.12830930948257446, -0.3129039704799652, 0.12701235711574554, 0.12987814843654633, 0.08760648965835571, -0.12334506958723068, 0.05905594676733017, 0.0033998042345046997, 0.10308460146188736, -0.42373499274253845, -0.2412540167570114, -0.27667346596717834, 0.1275785267353058, -0.4363923668861389, -0.12058958411216736, 0.0904911458492279, 0.051322661340236664, -0.39675188064575195, -0.035349950194358826, -0.39999574422836304, 0.07672355324029922, 0.16082419455051422, 0.2493046522140503, 0.10452096909284592], [-0.21247178316116333, 0.11518032848834991, 0.03086656704545021, 0.10134167224168777, 0.2254287153482437, -0.013277762569487095, 0.11653026938438416, 0.10957544296979904, 0.20774932205677032, 0.21341681480407715, 0.022858833894133568, 0.004669913090765476, 0.07182604819536209, -0.14093540608882904, 0.12672743201255798, -0.15196189284324646, -0.18863199651241302, 0.08737935870885849, 0.10748658329248428, -0.05903274938464165, -0.22469785809516907, 0.10922093689441681, -0.2027803212404251, -0.08572480827569962, -0.01128530502319336, 0.1799728125333786, 0.0528281033039093, 0.17700344324111938, 0.010738126002252102, 0.002920489525422454, 0.06140478327870369, 0.12702271342277527, 0.10001889616250992, 0.0848616510629654, 0.12498756498098373, 0.2386447936296463, -0.07918722927570343, 0.0996461883187294, 0.02195410244166851, -0.05528963729739189, -0.05258161574602127, 0.03593845292925835, 0.0656735897064209, -0.04563748091459274, -0.27945536375045776, 0.14172151684761047, 0.14606499671936035, -0.3080673813819885, 0.048695795238018036, 0.06346487998962402, -0.031050024554133415, -0.14283493161201477, 0.20616823434829712, -0.25929033756256104, 0.18850409984588623, 0.09929625689983368, 0.11581572890281677, -0.06405537575483322, -0.00016470724949613214, 0.17917180061340332, 0.14200140535831451, -0.03484225273132324, 0.18276111781597137, -0.20325733721256256, -0.07838422805070877, 0.0881769135594368, -0.23766769468784332, -0.08766293525695801, 0.051942382007837296, 0.04838164895772934, 0.19413459300994873, -0.11435824632644653, -0.0018829077016562223, -0.13707907497882843, -0.07171835750341415, 0.24487996101379395, 0.08319941908121109, -0.16486451029777527, 0.08119425177574158, 0.04129403829574585, 0.14435642957687378, 0.07588262110948563, -0.04647589474916458, 0.002661133650690317, 0.14478252828121185, 0.09527590125799179, 0.09432000666856766, -0.33687224984169006, -0.15292668342590332, -0.1472465842962265, 0.16945484280586243, -0.28029659390449524, 0.048296499997377396, -0.02084996923804283, -0.06329026818275452, 0.03131002187728882, -0.025361474603414536, -0.21005278825759888, 0.22911453247070312, 0.015210525132715702, 0.20453917980194092, 0.10306848585605621, -0.0129148093983531, -0.0732421949505806, 0.00570325693115592, -0.02863987348973751, -0.17549408972263336, -0.020224833860993385, -0.24708805978298187, 0.0024494410026818514, -0.018483899533748627, -0.1915266364812851, -0.0016575700137764215, 0.09405668079853058, 0.18691323697566986, 0.05125967785716057, -0.035688623785972595, -0.029749322682619095, 0.008367675356566906, -0.17244794964790344, -0.08617199212312698, -0.10390064865350723, -0.00028792701778002083, 0.04896378517150879, -0.1706661731004715, -0.0489974319934845, -0.2498312145471573, -0.06606419384479523], [-0.12023091316223145, 0.044766027480363846, 0.037876248359680176, -0.006488895043730736, -0.1100228801369667, -0.06935179233551025, -0.07469931989908218, -0.010773741640150547, -0.1343201994895935, -0.11058453470468521, -0.022293932735919952, 0.019227709621191025, -0.06837999820709229, 0.016878904774785042, -0.10021405667066574, -0.06019112095236778, -0.15645073354244232, -0.0053324573673307896, 0.060795608907938004, -0.014741075225174427, 0.02726924978196621, -0.07838066667318344, -0.06210486218333244, 0.041874125599861145, -0.05636681988835335, -0.018793826922774315, 0.0205673947930336, 0.0189904123544693, 0.013514868915081024, -0.050906214863061905, 0.06363499909639359, -0.00950947217643261, 0.010912696830928326, -0.13837917149066925, -0.06623946130275726, -0.040106069296598434, -0.0462925061583519, 0.034698691219091415, -0.10722479224205017, 0.05787122994661331, -0.06809473037719727, -0.09294001758098602, -0.008666150271892548, -0.07993900775909424, -0.0066073378548026085, 0.04043979570269585, -0.02936166524887085, -0.15182337164878845, -0.1256372183561325, 0.06707169860601425, -0.07911154627799988, -0.08297555893659592, -0.024523116648197174, -0.025870686396956444, 0.00992544461041689, -0.15129311382770538, -0.10137638449668884, -0.002789935562759638, -0.03715679422020912, -0.0649641752243042, -0.004506773315370083, -0.10214531421661377, -0.0756407156586647, 0.015927687287330627, 0.012316483072936535, -0.029351644217967987, 0.019369788467884064, -0.04236955940723419, -0.1250917613506317, -0.0621020533144474, -0.031532660126686096, 0.0011256936704739928, -0.05696772038936615, 0.009431700222194195, 0.020629670470952988, -0.11686820536851883, -0.0789676234126091, -0.15631835162639618, -0.03393929451704025, -0.05290971323847771, -0.038040079176425934, -0.03856765478849411, -0.10755027830600739, 0.05441543832421303, -0.0026441821828484535, -0.07812873274087906, 0.03111846372485161, -0.11584632098674774, -0.015073711983859539, 0.004473810084164143, -0.098930723965168, -0.092652328312397, 0.043188538402318954, -0.0961807370185852, -0.037179913371801376, -0.07668395340442657, -0.11711613833904266, -0.07504862546920776, -0.1096690222620964, 0.01898954063653946, -0.043975409120321274, -0.061291877180337906, -0.1039876788854599, -0.10002443194389343, -0.0665040984749794, -0.015182052738964558, -0.062118977308273315, -0.0791429951786995, -0.04820750653743744, -0.01436199527233839, -0.01988128572702408, 0.04221941903233528, -0.0392024889588356, -0.19277642667293549, 0.030438974499702454, 0.05098198726773262, -0.10081648826599121, -0.07728669047355652, -0.05221861973404884, -0.024305392056703568, 0.006956086494028568, -0.009409059770405293, -0.08512762933969498, -0.2525390684604645, -0.04514105245471001, -0.11001364141702652, 0.02749084308743477, -0.03040158562362194], [0.08117757737636566, -0.09410935640335083, -0.15100298821926117, -0.2530078589916229, -0.2099398672580719, -0.1679423749446869, -0.15348945558071136, -0.15184669196605682, -0.09099873155355453, -0.1697586625814438, -0.012920225039124489, -0.01425792183727026, -0.10274893790483475, 0.031664371490478516, -0.25070133805274963, 0.09269725531339645, -0.08607656508684158, -0.16007429361343384, -0.16627943515777588, -0.06639855355024338, 0.031537510454654694, -0.18712985515594482, 0.025503940880298615, -0.06158306077122688, 0.004541437141597271, -0.22186517715454102, -0.10529801994562149, -0.2515936493873596, -0.05060195550322533, -0.1615164428949356, 0.010236009955406189, -0.14788609743118286, -0.12925900518894196, -0.1481543779373169, -0.22177815437316895, -0.23273074626922607, -0.1614716351032257, -0.19341564178466797, -0.06989023089408875, -0.10815253853797913, -0.22311463952064514, -0.11790934950113297, -0.10848229378461838, -0.16478361189365387, 0.17795981466770172, -0.19132095575332642, -0.22907428443431854, 0.06918224692344666, -0.11279772967100143, -0.10274119675159454, -0.05374091491103172, 0.13760967552661896, -0.10130122303962708, 0.2313666045665741, -0.19571581482887268, -0.09798821061849594, -0.21461841464042664, -0.0027392420452088118, -0.03424587845802307, -0.1110997125506401, -0.14910054206848145, 0.028323067352175713, -0.2073177546262741, 0.05620319023728371, -0.0529974065721035, -0.08569817990064621, 0.07099530100822449, 0.022513296455144882, -0.16634900867938995, -0.17450743913650513, -0.2297985851764679, -0.04972090944647789, -0.17051003873348236, 0.11322327703237534, 0.06275773048400879, -0.09276866912841797, -0.0009593383292667568, -0.11623898893594742, -0.13135449588298798, -0.18309634923934937, -0.21469320356845856, -0.07274793088436127, 0.08001544326543808, -0.02002521976828575, -0.09040021151304245, -0.06924694776535034, -0.2578164041042328, 0.22492733597755432, -0.024170223623514175, 0.10249903053045273, -0.16210564970970154, 0.2249835878610611, -0.18670795857906342, 0.04972214251756668, -0.07698488235473633, -0.14067582786083221, -0.03435448557138443, 0.06556189805269241, -0.20863457024097443, -0.25310730934143066, -0.18344901502132416, -0.15630745887756348, -0.097195565700531, 0.14662307500839233, -0.12520353496074677, -0.2137308418750763, 0.04439638927578926, 0.011567178182303905, 0.0778626874089241, -0.1545124500989914, -0.15979290008544922, 0.04084290191531181, 0.021983381360769272, -0.1956987828016281, -0.11641713976860046, -0.13584403693675995, -0.05949350818991661, -0.1321825534105301, -0.10516984760761261, 0.1679987907409668, -0.0399865061044693, -0.06821050494909286, -0.03695013001561165, -0.18699246644973755, 0.008299941197037697, -0.11414670944213867, 0.09413691610097885, 0.052112240344285965], [0.010377882979810238, -0.12523052096366882, -0.02089441940188408, -0.05675111338496208, -0.07219896465539932, -0.1315004825592041, 0.024551019072532654, -0.12453564256429672, 0.0219840370118618, -0.03786085918545723, -0.12147024273872375, -0.042952489107847214, 0.02497924119234085, -0.1180519312620163, 0.020274994894862175, -0.09729362279176712, 0.03024875558912754, -0.07273061573505402, 0.021876472979784012, 0.03022913634777069, -0.010256292298436165, -0.10642527788877487, -0.019660132005810738, -0.07816360145807266, -0.011627500876784325, -0.04793083667755127, -0.005684609990566969, -0.013791079632937908, 0.04250615835189819, -0.08295802026987076, -0.08103781193494797, 0.04051005840301514, -0.04494244232773781, -0.12189748138189316, 0.00030702195363119245, -0.10121899098157883, 0.02333294413983822, -0.06709898263216019, 0.009824779815971851, 0.010358789935708046, 0.005332064814865589, -0.08119186758995056, -0.10733732581138611, -0.08909034729003906, -0.10045062750577927, -0.0486258789896965, -0.047445863485336304, -0.10615447163581848, -0.03308238834142685, 0.002675628988072276, -0.08220775425434113, -0.06646458059549332, -0.11889193952083588, 0.017406295984983444, -0.1180996522307396, 0.03375536575913429, -0.12067132443189621, -0.011112266220152378, -0.0054384879767894745, -0.02965490333735943, 0.02305380068719387, -0.08255122601985931, -0.09826909005641937, -0.10393425822257996, -0.11645397543907166, -0.09027956426143646, 0.03316924348473549, 0.03416990488767624, -0.016319233924150467, -0.07653776556253433, -0.037079568952322006, -0.0693902000784874, -0.11045023053884506, -0.12613534927368164, 0.015848560258746147, -0.07689806073904037, 0.010010230354964733, 0.007753296755254269, -0.013239343650639057, -0.06606239825487137, 0.004739106632769108, -0.04180389270186424, -0.025909733027219772, -0.0456373393535614, -0.04098892584443092, -0.00010769675282062963, -0.11861264705657959, -0.10239409655332565, 0.04536736384034157, -0.12319543212652206, -0.03635464608669281, 0.00711848447099328, -0.00222987518645823, -0.10689681023359299, -0.008611097931861877, -0.06491226702928543, -0.03780054301023483, -0.04862166568636894, -0.0886288434267044, 0.038868628442287445, -0.02663937769830227, -0.013472662307322025, -0.020509470254182816, -0.0970679372549057, -0.05882443115115166, -0.10893427580595016, -0.03897220641374588, -0.08373337984085083, -0.0718015655875206, -0.041936084628105164, 0.014904850162565708, -0.030407123267650604, 0.04200579598546028, -0.0179209616035223, -0.07489828020334244, -0.09180624783039093, -0.07225856930017471, 0.0031377077102661133, -0.12025070935487747, -0.05987716093659401, -0.021766114979982376, -0.11582843959331512, 0.042716190218925476, -0.0027555751148611307, -0.07935721427202225, -0.06701531261205673, 0.05354837700724602, -0.03781920671463013], [-0.09625937044620514, -0.05880022048950195, -0.08905958384275436, 0.0014909803867340088, 0.07860282063484192, -0.0951557382941246, 0.01416411530226469, 0.0745716392993927, 0.0493001863360405, -0.02778390236198902, -0.05824749544262886, -0.1152413859963417, 0.025982145220041275, -0.082916259765625, -0.016384007409214973, -0.1310366541147232, -0.06117715314030647, 0.005046654958277941, -0.009877372533082962, 0.020732391625642776, -0.15407273173332214, 0.07949156314134598, -0.16912440955638885, -0.047938261181116104, -0.08883652091026306, 0.05473897606134415, -0.13105709850788116, -0.028085490688681602, -0.015486186370253563, 0.06362216919660568, 0.0030719072092324495, 0.02992074191570282, 0.058795809745788574, -0.012975533492863178, -0.07877711206674576, -0.015698790550231934, -0.08086003363132477, 0.0020806165412068367, -0.08870520442724228, 0.02054380625486374, 0.00820942409336567, -0.012861456722021103, -0.06380756199359894, -0.13060007989406586, -0.15073198080062866, 0.036924876272678375, 0.009049919433891773, -0.06325241178274155, -0.13111618161201477, -0.06760987639427185, -0.14230366051197052, -0.15487490594387054, 0.13691258430480957, -0.1531931310892105, 0.05525672435760498, 0.03678811341524124, 0.005222661886364222, -0.03408209979534149, -0.039139777421951294, 0.12451533228158951, 0.060615021735429764, -0.018948614597320557, 0.062318652868270874, -0.0850520133972168, 0.009399596601724625, 0.00919851940125227, -0.11509930342435837, -0.08916861563920975, 0.04557435214519501, -0.10460323095321655, -0.01143354456871748, -0.1626855880022049, 0.047763701528310776, -0.08197282254695892, -0.036234136670827866, 0.028602706268429756, -0.05389612913131714, -0.1329745203256607, 0.0057982937432825565, -0.014720373786985874, 0.0917547419667244, -0.05168934166431427, -0.025725040584802628, 0.003992876037955284, -0.11069237440824509, 0.08481401205062866, -0.018002735450863838, -0.11802567541599274, -0.10798820853233337, -0.08629366010427475, 0.07662082463502884, -0.14026284217834473, 0.00719065684825182, -0.05774020776152611, -0.14129756391048431, 0.06283871084451675, 0.02961333468556404, -0.08303362876176834, -0.0006786140147596598, -0.013346502557396889, -0.015294495970010757, 0.12633085250854492, 0.06958965212106705, -0.11150654405355453, 0.012164965271949768, 0.021133296191692352, -0.017240295186638832, -0.10348764806985855, -0.1716262698173523, -0.11804898828268051, -0.07194435596466064, -0.14972355961799622, -0.06704442948102951, 0.07284989953041077, 0.05549585819244385, -0.025448666885495186, 0.002811714541167021, 0.0548659972846508, -0.08614052087068558, -0.02590986341238022, -0.012530806474387646, -0.10365752130746841, -0.09790191054344177, 0.07057961076498032, -0.1301841139793396, 0.0005127416225150228, -0.03517485782504082, -0.1086343377828598], [-0.055473651736974716, -0.01506720669567585, 0.027247263118624687, -0.09827344119548798, -0.028876928612589836, -0.05734376981854439, -0.0994034931063652, -0.13694219291210175, -0.04302201047539711, -0.08383789658546448, 0.02843041531741619, -0.13788461685180664, -0.08478132635354996, -0.0696517825126648, -0.10697600245475769, 0.028573494404554367, -0.016414165496826172, -0.09645196795463562, -0.026200121268630028, 0.007491528522223234, -0.05493009835481644, -0.060405343770980835, -0.0432274304330349, 0.016169900074601173, 0.023385662585496902, -0.08261636644601822, 0.010225680656731129, 0.01661628484725952, -0.04021924361586571, -0.07242269814014435, -0.08476941287517548, -0.10574212670326233, -0.05346206575632095, -0.0507996529340744, -0.022984256967902184, -0.12991759181022644, -0.07686550915241241, -0.026188865303993225, -0.07772581279277802, -0.0649142861366272, -0.012188720516860485, -0.10697372257709503, -0.1188502237200737, -0.0267782025039196, -0.12031466513872147, -0.08183392137289047, -0.05662141367793083, -0.10973885655403137, -0.14764364063739777, 0.0001379365276079625, -0.027784917503595352, -0.014461884275078773, -0.13980045914649963, -0.1305433213710785, -0.059153858572244644, -0.10130426287651062, -0.013699963688850403, -0.07036489993333817, 0.017413737252354622, -0.08427328616380692, 0.01805245503783226, 0.03567193076014519, -0.0822722315788269, -0.12592008709907532, -0.08850478380918503, -0.09434719383716583, -0.012000915594398975, 0.03465964272618294, -0.11850475519895554, -0.13867352902889252, -0.03178625553846359, 0.025674398988485336, -0.05018400773406029, 0.01579158566892147, -0.03747333958745003, 0.001785011263564229, -0.025972500443458557, -0.09718896448612213, -0.08646492660045624, -0.06400483101606369, -0.12906211614608765, 0.030565649271011353, -0.08435487747192383, 0.00833955779671669, -0.0795091763138771, -0.01639128290116787, -0.0414457842707634, -0.01834462210536003, 0.0006406994070857763, -0.06221289560198784, -0.017052199691534042, -0.07832962274551392, 0.024952104315161705, -0.02638656087219715, -0.06553130596876144, -0.055605027824640274, -0.015288194641470909, -0.04286904260516167, -0.12153191864490509, -0.07912374287843704, -0.13149964809417725, -0.0986199751496315, -0.12487669289112091, -0.13102319836616516, -0.1415657103061676, -0.08212915807962418, -0.08164790272712708, 0.009866508655250072, -0.026886282488703728, -0.06752355396747589, 0.0349813736975193, -0.009018379263579845, -0.10798589140176773, -0.07219674438238144, -0.004203480202704668, -0.08294593542814255, 0.003642319468781352, -0.028165113180875778, -0.036384470760822296, -0.09513550996780396, -0.13039718568325043, 0.0015546046197414398, -0.05375241860747337, -0.06863482296466827, -0.0268989447504282, -0.08326011151075363, -0.10742683708667755, -0.05456684157252312], [0.021152034401893616, 0.03694698214530945, -0.042424265295267105, -0.08322001993656158, -0.11653450131416321, -0.03367387130856514, -0.008948734030127525, 0.001583778066560626, -0.1268227994441986, 0.03704492747783661, -0.04545808210968971, 0.05694219470024109, -0.00929197296500206, -0.07459025084972382, -0.048140522092580795, -0.059972647577524185, 0.05354282632470131, -0.02836918830871582, -0.06964784115552902, -0.0912136435508728, 0.08341824263334274, -0.0048758964985609055, -0.09211711585521698, -0.010686252266168594, 0.009615529328584671, -0.06738696247339249, 0.05586858093738556, -0.14369036257266998, -0.12040053308010101, -0.02990080788731575, -0.1266704499721527, -0.14891645312309265, -0.04296507313847542, -0.09765617549419403, 0.024510005488991737, -0.1239098533987999, 0.057785458862781525, -0.09455236047506332, -0.06759199500083923, -0.017436588183045387, -0.057167552411556244, -0.002350085647776723, -0.11979140341281891, 0.03786761686205864, -0.04298871383070946, -0.04436681792140007, -0.08584514260292053, -0.01727287285029888, 0.04716264829039574, -0.000282228400465101, -0.06558074802160263, -0.062382716685533524, -0.027582839131355286, 0.015681900084018707, -0.07305282354354858, -0.11478761583566666, -0.062250006943941116, -0.09982828050851822, -0.01975526101887226, -0.04764559119939804, -0.11066290736198425, -0.053766246885061264, -0.106191486120224, 0.002805252792313695, -0.11180484294891357, 0.031103039160370827, -0.09588324278593063, 0.040179092437028885, -0.0029726375360041857, -0.06010882556438446, -0.09656617790460587, 0.08251814544200897, -0.09021562337875366, 0.013829606585204601, -0.007705297786742449, -0.13426879048347473, -0.036566320806741714, -0.055091116577386856, -0.14074064791202545, -0.04548434540629387, -0.03523516654968262, -0.06274021416902542, -0.09244251251220703, -0.07870648801326752, -0.10917770862579346, 0.03177748620510101, -0.048017311841249466, -0.023387420922517776, -0.0038122532423585653, -0.03362565487623215, -0.11657214909791946, 0.014305510558187962, -0.009177952073514462, -0.10068027675151825, -0.044898465275764465, -0.11102689057588577, -0.011097518727183342, 0.008883661590516567, -0.03207257390022278, -0.03617323935031891, 0.015704259276390076, -0.0043103559873998165, -0.11658436059951782, -0.055919013917446136, -0.05282249301671982, -0.023820992559194565, -0.07692249864339828, -0.05163118615746498, -0.03513602167367935, -0.06432884931564331, -0.04488706588745117, -0.06443798542022705, -0.069450244307518, -0.09260772913694382, -0.07079769670963287, -0.03646881505846977, -0.03486223146319389, -0.050169311463832855, 0.011475703679025173, 0.024742702022194862, -0.03293216973543167, 0.05661141127347946, -0.07693153619766235, -0.034373074769973755, 0.01409138087183237, -0.13383109867572784, -0.0629132091999054, -0.10916934907436371], [-0.09052940458059311, -0.0379474014043808, 0.005242195446044207, 0.0030461098067462444, -0.023303264752030373, -0.10421891510486603, 0.014490767382085323, -0.09707783162593842, -0.1274138242006302, -0.07986567169427872, -0.09146769344806671, 0.07762869447469711, 0.024887625128030777, -0.0017940697725862265, -0.0638386532664299, -0.10180850327014923, -0.026695720851421356, -0.07902156561613083, 0.04229293391108513, -0.002049962989985943, 0.008791153319180012, -0.009709744714200497, -0.14436879754066467, 0.024364691227674484, -0.002618520287796855, 0.010507318191230297, -0.009994533844292164, -0.04116009920835495, -0.06871556490659714, -0.004541912581771612, -0.08021918684244156, -0.008751902729272842, -0.0869341716170311, 0.03778200224041939, 0.0163692869246006, -0.013852532021701336, 0.03303379938006401, -0.060851678252220154, -0.09179984778165817, -0.032398007810115814, -0.005984937772154808, -0.09404576569795609, -0.004552774131298065, -0.04874251410365105, 0.007384773809462786, 0.07550360262393951, -0.13112837076187134, -0.048046600073575974, -0.08489684015512466, -0.08838432282209396, -0.01597103476524353, -0.11139938980340958, -0.1372479349374771, -0.07545056194067001, -0.09666579216718674, -0.12704937160015106, -0.012305515818297863, -0.01747484877705574, 0.020671961829066277, -0.01759498566389084, -0.14457355439662933, -0.05936695262789726, -0.05028313398361206, -0.08044352382421494, 0.007780872285366058, -0.04176380857825279, 0.03730965405702591, -0.04754241928458214, -0.11334408074617386, -0.01409253291785717, 0.0622146911919117, -0.057877253741025925, -0.041861820966005325, 0.05822654068470001, 0.008678165264427662, -0.029075773432850838, -0.08349485695362091, -0.09142448008060455, 0.056401051580905914, -0.1340496987104416, 0.05136100575327873, 0.004416300915181637, -0.021600106731057167, -0.07195530831813812, 0.040249355137348175, -0.046855438500642776, -0.01404560636729002, -0.043258167803287506, -0.1035788282752037, -0.002317137783393264, 0.039982154965400696, -0.09851711988449097, -0.0840657576918602, 0.004544433671981096, -0.013623496517539024, -0.08670518547296524, -0.0791795626282692, -0.056241344660520554, -0.06815127283334732, -0.10493862628936768, -0.10774516314268112, -0.09729699045419693, 0.012628518976271152, -0.025289231911301613, -0.03106539323925972, -0.11751017719507217, 