[{"weight": [[0.49032720923423767, -0.07823264598846436], [0.10296838730573654, 0.0948694497346878], [0.5717202425003052, 0.6405304074287415], [0.6729757785797119, 0.6533503532409668], [0.5949393510818481, -0.5242825746536255], [0.27615049481391907, -0.28916606307029724], [-0.5130206942558289, 0.406229704618454], [-0.45879536867141724, 0.5576409101486206], [-0.5659412741661072, 0.1661546379327774], [0.24609850347042084, -0.3509380519390106], [-0.6398534178733826, 0.027117393910884857], [-0.8133729696273804, 0.7161016464233398], [-0.6090336441993713, 0.458197683095932], [0.20155157148838043, -0.13366581499576569], [-0.5330674648284912, -0.5454840064048767], [0.33512797951698303, -0.47571760416030884], [-0.07786271721124649, 0.008273668587207794], [0.7386758923530579, -0.31395861506462097], [-0.4622356593608856, 0.2687220573425293], [-0.1755736768245697, 0.462455689907074], [-0.854016900062561, 0.25944048166275024], [0.08124380558729172, 0.09769339114427567], [0.148484468460083, -0.3272945284843445], [-0.32493168115615845, 0.18294745683670044], [-1.0173430442810059, -0.5827094316482544], [-0.46081337332725525, -0.31766119599342346], [-0.07797102630138397, -0.16542212665081024], [0.8451979756355286, -0.6847952008247375], [-0.2902924120426178, 0.043894462287425995], [0.4395865201950073, -0.17846976220607758], [0.4884769320487976, -0.6532149314880371], [-0.23295904695987701, 0.06898651272058487], [-0.20845381915569305, 0.26369962096214294], [0.7995680570602417, 0.550583004951477], [0.46973150968551636, -0.7117128372192383], [-0.04189832881093025, -0.5847563743591309], [-0.7947441935539246, -0.6614910364151001], [-0.17709974944591522, -0.257967084646225], [0.4288245141506195, -0.46273720264434814], [0.40556463599205017, -0.10186982154846191], [-0.4776269793510437, 0.15263958275318146], [0.017628608271479607, 0.4674053490161896], [0.40359067916870117, -0.6266583800315857], [-0.35159313678741455, 0.15746137499809265], [-0.5214060544967651, -0.771232008934021], [-0.30351483821868896, -0.4379047751426697], [0.1305886209011078, 0.14049124717712402], [0.3639642000198364, -0.390134334564209], [-0.8058839440345764, 0.03381089121103287], [0.3658744692802429, -0.30878397822380066], [-0.2821844816207886, 0.22913339734077454], [-0.45391857624053955, 0.2554183900356293], [-0.41868507862091064, 0.13047337532043457], [-0.6453923583030701, 0.5638806223869324], [-0.4477691650390625, 0.506793737411499], [0.4309406876564026, -0.3105603754520416], [0.539142906665802, -0.5641385316848755], [0.05639997869729996, 0.18944190442562103], [0.050800878554582596, -0.3910064101219177], [0.08347506076097488, -0.02108928933739662], [0.4748058319091797, 0.7135117053985596], [0.12676742672920227, 0.7905788421630859], [-0.2710546553134918, 0.30615943670272827], [0.8558990955352783, 0.8923457264900208], [-0.445255309343338, 0.7305483818054199], [-0.6316186785697937, -0.5042515397071838], [-0.6751006245613098, -0.8947868347167969], [-0.2617610991001129, 0.40583378076553345], [-0.130912646651268, 0.2689635455608368], [0.36200854182243347, 0.09607799351215363], [0.39592236280441284, -0.4349629878997803], [0.024463703855872154, 0.7946169972419739], [0.7119181156158447, -0.1498533934354782], [-0.3909997045993805, 0.32038187980651855], [0.18198324739933014, -0.1880514770746231], [0.3981013298034668, -0.6577977538108826], [0.07163555175065994, 0.07344532012939453], [-0.41286128759384155, 0.5388081073760986], [-0.24535097181797028, -0.6529076099395752], [-0.25831812620162964, 0.5805127620697021], [-0.7638270854949951, -0.23662792146205902], [0.3767557740211487, 0.8733765482902527], [-0.17701782286167145, -0.04212326183915138], [-0.8363964557647705, 0.7825914025306702], [0.6301579475402832, -0.7836481928825378], [0.15732832252979279, -0.2003306895494461], [0.14323537051677704, -0.07231510430574417], [-0.30662035942077637, 0.09539564698934555], [0.6513392329216003, 0.44840237498283386], [-0.24876005947589874, 0.24040484428405762], [0.686907172203064, 0.7369910478591919], [-0.11125881224870682, 0.12932586669921875], [-0.3605393171310425, 0.40384870767593384], [-0.5558090806007385, 0.3734288811683655], [0.07471824437379837, 0.022678770124912262], [-0.8744423389434814, -0.6871910691261292], [0.17919158935546875, 0.489622563123703], [0.8634428381919861, -0.39980384707450867], [-0.10457223653793335, -0.16122882068157196], [0.17204318940639496, -0.5777202248573303], [0.2840149700641632, 0.08959804475307465], [-0.21813498437404633, 0.44969624280929565], [-0.8860243558883667, -0.9438639879226685], [-0.17134515941143036, 0.671387255191803], [-0.5241763591766357, -0.8862312436103821], [-0.8782755732536316, 0.8102278113365173], [0.35864368081092834, -0.2489081472158432], [0.15866737067699432, -0.5891623497009277], [-0.4079408645629883, -0.9100727438926697], [0.32836785912513733, -0.672014057636261], [0.6760415434837341, -0.5578059554100037], [-0.6625609993934631, -0.715881884098053], [0.7651501893997192, 0.04761039465665817], [0.5737996697425842, -0.06381798535585403], [-0.042669542133808136, -0.16450467705726624], [-0.04720131307840347, 0.26010915637016296], [-0.11374600231647491, 0.13713841140270233], [0.11587117612361908, 0.40542352199554443], [0.09083092212677002, -0.23864412307739258], [-0.5754157900810242, 0.3280981183052063], [0.5534834265708923, -0.8207139372825623], [0.3546435236930847, -0.4878185987472534], [-0.5457973480224609, 0.4593181610107422], [-0.34249642491340637, 0.2566341757774353], [-0.8735179901123047, -0.7662830352783203], [-0.9244629144668579, -0.21115230023860931], [-0.0705718919634819, 0.2786710560321808], [0.6036924719810486, -0.891786515712738]], "bias": [-0.11807385087013245, 0.3140479624271393, -0.6613115072250366, 0.0396687313914299, 0.11113837361335754, 0.0688210278749466, -0.2674160599708557, 0.4850497841835022, 0.08946071565151215, 0.48875850439071655, -0.21359014511108398, -0.2367006540298462, -0.3125058710575104, -0.5327826142311096, -0.24438726902008057, 0.038252998143434525, -0.263506680727005, 0.033876318484544754, 0.32205843925476074, 0.20112979412078857, -0.6306211948394775, -0.7777776122093201, -0.06447889655828476, 0.05389256775379181, 0.06017943471670151, -0.029895475134253502, -0.5494462251663208, 0.22858832776546478, -0.32911917567253113, 0.2191278040409088, 0.5524493455886841, -0.45233890414237976, -0.10433001816272736, 0.42713475227355957, 0.34319666028022766, 0.4839698374271393, -0.08691401779651642, 0.6210971474647522, -0.46144288778305054, 0.09008023142814636, -0.5823944211006165, -0.4014272391796112, -0.11991390585899353, 0.3891070783138275, -0.10218802094459534, -0.46664905548095703, 0.013237709179520607, 0.17176467180252075, -0.6614894866943359, 0.2983051836490631, 0.398718923330307, -0.49858736991882324, -0.3830968737602234, 0.06606117635965347, -0.4020167291164398, 0.2912237048149109, -0.5750583410263062, -0.5228673815727234, -0.7299628257751465, 0.11454588174819946, -0.7260415554046631, -0.7372986674308777, -0.5006763935089111, -0.3143395185470581, 0.5208604335784912, -0.6254904270172119, -0.5358248949050903, 0.6466031074523926, 0.04673727974295616, 0.5554072856903076, 0.07402840256690979, -0.017159607261419296, -0.6770697832107544, 0.28467583656311035, -0.6089182496070862, -0.3627067506313324, 0.4220699071884155, 0.7394563555717468, -0.4053073823451996, -0.4832676947116852, -0.4399440288543701, -0.14793984591960907, 0.09222190827131271, 0.12560433149337769, 0.44939640164375305, -0.3195168375968933, 0.727562665939331, 0.011812781915068626, 0.04332548752427101, -0.6980279088020325, -0.48332393169403076, -0.6239832043647766, 0.009007695131003857, -0.5693363547325134, 0.4580276310443878, 0.20261819660663605, -0.7435088157653809, 0.18757523596286774, 0.007591336499899626, -0.24551662802696228, -0.13462206721305847, 0.027271093800663948, 0.29109853506088257, 0.2873937487602234, 0.1414283663034439, 0.33260342478752136, 0.5513743162155151, -0.26940515637397766, -0.22694805264472961, -0.2804028391838074, 0.7912259101867676, -0.7187294960021973, -0.05485522374510765, 0.653368353843689, 0.6759325265884399, -0.032451801002025604, -0.6470944285392761, 0.5748814344406128, -0.4154353737831116, 0.5629875063896179, -0.3486427664756775, -0.4558470845222473, 0.5163272023200989, -0.4162747859954834, -0.5769892930984497, -0.7288018465042114, -0.5999747514724731, -0.538055956363678]}, {"weight": [[0.028870299458503723, -0.04413478076457977, -0.050355635583400726, 0.02856426313519478, 0.008557460270822048, -0.0750865787267685, -0.0779757872223854, -0.04287374019622803, -0.0024776922073215246, -0.03860027715563774, -0.017133235931396484, -0.16282829642295837, -0.026589319109916687, -0.03475315496325493, 0.015737291425466537, -0.01005121786147356, -0.12947368621826172, 0.06997884809970856, -0.09298103302717209, -0.11302446573972702, -0.09640154987573624, -0.0443439781665802, -0.015768613666296005, -0.1066441610455513, -0.008455093018710613, -0.07809745520353317, -0.14092382788658142, 0.14351700246334076, -0.0010035893647000194, -0.03126432001590729, -0.004916061647236347, -0.14835722744464874, -0.06192149221897125, 0.05428058281540871, 0.08481905609369278, -0.0846383348107338, -0.11340948194265366, 0.02198053151369095, 0.12759871780872345, 0.07780050486326218, -0.16287869215011597, -0.07710614800453186, 0.02571680396795273, -0.07926131784915924, -0.0067486949265003204, 0.003643596777692437, 0.0057505108416080475, 0.016610940918326378, -0.044788554310798645, -0.038619305938482285, -0.16433492302894592, -0.06842026859521866, 0.005086557008326054, -0.18932296335697174, -0.0788157731294632, 0.09604057669639587, 0.10502857714891434, -0.028011145070195198, -0.07079415023326874, -0.025851553305983543, 0.00285780499689281, -0.13703051209449768, -0.07899560779333115, 0.04076727107167244, -0.1354452222585678, -0.12832769751548767, -0.13509215414524078, -0.05919640511274338, -0.061646271497011185, 0.045301616191864014, 0.08225183188915253, -0.1661180853843689, 0.14066250622272491, -0.15054914355278015, -0.05534094572067261, 0.022459691390395164, 0.007948140613734722, -0.0844450294971466, -0.08046641200780869, -0.12485393136739731, -0.14671143889427185, -0.06256265193223953, -0.050083473324775696, -0.20155209302902222, 0.03613869473338127, -0.04739649221301079, -0.09349804371595383, -0.09020697325468063, -0.04296208918094635, -0.08420436084270477, -0.046125348657369614, -0.005038891453295946, -0.08957499265670776, -0.06589370965957642, -0.09774031490087509, -0.12929919362068176, 0.007429393939673901, 0.0890936329960823, -0.09277423471212387, 0.08856382966041565, -0.05250784754753113, -0.12287161499261856, -0.09687721729278564, -0.12968088686466217, -0.10585281252861023, -0.07020530849695206, 0.061631105840206146, -0.04443463683128357, -0.10610970854759216, -0.02249876968562603, 0.04652620851993561, -0.122840516269207, 0.030923068523406982, 0.041115447878837585, -0.09816448390483856, -0.0552179329097271, -0.1524566262960434, -0.038245879113674164, -0.011991625651717186, -0.05133657529950142, 0.06537660211324692, 0.04889222979545593, -0.17046593129634857, -0.06381984800100327, -0.024042779579758644, 0.007386574987322092, -0.08542391657829285, 0.09361250698566437], [-0.020930947735905647, -0.10855378955602646, -0.036481823772192, -0.06780477613210678, -0.12991131842136383, -0.012312006205320358, -0.03767919912934303, 0.06191568821668625, -0.09007418900728226, -0.10601240396499634, -0.04560250788927078, -0.03620336204767227, -0.001733862329274416, -0.07428819686174393, -0.03295639902353287, -0.07927526533603668, -0.05556405335664749, -0.15567141771316528, 0.015974944457411766, -0.029896846041083336, 0.006726854480803013, -0.007610100321471691, -0.007469897158443928, 0.0569918192923069, -0.06552182137966156, 0.018448226153850555, -0.03642169386148453, -0.10601089149713516, -0.11613510549068451, -0.158466175198555, -0.16093575954437256, -0.07133334130048752, -0.03793942928314209, 0.007250127848237753, -0.06536964327096939, -0.08762936294078827, 0.05646752938628197, -0.05038801208138466, -0.06386994570493698, -0.0704386755824089, 0.047342509031295776, 0.006147903855890036, -0.06029630824923515, -0.09692618250846863, 0.025954831391572952, -0.08634074032306671, -0.034309256821870804, -0.10734158754348755, 0.005374490283429623, -0.11017170548439026, -0.12333093583583832, -0.03889184445142746, -0.04696701467037201, 0.01464182697236538, 0.0465596541762352, -0.17053239047527313, -0.05045032501220703, 0.02104022726416588, -0.007157356943935156, -0.01527088787406683, 0.07511860877275467, 0.08539139479398727, 0.005347093567252159, -0.04944705590605736, 0.030141904950141907, -0.050208624452352524, 0.041951123625040054, -0.08547671884298325, 0.020249957218766212, -0.11792167276144028, -0.16515317559242249, 0.06315906345844269, -0.04585900157690048, -0.06975344568490982, -0.028479617089033127, -0.11293020844459534, -0.07088404893875122, -0.02443331480026245, 0.023453032597899437, 0.06556522101163864, 0.001992214936763048, -0.034082550555467606, 0.023628447204828262, 0.05041401833295822, -0.1769038885831833, -0.029605593532323837, -0.09940267354249954, 0.04307131841778755, -0.07769963145256042, -0.060369860380887985, -0.07688546925783157, -0.08479125052690506, 0.031963322311639786, 0.0644698515534401, -0.13167034089565277, 0.04645243287086487, -0.06588838994503021, -0.11288410425186157, -0.10946286469697952, -0.1374102383852005, 0.021568112075328827, 0.025698227807879448, -0.028000785037875175, 0.0188338290899992, -0.06480000913143158, 0.10981426388025284, -0.04916401579976082, -0.07272334396839142, -0.04808554798364639, -0.17391473054885864, -0.12842701375484467, -0.03875014930963516, -0.04315846785902977, 0.023534586653113365, -0.12946000695228577, -0.10278021544218063, -0.04119761288166046, 0.05108596384525299, -0.1347040981054306, -0.005164146889001131, -0.0068600233644247055, -0.1001376360654831, 0.01919211447238922, 0.0025369729846715927, 0.01652671955525875, 0.07460580766201019, 0.049455348402261734, -0.10933766514062881], [-0.060357894748449326, 0.018481260165572166, -0.07577730715274811, -0.06836709380149841, -0.09410832077264786, -0.08992806077003479, -0.020180679857730865, -0.11552097648382187, -0.03256210684776306, -0.13227222859859467, -0.034227073192596436, 0.007621292490512133, -0.08303145319223404, -0.04971333593130112, -0.10370784997940063, -0.09760838001966476, -0.04056612774729729, -0.004406731575727463, -0.03563086315989494, -0.139907568693161, -0.012698653154075146, -0.10416396707296371, -0.017245464026927948, -0.050119176506996155, -0.054414715617895126, -0.006397442892193794, -0.01586596667766571, -0.023180445656180382, -0.12356504052877426, -0.032301370054483414, 0.01098768599331379, -0.06478054821491241, -0.10835681855678558, -0.0088111013174057, -0.09281890839338303, -0.09948111325502396, -0.035093434154987335, -0.010715783573687077, 0.04019009321928024, 0.025866083800792694, -0.010288593359291553, -0.10511284321546555, 0.012909658253192902, -0.08480724692344666, 0.048869650810956955, 0.04482708126306534, -0.01958923228085041, 0.025039561092853546, -0.0736631453037262, -0.08854532986879349, -0.12263397127389908, -0.04778189957141876, 0.026004521176218987, -0.07467877864837646, -0.03631908819079399, -0.05203752964735031, -0.0543847419321537, -0.05466234311461449, -0.014211860485374928, -0.03741680085659027, -0.017621222883462906, -0.15038734674453735, -0.044115182012319565, -0.11206900328397751, -0.09221327304840088, -0.09261192381381989, -0.04622379690408707, -0.14763662219047546, -0.062413789331912994, -0.13193649053573608, 0.025562560185790062, -0.09123656898736954, 0.05743831396102905, -0.10910749435424805, -0.0860099047422409, -0.018263529986143112, 0.015967002138495445, -0.02536025457084179, 0.03290999308228493, -0.04876989871263504, -0.08915160596370697, -0.15960127115249634, 0.028054071590304375, -0.14974381029605865, 0.012122447602450848, 0.03888321295380592, -0.08915634453296661, -0.09697525203227997, -0.014483693987131119, -0.1018502414226532, 0.01207818929105997, -0.048270970582962036, 0.0032153648789972067, -0.05179549381136894, -0.087678462266922, 0.03312142938375473, -0.03047003224492073, -0.09746620059013367, 0.0048277415335178375, -0.10242339968681335, -0.1295769065618515, -0.021636812016367912, -0.048478685319423676, -0.003833032213151455, -0.05396866053342819, 0.009296384640038013, -0.04508930444717407, -0.013773796148598194, -0.023183032870292664, -0.044571440666913986, -0.08523749560117722, -0.008678050711750984, -0.02252171002328396, 0.017110304906964302, 0.022069256752729416, -0.1476414054632187, -0.12138640880584717, -0.10400725156068802, 0.02550582028925419, -0.0955386832356453, -0.10073602199554443, 0.023105883970856667, -0.0798766165971756, -0.13321547210216522, 0.0466633066534996, -0.0020355605520308018, -0.07466209679841995, -0.013559137471020222], [-0.07433754950761795, -0.0776495561003685, -0.06071200966835022, -0.1022026315331459, 0.02717357501387596, -0.034099847078323364, -0.045220568776130676, -0.09616704285144806, -0.09599436819553375, 0.0583803653717041, 0.03554708510637283, 0.02113400213420391, 0.014369259588420391, -0.039150696247816086, -0.11676862090826035, 0.057393163442611694, -0.0460139736533165, -0.08784891664981842, -0.026624158024787903, -0.05578986927866936, -0.03984054550528526, -0.125752255320549, -0.033796824514865875, 0.05331682786345482, -0.03483065962791443, 0.035496000200510025, 0.0635700449347496, -0.07771112024784088, -0.06270048022270203, -0.04301203414797783, -0.04571634158492088, 0.02847377210855484, -0.11134433001279831, -0.21649299561977386, -0.11337120085954666, 0.06480811536312103, -0.061458226293325424, -0.08023465424776077, 0.02147231623530388, 0.03329435735940933, -0.04508489742875099, -0.1055881530046463, 0.0060205054469406605, 0.04722694680094719, -0.03090747445821762, -0.07229764014482498, -0.1365390568971634, 0.05464313179254532, -0.04618797078728676, 0.044839564710855484, -0.07129315286874771, 0.025122880935668945, 0.0003439671127125621, 0.0005394329782575369, -0.07900721579790115, -0.11845195293426514, -0.00987282209098339, -0.030700478702783585, 0.00130547396838665, -0.011844303458929062, -0.14808517694473267, -0.10259674489498138, -0.008696328848600388, -0.1688740998506546, -0.024167323485016823, -0.004327603615820408, -0.07115644961595535, -0.023641206324100494, -0.03036046400666237, -0.07681722939014435, 0.025962717831134796, -0.19008593261241913, -0.12733101844787598, -0.007887165993452072, 0.020651135593652725, -0.11660642176866531, -0.06975264102220535, -0.01689383201301098, -0.05174264684319496, -0.040624361485242844, -0.03000739775598049, -0.19028392434120178, -0.08564595133066177, 0.0006497316062450409, 0.04747967794537544, -0.057721108198165894, -0.09956230223178864, 0.04218806326389313, -0.16936145722866058, 0.03354046121239662, -0.21782293915748596, -0.1115659847855568, -0.04465475678443909, -0.036831844598054886, -0.03677677735686302, -0.007962471805512905, -0.04863448813557625, 0.01903909631073475, 0.06577719002962112, -0.029679641127586365, -0.09933356195688248, -0.09696110337972641, -0.03428574278950691, -0.016369115561246872, 0.005046315491199493, -0.011722099035978317, -0.03399382531642914, 0.020520705729722977, -0.058252569288015366, -0.048008497804403305, -0.05576316639780998, -0.08425771445035934, 0.011109286919236183, -0.11876990646123886, 0.05573105812072754, 0.026382017880678177, -0.0969788208603859, -0.10322660952806473, -0.032582838088274, 0.012352203018963337, -0.03872973099350929, 0.012095319107174873, -0.011340033262968063, -0.10499057173728943, 0.00925125926733017, -0.09136510640382767, -0.015612279064953327, -0.054686255753040314], [-0.12810814380645752, -0.0839824229478836, -0.09219948202371597, -0.0759524255990982, -0.05725225433707237, 0.031207537278532982, -0.06269165128469467, -0.10315866023302078, -0.014760151505470276, -0.06535118818283081, 0.008369510062038898, -0.002051066840067506, -0.017433976754546165, -0.05261320248246193, -0.07438571006059647, -0.0689021572470665, -0.051686789840459824, 0.01931111328303814, 0.059195321053266525, 0.009176764637231827, -0.0926968976855278, -0.039441633969545364, -0.09970889240503311, 0.001289771986193955, -0.0038690301589667797, -0.03816377371549606, -0.07174075394868851, 0.011570509523153305, -0.06927933543920517, -0.11002542823553085, -0.01096686627715826, -0.02400021255016327, -0.0834498405456543, -0.1581612527370453, -0.0326494462788105, -0.0902143195271492, 0.0006963013438507915, -0.005451548844575882, -0.07446593046188354, 0.012913553975522518, -0.04169388487935066, -0.10625170916318893, 0.02768542245030403, 0.07091927528381348, 0.02475394681096077, -0.056785427033901215, -0.07945434004068375, -0.057723093777894974, -0.028489936143159866, -0.10226285457611084, 0.055816859006881714, 0.07604695856571198, 0.024991268292069435, -0.0372854545712471, 0.016879567876458168, 0.04575839638710022, -0.11551149934530258, 0.02195275016129017, -0.03158890828490257, -0.031038813292980194, -0.060410428792238235, -0.09894314408302307, 0.05217600241303444, -0.14747416973114014, -0.10167618840932846, -0.02776205725967884, 0.03969806805253029, -0.028557101264595985, 0.04427216947078705, 0.0309106707572937, -0.015014843083918095, -0.082693912088871, -0.06689820438623428, -0.0019496552413329482, -0.018651878461241722, 0.00043170209391973913, -0.10226880013942719, 0.03901705890893936, -0.027563178911805153, -0.07894153147935867, -0.09555809944868088, -0.1804661601781845, 0.05766510218381882, -0.069950632750988, -0.09000037610530853, -0.09050141274929047, -0.06429809331893921, 0.029920723289251328, -0.013809248805046082, -0.010289180092513561, -0.13884201645851135, 0.008040925487875938, 0.05219777300953865, -0.08039931207895279, 0.03000655025243759, 0.018410656601190567, -0.07059386372566223, -0.03523866459727287, -0.018042851239442825, -0.09399500489234924, -0.0847662016749382, -0.025139596313238144, -0.03591689467430115, -0.06997919827699661, 0.043779194355010986, -0.12463388592004776, -0.09854042530059814, -0.11217133700847626, -0.11474689096212387, 0.016225341707468033, -0.015932248905301094, -0.09650790691375732, -0.0045584156177937984, -0.007042448967695236, 0.03902347758412361, -0.046834077686071396, -0.02235903963446617, -0.10704280436038971, 0.06832375377416611, 0.040263183414936066, -0.1003713458776474, -0.10468056797981262, -0.028517255559563637, -0.04542655125260353, -0.09756823629140854, -0.036263030022382736, -0.08018292486667633, -0.00038920147926546633], [0.03554113581776619, -0.0896729975938797, -0.01427234336733818, -0.05706562474370003, -0.023766007274389267, 0.004468243569135666, -0.11867344379425049, 0.018569154664874077, 0.008516818284988403, 0.02840474061667919, 0.013240054249763489, -0.02484855428338051, -0.12315547466278076, -0.1299138069152832, -0.033198222517967224, -0.11786910891532898, -0.032567478716373444, -0.026891978457570076, -0.03276578709483147, -0.006013271864503622, -0.031233124434947968, -0.043849509209394455, -0.062400177121162415, -0.023004531860351562, 0.05667591094970703, -0.09373168647289276, -0.10619564354419708, -0.06458240747451782, 0.03696494176983833, -0.030711375176906586, 0.011556722223758698, -0.05962611362338066, -0.0498524084687233, -0.03501076251268387, -0.027674568817019463, 0.015090093947947025, -0.11290997266769409, 0.045485589653253555, -0.051732491701841354, 0.004119315184652805, -0.09846455603837967, 0.036723289638757706, -0.010196155868470669, -0.1192145049571991, -0.02692549303174019, -0.07060188800096512, -0.10541250556707382, 0.003545748768374324, -0.09861797839403152, -0.016637247055768967, -0.015194939449429512, -0.07589920610189438, 0.02794966660439968, -0.13447093963623047, 0.009733458049595356, -0.06221607327461243, 0.049170780926942825, 0.03418551757931709, 0.01632484421133995, -0.08677975088357925, -0.02256252057850361, -0.1016983687877655, -0.11794479191303253, 0.0014951634220778942, 0.01046256348490715, 0.018684588372707367, 0.06024930253624916, -0.038195010274648666, -0.05890411511063576, -0.07576822489500046, 0.02799522504210472, -0.12428278475999832, -0.058242060244083405, 0.015516061335802078, -0.03298785537481308, 0.046026479452848434, -0.11686091125011444, 0.03518112003803253, -0.09939885884523392, -0.01991935260593891, -0.10478868335485458, 0.031424619257450104, -0.04985494166612625, 0.010738964192569256, -0.062887042760849, -0.0509117990732193, 0.016969511285424232, -0.061824630945920944, 0.025731481611728668, 0.01720517687499523, -0.03994591534137726, -0.0753161758184433, -0.012422950938344002, -0.08171174675226212, -0.05990419536828995, -0.012064210139214993, -0.13082458078861237, 0.045608531683683395, -0.07855571061372757, 0.050911013036966324, -0.09994668513536453, -0.030395198613405228, -0.005004066973924637, -0.044583577662706375, -0.004788117483258247, 0.024402368813753128, -0.06776642054319382, 0.044585831463336945, -0.003267457941547036, -0.09077601879835129, 0.01743495464324951, -0.0743161141872406, -0.034220140427351, 0.03671574965119362, -0.0794462189078331, -0.05181720852851868, -0.08289102464914322, -0.0020434947218745947, -0.10297904908657074, -0.04671601951122284, -0.030756810680031776, -0.035149477422237396, -0.017784463241696358, -0.009780263528227806, -0.10655619949102402, -0.08883732557296753, -0.007357953581959009, -0.007136350031942129], [-0.017864540219306946, -0.02386491186916828, 0.07585275918245316, 0.04608990252017975, -0.11696353554725647, -0.0585152842104435, 0.10133851319551468, 0.03130102530121803, -0.10348464548587799, -0.011845739558339119, 0.02369641698896885, 0.01836256869137287, -0.007844626903533936, -0.09572435170412064, -0.03874887898564339, -0.07681425660848618, -0.01189289428293705, -0.035708874464035034, 0.047093138098716736, 0.01773783564567566, 0.020747046917676926, -0.08869694173336029, -0.08758348226547241, -0.06408058106899261, -0.06186812371015549, -0.05586164817214012, -0.029968777671456337, -0.09900868684053421, -0.030794929713010788, -0.13552656769752502, -0.18271417915821075, -0.054249268025159836, -0.10032476484775543, 0.043071869760751724, -0.02222650684416294, 0.011612852104008198, 0.0005394962499849498, -0.11306734383106232, -0.14177507162094116, -0.005161814391613007, -0.10559709370136261, -0.04713382199406624, -0.0973808541893959, -0.011177553795278072, 0.04122855141758919, -0.08585236966609955, 0.023044809699058533, -0.18316994607448578, -0.03252687677741051, -0.15496449172496796, -0.0038429037667810917, 0.03842747583985329, 0.032207462936639786, 0.015875183045864105, 0.030135415494441986, -0.015759920701384544, -0.14323808252811432, 0.047692056745290756, -0.14159132540225983, -0.0766264796257019, 0.1045549139380455, 0.13839344680309296, -0.057939037680625916, 0.07476173341274261, 0.0520908422768116, -0.0354163832962513, -0.008912524208426476, -0.07943085581064224, -0.005928114987909794, -0.03947725147008896, -0.15775008499622345, -0.056539084762334824, -0.053527455776929855, -0.06924930959939957, -0.04270728677511215, -0.026376597583293915, -0.023424647748470306, -0.028501197695732117, 0.001846025581471622, 0.08696364611387253, -0.05123297497630119, -0.004538682289421558, -0.0767987072467804, 0.14622202515602112, -0.16747905313968658, -0.041825953871011734, -0.10618990659713745, -0.07339828461408615, -0.03182165324687958, -0.09938935935497284, 0.06718621402978897, 0.03125981241464615, -0.0809083953499794, 0.03812256082892418, -0.10767430067062378, 0.07885514199733734, 0.04413328692317009, -0.07958004623651505, -0.04224482551217079, -0.009091711603105068, -0.060162339359521866, 0.025492029264569283, 0.02958901785314083, -0.05931362137198448, -0.040442124009132385, -0.012168518267571926, -0.05333958566188812, -0.14858868718147278, -0.08354613184928894, -0.041831497102975845, -0.1453322172164917, 0.06462899595499039, -0.02522153966128826, -0.11541776359081268, -0.11083922535181046, 0.05139413848519325, -0.0870383232831955, 0.059728674590587616, -0.07491728663444519, 0.031978998333215714, -0.024012954905629158, -0.18518666923046112, 0.06734304130077362, -0.09888967871665955, 0.05448530986905098, -0.05381299555301666, 0.058877311646938324, -0.11914447695016861], [-0.0700182318687439, -0.08338064700365067, -0.22997699677944183, -0.24502919614315033, -0.0010030493140220642, -0.08563823252916336, -0.0927252396941185, -0.03813492879271507, -0.002769049722701311, -0.0628746896982193, -0.03629707545042038, 0.02333824895322323, 0.0723986029624939, -0.046532269567251205, -0.015304540283977985, -0.03289404138922691, 0.002732454566285014, -0.05741878226399422, 0.02447480894625187, -0.023987552151083946, -0.009947054088115692, -0.08125917613506317, -0.026572203263640404, 0.03346872702240944, -0.014327973127365112, -0.0826491266489029, 0.040201377123594284, -0.09094662219285965, -0.02244325540959835, -0.04599205031991005, -0.0294153094291687, 0.04643560200929642, -0.07851587235927582, -0.24003849923610687, -0.08839783072471619, 0.01763560250401497, 0.016637781634926796, 0.08784542232751846, -0.07445752620697021, -0.10291242599487305, -0.07513529062271118, -0.12487878650426865, -0.07792741805315018, 0.028381142765283585, -0.08032221347093582, -0.07052391022443771, -0.1424865424633026, -0.0958724096417427, -0.02327289991080761, -0.09590045362710953, -0.04974314197897911, 0.057089921087026596, 0.05070659518241882, 0.07174766808748245, -0.10662215948104858, 0.04786576330661774, -0.10032165795564651, -0.1091344803571701, 0.016271496191620827, -0.03537803888320923, -0.15655003488063812, -0.0726228877902031, 0.0566294826567173, -0.1775347888469696, -0.12459812313318253, -0.09319906681776047, -0.12206580489873886, -0.032823074609041214, -0.06098386272788048, -0.08795090019702911, 0.011783166788518429, -0.07858264446258545, -0.1761864870786667, -0.042125679552555084, -0.03791716694831848, 0.02470424771308899, 0.000277846644166857, -0.03376241773366928, 0.03304669260978699, -0.09063339978456497, -0.005010535940527916, -0.13231270015239716, -0.07919835299253464, 0.0025188541039824486, 0.016790403053164482, -0.03660581260919571, -0.0765971839427948, 0.0684901773929596, -0.1198776587843895, -0.07638496905565262, -0.15259847044944763, 0.017887452617287636, 0.04008656367659569, -0.03480399772524834, -0.11194534599781036, 0.0820453017950058, -0.10107570141553879, -0.0951685756444931, 0.04514758661389351, -0.0688527300953865, -0.11135807633399963, -0.02508297748863697, -0.03253507241606712, -0.11944066733121872, -0.06227543577551842, 0.022295773029327393, 0.054997943341732025, 0.02692827209830284, -0.04135981202125549, -0.020805133506655693, 0.03980916738510132, -0.058733969926834106, -0.19020090997219086, -0.18655262887477875, -0.08976684510707855, 0.016893429681658745, 0.021006206050515175, -0.13188637793064117, -0.04453430697321892, -0.07048225402832031, -0.09634286165237427, 0.07451728731393814, -0.02246110327541828, -0.04213770106434822, -0.01624235510826111, -0.07427237927913666, -0.006625645328313112, -0.00046257692156359553], [-0.014150446280837059, -0.07352222502231598, -0.11207303404808044, 0.00033779890509322286, -0.1047472134232521, -0.0017357630422338843, 0.02983015775680542, -0.07086362689733505, 0.007746308576315641, 0.01195571105927229, 0.003530643880367279, 0.0029079376254230738, -0.031559258699417114, -0.026056993752717972, -0.058687154203653336, -0.005457627587020397, 0.04919469356536865, -0.014087995514273643, 0.03008130192756653, 0.04277179390192032, -0.057239849120378494, 0.027572331950068474, -0.02458658441901207, -0.013693499378859997, 0.01676274836063385, 0.024825047701597214, 0.03849513828754425, -0.018988512456417084, -0.07915392518043518, -0.13245493173599243, -0.055884480476379395, 0.06752008944749832, -0.045406658202409744, -0.058517590165138245, -0.12623241543769836, -0.023036541417241096, -0.029856089502573013, -0.03674950823187828, -0.13610559701919556, -0.0817049890756607, 0.04395347461104393, 0.027545519173145294, -0.15494410693645477, -0.08220706135034561, 0.01977827399969101, -0.0585181824862957, -0.016372842714190483, -0.027885200455784798, 0.008644476532936096, 0.005116020329296589, 0.008953217417001724, 0.08147350698709488, -0.04888103902339935, -0.043218377977609634, -0.02434852160513401, -0.046859368681907654, 0.002972537651658058, -0.10254530608654022, -0.09128345549106598, -0.06901836395263672, -0.004237364046275616, -0.06622818857431412, -0.023531444370746613, -0.05781441181898117, -0.0051320502534508705, -0.04307398945093155, 0.03259691968560219, 0.07182478159666061, -0.09337595850229263, -0.08418984711170197, -0.05734825134277344, -0.04869591444730759, 0.02672472782433033, -0.02200237102806568, -0.06934690475463867, -0.037749841809272766, -0.1064210832118988, -0.07265463471412659, -0.07496479898691177, -0.005805576220154762, -0.031132135540246964, -0.1251078099012375, 0.017818747088313103, 0.11898741126060486, -0.10548045486211777, -0.08750186115503311, -0.06391958892345428, -0.0859391912817955, 0.03492444008588791, 0.03507170453667641, 0.02968505211174488, -0.02828347682952881, 0.03147678077220917, -0.0070500485599040985, 0.010465688072144985, -0.050587013363838196, -0.030156029388308525, -0.05093502625823021, 0.0009348939638584852, -0.10817606002092361, -0.08636967092752457, -0.03294533118605614, -0.04386819154024124, 0.05501112341880798, -0.042599327862262726, 0.12182272225618362, -0.12378246337175369, -0.0685071125626564, -0.08941636979579926, -0.06963733583688736, -0.13055814802646637, 0.02002883516252041, -0.05863537639379501, -0.040710508823394775, -0.03759007528424263, -0.03534960374236107, 0.038476258516311646, 0.04443488270044327, -0.06523460894823074, 0.0024694735184311867, -0.14704808592796326, 0.018438715487718582, 0.05525600537657738, -0.07988002896308899, 0.03479335084557533, 0.07590890675783157, -0.08305776119232178, -0.02174718864262104], [-0.10690538585186005, 0.038524337112903595, 0.04396531730890274, -0.017481856048107147, 0.056594204157590866, -0.07704611867666245, -0.1121990978717804, 0.006429107394069433, 0.031852252781391144, -0.09513097256422043, -0.005689466837793589, -0.05626789852976799, -0.07755500078201294, -0.06821846961975098, -0.06542845070362091, -0.060581859201192856, -0.11259473860263824, 0.027563299983739853, 0.042438387870788574, -0.13480916619300842, -0.022922459989786148, 0.007672980893403292, -0.0682523250579834, 0.027328254655003548, 0.04789567366242409, -0.052702028304338455, 0.034853577613830566, 0.02952476032078266, -0.059574954211711884, 0.03937918692827225, -0.025291772559285164, -0.0632500946521759, -0.08512750267982483, -0.08710881322622299, 0.00020924222189933062, -0.10380394756793976, -0.004950160626322031, 0.032011859118938446, 0.04996616765856743, 0.004300135187804699, 0.00616073701530695, -0.052020858973264694, -0.047338731586933136, -0.028962038457393646, -0.07592573016881943, 0.006455081980675459, -0.09725414216518402, 0.021351851522922516, -0.07666123658418655, -0.04209768772125244, -0.09522071480751038, 0.036722395569086075, -0.03916220739483833, -0.1334133893251419, -0.1198691874742508, 0.03864148259162903, 0.04135441407561302, -0.01074679009616375, -0.04550911858677864, 0.048637039959430695, -0.0010306371841579676, -0.011970995925366879, -0.05176166072487831, -0.05434988811612129, -0.0878133773803711, -0.10590610653162003, -0.046282220631837845, -0.12630507349967957, 0.027824414893984795, -0.11539991199970245, -0.009094641543924809, -0.023186255246400833, 0.020653095096349716, 0.0058963787741959095, -0.061473969370126724, -0.0409221276640892, -0.06005501747131348, 0.014379949308931828, -0.07408023625612259, 0.013182980008423328, -0.017182307317852974, -0.021155573427677155, 0.027637552469968796, -0.03131651133298874, 0.03617732226848602, 0.009151476435363293, -0.026311762630939484, -0.04115767404437065, 0.03186330199241638, -0.11588292568922043, -0.06474875658750534, -0.11200091242790222, -0.13963928818702698, -0.0731269121170044, -0.055945564061403275, 0.029474062845110893, -0.10020219534635544, 0.06317944824695587, -0.029336528852581978, -0.10539457947015762, 0.04725426435470581, -0.04096011072397232, -0.04125756025314331, -0.03294457867741585, 0.05263795703649521, -0.1423153579235077, 0.03912960737943649, 0.018647575750947, 0.03747129440307617, -0.10062875598669052, -0.061654042452573776, -0.026922227814793587, -0.05758732557296753, 0.052306659519672394, 0.013145669363439083, 0.006547105498611927, -0.10027210414409637, -0.07997845113277435, -0.10912976413965225, -0.06679841130971909, 0.04103734716773033, 0.04607795923948288, -0.04374684765934944, -0.08259353786706924, -0.08095848560333252, -0.035401612520217896, 0.041783515363931656, 0.023590873926877975], [-0.07805455476045609, 0.008634996600449085, -0.08720991760492325, 0.03622787818312645, -0.08205847442150116, -0.10892695188522339, -0.0007206039736047387, -0.025375159457325935, 0.01643216423690319, -0.006587386596947908, 0.005181042477488518, 0.041416000574827194, 0.021239088848233223, -0.08389610797166824, -0.017511341720819473, -0.057782433927059174, -0.018192315474152565, 0.028256038203835487, 0.004121020436286926, -0.06396643817424774, 0.037923891097307205, -0.01744258403778076, 0.04155349358916283, -0.03330317139625549, 0.06142460182309151, -0.08215039223432541, 0.026114143431186676, 0.000708661274984479, -0.02700958587229252, -0.043939389288425446, -0.016380550339818, -0.11742547899484634, 0.044439896941185, -0.02265612967312336, -0.06213859096169472, 0.03677923232316971, 0.009021617472171783, -0.02518867887556553, -0.13007226586341858, -0.09104134887456894, -0.062276702374219894, -0.09050367027521133, -0.11589694768190384, -0.038561612367630005, 0.009619859978556633, -0.013837848789989948, -0.08692975342273712, -0.0396486334502697, -0.02750043198466301, -0.1279849112033844, -0.10274429619312286, -0.10480457544326782, -0.011604837141931057, -0.061906199902296066, -0.07178106158971786, -0.05126357451081276, -0.08283677697181702, -0.056326936930418015, -0.01635354571044445, -0.02298922650516033, -0.04293743893504143, -0.0596979483962059, -0.10063634067773819, -0.12155236303806305, -0.13223128020763397, 0.05825898051261902, -0.02132738009095192, 0.022381525486707687, -0.08122941106557846, -0.013432448729872704, 0.0060251811519265175, -0.1125345304608345, -0.031941886991262436, -0.05526750162243843, -0.11877243965864182, 0.014191827736794949, -0.07367296516895294, 0.018451323732733727, 0.01725030317902565, -0.0649445578455925, -0.05641759932041168, 0.03916611894965172, -0.1122511550784111, -0.03370191529393196, -0.11889295279979706, -0.112604059278965, -0.008814936503767967, -0.10230707377195358, 0.026889394968748093, -0.11144568771123886, -0.04617113620042801, -0.06341063976287842, -0.09534849226474762, -0.08047942072153091, -0.032384276390075684, -0.0769006758928299, -0.11182472854852676, -0.05962313339114189, -0.01804499328136444, -0.0989818274974823, -0.023538826033473015, -0.0352768674492836, 0.06200277432799339, -0.09921962022781372, -0.04142586886882782, -0.030381623655557632, 0.015049069188535213, -0.08120553940534592, -0.0002718063769862056, -0.030390052124857903, -0.1339530050754547, -0.022436419501900673, -0.0471995547413826, -0.010484058409929276, -0.054949864745140076, 0.013822764158248901, 0.0271174106746912, -0.06246928870677948, 0.039920348674058914, -0.11208491027355194, 0.019757123664021492, -0.11303875595331192, -0.10737312585115433, -0.04135170206427574, -0.11209483444690704, -0.10158618539571762, -0.11909746378660202, 0.03725789487361908], [-0.12006603926420212, -0.1487751603126526, -0.09460671246051788, -0.09283934533596039, 0.03744606673717499, -0.047450680285692215, 0.07217556238174438, 0.03508734703063965, 0.02130437083542347, -6.618905172217637e-05, 0.01458168774843216, -0.05955665931105614, -0.02303152345120907, -0.02502322569489479, -0.07928355038166046, -0.05513804033398628, -0.04510905593633652, -0.17405618727207184, -0.018718227744102478, -0.034511614590883255, -0.08291314542293549, -0.13623642921447754, -0.03208464756608009, 0.044996555894613266, -0.08612756431102753, 0.07019803673028946, -0.05512816831469536, -0.10556292533874512, 0.016734106466174126, -0.1051010936498642, 0.000819230976048857, -0.08766477555036545, -0.0017091179033741355, -0.22703444957733154, -0.09282486885786057, -0.0677710548043251, -0.0454084575176239, 0.06391791254281998, 0.05082053318619728, -0.14624641835689545, -0.05697663873434067, -0.04401107877492905, -0.08423202484846115, -0.0020434942562133074, -0.0332905538380146, 0.05253347009420395, -0.11140217632055283, 0.04974425584077835, -0.04867435619235039, -0.022608675062656403, -0.054772671312093735, -0.04172326624393463, 0.06091241538524628, 0.07513728737831116, -0.021132828667759895, -0.03368031978607178, -0.046628281474113464, -0.10394754260778427, -0.03954540193080902, -0.005561689846217632, -0.14484147727489471, -0.11719219386577606, -0.10825719684362411, -0.11527907103300095, -0.01940862089395523, -0.04099607840180397, 0.02812337875366211, -0.13907793164253235, -0.03973008692264557, -0.013692052103579044, -0.028678206726908684, -0.14808344841003418, -0.10234320163726807, 0.0019633860792964697, -0.020383169874548912, -0.06437908858060837, -0.09672187268733978, 0.01634371094405651, 0.06219642609357834, -0.10809013247489929, 0.047250788658857346, -0.17728807032108307, -0.008086703717708588, 0.009342093020677567, 0.022995159029960632, 0.06086276099085808, -0.006359657272696495, 0.005736496299505234, -0.18941093981266022, -0.05642924830317497, -0.09091351926326752, -0.010060497559607029, -0.09812788665294647, -0.0009448889177292585, -0.10381148010492325, -0.05057859048247337, -0.17614898085594177, -0.1407199203968048, -0.05987873673439026, 0.028026212006807327, -0.030110042542219162, -0.1455743908882141, -0.04032979533076286, -0.06793413311243057, -0.006781305652111769, -0.0432647243142128, -0.10119058936834335, -0.04169323295354843, -0.060541536659002304, -0.04351397603750229, -0.06959407031536102, -0.044971998780965805, -0.0787661150097847, -0.16351333260536194, -0.07644585520029068, -0.020070092752575874, 0.050901398062705994, -0.1759294867515564, 0.07066398113965988, 0.011682667769491673, -0.052013639360666275, -0.0030466997995972633, 0.04268353059887886, 0.011889226734638214, -0.10622719675302505, -0.010770322754979134, 0.0013568545691668987, -0.004876891616731882], [0.0594022162258625, -0.0857388973236084, 0.038599301129579544, 0.009936509653925896, 0.030724486336112022, -0.06031957268714905, -0.08063846826553345, -0.003053937805816531, -0.06768205761909485, -0.04656548053026199, -0.031223978847265244, 0.03824927657842636, -0.12201640009880066, -0.0115730669349432, -0.007511110510677099, -0.09957601130008698, -0.10447891056537628, 0.03848705440759659, 0.0048036472871899605, 0.035642217844724655, -0.05467275530099869, -0.07988729327917099, -0.0973685160279274, 0.015279803425073624, -0.00887984223663807, -0.05006079375743866, 0.004874400794506073, -0.10380152612924576, 0.048027001321315765, 0.008985497988760471, -0.03795769438147545, -0.0495372898876667, -0.10710499435663223, 0.0185783002525568, -0.07896558940410614, 0.014642189256846905, -0.09819910675287247, -0.03544199466705322, -0.11330641061067581, -0.08268091827630997, -0.0014354144223034382, -0.08099976927042007, -0.07838422805070877, -0.07249964773654938, -0.03152626380324364, 0.01656053029000759, -0.04048294946551323, 0.046613659709692, -0.09751764684915543, -0.038178086280822754, -0.04516104608774185, -0.09773316979408264, -0.07453669607639313, -0.10971170663833618, 0.020901242271065712, -0.005590156652033329, -0.01873771846294403, -0.03781181201338768, -0.10358066111803055, -0.08303442597389221, -0.06517765671014786, -0.02350630797445774, 0.001946116448380053, -0.09195738285779953, -0.12250994890928268, 0.036489710211753845, 0.04273996874690056, -0.03915615379810333, 0.02484634704887867, -0.06396014988422394, -0.06787693500518799, -0.12442179024219513, -0.03773285821080208, -0.08934924006462097, 0.027862530201673508, -0.11310425400733948, 0.0012524883495643735, -0.10733923316001892, -0.07421141862869263, -0.04107777774333954, -0.020614590495824814, 0.03908085078001022, -0.09895334392786026, -0.07126012444496155, -0.05274456366896629, 0.03957310691475868, -0.0907273218035698, 0.036844395101070404, -0.09610576182603836, -0.007756434381008148, -0.08580689877271652, -0.08852780610322952, -0.09957686811685562, 0.014493186958134174, 0.03005104698240757, -0.025714552029967308, 0.03856800124049187, -0.10779356211423874, -0.08549017459154129, 0.024498924612998962, -0.07066046446561813, -0.04494590684771538, 0.017220184206962585, 0.04458126425743103, 0.027960658073425293, 0.02608177438378334, -0.03605455160140991, -0.12556929886341095, -0.1253066062927246, -0.09449834376573563, 0.03673647716641426, -0.11016025394201279, -0.012197938747704029, -0.09493943303823471, -0.028462084010243416, 0.0014593062223866582, -0.06500399857759476, -0.0541837215423584, -0.055873725563287735, 0.011692873202264309, 0.036683984100818634, -0.04859428480267525, -0.030711615458130836, -0.007671981118619442, 0.035386212170124054, -0.05521099641919136, -0.07925110310316086, 0.025108279660344124], [-0.15128563344478607, -0.013052252121269703, -0.0845627635717392, -0.19007398188114166, -0.16284720599651337, -0.014299130998551846, -0.011822935193777084, 0.07386168837547302, 0.05878302827477455, -0.08611537516117096, -0.01973113790154457, 0.2281022071838379, 0.07563892751932144, 0.029538365080952644, -0.07012906670570374, -0.023063799366354942, 0.05996023491024971, -0.015241481363773346, 0.10622318834066391, 0.08609764277935028, 0.1212959811091423, 0.007319255731999874, -0.017043540254235268, 0.03035579062998295, -0.06463135033845901, -0.05691863223910332, 0.03129240870475769, -0.15767371654510498, -0.01668885536491871, 0.005851341411471367, -0.14447087049484253, -0.003545367391780019, -0.07192917168140411, -0.11746275424957275, -0.09782244265079498, -0.10164128988981247, -0.011227293871343136, -0.03763698786497116, -0.13245432078838348, -0.08206366747617722, -0.009870009496808052, -0.1086992472410202, -0.03490978851914406, 0.02788596786558628, -0.14416822791099548, -0.00036887265741825104, 0.013302487321197987, -0.040850795805454254, -0.015934016555547714, -0.11463046073913574, 0.023552021011710167, -0.0036274215672165155, 0.011757699772715569, 0.025993384420871735, 0.1279958039522171, -0.02963864430785179, -0.15630537271499634, -0.11697759479284286, -0.03666570410132408, -0.049473587423563004, -0.10243092477321625, 0.00392650393769145, -0.02394971065223217, -0.13902655243873596, 0.12552420794963837, -0.009807830676436424, -0.11980926990509033, 0.09036395698785782, -0.07022293657064438, -0.1271267533302307, -0.10984859615564346, -0.026739362627267838, -0.06293543428182602, 0.06261149048805237, -0.10464046895503998, -0.009279469959437847, 0.04726319760084152, 0.1079326644539833, -0.0691746324300766, 0.09858796000480652, -0.05962766706943512, -0.09058243036270142, -0.10077139735221863, 0.06094151735305786, -0.1399897038936615, -0.13665392994880676, 0.030220434069633484, 0.03248383477330208, -0.1746256947517395, 0.08309613913297653, -0.0636850968003273, 0.02162652462720871, 0.12730291485786438, 0.08608336746692657, -0.08441942930221558, -0.08223706483840942, -0.1287524700164795, -0.10500457137823105, 0.014000789262354374, -0.12243381142616272, -0.11098191887140274, -0.014718236401677132, -0.013899032026529312, 0.02131507359445095, -0.15404850244522095, 0.10100249946117401, -0.06921254098415375, -0.09384369105100632, -0.10944005101919174, -0.01871124655008316, -0.12250544875860214, -0.00236298143863678, -0.16974277794361115, -0.1011219173669815, -0.061661284416913986, -0.051883451640605927, -0.016918087378144264, -0.10656116157770157, -0.11444392800331116, 0.0025177584029734135, -0.159762904047966, -0.10604097694158554, 0.1283055990934372, 0.058272067457437515, -0.11887993663549423, 0.027675176039338112, -0.02002575434744358, -0.17604441940784454], [-0.020723506808280945, 0.04819158464670181, -0.09090697765350342, -0.12058895081281662, -0.130161851644516, -0.02990124560892582, 0.02084888517856598, -0.03163375332951546, 0.03694857656955719, 0.02608407661318779, -0.004822409246116877, 0.12355107069015503, 0.04817749187350273, -0.0551464669406414, -0.0049323514103889465, -0.147309347987175, 0.025039659813046455, -0.10453002899885178, -0.09336942434310913, 0.007414909545332193, -0.052124980837106705, 0.05404108017683029, -0.09400759637355804, 0.05086669698357582, 0.000526457850355655, -0.0745297223329544, 0.009572401642799377, -0.14499357342720032, -0.0584367997944355, 0.027707677334547043, 0.0008294468279927969, -0.1077788770198822, -0.007152681238949299, -0.05273586884140968, -0.13356256484985352, -0.11775341629981995, -0.1256563812494278, -0.14292246103286743, -0.1372782438993454, 0.00783159676939249, -0.03998611122369766, 0.06317029893398285, -0.13936834037303925, -0.028975851833820343, -0.062088675796985626, -0.03956059738993645, -0.02256613038480282, 0.007198225241154432, -0.015777502208948135, -0.06045636907219887, -0.10092168301343918, -0.047389864921569824, -0.01847880147397518, 0.03162790834903717, -0.010174100287258625, -0.12325739860534668, -0.13737709820270538, 0.029973285272717476, -0.035929031670093536, -0.003549108048900962, -0.01851901412010193, 0.0008457020157948136, 0.009599893353879452, -0.043374333530664444, -0.04367852956056595, -0.009710729122161865, -0.061264004558324814, 0.08476556837558746, -0.09723924845457077, -0.054998189210891724, 0.007959556765854359, -0.09081565588712692, -0.020149294286966324, 0.012832731008529663, -0.03448144346475601, -0.00635152030736208, -0.11057759821414948, 0.04515841230750084, -0.028351062908768654, -0.01594519056379795, 0.016712669283151627, -0.09913484752178192, -0.09964682906866074, 0.0019344438333064318, -0.1311875283718109, 0.0031866743229329586, -0.03582789748907089, -0.025854816660284996, -0.004578984342515469, 0.013379944488406181, 0.026539957150816917, 0.01592964120209217, 0.0019691349007189274, -0.07129425555467606, 0.04003186151385307, -0.1316888928413391, -0.06509369611740112, -0.10358532518148422, 0.02924814634025097, -0.1263694167137146, -0.05134383961558342, -0.06748253852128983, -0.06271202862262726, -0.06073478236794472, -0.07943718880414963, 0.01833171211183071, -0.0003163078217767179, 0.0094071039929986, -0.008517554961144924, -0.11252675205469131, 0.019211068749427795, 0.01106265839189291, -0.13483698666095734, -0.06392887979745865, -0.0009928727522492409, -0.050067853182554245, -0.06752069294452667, 0.07385779172182083, -0.019592201337218285, 0.05496733635663986, -0.13662412762641907, -0.12313316762447357, 0.08451223373413086, -0.09971914440393448, 0.01161150448024273, -0.09131970256567001, 0.03627592697739601, -0.1500939577817917], [-0.012010380625724792, -0.09772304445505142, -0.015737678855657578, 0.012825314886868, 0.038618966937065125, -0.0505150705575943, -0.063472218811512, -0.0332459919154644, 0.01461818814277649, -0.026837561279535294, 0.04978996142745018, 0.05153436213731766, 0.050206538289785385, 0.04165210574865341, -0.11839359253644943, -0.09671501070261002, -0.10447581857442856, -0.07269911468029022, -0.01674664579331875, -0.061272282153367996, -0.019618181511759758, 0.051266998052597046, -0.03438061848282814, 0.027392853051424026, -0.02211192063987255, 0.03872579708695412, -0.11133746057748795, 0.018103688955307007, 0.049339886754751205, 0.03774271905422211, -0.06921401619911194, 0.051821812987327576, -0.011613061651587486, -0.02055562101304531, -0.03256368264555931, -0.11179076135158539, -0.08867253363132477, 0.02824028581380844, 0.018821071833372116, 0.05124620348215103, 0.032901961356401443, 0.020375436171889305, 0.003807296510785818, 0.0458691231906414, -0.09520959109067917, -0.009645297192037106, -0.10496707260608673, -0.012381946668028831, -0.03840583190321922, -0.030252579599618912, -0.058116279542446136, -0.05467512831091881, 0.026690462604165077, 0.06030211225152016, 0.05893845111131668, -0.11167287081480026, 0.03292214497923851, -0.052025213837623596, -0.044929563999176025, 0.02535123936831951, -0.0759112611413002, 0.011093297973275185, 0.05967317521572113, -0.12249588966369629, -0.031132658943533897, -0.03805265575647354, -0.11276552826166153, -0.031146202236413956, 0.06069464981555939, -0.11414692550897598, -0.10609634965658188, -0.08863898366689682, -0.06875089555978775, 0.05047593638300896, -0.11062256991863251, 0.04307858273386955, -0.03740420565009117, -0.06580556929111481, -0.08011350780725479, 0.03605663776397705, -0.07771354168653488, -0.10773152112960815, -0.08925877511501312, -0.06752598285675049, -0.002050204435363412, -0.006415319163352251, -0.034034788608551025, -0.07204978168010712, -0.013254199177026749, -0.06777874380350113, 0.007453272119164467, -0.02738926000893116, -0.09863846749067307, -0.029478905722498894, -0.03387601673603058, -0.08133578300476074, -0.12448147684335709, -0.09250670671463013, -0.02361004240810871, 0.040111977607011795, 0.022681886330246925, 0.02586856670677662, 0.022711792960762978, -0.08722607791423798, -0.04669293388724327, 0.03921498730778694, -0.027437148615717888, -0.09078224003314972, -0.008880851790308952, -0.03493203595280647, 0.04413696750998497, -0.057520583271980286, 0.0231108870357275, 0.015295902267098427, -0.05858849361538887, -0.10066456347703934, -0.019798660650849342, -0.04039336368441582, -0.09436951577663422, -0.015200477093458176, -0.1039300411939621, -0.01994832418859005, 0.04264828562736511, -0.017057351768016815, -0.061878103762865067, 0.008257148787379265, -0.06808440387248993, 0.03237038105726242], [-0.16903115808963776, -0.02971727028489113, 0.036575548350811005, 0.033224478363990784, -0.3333282768726349, -0.2391163408756256, 0.2594591975212097, 0.08700387179851532, 0.07512695342302322, -0.20870912075042725, 0.020359953865408897, 0.28663551807403564, 0.2102084904909134, -0.1322714388370514, -0.007049954030662775, -0.2632015347480774, -0.020733071491122246, -0.21217577159404755, 0.1294584423303604, 0.07479748129844666, 0.19814139604568481, -0.09632232785224915, -0.1384677290916443, 0.1515790969133377, 0.09625822305679321, -0.07309241592884064, -0.027768218889832497, -0.35290226340293884, 0.08032798022031784, -0.1035533994436264, -0.2749229073524475, 0.014081401750445366, 0.15166719257831573, -0.025098487734794617, -0.220389261841774, -0.1305287778377533, -0.03555132821202278, -0.12876476347446442, -0.17522963881492615, -0.13115733861923218, 0.052813321352005005, 0.024921298027038574, -0.28186821937561035, 0.12150003761053085, -0.07817935198545456, -0.017352286726236343, 0.022690042853355408, -0.2776950001716614, 0.06354712694883347, -0.15505875647068024, 0.12127768993377686, 0.1691945195198059, 0.08522578328847885, 0.17958787083625793, 0.13881516456604004, -0.18547913432121277, -0.30440399050712585, -0.06583257019519806, -0.09901180863380432, 0.0021415292285382748, 0.005028138402849436, -0.03337710723280907, 0.1231568455696106, -0.04334460571408272, 0.08981844782829285, -0.035617079585790634, -0.01004627626389265, 0.04701453074812889, 0.10800988972187042, -0.06968145072460175, -0.16065652668476105, 0.007109595462679863, -0.06939071416854858, 0.04327698051929474, -0.19040414690971375, -0.3462525010108948, -0.09844017028808594, 0.10429426282644272, -0.06069885194301605, 0.06736636161804199, 0.12380475550889969, 0.04113297164440155, -0.04552517086267471, 0.2989314794540405, -0.359718918800354, -0.07395808398723602, -0.082371287047863, 0.11966773122549057, -0.05865324288606644, 0.04112706705927849, 0.05294134467840195, -0.01917467638850212, 0.20119790732860565, 0.2671521306037903, 0.006003173999488354, -0.067267507314682, 0.047777239233255386, -0.1686875820159912, -0.0026374144945293665, -0.26542380452156067, -0.0432058647274971, 0.15952683985233307, -0.0035369955003261566, 0.13155151903629303, -0.16272929310798645, 0.317775160074234, -0.1079605296254158, -0.12719285488128662, -0.18682140111923218, -0.2591893672943115, -0.2977639138698578, -0.002057780511677265, -0.12337379902601242, -0.13776887953281403, -0.13255949318408966, -0.007235126569867134, 0.0010188380256295204, 0.05068322271108627, -0.17099905014038086, 0.213177889585495, -0.3786030113697052, -0.28091752529144287, 0.13829457759857178, 0.029057448729872704, -0.052607208490371704, 0.10497120767831802, 0.056735120713710785, -0.3870042860507965], [-0.012200622819364071, -0.039592158049345016, -0.14144696295261383, -0.09873954206705093, -0.05233167111873627, -0.12744498252868652, -0.03339991346001625, -0.03920164331793785, -0.12842479348182678, 0.031921274960041046, -0.028163662180304527, 0.013506952673196793, -0.022330516949295998, -0.012451298534870148, -0.1798175722360611, -0.08226855844259262, -0.0464564673602581, 0.10410990566015244, -0.10009796172380447, -0.005479092244058847, -0.02723926305770874, -0.04183226451277733, 0.007195060607045889, -0.07778105139732361, -0.07294460386037827, -0.09179682284593582, -0.04350012540817261, -0.005238215439021587, -0.15704616904258728, 0.026719333603978157, -0.10077506303787231, -0.11539727449417114, -0.01979161985218525, -0.060711055994033813, 0.05619865655899048, -0.17228353023529053, -0.17147207260131836, -0.0534847266972065, -0.08948282152414322, -0.05067164823412895, -0.13961832225322723, 0.010325715877115726, -0.08748745173215866, -0.015516475774347782, -0.08157531917095184, -0.10979403555393219, 0.027817025780677795, -0.0458926185965538, -0.10485418140888214, 0.0025477553717792034, -0.09848633408546448, -0.11640740185976028, -0.04646549001336098, -0.04997580498456955, -0.03320106863975525, -0.02758149616420269, 0.05535135045647621, 0.009019340388476849, -0.12489503622055054, -0.12042488157749176, -0.15863756835460663, -0.09113320708274841, -0.03780919685959816, -0.10902567952871323, -0.03702995926141739, -0.14721307158470154, -0.17569220066070557, 0.035796403884887695, 0.03921160846948624, -0.0025858411099761724, -0.001217696350067854, -0.08439118415117264, -0.05701761692762375, -0.10289090126752853, -0.005472635850310326, 0.03449247032403946, -0.023906808346509933, -0.07592380046844482, -0.10279129445552826, -0.1315755844116211, -0.19182761013507843, -0.09249247610569, -0.030115246772766113, 0.039315786212682724, -0.0039247204549610615, 0.0005953430663794279, -0.019838115200400352, -0.018521981313824654, -0.05228966847062111, -0.09251845628023148, -0.07641693949699402, 0.032055191695690155, -0.10177452117204666, -0.11181271076202393, -0.040920745581388474, -0.24677278101444244, -0.06880591809749603, -0.016564395278692245, -0.06353788077831268, -0.09833136945962906, -0.04486194625496864, -0.11513306945562363, -0.16365081071853638, -0.07889608293771744, -0.1739739030599594, 0.0005051091429777443, 0.005348789505660534, -0.14192794263362885, -0.20415781438350677, -0.05411507189273834, -0.028874121606349945, -0.24763762950897217, -0.04312203824520111, -0.06506432592868805, -0.13121023774147034, 0.0022462415508925915, -0.13304488360881805, -0.07691448926925659, 0.011870274320244789, -0.044698845595121384, 0.08272841572761536, 0.03875637799501419, -0.09870361536741257, -0.11444292962551117, -0.18511635065078735, -0.05764221027493477, -0.11577784270048141, -0.07529288530349731], [0.11570834368467331, -0.1812896579504013, -0.05945054441690445, -0.06760124117136002, 0.30382272601127625, 0.1165408119559288, -0.3569068908691406, -0.34648597240448, -0.25405922532081604, 0.08492949604988098, -0.12157607078552246, -0.33787742257118225, -0.24171483516693115, -0.014500388875603676, -0.2854425013065338, 0.16563424468040466, -0.1261812150478363, 0.26227641105651855, -0.278095006942749, -0.34491991996765137, -0.09016576409339905, -0.16979308426380157, -0.016445374116301537, -0.3713217079639435, -0.17554785311222076, -0.26010891795158386, -0.13481755554676056, 0.3067624270915985, -0.3219633102416992, 0.045910172164440155, 0.20599108934402466, -0.23738054931163788, -0.3384617865085602, 0.04942874610424042, 0.09814894944429398, -0.2365732640028, -0.295989990234375, -0.2291019707918167, 0.2810974717140198, 0.1451251059770584, -0.21040800213813782, -0.2596070468425751, 0.1437208652496338, -0.3113309442996979, -0.25451523065567017, -0.26832228899002075, -0.11199653893709183, 0.06038025766611099, -0.15540854632854462, 0.1387849599123001, -0.25164392590522766, -0.28235703706741333, -0.21331538259983063, -0.2760167419910431, -0.3974778950214386, 0.07937471568584442, 0.34590858221054077, -0.13316182792186737, -0.20953309535980225, -0.07986105233430862, -0.14935335516929626, -0.1627865433692932, -0.3281762897968292, -4.772539250552654e-05, -0.48616528511047363, -0.2553115785121918, -0.17729538679122925, -0.30452388525009155, -0.2562412619590759, -0.06232668459415436, 0.18198420107364655, -0.21350368857383728, 0.3633701205253601, -0.3763801157474518, 0.009736841544508934, 0.21775279939174652, -0.0788242518901825, -0.43608179688453674, -0.2735634744167328, -0.4176730215549469, -0.13536551594734192, -0.19419364631175995, -0.1928897202014923, -0.3115193545818329, 0.239792600274086, 0.023724108934402466, 0.015423107892274857, -0.3467102348804474, 0.07260244339704514, -0.37321338057518005, -0.024749476462602615, -0.31999918818473816, -0.4618523418903351, -0.40684375166893005, -0.033587727695703506, -0.1458463817834854, -0.19208256900310516, 0.31027695536613464, -0.262782484292984, -0.06508272886276245, -0.03705212473869324, -0.3288819193840027, -0.12828275561332703, -0.26903799176216125, -0.2729126214981079, -0.3433176577091217, -0.026260066777467728, 0.002276493702083826, -0.14217977225780487, 0.021477529779076576, 0.28502964973449707, -0.1612989753484726, 0.10762938857078552, 0.01881719008088112, -0.08140739798545837, -0.1940622329711914, -0.19027376174926758, -0.23924565315246582, -0.14382652938365936, -0.2675175964832306, 0.30629584193229675, 0.16929204761981964, -0.43848663568496704, -0.38822564482688904, -0.15988512337207794, -0.15936081111431122, -0.3000050187110901, 0.384570449590683], [-0.15101075172424316, -0.05402081459760666, -0.18473154306411743, -0.03968755900859833, -0.1993597447872162, -0.15814083814620972, 0.24911074340343475, 0.25624939799308777, 0.03812069073319435, -0.15926598012447357, -0.03007935918867588, 0.2156068980693817, 0.213583305478096, 0.006240418180823326, -0.15531107783317566, -0.1983071118593216, 0.03248331695795059, -0.1417422741651535, 0.14898182451725006, 0.11147052049636841, 0.20594422519207, -0.03737195208668709, -0.0955474004149437, 0.17199373245239258, -0.08855966478586197, -0.14458131790161133, -0.04607100784778595, -0.26929575204849243, 0.05259287357330322, -0.13428986072540283, -0.15100425481796265, 0.021959669888019562, 0.20047663152217865, -0.11280933767557144, -0.18443180620670319, -0.21365180611610413, -0.17263053357601166, 0.011129889637231827, -0.18472352623939514, 0.014333490282297134, 0.07633080333471298, 0.05735437199473381, -0.28130966424942017, 0.09220989793539047, -0.18316657841205597, -0.14329414069652557, 0.05776907876133919, -0.062373604625463486, 0.03762560337781906, -0.13278694450855255, 0.13649600744247437, 0.10125786811113358, 0.01439677830785513, 0.21628084778785706, 0.1259414553642273, -0.17804065346717834, -0.1343146413564682, -0.04230799898505211, -0.0465732216835022, -0.07483392208814621, -0.07259875535964966, -0.08044298738241196, 0.06402424722909927, -0.15018628537654877, 0.14288760721683502, -0.10935430973768234, -0.22974933683872223, 0.2039138823747635, 0.09756207466125488, 0.00922083854675293, -0.09894459694623947, 0.06574695557355881, -0.16296611726284027, 0.10685347765684128, 0.033295758068561554, -0.2669578194618225, 0.0057744598016142845, 0.13276062905788422, -0.21120893955230713, 0.1892388015985489, -0.10388384759426117, 0.015261581167578697, 0.06699343770742416, 0.23337526619434357, -0.28195658326148987, -0.08364257216453552, 0.06932666152715683, 0.14184139668941498, -0.12246014922857285, 0.15371975302696228, -0.1528976559638977, -0.009019068442285061, 0.23445457220077515, 0.24142533540725708, 0.018149757757782936, -0.08251427114009857, 0.03088969923555851, -0.2260788083076477, -0.07988116890192032, -0.21582792699337006, -0.07007870078086853, 0.17225012183189392, -0.21132181584835052, 0.13936181366443634, -0.20431163907051086, 0.26787567138671875, 0.014271763153374195, -0.23181720077991486, -0.20069186389446259, -0.19409023225307465, -0.09726225584745407, -0.25783535838127136, -0.20360048115253448, -0.050636112689971924, 0.07099733501672745, -0.02208218351006508, 0.13656899333000183, 0.06456326693296432, -0.13885638117790222, 0.1564192771911621, -0.32594066858291626, -0.15815743803977966, 0.17023096978664398, 0.10154622793197632, -0.27341076731681824, -0.03491470590233803, 0.06128780171275139, -0.27685439586639404], [-0.14279043674468994, -0.12881557643413544, -0.028112120926380157, 0.004585112910717726, -0.13862155377864838, -0.13542711734771729, -0.014175241813063622, 0.07038355618715286, -0.06656665354967117, -0.04525553807616234, -0.05208069831132889, 0.13088591396808624, 0.03144651651382446, -0.01929359696805477, 0.07251811027526855, -0.13570593297481537, -0.10714901983737946, -0.1205279752612114, 0.01991591602563858, 0.02891533263027668, 0.10322434455156326, -0.036016061902046204, -0.08658339083194733, -0.03018912486732006, -0.06260335445404053, 0.03303506225347519, -0.06017947569489479, -0.0757230818271637, -0.016996724531054497, -0.1507992446422577, -0.15437161922454834, -0.042490359395742416, 0.01486249826848507, 0.03207000344991684, -0.13900303840637207, -0.09876609593629837, 0.05503461882472038, -0.05136964097619057, -0.07457970827817917, -0.0041290814988315105, -0.09712469577789307, 0.0188504159450531, -0.06053466722369194, 0.0284187663346529, 0.018155470490455627, -0.010432855226099491, -0.007283948827534914, -0.03487097844481468, 0.0927024781703949, -0.1690516322851181, 0.014914562925696373, -0.03522476926445961, -0.009754390455782413, -0.0555395744740963, -0.03541887551546097, -0.16658443212509155, -0.05080932006239891, -0.10053213685750961, -0.05465671047568321, -0.09317368268966675, 0.04813230782747269, -0.025221500545740128, 0.01933923549950123, 0.03378729522228241, 0.07038198411464691, -0.08998709172010422, 0.017910920083522797, 0.016199689358472824, -0.10369925200939178, 0.017552100121974945, -0.05345892161130905, -0.02704748697578907, 0.008786170743405819, -0.023723937571048737, -0.10673379898071289, 0.0026204921305179596, 0.02649073861539364, -0.07241535931825638, -0.005630002357065678, -0.0808059498667717, -0.026087284088134766, -0.01681624911725521, -0.08586469292640686, 0.016236502677202225, -0.01997639238834381, -0.01969088800251484, -0.07822899520397186, -0.05765579640865326, -0.0412752591073513, -0.11009923368692398, 0.07010013610124588, 0.033360134810209274, -0.003139938460662961, 0.014508022926747799, -0.049212370067834854, -0.04055240377783775, 0.05967023968696594, -0.11960117518901825, -0.07465097308158875, -0.03855326026678085, 0.008078984916210175, -0.031353604048490524, 0.06285257637500763, 0.006254458799958229, -0.08037504553794861, 0.12219946086406708, -0.006588189397007227, 0.0020574883092194796, -0.01870591938495636, -0.0030856130179017782, -0.06806391477584839, -0.038961660116910934, -0.03983675315976143, -0.08379337191581726, -0.03767428547143936, 0.010913319885730743, -0.08391603827476501, 0.00892066303640604, 0.02265198342502117, -0.005817069206386805, -0.1488533616065979, -0.16951605677604675, 0.020972121506929398, 0.006755543872714043, -0.04202660545706749, 0.07860269397497177, -0.009139155969023705, -0.10708050429821014], [0.02449282631278038, -0.02617109939455986, 0.03685891255736351, 0.018899325281381607, -0.12094387412071228, 0.027546944096684456, 0.015271672047674656, -0.04276852682232857, -0.06565287709236145, -0.11654159426689148, 0.02137075550854206, -0.08134330064058304, -0.08736729621887207, 0.01241462305188179, 0.009138895198702812, -0.05206785351037979, -0.029619568958878517, -0.044984590262174606, -0.010580072179436684, -0.13113990426063538, 0.05033942312002182, 0.005938277579843998, -0.06037428602576256, -0.08464013040065765, -0.014035189524292946, 0.006465128622949123, 0.024337533861398697, -0.03609705716371536, -0.06291749328374863, -0.11851589381694794, 0.022464707493782043, 0.02516801469027996, -0.06496404111385345, -0.06426969170570374, -0.024775223806500435, -0.05916919931769371, 0.0005185532500036061, -0.10791045427322388, 0.010094193741679192, -0.11034389585256577, -0.022875359281897545, -0.12110574543476105, -0.04580220580101013, -0.057917576283216476, 0.04912412166595459, -0.0673367977142334, -0.032983552664518356, -0.046385038644075394, -0.024258116260170937, -0.05571151152253151, -0.01645660027861595, -0.058327414095401764, -0.0772116556763649, -0.12247021496295929, -0.1662830263376236, -0.05146704614162445, -0.03329434245824814, 0.009672263637185097, -0.0031643263064324856, -0.0702400729060173, -0.08835737407207489, -0.003165468340739608, -0.02691919356584549, -0.05885140597820282, -0.10673806816339493, -0.06742329895496368, -0.08557670563459396, 0.010972360149025917, -0.010150128975510597, -0.052686721086502075, -0.11966906487941742, -0.06684162467718124, -0.11005379259586334, -0.07373195141553879, -0.029882807284593582, -0.08420563489198685, 0.03614312782883644, -0.05276862904429436, 0.02345590479671955, -0.022578200325369835, -0.04668249562382698, 0.059052109718322754, 0.05233115702867508, -0.06286581605672836, -0.025839535519480705, -0.10109837353229523, -0.11061549186706543, 0.041402097791433334, -0.01186423096805811, 0.0037546399980783463, 0.004153470974415541, 0.030689343810081482, -0.13517716526985168, -0.11221127212047577, -0.015017629601061344, -0.04426618292927742, -0.11878728121519089, 0.02502647414803505, -0.04714943841099739, -0.09391845762729645, -0.025725100189447403, -0.07881495356559753, 0.047185156494379044, -0.09319547563791275, -0.01789483055472374, -0.06215426325798035, -0.09360043704509735, 0.06178328022360802, -0.035815365612506866, 0.029229579493403435, -0.10384416580200195, -0.03706713765859604, -0.034408461302518845, 0.03365151956677437, -0.06259269267320633, 0.011883710511028767, -0.1410602182149887, -0.0969037413597107, 0.04338730871677399, -0.12455461919307709, -0.13349589705467224, 0.008323878049850464, -0.06216278672218323, -0.006152511574327946, -0.047653064131736755, 0.0829254537820816, -0.06220432370901108, 0.003307892009615898], [-0.10245155543088913, -0.06344389915466309, -0.024508675560355186, -0.09891855716705322, 0.018631981685757637, -0.10938526690006256, -0.006640853360295296, -0.025660580024123192, -0.033617641776800156, 0.04636610671877861, 0.053587496280670166, -0.021170081570744514, 0.027047406882047653, -0.06970900297164917, -0.10885371267795563, -0.03277865797281265, -0.11991989612579346, 0.03797313943505287, 0.012017989531159401, -0.026008998975157738, -0.05725451186299324, 0.0059602223336696625, -0.1151246726512909, 0.010950889438390732, 0.00024584203492850065, -0.019148439168930054, 0.02631666138768196, 0.04654117301106453, -0.053863782435655594, -0.03573792055249214, -0.07383663952350616, 0.026087511330842972, -0.0582234263420105, -0.12486104667186737, -0.058438491076231, -0.02262059412896633, -0.05937860533595085, -0.11051460355520248, -0.11457107961177826, -0.04789886623620987, 0.034752726554870605, -0.005532070063054562, -0.08401669561862946, 0.04042089730501175, 0.029261121526360512, 0.0359492301940918, -0.039193131029605865, -0.061527740210294724, -0.051792845129966736, -0.040037497878074646, 0.03564327210187912, -0.1264021098613739, -0.077071413397789, -0.08832336962223053, -0.034129053354263306, -0.016150757670402527, -0.0005090707563795149, -0.07722760736942291, -0.0513540618121624, -0.04108627885580063, -0.0023104860447347164, 0.011075287126004696, 0.02458197809755802, -0.0057588242925703526, -0.14755380153656006, -0.1003272533416748, 0.0495184026658535, -0.011385587975382805, -0.07434912770986557, -0.053364984691143036, 0.01779172010719776, 0.008144957944750786, -0.013469007797539234, -0.06139194965362549, -0.07427868247032166, 0.02955758385360241, -0.09016556292772293, -0.016706794500350952, -0.0038956687785685062, -0.00905248336493969, -0.014495468698441982, -0.06090448424220085, -0.014181988313794136, 0.020104272291064262, -0.00801270455121994, -0.013083616271615028, -0.08840633928775787, -0.08209754526615143, -0.06348491460084915, -9.895659604808316e-05, 0.00999066699296236, -0.06764999032020569, -0.07873108983039856, -0.10854849964380264, -0.013875293545424938, -0.055220481008291245, 0.019602719694375992, 0.040995221585035324, -0.07508635520935059, -0.021411029621958733, -0.08034180104732513, -0.09560606628656387, 0.058530114591121674, -0.1062549576163292, -0.03709211200475693, -0.1445954591035843, -0.09320515394210815, 0.01995927467942238, -0.012338773347437382, 0.010231989435851574, -0.12439656257629395, -0.10430952161550522, -0.11689672619104385, -0.004454869776964188, -0.006245974451303482, -0.13056045770645142, 0.027934540063142776, -0.10683644562959671, -0.06454483419656754, 0.029362158849835396, 0.007077328860759735, 0.02842402085661888, 0.02107159234583378, 0.0017609428614377975, 0.004268433433026075, -0.06559618562459946, -0.04889066517353058, -0.04134445637464523], [-0.04118949547410011, -0.0356115996837616, 0.12784913182258606, 0.09336059540510178, -0.17582741379737854, -0.10650873929262161, 0.12048252671957016, 0.08892623335123062, 0.07185347378253937, -0.21075469255447388, 0.07199952006340027, 0.18153640627861023, 0.08690966665744781, -0.14642633497714996, 0.00214786222204566, -0.11590521037578583, -0.11081073433160782, -0.18387867510318756, -0.025118423625826836, 0.11092692613601685, 0.13592103123664856, -0.0189181137830019, -0.16409096121788025, -0.03841265290975571, 0.039092227816581726, 0.037061601877212524, -0.05219784751534462, -0.16556400060653687, -0.05676513910293579, -0.07040171325206757, -0.10485313087701797, -0.03508782014250755, -0.000394035509089008, 0.12345493584871292, -0.1656704694032669, -0.13164614140987396, -0.009389827959239483, -0.07904762774705887, -0.23519858717918396, -0.10790206491947174, -0.026420092210173607, -0.03489425405859947, -0.17106285691261292, 0.03476666659116745, -0.06689928472042084, 0.048184264451265335, -0.06596702337265015, -0.16619698703289032, 0.07811315357685089, -0.16507746279239655, 0.057457197457551956, 0.08451718837022781, 0.04058735445141792, 0.07297458499670029, 0.13482709228992462, -0.1765802651643753, -0.14908906817436218, -0.06775824725627899, -0.11793281883001328, -0.016815094277262688, 0.08905363827943802, 0.018879426643252373, 0.09993013739585876, 0.1135229766368866, 0.1333124041557312, 0.08329080790281296, 0.032683756202459335, -0.01911982148885727, -0.01834898442029953, -0.040288373827934265, -0.2004309594631195, 0.12445081025362015, -0.07755929231643677, -0.0004448977124411613, -0.06751629710197449, -0.0603257454931736, -0.12728466093540192, 0.0024912955705076456, 0.001503881998360157, 0.16622290015220642, 0.019581440836191177, 0.029643533751368523, -0.015371475368738174, 0.1225740909576416, -0.22590908408164978, -0.06708616763353348, -0.041259750723838806, 0.06864415854215622, -0.02100888267159462, 0.07528773695230484, 0.09596157819032669, -0.049410272389650345, 0.025692500174045563, 0.11566582322120667, -0.041065383702516556, 0.029886066913604736, -0.01561348233371973, -0.17772041261196136, -0.10611196607351303, -0.13557374477386475, -0.051711566746234894, -0.024884546175599098, -0.039157968014478683, 0.1662176549434662, -0.1026415154337883, 0.17530475556850433, -0.21967381238937378, -0.13991783559322357, -0.04892802610993385, -0.04581957310438156, -0.27393078804016113, 0.07197193801403046, -0.0786808431148529, -0.102064348757267, -0.021296203136444092, -0.041361771523952484, 0.012305079028010368, 0.010289588943123817, -0.12862589955329895, 0.023757996037602425, -0.1657371073961258, -0.16761359572410583, 0.018168354406952858, 0.036352403461933136, 0.012972027994692326, 0.06489071249961853, -0.06436879932880402, -0.06401050090789795], [-0.1441362500190735, 0.0033522043377161026, -0.16074398159980774, -0.13216453790664673, -0.11486152559518814, 0.02209775149822235, -0.04208290949463844, -0.12268643081188202, -0.08080552518367767, 0.056664418429136276, 0.031429633498191833, -0.046146877110004425, -0.040210217237472534, -0.008552242070436478, -0.10164007544517517, -0.023097563534975052, 0.0005983266746625304, 0.006698101758956909, 0.009688537567853928, -0.07472744584083557, 0.04438216611742973, 0.0068954830057919025, 0.020835712552070618, 0.01646234095096588, 0.032686248421669006, 0.06727667152881622, -0.054667770862579346, -0.01427287608385086, -0.0718952938914299, -0.008877425454556942, 0.01124691404402256, 0.037368226796388626, -0.06692153960466385, -0.05861625447869301, 0.04196395352482796, -0.08667684346437454, -0.09150858223438263, -0.08966183662414551, 0.02944217249751091, -0.07189485430717468, -0.06186889484524727, -0.1333984136581421, -0.0009436411783099174, -0.036843884736299515, 0.06064939498901367, -0.05873128026723862, -0.10362408310174942, 0.009517957456409931, -0.10344073176383972, 0.021331792697310448, -0.042888034135103226, -0.07363779097795486, 0.07444103807210922, -0.00977572426199913, -0.01906236819922924, -0.0459594763815403, -0.09559355676174164, -0.06853432953357697, 0.05427036061882973, 0.04727409407496452, -0.05441183224320412, -0.06489630043506622, -0.07499975711107254, -0.07286001741886139, 0.0034757102839648724, -0.10667648911476135, -0.12353658676147461, -0.13565808534622192, -0.028706297278404236, -0.0054228901863098145, -0.0351262092590332, -0.21050924062728882, -0.04568004608154297, -0.012005826458334923, 0.022298365831375122, 0.042743004858493805, 0.027173353359103203, -0.08863048255443573, -0.005420750472694635, -0.03754544258117676, -0.049231093376874924, -0.11446549743413925, -0.04470274597406387, -0.14294196665287018, -0.006512613035738468, -0.11169251799583435, -0.06341158598661423, 0.032244618982076645, -0.11977294832468033, -0.005989301949739456, -0.18012765049934387, -0.08133495599031448, -0.016722440719604492, 0.025848520919680595, -0.06339242309331894, 0.06896258145570755, -0.03913383558392525, -0.14642949402332306, -0.05329340323805809, -0.03664669394493103, -0.08723057806491852, -0.1441492736339569, 0.0685330256819725, -0.031081534922122955, 0.02595170959830284, -0.060210879892110825, 0.04503292962908745, 0.0011909944005310535, -0.07399477809667587, 0.029381772503256798, -0.13146522641181946, -0.0028496203012764454, -0.04268262907862663, -0.016821572557091713, 0.033880844712257385, -0.07547470182180405, -0.09826310724020004, -0.13135553896427155, 0.02186651900410652, 0.020049938932061195, 0.00953822210431099, 0.0022349185310304165, 0.007256726734340191, -0.09544219821691513, -0.09407971054315567, -0.01207481138408184, -0.08457360416650772, -0.11444667726755142], [0.0034298652317374945, 0.04528198391199112, -0.18522237241268158, -0.0532425232231617, 0.08204546570777893, 0.08185281604528427, 0.18020892143249512, 0.07145225256681442, 0.08335480839014053, 0.07433515042066574, 0.000946137064602226, 0.024524075910449028, 0.11774477362632751, 0.025725748389959335, -0.38603314757347107, 0.20988550782203674, 0.11902429908514023, -0.05691808462142944, 0.1378692239522934, 0.11669643223285675, 0.006126599386334419, -0.0019374946132302284, 0.11695589125156403, 0.15249218046665192, -0.6377449631690979, -0.13278527557849884, 0.17030498385429382, 0.05819030478596687, 0.06983672082424164, -0.02075040526688099, 0.1844242811203003, 0.1355658769607544, 0.11193148046731949, -0.06601716578006744, 0.16523100435733795, 0.02986413799226284, -0.605907142162323, 0.1659051775932312, 0.10059306025505066, -0.006257497239857912, 0.14476419985294342, 0.06658343225717545, 0.10745380073785782, 0.0787547305226326, -0.5194233655929565, -0.18334943056106567, -0.020865611732006073, 0.059408463537693024, -0.09655985236167908, 0.17308536171913147, 0.08210739493370056, 0.14102502167224884, 0.02440720982849598, 0.1719129979610443, 0.1327071189880371, 0.05161954089999199, 0.1562468409538269, -0.029500115662813187, 0.0583174042403698, 0.17033453285694122, -0.20722243189811707, -0.06020224094390869, 0.05503661185503006, -0.22308124601840973, 0.03961452841758728, -0.5733151435852051, -0.8116506934165955, 0.13158318400382996, 0.11959212273359299, 0.09119610488414764, 0.0837792456150055, -0.00765962153673172, -0.08066967129707336, 0.20606525242328644, 0.1532125174999237, 0.061662547290325165, 0.165150448679924, 0.16657496988773346, -0.2665330469608307, 0.004978389013558626, -0.34519127011299133, -0.13445274531841278, 0.11917448043823242, 0.14207616448402405, 0.08096056431531906, 0.19877509772777557, 0.15855248272418976, 0.0701361820101738, -0.08506274223327637, 0.07026974111795425, -0.14760488271713257, 0.19554051756858826, 0.17429545521736145, 0.08121021836996078, 0.18187403678894043, -0.7239967584609985, -0.1332320123910904, 0.0218623336404562, 0.16181980073451996, 0.13668552041053772, 0.08853261172771454, -0.01711113378405571, -0.812028706073761, 0.0033993765246123075, -0.5865635275840759, 0.05166160315275192, 0.0578288771212101, 0.03281306475400925, -0.6345592141151428, 0.047798361629247665, 0.1700342744588852, -0.7786241769790649, 0.02323129028081894, 0.09998444467782974, 0.12750211358070374, -0.00808174442499876, 0.12399684637784958, 0.031127283349633217, 0.2238570749759674, 0.22165599465370178, 0.04008980840444565, 0.16111865639686584, 0.13927175104618073, 0.0737711563706398, -0.8270764946937561, -0.3913211226463318, 0.0973718985915184, 0.14172756671905518], [0.0316135510802269, 0.006400388665497303, -0.05097686126828194, -0.01268722116947174, -0.11819528788328171, -0.09824690222740173, 0.04711814969778061, -0.005559699609875679, -0.05964663252234459, -0.09642547369003296, 0.07618148624897003, 0.14509396255016327, -0.04618826508522034, 0.04218593239784241, -0.07979469001293182, -0.05039991810917854, 0.0656091645359993, -0.04261607676744461, -0.06194135919213295, -0.02787034958600998, 0.03339215740561485, 0.017042730003595352, -0.007611993700265884, -0.017896750941872597, -0.026322146877646446, 0.020668823271989822, 0.028294410556554794, 0.018565930426120758, 0.07969420403242111, -0.14097468554973602, -0.08340941369533539, -0.057020992040634155, -0.05111229047179222, -0.16687296330928802, 0.008283637464046478, -0.02262161299586296, -0.0015798775712028146, -0.022566165775060654, 0.030007559806108475, -0.06066322326660156, 0.022850343957543373, 0.009290347807109356, 0.020307283848524094, 0.009176377207040787, -0.021783720701932907, 0.02067922055721283, -0.06975442916154861, 0.04283377528190613, 0.07043376564979553, 0.024012913927435875, -0.07932459563016891, -0.014136227779090405, 0.03976074978709221, 0.1298763006925583, 0.032855574041604996, -0.13050197064876556, -0.036507390439510345, 0.0100853955373168, 0.048864297568798065, -0.035469118505716324, -0.00703814160078764, 0.01805352419614792, -0.07534729689359665, -0.11026157438755035, -0.01699378713965416, -0.05374448001384735, -0.09334248304367065, -0.0033967250492423773, -0.008713849820196629, -0.125767320394516, 0.005210790783166885, -0.06026357784867287, -0.14488829672336578, 0.060196083039045334, -0.04995543882250786, -0.05762847885489464, -0.020146416500210762, 0.008241882547736168, 0.01915719360113144, 0.0731363371014595, -0.0780571699142456, -0.14208072423934937, 0.03104747273027897, 0.04392506927251816, -0.003447046736255288, -0.024010343477129936, 0.013801748864352703, -0.013353531248867512, -0.09392556548118591, -0.025362413376569748, -0.06519906222820282, 0.05693524330854416, 0.043498095124959946, 0.01274914387613535, 0.028984224423766136, -0.0831981971859932, 0.006416811607778072, -0.0983007624745369, -0.011632904410362244, -0.05206620320677757, -0.05717529356479645, 0.0800023302435875, -0.08750113099813461, -0.060122620314359665, 0.016965361312031746, 0.02881810814142227, -0.05430715158581734, -0.061192236840724945, -0.08908233791589737, -0.09147802740335464, -0.13403350114822388, -0.12438162416219711, -0.019727317616343498, -0.07292364537715912, 0.004315991420298815, -0.01731184311211109, -0.03450501337647438, -0.10930667817592621, -0.10598032176494598, 0.07578316330909729, -0.03951239958405495, -0.0536939837038517, 0.0625867024064064, 0.08740250766277313, 0.04120013862848282, 0.05959230661392212, -0.012384803965687752, -0.08778683096170425], [-0.04225959628820419, 0.049753498286008835, -0.049209751188755035, -0.1189723089337349, -0.1726393699645996, -0.04678412526845932, 0.16405142843723297, 0.12911711633205414, -0.012070095166563988, -0.008802219294011593, 0.02554732747375965, 0.2094380408525467, 0.1089416891336441, -0.11151242256164551, -0.013528779149055481, -0.05913546308875084, 0.07427003979682922, -0.03168552368879318, 0.004476694855839014, 0.06835314631462097, 0.09938787668943405, -0.056645121425390244, -0.09971202909946442, 0.0092992028221488, -0.03976810351014137, -0.0306438896805048, -0.06195483356714249, -0.14374206960201263, 0.08115467429161072, -0.024305596947669983, -0.11426291614770889, -0.04012547433376312, 0.04881475120782852, -0.19425170123577118, -0.06757078319787979, -0.13497647643089294, -0.02225852943956852, -0.059470538049936295, -0.07464379072189331, -0.13087965548038483, 0.006102741230279207, 0.032310422509908676, -0.1660781353712082, -0.02457505278289318, -0.13100695610046387, -0.14948788285255432, -0.11194589734077454, -0.14735810458660126, 0.04096817597746849, -0.143788143992424, -0.029549574479460716, 0.11209674924612045, -0.02634379081428051, 0.13752129673957825, 0.03755325451493263, -0.028759434819221497, -0.18410825729370117, -0.10382455587387085, -0.053467996418476105, 0.013629562221467495, -0.06692185252904892, -0.08148115873336792, 0.07195840775966644, -0.1558966487646103, 0.03154127672314644, -0.06839989870786667, -0.182725727558136, -0.022866709157824516, -0.023261848837137222, -0.02645094506442547, -0.011977327056229115, 0.01468005869537592, -0.07084622234106064, 0.10765503346920013, 0.012765682302415371, -0.15446488559246063, 0.057565465569496155, 0.04633167386054993, -0.06407978385686874, -0.03189972788095474, 0.05332613363862038, -0.15616703033447266, -0.05983726680278778, 0.21972893178462982, -0.08894715458154678, -0.05540283024311066, -0.0778195858001709, 0.019665706902742386, -0.1851155310869217, -0.00568357901647687, -0.11603599041700363, -0.08129015564918518, 0.1410844326019287, 0.06353141367435455, -0.041897550225257874, -0.12999598681926727, -0.06912451982498169, -0.16034510731697083, 0.045221757143735886, -0.14955106377601624, -0.01156618446111679, 0.07935695350170135, -0.031838782131671906, 0.005401494447141886, -0.14080829918384552, 0.1286863386631012, -0.04345585033297539, -0.13301558792591095, -0.11809583008289337, -0.06772984564304352, -0.15587016940116882, -0.08757810294628143, -0.1788925677537918, -0.12250913679599762, -0.05186283588409424, -0.06862638890743256, 0.041615940630435944, 0.018849803134799004, -0.12786321341991425, 0.0537152923643589, -0.22182929515838623, -0.04242173954844475, 0.1245589405298233, 0.061306435614824295, -0.02376589924097061, -0.09495563805103302, -0.03857732191681862, -0.12128118425607681], [0.16725170612335205, -0.02823638543486595, 0.06088046357035637, 0.023525726050138474, 0.11428404599428177, 0.019205790013074875, -0.1919534057378769, -0.14877691864967346, -0.08866534382104874, 0.021316131576895714, -0.13082589209079742, -0.2473352700471878, -0.19473077356815338, 0.0265047587454319, -0.06677227467298508, 0.1819460242986679, -0.034194398671388626, 0.20136317610740662, -0.03038834035396576, -0.13213956356048584, -0.1241220086812973, -0.028162915259599686, -0.02529713325202465, -0.14464664459228516, -0.06397605687379837, 0.037188559770584106, -0.06305833160877228, 0.2287101000547409, -0.1127241775393486, 0.02376588247716427, 0.05567871779203415, -0.08154669404029846, -0.010080168955028057, 0.03787286952137947, 0.19852356612682343, -0.02374415658414364, -0.027151674032211304, 0.007641508709639311, 0.20259779691696167, 0.10144855827093124, -0.05881037563085556, -0.08019644021987915, 0.1762838512659073, -0.16298899054527283, -0.07401605695486069, -0.06236635521054268, 0.11132027208805084, 0.18060824275016785, -0.161616712808609, 0.04467770457267761, -0.12063248455524445, -0.19225838780403137, -0.07220927625894547, -0.26632264256477356, -0.1414128988981247, 0.16791154444217682, 0.14302144944667816, -0.04692848399281502, -0.045175641775131226, 0.031022554263472557, 0.09588991850614548, -0.04888547584414482, -0.11858844757080078, -0.004968378692865372, -0.20385508239269257, -0.006518692709505558, 0.06215878203511238, -0.06398717314004898, -0.015544351190328598, 0.04987702891230583, 0.1544857770204544, -0.05644867569208145, 0.09489291906356812, -0.16186469793319702, 0.05470052361488342, 0.07700644433498383, -0.0696483701467514, -0.16308271884918213, 0.009208276867866516, -0.10656925290822983, -0.03796026483178139, -0.04742152988910675, -0.1110890582203865, -0.30829766392707825, 0.19790636003017426, 0.07896237075328827, -0.008690602146089077, -0.019375046715140343, 0.11710858345031738, -0.08185213804244995, 0.07550138235092163, -0.09053031355142593, -0.19956976175308228, -0.18071728944778442, -0.01923397183418274, 0.038583751767873764, 0.05989841744303703, 0.1978767365217209, 0.04008406400680542, 0.11330500990152359, 0.1104283258318901, -0.17939351499080658, -0.0777345672249794, -0.09144150465726852, 0.050945889204740524, -0.2928427755832672, 0.13701210916042328, 0.12375233322381973, -0.0014951953198760748, 0.023489011451601982, 0.19049270451068878, 0.0442625992000103, 0.17397159337997437, 0.05917667597532272, -0.036257196217775345, -0.01174435019493103, 0.002575610764324665, 0.032139912247657776, 0.025881605222821236, -0.11961137503385544, 0.2221059501171112, 0.1296660602092743, -0.23530027270317078, -0.0739123597741127, -0.028807951137423515, -0.1367156207561493, 0.04364617541432381, 0.16485387086868286], [-0.063054159283638, -0.03579256683588028, -0.07854583114385605, -0.0020654904656112194, -0.03714195638895035, 0.015112549997866154, 0.021322423592209816, -0.06861744076013565, 0.07584626972675323, -0.01899160072207451, 0.01647583208978176, -0.023235119879245758, -0.03352298587560654, 0.06167348101735115, -0.057634975761175156, -0.002460821531713009, 0.04097578674554825, -0.03620384633541107, -0.06213332340121269, 0.024705857038497925, 0.055414438247680664, 0.011927890591323376, 0.057242270559072495, -0.08036445081233978, 0.019625648856163025, 0.019121985882520676, 0.05922900512814522, -0.027859389781951904, -0.06119083613157272, -0.008846033364534378, -0.039592232555150986, -0.04613465070724487, -0.08124388009309769, -0.05924948304891586, 0.025330182164907455, -0.0035244340542703867, 0.036036018282175064, -0.029990147799253464, 0.029157601296901703, -0.042687539011240005, 0.012206602841615677, 0.010204353369772434, -0.06579729169607162, 0.005732740741223097, -0.09579093754291534, 0.0327153317630291, 0.0072472235187888145, 0.05839943513274193, 0.07711735367774963, -0.06170519441366196, 0.0006963196792639792, 0.08624322712421417, -0.09035126119852066, 0.09070128202438354, -0.04983772709965706, -0.05846315249800682, -0.04484277963638306, -0.04785402864217758, -0.057053275406360626, -0.08832743763923645, -0.07503213733434677, -0.09292187541723251, -0.06473726779222488, -0.021524878218770027, 0.06271214783191681, -0.04124154523015022, -0.11467697471380234, -0.009960462339222431, -0.03615620732307434, -0.018395183607935905, -0.007749870885163546, -0.0733063817024231, -0.08693332970142365, -0.022899789735674858, -0.10621385276317596, 0.0037543149664998055, 0.03156731650233269, -0.03917776048183441, -0.08282111585140228, -0.052557963877916336, -0.029948608949780464, -0.03641533851623535, -0.059204112738370895, -0.01445373147726059, -0.039201769977808, -0.07130789011716843, -0.0337170772254467, -0.062126196920871735, -0.08111405372619629, 0.024356385692954063, -0.018234925344586372, -0.0720713660120964, -0.06233750656247139, 0.08674095571041107, -0.09837275743484497, -0.098529152572155, -0.08665088564157486, -0.03533163666725159, 0.03186469525098801, 0.03767505660653114, -0.05688866600394249, 0.017225168645381927, -0.0585099421441555, -0.01911303959786892, -0.0766698494553566, 0.00018023869779426605, 0.006720945704728365, -0.12167539447546005, -0.09858401864767075, -0.035913705825805664, -0.06070908159017563, -0.09186263382434845, -0.05625741928815842, 0.060899633914232254, 0.06444557011127472, -0.025715675204992294, -0.07240438461303711, -0.009093523025512695, 0.016056714579463005, 0.033978525549173355, -0.07102459669113159, -0.0946125015616417, -0.013338741846382618, -0.015722956508398056, 0.01861591450870037, -0.062010109424591064, -0.10062091797590256, 0.011795056983828545], [-0.05795896053314209, -0.14318980276584625, -0.14127200841903687, -0.1662978082895279, -0.07209103554487228, -0.08198430389165878, -0.08607454597949982, -0.10629512369632721, -0.008125209249556065, -0.05657823756337166, -0.012829171493649483, 0.0403810515999794, -0.06605231761932373, -0.0958150178194046, -0.11503388732671738, -0.09755216538906097, -0.013389280997216702, -0.12818434834480286, -0.018690485507249832, -0.1500834971666336, -0.03495137393474579, -0.032345641404390335, 0.002846826333552599, 0.05842490866780281, -0.037184786051511765, -0.0267703328281641, -0.07912055402994156, -0.02855653315782547, -0.03376992046833038, 0.009691032581031322, -0.041742872446775436, -0.053522706031799316, 0.038844119757413864, -0.16739366948604584, -0.002281776862218976, 0.008602195419371128, -0.03924005478620529, 0.008537867106497288, 0.012808714061975479, -0.09421089291572571, -0.030342549085617065, -0.13324235379695892, -0.03991428390145302, -0.03393758833408356, -0.0746217891573906, -0.06493468582630157, -0.04975541681051254, -0.0006231124280020595, -0.016426708549261093, 0.0021090747322887182, -0.04966108500957489, 0.02871878258883953, 0.011504306457936764, -0.12208059430122375, 0.025635845959186554, -0.09560737758874893, 0.04243326932191849, -0.048596739768981934, -0.06244237348437309, 0.03349694982171059, -0.12454939633607864, -0.07525212317705154, -0.00743765477091074, -0.02434280514717102, -0.10799676179885864, -0.07809289544820786, -0.11854863911867142, -0.1341039389371872, 0.02357107400894165, -0.05408806726336479, 0.019912399351596832, -0.04002729430794716, -0.13754621148109436, -0.0225740447640419, 0.02489844150841236, 0.00415783142670989, -0.0935770720243454, -0.11719093471765518, 0.026757383719086647, -0.043611954897642136, -0.08087684959173203, -0.10330359637737274, 0.015210235491394997, 0.003993096295744181, -0.11178008466959, 0.007322111167013645, -0.017850011587142944, -0.027686897665262222, 0.0065626236610114574, -0.0938735231757164, -0.12775194644927979, -0.01281982846558094, -0.034580256789922714, -0.076595738530159, -0.04811370000243187, -0.028335411101579666, -0.04336930438876152, -0.013347262516617775, 0.021845022216439247, 0.02211771346628666, -0.15434768795967102, -0.0766352191567421, 0.062839575111866, -0.0008867079159244895, -0.011281659826636314, 0.026637651026248932, 0.03406832739710808, -0.03489537537097931, 0.047182872891426086, 0.0010095759062096477, -0.12379730492830276, -0.060345783829689026, -0.004487959202378988, -0.10641670972108841, 0.04083310812711716, 0.002162607153877616, -0.05310254171490669, 0.013041330501437187, -0.03588945418596268, 0.01650116592645645, -0.07293516397476196, 0.04222119599580765, -0.09456273913383484, 0.04568074643611908, -0.009302585385739803, -0.029069479554891586, 0.0199874397367239, 0.03296160325407982], [-0.0656401515007019, -0.006754013244062662, -0.020167451351881027, -0.011723681353032589, 0.011540896259248257, -0.0374646820127964, -0.06396500766277313, -0.07042434066534042, -0.05999983847141266, -0.06307219713926315, -0.008425488136708736, 0.05207391455769539, -0.06286244094371796, 0.0029885130934417248, -0.0077620516531169415, 0.023817094042897224, -0.07768962532281876, -0.10431810468435287, -0.0893440917134285, 0.02599576860666275, -0.04828018695116043, 0.01090912614017725, -0.08017674833536148, 0.03571894392371178, -0.02888413704931736, -0.1433568298816681, -0.009943298995494843, 0.024742664769291878, -0.0027127673383802176, -0.0274908859282732, -0.11355942487716675, -0.11465912312269211, 0.03362376615405083, -0.0665256455540657, -0.08280815929174423, -0.12316955626010895, -0.13926604390144348, -0.05069153383374214, -0.004448997788131237, -0.05390053987503052, 0.012411043047904968, -0.05254126340150833, -0.021227385848760605, -0.11007101088762283, -0.08666131645441055, -0.01434415578842163, -0.04422222822904587, -0.07860536128282547, -0.016017455607652664, -0.008923472836613655, -0.10869024693965912, -0.0038829033728688955, -0.10365372151136398, -0.0067779370583593845, 0.05972089245915413, -0.12412738054990768, 0.021897196769714355, 0.014363600872457027, -0.0609830804169178, -0.0875445157289505, 0.03190863877534866, 0.04870667681097984, -0.015921996906399727, -0.07030801475048065, -0.031014474108815193, -0.0042509399354457855, -0.09253975749015808, -0.009964613243937492, -0.026267969980835915, -0.04759404435753822, 0.020710019394755363, -0.023556573316454887, -0.009897644631564617, 0.009044875390827656, -0.08082723617553711, -0.10239686816930771, -0.11125433444976807, 0.054393112659454346, -0.10789080709218979, -0.024594224989414215, -0.0859539657831192, -0.10983622074127197, -0.02108297124505043, -0.08190090954303741, 0.013985604047775269, 0.0293427724391222, -0.00010783254401758313, -0.018913354724645615, 0.02860882878303528, -0.08779139071702957, -0.11686230450868607, 0.013812403194606304, 0.005943018011748791, 0.032018184661865234, -0.04745130240917206, -0.03125274181365967, -0.09698699414730072, -0.047468893229961395, -0.09301012754440308, -0.03163628652691841, 0.0528646819293499, 0.05889879912137985, -0.05087351053953171, -0.06948433816432953, -0.08048245310783386, 0.00578639842569828, -0.008502231910824776, -0.0042137946002185345, -0.05828972905874252, -0.1422041803598404, -0.10432444512844086, -0.039201587438583374, -0.058414358645677567, -0.10195492208003998, -0.019305650144815445, -0.02985929138958454, 0.04339461401104927, 0.00893848855048418, 0.030016064643859863, -0.0935303196310997, -0.01878594048321247, -0.04481671005487442, -0.04319914057850838, -0.03586196526885033, -0.03396690636873245, -0.13593605160713196, -0.044416576623916626, -0.0714065209031105], [-0.1253359317779541, -0.090421162545681, -0.11976956576108932, 0.04266330972313881, -0.052369389683008194, -0.13634613156318665, 0.02168799191713333, 0.08009730279445648, 0.050623126327991486, -0.18149082362651825, 0.08025834709405899, 0.09144464880228043, 0.11108987778425217, -0.17688649892807007, 0.050504107028245926, -0.178376242518425, -0.041930727660655975, -0.11204524338245392, -0.003939715679734945, -0.021064870059490204, 0.007867000997066498, -0.09748463332653046, -0.12958572804927826, -0.023389235138893127, -0.024525508284568787, 0.059572987258434296, -0.007237557787448168, -0.08351539075374603, 0.022596945986151695, -0.14931908249855042, -0.10078679770231247, 0.026199912652373314, -0.07119587808847427, 0.05848678946495056, -0.17101070284843445, 0.005039054434746504, 0.03048178181052208, -0.09273617714643478, -0.15033851563930511, -0.1802178919315338, 0.05591077357530594, 0.02721306122839451, -0.08679591864347458, 0.046102892607450485, -0.013527554459869862, -0.041168320924043655, -0.14070287346839905, -0.08755354583263397, 0.0506243072450161, -0.21736352145671844, -0.08359897881746292, 0.08217041194438934, -0.0180670153349638, 0.007843296974897385, 0.03700437396764755, -0.08117560297250748, -0.13503886759281158, -0.00441771000623703, -0.03777504339814186, -0.10677342861890793, 0.047753237187862396, -0.0205573420971632, -0.0037237554788589478, 0.057824403047561646, 0.07768291234970093, 0.005021413788199425, 0.013034146279096603, -0.12444589287042618, -0.15017768740653992, -0.15256577730178833, -0.05515972524881363, -0.02407732792198658, -0.09440042823553085, -0.100667804479599, -0.15096063911914825, -0.16420486569404602, -0.10609862208366394, -0.11044931411743164, -0.09369150549173355, 0.01664145477116108, 0.08703067153692245, -0.10066380351781845, -0.10530852526426315, 0.11155624687671661, -0.0630413293838501, -0.08976592868566513, -0.13862386345863342, -0.09173564612865448, -0.046457502990961075, -0.08336204290390015, 